tree
version=v4
num_class=1
num_tree_per_iteration=1
label_index=0
max_feature_idx=34
objective=regression
feature_names=geolocation_name country year deflated_gdp_usd us_cpi developed_country landlocked region_economic_classification access_to_airport access_to_port access_to_highway access_to_railway straight_distance_to_capital_km seismic_hazard_zone flood_risk_class tropical_cyclone_wind_risk tornadoes_wind_risk koppen_climate_zone emb_0 emb_1 emb_2 emb_3 emb_4 emb_5 emb_6 emb_7 emb_8 emb_9 emb_10 emb_11 emb_12 emb_13 emb_14 emb_15 quarter
feature_infos=-1:13:17:24:41:2:12:14:15:25:10:5:7:8:11:18:22:23:31:39:43:46:21:32:33:9:26:36:37:38:45:91:6:20:35:42:59:118:119:0:3:4:19:27:28:29:34:44:56:83:87:102:1:40:47:62:63:64:66:67:72:75:76:82:84:85:88:89:93:116:120:121:30:52:68:69:74:77:78:80:86:94:95:97:98:99:101:110:111:112:113:114:117:123:16:51:53:57:58:60:65:73:92:106:108:54:61:70:79:90:104:105:115:122 -1:0:1 [2019:2024] [291244296180.30774:4247588558872.2593] [115.9781187205398:144.72798591795819] -1:1:0 -1:0:1 -1:0:2:1 -1:1:0 -1:1:0 none -1:1:0 [0:1550] -1:2:0 -1:1:0 -1:2:0:1:3 -1:1:0 -1:3:1:0:5:4:2 [-11.774698257446289:9.305729866027832] [-6.9519658088684082:6.6133174896240234] [-10.115411758422852:5.6430459022521973] [-4.8394718170166016:10.324617385864258] [-5.5101094245910645:4.8206863403320312] [-3.5843377113342285:4.757568359375] [-4.7980990409851074:4.2577605247497559] [-4.5267086029052734:3.5982933044433594] [-4.1509757041931152:7.4660391807556152] [-5.6310200691223145:2.9725115299224854] [-3.4443502426147461:3.1466257572174072] [-3.4167263507843018:3.6283295154571533] [-3.1024589538574219:2.8740499019622803] [-2.8704650402069092:3.292057991027832] [-3.5679471492767334:2.9971084594726562] [-2.6749768257141113:3.4988248348236084] [1:4]
tree_sizes=1116 1186 1193 1268 1265 1240 1361 1277 1275 1364 1607 1112 1454 1451 1436 1429 1594 1344 1695 1597 1509 1498 1352 1599 1496 1346 1526 1602 1275 1704 1621 1709 1625 1707 1435 1635 2040 1894 1894 1884 1723 1810 1732 1811 1991 1539 1738 1737 2262 1743 2187 2000 1904 1734 1907 1911 2169 1907 1821 1738 2171 2105 2156 2257 2013 2270 2009 2268 2274 2267 2087 2157 2078 2276 2158 2338 2181 2174 2229 1989 2172 2141 2413 2261 2241 2311 2188 2107 2168 2156 2441 2344 2321 2335 2335 2263 2522 2339 2433 2457 2328 2146 2216 2316 2389 2217 2349 2332 2243 2254 2317 2134 2335 2231 2274 2164 2226 2366 2395 2438 2341 2329 2447 2245 2393 2175 2148 2144 2190 2270 2290 2381 2353 2271 2343 2384 2297 2264 2357 2347 2542 2310 2424 2611 2299 2496 2236 2395 2294 2592 2464 2393 2525 2382 2413 2482 2549 2527 2505 2510 2279 2354 2431 2298 2464 2337 2366 2402 2402 2478 2409 2218 2219 2327 2430 2260 2265 2438 2453 2149 2480 2307 2306 2334 2341 2559 2423 2355 2540 2390 2072 2542 2534 2301 2328 2233 2148 2305 2385 2331 2114 2396 2129 2241 2228 2162 2303 2280 2310 2388 2311 2461 2541 2261 2237 2510 2449 2504 2326 2467 2401 2313 2343 2346 2428 2346 2425 2274 2305 2115 2385 2290 2220 2446 2212 2260 2223 2230 2408 2347 2363 2433 2318 2373 2349 2425 2416 2484 2417 2433 2423 2279 2237 2447 2409 2215 2336 2274 2465 2284 2340 2330 2388 2240 2400 2225 2347 2336 2324 2438 2420 2095 2379 2255 2393 2440 2328 2446 2472 2410 2435 2161 2561 2392 2446

Tree=0
num_leaves=12
num_cat=1
split_feature=5 12 12 4 25 19 4 27 25 3 3
split_gain=795.14 2.27039 1.04544 0.764748 0.675254 0.513921 0.507396 0.367084 0.184249 0.0700873 0.043784
threshold=0 665.00000000000011 860.00000000000011 118.78191561322691 1.7068751454353335 0.37956483662128454 124.49621006272866 -0.18779370188713071 -0.03642777353525161 3904620736288.6938 4069636619068.7515
decision_type=1 2 2 2 2 2 2 2 2 2 2
left_child=1 3 8 5 6 -1 10 -5 -3 -8 -2
right_child=4 2 -4 7 -6 -7 9 -9 -10 -11 -12
leaf_value=6.5027748937475529 6.569824002734582 6.498408730058606 6.5014486519038996 6.5082008155125326 6.5718199565329805 6.4968804344094577 6.5629530984625539 6.5028728589709024 6.4915100848073415 6.5658605611283392 6.5668632687883965
leaf_weight=73 59 20 38 43 33 35 47 46 38 143 88
leaf_count=73 59 20 38 43 33 35 47 46 38 143 88
internal_value=6.53773 6.50081 6.49673 6.50284 6.56696 6.5008 6.56646 6.50538 6.49377 6.56517 6.56809
internal_weight=663 293 96 197 370 108 337 89 58 190 147
internal_count=663 293 96 197 370 108 337 89 58 190 147
cat_boundaries=0 1
cat_threshold=1
is_linear=0
shrinkage=1


Tree=1
num_leaves=12
num_cat=1
split_feature=3 12 18 25 19 13 3 19 31 22 34
split_gain=748.303 2.13078 1.17901 0.630144 0.527501 0.538861 0.429577 0.160316 0.137179 0.0288816 0.0297814
threshold=2106311703621.6389 665.00000000000011 -6.7471148967742911 1.7068751454353335 1.0864681005477907 0 3904620736288.6938 1.2924875617027285 0.32936692237854009 0.21982335299253467 2.5000000000000004
decision_type=2 2 2 2 2 9 2 2 2 2 2
left_child=1 4 -3 6 5 9 -2 -8 -6 10 -1
right_child=3 2 -4 -5 8 -7 7 -9 -10 -11 -12
leaf_value=-0.03671725278788239 0.02418923736377886 -0.033590355234584583 -0.0423559108603953 0.032791571714366669 -0.039391051826314021 -0.027358478919252169 0.029035510763753141 0.02665224230890249 -0.033833602170503012 -0.030470571686547109 -0.032656936373255993
leaf_weight=41 47 26 70 33 35 23 177 113 28 25 45
leaf_count=41 47 26 70 33 35 23 177 113 28 25 45
internal_value=-0.000279951 -0.0360932 -0.0400505 0.0280742 -0.0341301 -0.0327196 0.0275938 0.0281267 -0.0370262 -0.0337778 -0.0346679
internal_weight=663 293 96 370 197 134 337 290 63 111 86
internal_count=663 293 96 370 197 134 337 290 63 111 86
cat_boundaries=0 1
cat_threshold=4
is_linear=0
shrinkage=0.03


Tree=2
num_leaves=12
num_cat=1
split_feature=5 12 12 4 12 4 27 29 25 25 27
split_gain=704.229 1.99611 0.935722 0.722531 0.598357 0.436363 0.338634 0.256161 0.182672 0.0119328 0.00157511
threshold=0 665.00000000000011 860.00000000000011 118.78191561322691 35.250000000000007 124.49621006272866 -0.18779370188713071 0.38048112392425543 0.0093549690209329146 0.042720956727862365 -0.36020934581756586
decision_type=1 2 2 2 2 2 2 2 2 2 2
left_child=1 3 8 7 -2 -6 9 10 -3 -5 -1
right_child=4 2 -4 6 5 -7 -8 -9 -10 -11 -12
leaf_value=-0.034580806680124081 0.032475152673392453 -0.037175020558286954 -0.034372843930747098 -0.02519893756553308 0.028335868088028418 0.025617499558781915 -0.033053627018038982 -0.032046346923062331 -0.043855289281529229 -0.030076308676174706 -0.039172015613681631
leaf_weight=37 26 20 38 20 150 194 46 40 38 23 31
leaf_count=37 26 20 38 20 150 194 46 40 38 23 31
internal_value=-0.0002727 -0.0350154 -0.0388523 -0.0331116 0.0272336 0.0268194 -0.0306513 -0.035081 -0.0416713 -0.0279411 -0.0367724
internal_weight=663 293 96 197 370 344 89 108 58 43 68
internal_count=663 293 96 197 370 344 89 108 58 43 68
cat_boundaries=0 1
cat_threshold=1
is_linear=0
shrinkage=0.03


Tree=3
num_leaves=13
num_cat=1
split_feature=5 12 12 4 12 19 4 19 21 3 19 3
split_gain=662.758 1.87146 0.873911 0.673155 0.558582 0.449499 0.40545 0.144557 0.0347609 0.025881 0.0183728 0.00519405
threshold=0 665.00000000000011 860.00000000000011 118.78191561322691 35.250000000000007 0.37956483662128454 124.49621006272866 1.0864681005477907 0.78635305166244518 3904620736288.6938 -0.43138092756271357 4069636619068.7515
decision_type=1 2 2 2 2 2 2 2 2 2 2 2
left_child=1 3 -3 5 -2 -1 11 8 -5 -8 -11 -6
right_child=4 2 -4 7 6 -7 9 -9 -10 10 -12 -13
leaf_value=-0.032181281378918243 0.031504614524457637 -0.04042692626815244 -0.03334436598974537 -0.029872932634621017 0.029078644035994066 -0.037707513845883882 0.023008342572915119 -0.032414762188660774 -0.025381651006298928 0.026863286812294291 0.024284141482678021 0.026448032898242189
leaf_weight=73 26 58 38 32 57 35 52 33 24 64 78 93
leaf_count=73 26 58 38 32 57 35 52 33 24 64 78 93
internal_value=-0.000266207 -0.0339705 -0.0376922 -0.0321235 0.0264178 -0.0340332 0.0260156 -0.0297368 -0.0280502 0.0248494 0.0254858 0.0274864
internal_weight=663 293 96 197 370 108 344 89 56 194 142 150
internal_count=663 293 96 197 370 108 344 89 56 194 142 150
cat_boundaries=0 1
cat_threshold=1
is_linear=0
shrinkage=0.03


Tree=4
num_leaves=13
num_cat=1
split_feature=7 12 18 28 25 4 4 19 27 3 3 19
split_gain=623.733 1.75345 1.03374 0.628239 0.581788 0.52871 0.412267 0.169702 0.142409 0.0507994 0.042303 0.00344459
threshold=0 665.00000000000011 -6.6294393539428702 1.2737604379653933 1.7068751454353335 118.78191561322691 124.49621006272866 0.37956483662128454 -0.086580049246549592 4069636619068.7515 3904620736288.6938 1.2959906458854678
decision_type=9 2 2 2 2 2 2 2 2 2 2 2
left_child=4 3 -3 5 6 7 9 -2 -7 -1 -8 -12
right_child=1 2 -4 -5 -6 8 10 -9 -10 -11 11 -13
leaf_value=0.02828488207975317 -0.032009219103605276 -0.031453268633103083 -0.039140509904470003 -0.025435545142594863 0.030133769018772499 -0.027015567861105264 0.022009426218688864 -0.036579511761665337 -0.031530007628628808 0.02548936613707483 0.025618180216592939 0.023163310470830787
leaf_weight=59 62 33 63 23 33 36 47 35 41 88 82 61
leaf_count=59 62 33 63 23 33 36 47 35 41 88 82 61
internal_value=-0.000258538 -0.0329556 -0.0365647 -0.031164 0.0256278 -0.0318889 0.0251689 -0.0337252 -0.029496 0.0266502 0.0239936 0.0246089
internal_weight=663 293 96 197 370 174 337 97 77 147 190 143
internal_count=663 293 96 197 370 174 337 97 77 147 190 143
cat_boundaries=0 1
cat_threshold=1
is_linear=0
shrinkage=0.03


Tree=5
num_leaves=13
num_cat=3
split_feature=7 12 18 20 6 4 13 12 26 28 4 4
split_gain=559.807 1.20791 1.05166 0.798978 1.10523 0.545156 0.20618 0.136757 0.10978 0.0771648 0.0701623 0.0635737
threshold=0 665.00000000000011 -6.6294393539428702 -1.2779843807220457 1 132.2357534358608 2 785.00000000000011 0.45391090214252477 0.76148277521133434 138.68372960095027 118.78191561322691
decision_type=9 2 2 2 1 2 9 2 2 2 2 2
left_child=5 3 -3 6 -5 8 -2 -4 -1 -10 -7 -6
right_child=1 2 7 4 11 10 -8 -9 9 -11 -12 -13
leaf_value=0.025079537357611599 -0.028442290139660608 -0.029400717823068426 -0.040909762733122877 -0.036490711157138526 -0.031107160150059283 0.021545316643185083 -0.023025023639202113 -0.034923674455628939 0.026155132539481842 0.030876125803490948 0.024153347579462671 -0.027698740577057089
leaf_weight=133 36 31 22 35 59 62 23 35 42 21 95 52
leaf_count=133 36 31 22 35 59 62 23 35 42 21 95 52
internal_value=-0.000689745 -0.0313418 -0.034623 -0.0299025 -0.0312687 0.0247455 -0.0264238 -0.0373542 0.0259903 0.0278228 0.0231569 -0.0295638
internal_weight=646 293 88 205 146 353 59 57 196 63 157 111
internal_count=646 293 88 205 146 353 59 57 196 63 157 111
cat_boundaries=0 1 2 3
cat_threshold=1 2 4
is_linear=0
shrinkage=0.03


Tree=6
num_leaves=14
num_cat=1
split_feature=5 25 4 20 21 32 18 4 21 3 4 18 29
split_gain=526.855 1.34335 0.508503 0.406456 0.827774 0.775823 0.416626 0.227128 0.462734 0.124685 0.0614541 0.046594 0.0269947
threshold=0 2.0879346132278447 132.2357534358608 -2.5327056646347041 -0.58025142550468434 -0.022234794683754441 -1.5770459175109861 118.78191561322691 1.0407019257545473 4069636619068.7515 138.68372960095027 -3.5648286342620845 0.91240540146827709
decision_type=1 2 2 2 2 2 2 2 2 2 2 2 2
left_child=1 3 9 5 6 -1 12 11 -9 -2 -4 -6 -5
right_child=2 -3 10 4 7 -7 -8 8 -10 -11 -12 -13 -14
leaf_value=-0.030814705238131138 0.026755206015257712 -0.036485906054830951 0.020899998346964516 -0.036145002972470579 -0.028286473454283215 -0.022807707751583053 -0.028049907848845774 -0.021804120792738069 -0.028862207411279126 0.024123761117407442 0.023429509074153962 -0.033008547487196976 -0.031349848123012239
leaf_weight=27 79 35 62 41 36 31 22 21 33 117 95 23 24
leaf_count=27 79 35 62 41 36 31 22 21 33 117 95 23 24
internal_value=-0.000669907 -0.0304063 0.0240053 -0.0295561 -0.030375 -0.0266334 -0.0329161 -0.0283647 -0.0262182 0.0252128 0.0224636 -0.0302308 -0.0344714
internal_weight=646 293 353 258 200 58 87 113 54 196 157 59 65
internal_count=646 293 353 258 200 58 87 113 54 196 157 59 65
cat_boundaries=0 1
cat_threshold=1
is_linear=0
shrinkage=0.03


Tree=7
num_leaves=13
num_cat=1
split_feature=5 25 4 20 21 32 18 21 4 3 25 29
split_gain=495.856 1.25673 0.479893 0.377171 0.772889 0.725073 0.385715 0.21898 0.294945 0.127955 0.0386182 0.0184694
threshold=0 2.0879346132278447 126.43715323239572 -2.5327056646347041 -0.58025142550468434 -0.022234794683754441 -1.5770459175109861 1.150548577308655 118.78191561322691 4069636619068.7515 1.6569316983222964 0.91240540146827709
decision_type=1 2 2 2 2 2 2 2 2 2 2 2
left_child=1 3 9 5 6 -1 11 8 -6 -2 -4 -5
right_child=2 -3 10 4 7 -7 -8 -9 -10 -11 -12 -13
leaf_value=-0.029893674780081994 0.026368017965747465 -0.035394448520790815 0.021570498343973083 -0.035063290917960392 -0.028080399497268125 -0.022125676642276847 -0.027212218251163597 -0.029349495096860197 -0.022100198469551434 0.023535963621597936 0.025036401570732909 -0.030413255607438777
leaf_weight=27 65 35 162 41 29 31 22 59 25 106 20 24
leaf_count=27 65 35 162 41 29 31 22 59 25 106 20 24
internal_value=-0.000651447 -0.0294999 0.0232867 -0.0286753 -0.0294696 -0.0258387 -0.031934 -0.0275191 -0.0254132 0.0246448 0.0219814 -0.0334418
internal_weight=646 293 353 258 200 58 87 113 54 171 182 65
internal_count=646 293 353 258 200 58 87 113 54 171 182 65
cat_boundaries=0 1
cat_threshold=1
is_linear=0
shrinkage=0.03


Tree=8
num_leaves=13
num_cat=1
split_feature=3 12 18 30 13 22 3 3 12 21 21 29
split_gain=466.673 1.07895 0.90972 0.766832 0.834587 0.391716 0.377873 0.163985 0.117823 0.106429 0.0368853 0.0522271
threshold=2106311703621.6389 665.00000000000011 -6.6294393539428702 1.1248661875724795 0 0.21982335299253467 4031227684478.3267 4069636619068.7515 785.00000000000011 -0.58025142550468434 -1.2477338910102842 -0.21484728902578351
decision_type=2 2 2 2 9 2 2 2 2 2 2 2
left_child=1 3 -3 4 5 9 10 -8 -4 -1 -2 -12
right_child=6 2 8 -5 -6 -7 7 -9 -10 -11 11 -13
leaf_value=-0.03060825130160974 0.019449316057027571 -0.02684306258844792 -0.037601779123506929 -0.033061889597983771 -0.021317574270668518 -0.023393414186448164 0.025578189950934204 0.02270072931819854 -0.031981801293854015 -0.027092326925886281 0.023261957364381795 0.020581735335348548
leaf_weight=44 45 31 22 24 31 29 65 117 35 77 62 64
leaf_count=44 45 31 22 24 31 29 65 117 35 77 62 64
internal_value=-0.000633218 -0.0286201 -0.0317183 -0.0272606 -0.026457 -0.0274843 0.0225897 0.0237584 -0.0342655 -0.0284198 0.0213151 0.0219418
internal_weight=646 293 88 205 181 150 353 182 57 121 171 126
internal_count=646 293 88 205 181 150 353 182 57 121 171 126
cat_boundaries=0 1
cat_threshold=4
is_linear=0
shrinkage=0.03


Tree=9
num_leaves=14
num_cat=1
split_feature=1 25 25 2 23 12 19 18 3 31 25 31 32
split_gain=439.208 1.11914 0.433515 0.368181 0.348094 0.36321 0.697658 0.420592 0.115704 0.109885 0.068023 0.0513658 0.0688198
threshold=0 2.0879346132278447 1.7068751454353335 2021.5000000000002 1.7562863230705263 627.50000000000011 1.0864681005477907 -6.7471148967742911 4069636619068.7515 0.32936692237854009 -0.52534508705139149 -0.81738153100013722 0.51505202054977428
decision_type=1 2 2 2 2 2 2 2 2 2 2 2 2
left_child=1 4 3 8 5 6 11 -7 -2 -8 -9 -1 -13
right_child=2 -3 -4 -5 -6 7 9 10 -10 -11 -12 12 -14
leaf_value=-0.027796481527140916 0.024408131694592137 -0.033347106407850213 0.026304430895625879 0.020216167327076255 -0.022523373649177319 -0.025552586554491663 -0.031403012020975091 -0.028965331433989879 0.021688067759770578 -0.026156376922300072 -0.034566454659034677 -0.025349212817981571 -0.021841111798492078
leaf_weight=21 62 35 27 156 25 24 35 22 108 21 23 50 37
leaf_count=21 62 35 27 156 25 24 35 22 108 21 23 50 37
internal_value=-0.000615059 -0.027766 0.021914 0.0215332 -0.0269846 -0.0274405 -0.0264043 -0.0298182 0.0227115 -0.0295391 -0.0319649 -0.0247253 -0.0239185
internal_weight=646 293 353 326 258 233 164 69 170 56 45 108 87
internal_count=646 293 353 326 258 233 164 69 170 56 45 108 87
cat_boundaries=0 1
cat_threshold=2
is_linear=0
shrinkage=0.03


Tree=10
num_leaves=17
num_cat=0
split_feature=3 25 20 31 25 27 4 19 19 29 31 25 25 33 3 3
split_gain=439.356 0.837498 0.523738 0.688347 0.5085 0.322838 0.316999 0.263475 0.369709 0.14766 0.0768524 0.155319 0.0604273 0.0444747 0.0196625 0.00898458
threshold=2106311703621.6389 2.3251180648803715 -2.5327056646347041 0.16986676305532458 1.7068751454353335 -0.73750367760658253 124.49621006272866 1.2513294219970705 0.87107703089714061 -1.1680614948272703 1.1808131933212282 -1.3439297080039976 -1.1957739591598509 -0.20569201558828351 3904620736288.6938 4069636619068.7515
decision_type=2 2 2 2 2 2 2 2 2 2 2 2 2 2 2 2
left_child=1 2 3 -1 6 -5 15 8 9 -4 11 -11 -8 -13 -14 -2
right_child=4 -3 7 5 -6 -7 12 -9 -10 10 -12 13 14 -15 -16 -17
leaf_value=-0.018688003764702723 0.023585930982073722 -0.032975424594104949 -0.03000035033266768 -0.022536568045616146 0.025848865779404786 -0.029703992996642833 0.022001397704224452 -0.029867086401445607 -0.021695434494888612 -0.023494950724403239 -0.022945115150909075 -0.031307050309964078 0.017511716668061381 -0.026614508215836649 0.019966413162841423 0.021300391865900471
leaf_weight=22 62 27 35 20 29 20 39 59 21 22 22 20 38 38 112 89
leaf_count=22 62 27 35 20 29 20 39 59 21 22 22 20 38 38 112 89
internal_value=-0.000642535 -0.0272206 -0.0266413 -0.023656 0.0213911 -0.0262602 0.0209945 -0.0274691 -0.0265363 -0.0272401 -0.0262352 -0.0270727 0.0199455 -0.0283354 0.0193766 0.0222737
internal_weight=675 306 279 62 369 40 340 217 158 137 102 80 189 58 150 151
internal_count=675 306 279 62 369 40 340 217 158 137 102 80 189 58 150 151
is_linear=0
shrinkage=0.03


Tree=11
num_leaves=11
num_cat=1
split_feature=5 25 20 32 25 4 33 24 26 25
split_gain=413.532 0.781973 0.487047 0.899736 0.474467 0.294 0.247467 0.182433 0.139457 0.0530306
threshold=0 2.3251180648803715 -2.5327056646347041 -0.24265208840370175 1.7068751454353335 124.49621006272866 -0.010345407761633394 0.93460324406623851 -0.51844707131385792 -1.1957739591598509
decision_type=1 2 2 2 2 2 2 2 2 2
left_child=1 2 3 -1 5 -2 7 8 -4 -7
right_child=4 -3 6 -5 -6 9 -8 -9 -10 -11
leaf_value=-0.027582482113235291 0.021606944907508412 -0.031989812217515332 -0.028872193534748788 -0.019458697136914626 0.02507606458418148 0.021343043579164975 -0.028356574594171763 -0.021965675169023972 -0.024908650060077826 0.018796674134650287
leaf_weight=26 151 27 33 36 29 39 89 26 69 150
leaf_count=26 151 27 33 36 29 39 89 26 69 150
internal_value=-0.000624502 -0.0264097 -0.0258477 -0.0229527 0.0207516 0.0203667 -0.0266501 -0.0254189 -0.0262474 0.019349
internal_weight=675 306 279 62 369 340 217 128 102 189
internal_count=675 306 279 62 369 340 217 128 102 189
cat_boundaries=0 1
cat_threshold=1
is_linear=0
shrinkage=0.03


Tree=12
num_leaves=15
num_cat=1
split_feature=1 25 20 32 25 3 19 19 29 19 22 3 21 31
split_gain=389.177 0.730694 0.452812 0.842494 0.442798 0.282702 0.248637 0.34467 0.129653 0.0835259 0.0675813 0.116416 0.0248033 0.0193296
threshold=0 2.3251180648803715 -2.5327056646347041 -0.24265208840370175 1.7068751454353335 3904620736288.6938 1.2513294219970705 0.87107703089714061 -1.1680614948272703 1.3163492083549502 -1.9706234335899351 295463185185.79865 -0.92336013913154591 0.032713184133172042
decision_type=1 2 2 2 2 2 2 2 2 2 2 2 2 2
left_child=1 2 3 -1 5 -2 7 8 -4 -7 -10 -12 -8 -11
right_child=4 -3 6 -5 -6 9 12 -9 10 13 11 -13 -14 -15
leaf_value=-0.026758177451703738 0.017094220347970184 -0.031033659139682441 -0.028257880246537363 -0.018876553414766146 0.024326367839095513 0.020878508695856939 -0.030244452062341352 -0.020286862790867048 -0.027541095332486002 0.02030300524420367 -0.020511622462607078 -0.024882921573312521 -0.02597161361545423 0.017808778198778935
leaf_weight=26 50 27 35 36 29 182 29 21 24 50 22 56 30 58
leaf_count=26 50 27 35 36 29 182 29 21 24 50 22 56 30 58
internal_value=-0.000606461 -0.025621 -0.0250755 -0.0222678 0.0201305 0.0197567 -0.0258533 -0.0249518 -0.0256297 0.0201994 -0.0246717 -0.0237162 -0.0281702 0.019009
internal_weight=675 306 279 62 369 340 217 158 137 290 102 78 59 108
internal_count=675 306 279 62 369 340 217 158 137 290 102 78 59 108
cat_boundaries=0 1
cat_threshold=2
is_linear=0
shrinkage=0.03


Tree=13
num_leaves=15
num_cat=1
split_feature=3 12 18 13 25 4 28 22 34 30 25 24 3 3
split_gain=366.291 1.51177 0.572173 0.503457 0.412982 0.267595 0.25555 0.0656192 0.0697479 0.0995826 0.051001 0.0431427 0.0182989 0.0138873
threshold=2106311703621.6389 665.00000000000011 -6.7471148967742911 0 1.7068751454353335 124.49621006272866 -0.95415487885475148 0.21982335299253467 2.5000000000000004 0.078800618648529067 -1.1957739591598509 0.42142233252525335 4069636619068.7515 3904620736288.6938
decision_type=2 2 2 9 2 2 2 2 2 2 2 2 2 2
left_child=1 3 -3 7 5 12 -5 8 -1 -10 -7 -4 -2 -12
right_child=4 2 11 6 -6 10 -8 -9 9 -11 13 -13 -14 -15
leaf_value=-0.026064576220096034 0.021625702605731243 -0.023512669243346683 -0.028003959886349027 -0.023091488934274929 0.023599084283887722 0.020118600323681936 -0.017190318652335924 -0.021781955304222791 -0.020952476619485998 -0.025439248783835043 0.015913843118299648 -0.032245356114869256 0.019408860880919178 0.018206487153120919
leaf_weight=73 62 26 41 20 29 39 25 36 30 26 38 29 89 112
leaf_count=73 62 26 41 20 29 39 25 36 30 26 38 29 89 112
internal_value=-0.000589485 -0.0248575 -0.0281892 -0.0233075 0.0195284 0.0191655 -0.019925 -0.0241992 -0.0248331 -0.0231307 0.0181909 -0.0298474 0.0203527 0.0176567
internal_weight=675 306 96 210 369 340 45 165 129 56 189 70 151 150
internal_count=675 306 96 210 369 340 45 165 129 56 189 70 151 150
cat_boundaries=0 1
cat_threshold=4
is_linear=0
shrinkage=0.03


Tree=14
num_leaves=15
num_cat=2
split_feature=1 12 20 18 3 19 24 30 26 14 24 19 23 18
split_gain=344.751 1.41784 0.640119 0.533144 0.337268 0.274307 0.259108 0.242853 0.125651 0.0581586 0.0349682 0.031542 0.0254999 0.0162804
threshold=0 665.00000000000011 -1.2779843807220457 -6.7471148967742911 3904620736288.6938 -0.44041752815246576 0.74451115727424633 -1.0220463871955869 1.0515599846839907 1 0.42142233252525335 0.57659217715263378 1.1972259879112246 8.2360439300537127
decision_type=1 2 2 2 2 2 2 2 2 1 2 2 2 2
left_child=1 2 9 -3 -2 6 8 -4 -6 -1 -5 -9 -11 -7
right_child=4 3 7 10 5 13 -8 11 -10 12 -12 -13 -14 -15
leaf_value=-0.016893777242347374 0.016228733850842982 -0.022809992364083209 -0.0200493608326076 -0.027165884906358091 0.020668304223571625 0.018666648327849294 0.017920452359170072 -0.023328307841875159 0.02472421006919032 -0.018597317992299089 -0.031281319776761164 -0.026126132324600402 -0.022900190084283029 0.015850714344482916
leaf_weight=20 53 26 25 41 85 144 42 73 22 21 29 51 20 23
leaf_count=20 53 26 25 41 85 144 42 73 22 21 29 51 20 23
internal_value=-0.000572509 -0.0241163 -0.0226123 -0.027348 0.0189447 0.0193855 0.0205616 -0.0238067 0.0215525 -0.0196115 -0.0289558 -0.0245233 -0.0208199 0.0183065
internal_weight=675 306 210 96 369 316 149 149 107 61 70 124 41 167
internal_count=675 306 210 96 369 316 149 149 107 61 70 124 41 167
cat_boundaries=0 1 2
cat_threshold=2 1
is_linear=0
shrinkage=0.03


Tree=15
num_leaves=15
num_cat=2
split_feature=1 25 4 4 33 25 8 26 28 29 3 29 4 21
split_gain=292.551 0.744842 0.536757 0.446532 0.436222 0.674547 0.321197 0.281873 0.323706 0.206819 0.0665036 0.0517887 0.0314948 0.00202668
threshold=0 2.3251180648803715 118.78191561322691 126.43715323239572 -0.35606376826763148 -0.73423102498054493 1 0.45391090214252477 0.76369833946228038 -0.67653509974479664 4069636619068.7515 -0.077958874404430376 138.68372960095027 0.39351597428321844
decision_type=1 2 2 2 2 2 1 2 2 2 2 2 2 2
left_child=1 2 6 7 -4 -6 -1 10 -9 -7 -2 -8 13 -5
right_child=3 -3 4 12 5 9 11 8 -10 -11 -12 -13 -14 -15
leaf_value=-0.026187384374841242 0.020154366805632304 -0.028158902950392434 -0.02306528755245529 0.015096581829133005 -0.013601691249705039 -0.023173827337122508 -0.023920783114561812 0.019530179098121121 0.02559102003254107 -0.01786648040799679 0.017466946927159423 -0.020496642150147987 0.0179097194862297 0.017822972167576993
leaf_weight=50 46 27 49 53 21 26 37 35 20 24 74 41 104 24
leaf_count=50 46 27 49 53 21 26 37 35 20 24 74 41 104 24
internal_value=0.000400859 -0.0228313 -0.0222281 0.0183568 -0.0205156 -0.0186838 -0.0237928 0.019602 0.021831 -0.0207269 0.018538 -0.0221879 0.0171263 0.0160073
internal_weight=631 275 248 356 120 71 128 175 55 50 120 78 181 77
internal_count=631 275 248 356 120 71 128 175 55 50 120 78 181 77
cat_boundaries=0 1 2
cat_threshold=2 1
is_linear=0
shrinkage=0.03


Tree=16
num_leaves=17
num_cat=0
split_feature=3 12 12 4 4 26 28 32 32 23 25 3 19 30 20 29
split_gain=275.355 0.829463 0.867459 0.513508 0.417089 0.262029 0.30067 0.172645 0.230434 0.146118 0.0608059 0.059066 0.03125 0.0355837 0.0648833 0.028715
threshold=2106311703621.6389 665.00000000000011 860.00000000000011 118.78191561322691 126.43715323239572 0.45391090214252477 0.76369833946228038 -0.63125038146972645 0.13880023360252383 0.36165493726730352 0.042720956727862365 4069636619068.7515 1.2959906458854678 -1.1160647273063657 0.32510222494602209 -0.077958874404430376
decision_type=2 2 2 2 2 2 2 2 2 2 2 2 2 2 2 2
left_child=1 3 10 9 5 11 -7 -5 -9 15 -3 -2 13 -6 -15 -1
right_child=4 2 -4 7 12 6 -8 8 -10 -11 -12 -13 -14 14 -16 -17
leaf_value=-0.025575444664119588 0.019551045621488718 -0.024455566798199973 -0.020424803556682906 -0.015425599980265346 0.019555692249808566 0.018945943005064608 0.024827108845781921 -0.022299107262008247 -0.017621017493761638 -0.020158502637456367 -0.029263682254006926 0.016943645704130414 0.015306511849596879 0.017595131393648 0.014663603104133258 -0.021888347944396678
leaf_weight=33 46 21 32 20 24 35 20 31 36 37 32 74 62 62 33 33
leaf_count=33 46 21 32 20 24 35 20 31 36 37 32 74 62 62 33 33
internal_value=0.000388344 -0.0221506 -0.0248768 -0.0209027 0.0178088 0.0190169 0.0211802 -0.0188941 -0.0198602 -0.0225503 -0.0274647 0.0179836 0.0166143 0.0172571 0.0166248 -0.0238132
internal_weight=631 275 85 190 356 175 55 87 67 103 53 120 181 119 95 66
internal_count=631 275 85 190 356 175 55 87 67 103 53 120 181 119 95 66
is_linear=0
shrinkage=0.03


Tree=17
num_leaves=14
num_cat=0
split_feature=3 12 12 4 4 26 27 32 32 23 3 25 26
split_gain=259.186 0.776306 0.812178 0.478965 0.3891 0.243442 0.177119 0.158866 0.213058 0.133428 0.0521703 0.0517479 0.0314696
threshold=2106311703621.6389 665.00000000000011 860.00000000000011 118.78191561322691 126.43715323239572 0.45391090214252477 -0.11894557252526282 -0.63125038146972645 0.13880023360252383 0.46698528528213507 4069636619068.7515 0.042720956727862365 -0.034825833514332764
decision_type=2 2 2 2 2 2 2 2 2 2 2 2 2
left_child=1 3 11 9 5 10 -7 -5 -9 -1 -2 -3 -6
right_child=4 2 -4 7 12 6 -8 8 -10 -11 -12 -13 -14
leaf_value=-0.023102305124594116 0.018965786591398481 -0.023725376887626552 -0.019813968653433791 -0.014965134050919492 0.015325265362732371 0.018476164632693515 0.023424295391971703 -0.021632285627186103 -0.017093851138112699 -0.01955537762402524 0.016436022674506494 -0.028388506864832935 0.017177692442219679
leaf_weight=66 46 21 32 20 106 33 22 31 36 37 74 32 75
leaf_count=66 46 21 32 20 106 33 22 31 36 37 74 32 75
internal_value=0.000376172 -0.0214908 -0.0241352 -0.0202799 0.0172775 0.0184493 0.0205488 -0.0183312 -0.0192675 -0.0218775 0.0174457 -0.0266455 0.0161185
internal_weight=631 275 85 190 356 175 55 87 67 103 120 53 181
internal_count=631 275 85 190 356 175 55 87 67 103 120 53 181
is_linear=0
shrinkage=0.03


Tree=18
num_leaves=18
num_cat=1
split_feature=7 12 12 4 4 26 28 30 29 26 18 3 25 4 19 12 21
split_gain=243.95 0.726818 0.760275 0.446042 0.363552 0.226026 0.2712 0.152071 0.121603 0.109766 0.0842753 0.0457818 0.0433916 0.0345443 0.0393679 0.0152042 0.00570893
threshold=0 665.00000000000011 860.00000000000011 118.78191561322691 126.43715323239572 0.45391090214252477 0.76369833946228038 -0.8619599938392638 0.33429010212421423 0.79662147164344799 -4.359959363937377 4069636619068.7515 0.042720956727862365 138.68372960095027 -2.0629256963729854 345.00000000000006 0.39351597428321844
decision_type=9 2 2 2 2 2 2 2 2 2 2 2 2 2 2 2 2
left_child=4 3 12 8 5 11 -7 -5 9 -2 -9 -1 -3 16 -15 -10 -6
right_child=1 2 -4 7 13 6 -8 10 15 -11 -12 -13 -14 14 -16 -17 -18
leaf_value=0.018398049167001825 -0.020951263765518952 -0.023016989024894494 -0.019221401348292269 -0.014486070291570096 0.013681990426812467 0.017801103220026714 0.023416309650264568 -0.016940186945979489 -0.021140656691642279 -0.025541623928653657 -0.020591064348721041 0.015943606575490973 -0.027539505017137967 0.01860949597912705 0.015666624460550727 -0.017181316669103244 0.016297595671598348
leaf_weight=46 41 21 32 20 53 35 20 36 20 20 31 74 32 24 80 22 24
leaf_count=46 41 21 32 20 53 35 20 36 20 20 31 74 32 24 80 22 24
internal_value=0.000364181 -0.0208502 -0.0234158 -0.019675 0.0167614 0.0178987 0.0199362 -0.0177852 -0.0212233 -0.0225447 -0.0187023 0.016924 -0.0258508 0.015636 0.0163918 -0.0191837 0.0145562
internal_weight=631 275 85 190 356 175 55 87 103 61 67 120 53 181 104 42 77
internal_count=631 275 85 190 356 175 55 87 103 61 67 120 53 181 104 42 77
cat_boundaries=0 1
cat_threshold=1
is_linear=0
shrinkage=0.03


Tree=19
num_leaves=17
num_cat=0
split_feature=3 12 12 4 4 26 28 32 32 29 26 3 4 19 33 12
split_gain=229.635 0.679563 0.711547 0.416244 0.338909 0.209728 0.251585 0.144526 0.195618 0.110051 0.0991836 0.0398664 0.0293643 0.0340543 0.0109795 0.0106283
threshold=2106311703621.6389 665.00000000000011 860.00000000000011 118.78191561322691 126.43715323239572 0.45391090214252477 0.76369833946228038 -0.63125038146972645 0.13880023360252383 0.33429010212421423 0.79662147164344799 4069636619068.7515 138.68372960095027 -2.0629256963729854 0.93651148676872265 345.00000000000006
decision_type=2 2 2 2 2 2 2 2 2 2 2 2 2 2 2 2
left_child=1 3 14 9 5 11 -7 -5 -9 10 -1 -2 -6 -14 -3 -11
right_child=4 2 -4 7 12 6 -8 8 -10 15 -12 -13 13 -15 -16 -17
leaf_value=-0.020324254434718921 0.017847302472158263 -0.023042626323914184 -0.018646555102874184 -0.014027478685741548 0.014121882135360158 0.017268591706569376 0.022717315261043716 -0.020422543128263623 -0.016062679041997419 -0.020509592632193173 -0.024779187489801371 0.015465945111595183 0.018053527138045217 0.015197212707237359 -0.027141042123752755 -0.016668209525760751
leaf_weight=41 46 28 32 20 77 35 20 31 36 20 20 74 24 80 25 22
leaf_count=41 46 28 32 20 77 35 20 31 36 20 20 74 24 80 25 22
internal_value=0.00035251 -0.0202299 -0.0227179 -0.0190897 0.0162615 0.0173646 0.019342 -0.0172555 -0.0181521 -0.0205916 -0.0218722 0.0164179 0.0151694 0.0159019 -0.0250798 -0.0186131
internal_weight=631 275 85 190 356 175 55 87 67 103 61 120 181 104 53 42
internal_count=631 275 85 190 356 175 55 87 67 103 61 120 181 104 53 42
is_linear=0
shrinkage=0.03


Tree=20
num_leaves=16
num_cat=2
split_feature=1 12 19 22 28 12 13 25 25 25 32 4 24 24 4
split_gain=230.488 0.971634 0.436144 0.340246 0.305168 0.278569 0.228573 0.177733 0.14545 0.108141 0.0996826 0.0732121 0.0463828 0.00618697 0.00530884
threshold=0 665.00000000000011 1.1137713193893435 -1.1071341037750242 0.76369833946228038 875.00000000000011 1 -1.5888367295265196 0.57611921429634105 -0.3524970263242721 -0.74496221542358387 126.43715323239572 0.88026174902915966 0.42142233252525335 140.10997200254067
decision_type=1 2 2 2 2 2 9 2 2 2 2 2 2 2 2
left_child=1 2 6 4 -2 13 10 -5 -4 -9 -1 -11 14 -3 -13
right_child=3 5 8 7 -6 -7 -8 9 -10 11 -12 12 -14 -15 -16
leaf_value=-0.015518660626260401 0.016330153246125773 -0.022818364388922336 -0.022536171212164627 0.017657756510936165 0.021452612218918737 -0.0197766289204062 -0.014520118737135917 0.013234025373071581 -0.017872410292056069 0.016402299845346597 -0.019186697983422322 0.013714212256967147 0.012391266016722606 -0.026668837362305256 0.016261970634045806
leaf_weight=22 50 35 45 42 23 30 28 59 20 89 82 34 27 24 39
leaf_count=22 50 35 45 42 23 30 28 59 20 89 82 34 27 24 39
internal_value=0 -0.0201389 -0.0188423 0.0158661 0.0180123 -0.0229508 -0.0176548 0.0153094 -0.0211769 0.0148927 -0.0184552 0.0153873 0.0144386 -0.0244779 0.0151368
internal_weight=649 286 197 363 73 89 132 290 65 248 104 189 100 59 73
internal_count=649 286 197 363 73 89 132 290 65 248 104 189 100 59 73
cat_boundaries=0 1 2
cat_threshold=2 4
is_linear=0
shrinkage=0.03


Tree=21
num_leaves=16
num_cat=3
split_feature=1 12 22 21 6 12 20 25 13 25 22 4 24 4 24
split_gain=216.949 0.910896 0.317137 0.312363 0.521612 0.258031 0.255799 0.164009 0.15317 0.0991948 0.0884607 0.0653798 0.0409467 0.00205042 0.00120493
threshold=0 665.00000000000011 -1.0966661572456358 -2.7619791030883785 1 875.00000000000011 0.32510222494602209 -1.5888367295265196 2 -0.3524970263242721 0.096424136310815825 126.43715323239572 0.88026174902915966 140.10997200254067 0.42142233252525335
decision_type=1 2 2 2 1 2 2 2 9 2 2 2 2 2 2
left_child=1 3 6 -1 -5 14 -2 -4 -6 -9 -10 -11 13 -13 -3
right_child=2 5 7 4 8 -7 -8 9 10 11 -12 12 -14 -15 -16
leaf_value=-0.014019112716345072 0.015940712283852045 -0.022135764075140663 0.017129282164177247 -0.022359419145352753 -0.014308037626376348 -0.01918530050702269 0.02080670079224789 0.012837676473983047 -0.018925003148835964 0.015910783709569359 -0.015406768009134007 0.013303992116381344 0.012020899766705572 0.015775359609852664 -0.025872092256902162
leaf_weight=21 51 35 42 37 20 30 22 59 97 89 22 34 27 39 24
leaf_count=21 51 35 42 37 20 30 22 59 97 89 22 34 27 39 24
internal_value=0 -0.0195386 0.0153929 -0.0182802 -0.0187634 -0.0222667 0.0174747 0.0148526 -0.0177692 0.0144482 -0.0183132 0.0149281 0.0140085 0.0146851 -0.0237476
internal_weight=649 286 363 197 176 89 73 290 139 248 119 189 100 73 59
internal_count=649 286 363 197 176 89 73 290 139 248 119 189 100 73 59
cat_boundaries=0 1 2 3
cat_threshold=2 2 1
is_linear=0
shrinkage=0.03


Tree=22
num_leaves=14
num_cat=1
split_feature=3 12 19 22 28 12 13 27 25 22 3 32 21
split_gain=204.206 0.853846 0.387366 0.295478 0.265926 0.238826 0.19508 0.171847 0.125829 0.0918776 0.0983546 0.0906193 0.0105892
threshold=2106311703621.6389 665.00000000000011 1.1137713193893435 -1.0966661572456358 0.38973863422870642 875.00000000000011 0 1.8216135501861574 0.57611921429634105 -0.41099038720130915 3904620736288.6938 -0.74496221542358387 -0.92336013913154591
decision_type=2 2 2 2 2 2 9 2 2 2 2 2 2
left_child=1 2 6 4 -2 -3 11 9 12 -5 -11 -1 -4
right_child=3 5 8 7 -6 -7 -8 -9 -10 10 -12 -13 -14
leaf_value=-0.014540999263390156 0.015314990308765479 -0.023039125008934038 -0.0229971339890571 0.011988347904888662 0.020095882022529217 -0.018611653539231447 -0.013660821571276653 0.016997214997968364 -0.016809857727876347 0.012128699306634978 0.014767027221487252 -0.018060016860407251 -0.018980993145450029
leaf_weight=22 49 59 24 38 24 30 28 34 20 33 185 82 21
leaf_count=22 49 59 24 38 24 30 28 34 20 33 185 82 21
internal_value=0 -0.0189563 -0.017735 0.0149338 0.0169532 -0.021603 -0.0166083 0.0144095 -0.0199479 0.0140476 0.0143871 -0.0173591 -0.0212357
internal_weight=649 286 197 363 73 89 132 290 65 256 218 104 45
internal_count=649 286 197 363 73 89 132 290 65 256 218 104 45
cat_boundaries=0 1
cat_threshold=4
is_linear=0
shrinkage=0.03


Tree=23
num_leaves=17
num_cat=2
split_feature=7 12 19 25 27 4 31 13 28 32 12 4 20 22 21 4
split_gain=192.204 0.798918 0.361957 0.276693 0.233395 0.199478 0.185697 0.180372 0.0823687 0.0817127 0.0605095 0.0521266 0.00855923 0.0275624 0.00264908 0.00239616
threshold=0 665.00000000000011 1.1137713193893435 1.7068751454353335 -0.54381355643272389 126.43715323239572 -0.067138127982616411 1 -0.2515819296240806 -0.74496221542358387 890.00000000000011 138.68372960095027 -1.0608783960342405 -0.33895479142665857 0.78635305166244518 117.52902357427357
decision_type=9 2 2 2 2 2 2 9 2 2 2 2 2 2 2 2
left_child=3 2 7 5 -3 10 -4 9 -6 -2 15 14 -13 -14 -7 -1
right_child=1 4 6 -5 8 11 -8 -9 -10 -11 -12 12 13 -15 -16 -17
leaf_value=0.012628683562257459 -0.014106743413938116 -0.017411336430481501 -0.021462082902470384 0.017773145441201038 -0.019444780903733121 0.011387125698087731 -0.01702838616463068 -0.013252455256216466 -0.023526656188053073 -0.017518876470834124 0.017577808623190048 0.012013150022040665 0.016711180170080553 0.013704197738326396 0.01380249555024626 0.01503312238152469
leaf_weight=23 22 23 33 30 24 51 32 28 42 82 23 22 20 55 22 117
leaf_count=23 22 23 33 30 24 51 32 28 42 82 23 22 20 55 22 117
internal_value=0 -0.0183913 -0.0172068 0.0144878 -0.0209573 0.0141776 -0.0193549 -0.0161124 -0.0221194 -0.0168401 0.0151082 0.0132593 0.0140318 0.0145672 0.012174 0.0146688
internal_weight=649 286 197 363 89 333 65 132 66 104 163 170 97 75 73 140
internal_count=649 286 197 363 89 333 65 132 66 104 163 170 97 75 73 140
cat_boundaries=0 1 2
cat_threshold=1 4
is_linear=0
shrinkage=0.03


Tree=24
num_leaves=16
num_cat=3
split_feature=7 12 21 6 22 32 12 25 13 12 22 4 4 26 24
split_gain=180.922 0.748573 0.272997 0.4557 0.272301 0.234846 0.223384 0.152336 0.11419 0.0919517 0.0769709 0.0470787 0.0209971 0.0130542 0.00106929
threshold=0 665.00000000000011 -2.7619791030883785 1 -1.0966661572456358 -0.88156664371490467 875.00000000000011 -1.5888367295265196 2 122.50000000000001 0.096424136310815825 126.43715323239572 140.10997200254067 1.5861845016479494 0.42142233252525335
decision_type=9 2 2 1 2 2 2 2 9 2 2 2 2 2 2
left_child=4 2 -2 -4 5 -1 14 -6 10 -9 13 -11 -13 -5 -3
right_child=1 6 3 8 7 -7 -8 9 -10 11 -12 12 -14 -15 -16
leaf_value=0.019175905979057242 -0.012693533407638987 -0.020193892113673378 -0.020516633540793569 -0.017853714139255104 0.015729435962622634 0.014532459732254423 -0.017445200730201806 0.010817267900889681 -0.013077553013589845 0.01430444888350518 -0.013968798557287965 0.011737476711111942 0.013678348491536103 -0.014837512592993563 -0.023723216761691934
leaf_weight=22 21 35 37 77 42 51 30 29 20 101 22 62 56 20 24
leaf_count=22 21 35 37 77 42 51 30 29 20 101 22 62 56 20 24
internal_value=0 -0.0178433 -0.0166937 -0.0171465 0.0140562 0.0159972 -0.0203326 0.013552 -0.0162137 0.0131649 -0.0167042 0.013457 0.0126948 -0.0172786 -0.021718
internal_weight=649 286 197 176 363 73 89 290 139 248 119 219 118 97 59
internal_count=649 286 197 176 363 73 89 290 139 248 119 219 118 97 59
cat_boundaries=0 1 2 3
cat_threshold=1 2 4
is_linear=0
shrinkage=0.03


Tree=25
num_leaves=14
num_cat=2
split_feature=5 12 13 18 22 25 25 4 33 22 4 18 4
split_gain=158.512 0.545063 0.402935 0.363462 0.279471 0.161377 0.181535 0.12818 0.142977 0.0671583 0.0273305 0.0230533 0.00929371
threshold=0 665.00000000000011 1 -6.6294393539428702 0.28024800121784216 1.7068751454353335 -1.1957739591598509 118.78191561322691 -0.21829589456319806 -1.2240175008773801 132.2357534358608 3.9201730489730839 138.68372960095027
decision_type=1 2 9 2 2 2 2 2 2 2 2 2 2
left_child=1 2 4 -3 7 6 11 -1 -9 -8 -11 -2 -12
right_child=5 3 -4 -5 -6 -7 9 8 -10 10 12 -13 -14
leaf_value=-0.018747277215718373 0.016420041586934907 -0.015935654244299741 -0.01276288805850794 -0.021164081268860192 -0.013619236447084754 0.016250257715307914 0.014461645271415422 -0.017586001478293149 -0.013307348263341109 0.013005376071002803 0.010301883487602857 0.013575185513239342 0.012223384410950664
leaf_weight=70 29 27 37 50 31 27 40 33 23 118 38 37 70
leaf_count=70 29 27 37 50 31 27 40 33 23 118 38 37 70
internal_value=0.000303339 -0.0170082 -0.0160368 -0.0193927 -0.0167806 0.0133808 0.0131336 -0.0175232 -0.015909 0.0126802 0.0123454 0.0148935 0.0115852
internal_weight=630 271 194 77 157 359 332 126 56 266 226 66 108
internal_count=630 271 194 77 157 359 332 126 56 266 226 66 108
cat_boundaries=0 1 2
cat_threshold=1 4
is_linear=0
shrinkage=0.03


Tree=26
num_leaves=16
num_cat=1
split_feature=7 12 21 21 19 29 4 25 25 22 12 4 21 4 33
split_gain=149.2 0.509353 0.404944 0.544066 0.352314 0.535238 0.323737 0.149177 0.168531 0.0606887 0.0408613 0.0231175 0.0130124 0.0064617 0.00486153
threshold=0 665.00000000000011 -2.0845496654510494 -0.19473349303007123 0.7497307062149049 -0.67653316259384144 119.2655080931231 1.7068751454353335 -1.1957739591598509 -1.2240175008773801 345.00000000000006 132.2357534358608 1.267361640930176 138.68372960095027 0.27987316250801092
decision_type=9 2 2 2 2 2 2 2 2 2 2 2 2 2 2
left_child=7 2 -2 14 -3 -6 10 8 12 -10 -5 -11 -1 -13 -4
right_child=1 4 3 6 5 -7 -8 -9 9 11 -12 13 -14 -15 -16
leaf_value=0.013497047697773722 -0.012181465984919131 -0.021369130900877827 -0.017508888445903672 -0.017556392177855002 -0.02008345617784708 -0.012404783742307727 -0.0119964383594752 0.01576454895558832 0.014028877914695072 0.012615545639030125 -0.014125961454270721 0.009993637943948348 0.016412676706242916 0.011857206187982871 -0.020782309806168967
leaf_weight=46 35 36 46 33 21 20 37 27 40 118 23 38 20 70 20
leaf_count=46 35 36 46 33 21 20 37 27 40 118 23 38 20 70 20
internal_value=0.000294016 -0.0165012 -0.0155587 -0.0162752 -0.0188135 -0.0164501 -0.0145918 0.0129817 0.0127417 0.0123014 -0.0162286 0.0119763 0.0144495 0.0112391 -0.0185762
internal_weight=630 271 194 159 77 41 93 359 332 266 56 226 66 108 66
internal_count=630 271 194 159 77 41 93 359 332 266 56 226 66 108 66
cat_boundaries=0 1
cat_threshold=1
is_linear=0
shrinkage=0.03


Tree=27
num_leaves=17
num_cat=0
split_feature=3 21 18 24 23 24 25 25 25 4 33 22 3 4 18 4
split_gain=140.447 0.370629 0.33294 0.301199 0.217165 0.237376 0.220316 0.137771 0.156366 0.10707 0.0957426 0.0546734 0.0470827 0.0192326 0.017157 0.0038661
threshold=2106311703621.6389 -2.0845496654510494 -6.7471148967742911 -2.3811886310577388 -1.6427075862884519 -0.039229581132531159 -0.52534508705139149 1.7068751454353335 -1.1957739591598509 118.78191561322691 -0.008037377614527939 -1.2240175008773801 295463185185.79865 132.2357534358608 3.9201730489730839 138.68372960095027
decision_type=2 2 2 2 2 2 2 2 2 2 2 2 2 2 2 2
left_child=1 2 -1 -3 9 12 -7 8 14 -5 -8 -10 -6 -13 -2 -15
right_child=7 3 -4 4 5 6 10 -9 11 -11 -12 13 -14 15 -16 -17
leaf_value=-0.010470485731788066 0.015465497657195808 -0.012719109458423748 -0.016370447438154644 -0.016578824574051937 -0.021578804544837349 -0.014027453822978974 -0.016338120616387175 0.015293357693401208 0.013609061235204301 -0.012226938811523655 -0.020366245462643026 0.012237399356986988 -0.017930421459377635 0.0096946159374760831 0.01276520748022753 0.011501997383616959
leaf_weight=26 29 24 20 22 25 36 40 27 40 21 21 118 36 38 37 70
leaf_count=26 29 24 20 22 25 36 40 27 40 21 21 118 36 38 37 70
internal_value=0.00028451 -0.0160104 -0.0131307 -0.0165798 -0.0170193 -0.0176609 -0.0164498 0.0125945 0.0123615 -0.0145564 -0.017805 0.0119339 -0.0195076 0.0116183 0.0140187 0.0109034
internal_weight=630 271 46 225 201 158 97 359 332 43 61 266 61 226 66 108
internal_count=630 271 46 225 201 158 97 359 332 43 61 266 61 226 66 108
is_linear=0
shrinkage=0.03


Tree=28
num_leaves=13
num_cat=1
split_feature=7 12 21 21 19 29 4 31 19 28 3 12
split_gain=132.214 0.468354 0.356709 0.486068 0.319164 0.488842 0.294082 0.138887 0.133515 0.349162 0.064757 0.0380267
threshold=0 665.00000000000011 -2.0845496654510494 -0.19473349303007123 0.7497307062149049 -0.67653316259384144 119.2655080931231 -0.14932914078235623 0.57659217715263378 1.0775831341743471 3904620736288.6938 345.00000000000006
decision_type=9 2 2 2 2 2 2 2 2 2 2 2
left_child=8 2 -2 7 -3 -6 11 -4 9 10 -1 -5
right_child=1 4 3 6 5 -7 -8 -9 -10 -11 -12 -13
leaf_value=0.010442277028785188 -0.011438288351473137 -0.020196151351788365 -0.019725070691193548 -0.016549814975513791 -0.018970055304714854 -0.011617949190202044 -0.011225391849272976 -0.015714150649297425 0.011276694364757854 0.016361949871496372 0.012687771947404789 -0.013242633158897423
leaf_weight=36 35 36 28 33 21 20 37 38 144 28 151 23
leaf_count=36 35 36 28 33 21 20 37 38 144 28 151 23
internal_value=0.00027508 -0.0155349 -0.0146297 -0.0153058 -0.0177545 -0.0154936 -0.0137075 -0.0174884 0.012219 0.0128306 0.0122773 -0.015271
internal_weight=630 271 194 159 77 41 93 66 359 215 187 56
internal_count=630 271 194 159 77 41 93 66 359 215 187 56
cat_boundaries=0 1
cat_threshold=1
is_linear=0
shrinkage=0.03


Tree=29
num_leaves=18
num_cat=1
split_feature=5 21 18 21 4 25 27 4 25 25 31 31 22 4 18 25 4
split_gain=124.449 0.320347 0.307621 0.269926 0.341527 0.377325 0.482702 0.453724 0.12542 0.145697 0.113426 0.109762 0.0500578 0.0174114 0.0129125 0.00476588 0.00204791
threshold=0 -2.0845496654510494 -6.7471148967742911 -0.57315236330032338 117.52902357427357 1.1460552811622622 -0.2656369805335998 118.78191561322691 1.7068751454353335 -1.1957739591598509 -0.3758642971515655 0.59292319416999828 -1.2240175008773801 132.2357534358608 3.9201730489730839 -0.3524970263242721 138.68372960095027
decision_type=1 2 2 2 2 2 2 2 2 2 2 2 2 2 2 2 2
left_child=1 2 -1 11 -5 6 7 -6 9 14 -8 -3 -11 15 -2 -14 -15
right_child=8 3 -4 4 5 -7 10 -9 -10 12 -12 -13 13 16 -16 -17 -18
leaf_value=-0.0098064638348831518 0.014607433692081687 -0.018676725851882035 -0.015483592244337742 -0.018318664688916724 -0.014035136972123117 -0.017847280351372504 -0.016571227653779292 -0.0075228862652833425 0.014440978589532999 0.012827761295876297 -0.01265198420068535 -0.014949737996205515 0.0097834275458858217 0.009069659842222225 0.01203147805845641 0.011905971670149174 0.010795205170009684
leaf_weight=26 29 47 20 26 20 23 33 26 27 40 24 26 24 38 37 94 70
leaf_count=26 29 47 20 26 20 23 33 26 27 40 24 26 24 38 37 94 70
internal_value=0.000265552 -0.015073 -0.0123681 -0.015607 -0.0147092 -0.0139266 -0.0130056 -0.0104437 0.0118536 0.0116298 -0.0149986 -0.0174126 0.0112169 0.010913 0.0132291 0.0115083 0.0102248
internal_weight=630 271 46 225 152 126 103 46 359 332 57 73 266 226 66 118 108
internal_count=630 271 46 225 152 126 103 46 359 332 57 73 266 226 66 118 108
cat_boundaries=0 1
cat_threshold=1
is_linear=0
shrinkage=0.03


Tree=30
num_leaves=17
num_cat=1
split_feature=7 24 21 32 4 21 25 31 4 27 33 4 22 4 23 24
split_gain=126.514 0.324594 0.247017 0.522077 0.238385 0.215875 0.195511 0.170098 0.164987 0.310128 0.254589 0.141603 0.0753542 0.0686695 0.0294475 0.0183265
threshold=0 -2.5581076145172115 -2.0845496654510494 -0.30426420271396631 132.2357534358608 -0.58025142550468434 2.1125098466873173 0.59292319416999828 118.78191561322691 -0.18779370188713071 -0.30056728422641749 117.52902357427357 -0.98534914851188649 138.68372960095027 2.1937638521194462 0.73442164063453685
decision_type=9 2 2 2 2 2 2 2 2 2 2 2 2 2 2 2
left_child=4 -2 3 -3 11 7 8 -4 10 -10 -7 -1 -13 -6 -14 -15
right_child=1 2 5 -5 13 6 -8 -9 9 -11 -12 12 14 15 -16 -17
leaf_value=0.010211536253694536 -0.010818136361624689 -0.01558389308412784 -0.018836287515553409 -0.0085543945676355218 0.0093652248325155809 -0.01297471094953 -0.01766018145728385 -0.014895350487432745 -0.0090136142230429345 -0.014457867107914135 -0.017533307837705327 0.014705201737642927 0.012751434761116362 0.01198368198031196 0.01038252967049876 0.0099821046875481767
leaf_weight=37 24 26 43 20 57 34 26 32 21 30 32 37 116 66 25 38
leaf_count=37 24 26 43 20 57 34 26 32 21 30 32 37 116 66 25 38
internal_value=0.00021037 -0.0147447 -0.015086 -0.0126179 0.0116742 -0.0155871 -0.0146999 -0.0172168 -0.0140019 -0.0122969 -0.0152535 0.0124335 0.0128726 0.0106344 0.0123603 0.0112914
internal_weight=664 288 264 46 376 218 143 75 117 51 66 215 178 161 141 104
internal_count=664 288 264 46 376 218 143 75 117 51 66 215 178 161 141 104
cat_boundaries=0 1
cat_threshold=1
is_linear=0
shrinkage=0.03


Tree=31
num_leaves=18
num_cat=1
split_feature=1 24 21 32 4 21 4 31 3 22 21 22 32 4 18 28 24
split_gain=119.096 0.30309 0.229551 0.488848 0.222095 0.199664 0.160955 0.156679 0.148148 0.131862 0.302902 0.141848 0.0711318 0.0626918 0.0355779 0.0251077 0.0150218
threshold=0 -2.5581076145172115 -2.0845496654510494 -0.30426420271396631 132.2357534358608 -0.58025142550468434 117.52902357427357 0.59292319416999828 4069636619068.7515 -2.3055737018585201 1.267361640930176 -0.24956357479095456 -0.35541166365146631 138.68372960095027 1.1619837284088137 0.31976255774497991 0.73442164063453685
decision_type=1 2 2 2 2 2 2 2 2 2 2 2 2 2 2 2 2
left_child=1 -1 3 -3 8 7 -7 -4 12 -8 -11 -12 -2 -6 -10 -16 -15
right_child=4 2 5 -5 13 6 9 -9 14 10 11 -13 -14 16 15 -17 -18
leaf_value=-0.010494938958358962 0.015392528045699889 -0.015118167471868553 -0.018272509900572127 -0.0082990396289683108 0.0090847600304934262 -0.017101773294171251 -0.015862115041571413 -0.014449881944700935 0.012879258220793732 -0.010229355184058857 -0.012198878081365563 -0.016437451063558973 0.012348635649135671 0.011624715590621266 0.011443055300204386 0.0094264281691645111 0.0096834274702595445
leaf_weight=24 25 26 43 20 57 25 31 32 31 35 26 26 57 66 63 39 38
leaf_count=24 25 26 43 20 57 25 31 32 31 35 26 26 57 66 63 39 38
internal_value=0.000203241 -0.0143066 -0.0146377 -0.0122428 0.011326 -0.0151234 -0.0142629 -0.0167029 0.0120625 -0.0136221 -0.0127722 -0.0144032 0.0133308 0.010317 0.0112485 0.0107114 0.0109542
internal_weight=664 288 264 46 376 218 143 75 215 118 87 52 82 161 133 102 104
internal_count=664 288 264 46 376 218 143 75 215 118 87 52 82 161 133 102 104
cat_boundaries=0 1
cat_threshold=2
is_linear=0
shrinkage=0.03


Tree=32
num_leaves=17
num_cat=1
split_feature=1 23 19 21 21 3 3 20 31 3 26 19 28 32 12 24
split_gain=112.117 0.32395 0.166532 0.252025 0.194157 0.140218 0.136409 0.134507 0.128354 0.114796 0.0509827 0.0438097 0.0631893 0.0311165 0.00771088 0.00975286
threshold=0 1.9086601734161379 3.7034393548965459 -2.0845496654510494 -0.41124038398265833 4031227684478.3267 4069636619068.7515 -0.96891984343528736 0.59292319416999828 315932696319.99445 1.0261285305023196 1.3369889259338381 0.76148277521133434 -0.35541166365146631 760.00000000000011 0.88026174902915966
decision_type=1 2 2 2 2 2 2 2 2 2 2 2 2 2 2 2
left_child=1 2 3 -1 8 10 13 -6 -5 -9 14 12 -8 -7 15 -2
right_child=5 -3 -4 4 7 6 11 9 -10 -11 -12 -13 -14 -15 -16 -17
leaf_value=-0.011141146752895332 0.0098675586939673092 -0.010160988433950248 -0.016815498218255457 -0.017831456026686999 -0.015556059148576521 0.014863797917768552 0.010789595240199614 -0.013538892957516214 -0.014017735806023961 -0.010374472238839309 0.012031795873548636 0.0094304148224003785 0.013701062729290876 0.012036607134238757 0.011182860345935504 0.008083474120455925
leaf_weight=38 84 26 33 33 35 23 73 63 32 28 28 39 21 46 30 32
leaf_count=38 84 26 33 33 35 23 73 63 32 28 28 39 21 46 30 32
internal_value=0.000196527 -0.0138817 -0.0142354 -0.0138434 -0.0143592 0.0109886 0.0116615 -0.0134643 -0.0160244 -0.0126106 0.010184 0.0109132 0.0114858 0.0130426 0.00980113 0.00940862
internal_weight=664 288 262 229 191 376 202 126 65 91 174 133 94 69 146 116
internal_count=664 288 262 229 191 376 202 126 65 91 174 133 94 69 146 116
cat_boundaries=0 1
cat_threshold=2
is_linear=0
shrinkage=0.03


Tree=33
num_leaves=18
num_cat=1
split_feature=3 23 4 19 21 21 4 8 23 3 21 4 32 26 29 24 19
split_gain=105.544 0.302505 0.195276 0.153619 0.234887 0.179987 0.22463 0.190866 0.142938 0.128518 0.124883 0.0584383 0.0582191 0.040754 0.026227 0.0129698 0.0062384
threshold=2106311703621.6389 1.9086601734161379 132.2357534358608 3.7034393548965459 -2.0845496654510494 -0.41124038398265833 117.52902357427357 0 -0.75045117735862721 4069636619068.7515 1.267361640930176 138.68372960095027 -0.35541166365146631 0.37471114099025732 -0.22485701739788053 0.73442164063453685 -0.43138092756271357
decision_type=2 2 2 2 2 2 2 1 2 2 2 2 2 2 2 2 2
left_child=1 3 9 4 -1 -6 -7 8 -8 12 -9 -4 -2 -11 -15 16 -13
right_child=2 -3 11 -5 5 6 7 10 -10 13 -12 15 -14 14 -16 -17 -18
leaf_value=-0.010807789696131165 0.014495224210608051 -0.0098573267412768017 0.0085165760257720109 -0.016312557381445547 -0.015546549242762378 -0.016272040216566679 -0.011379953453789896 -0.0089763164535625693 -0.01590083692094375 0.0099360189126430319 -0.012610807714195012 0.012249642704300774 0.011628622097956528 0.010197303283836039 0.013408159254851499 0.0090997320853584401 0.0099700721120819097
leaf_weight=38 25 26 57 33 65 23 20 29 26 91 28 27 57 21 21 38 39
leaf_count=38 25 26 57 33 65 23 20 29 26 91 28 27 57 21 21 38 39
internal_value=0.000190598 -0.0134685 0.0106617 -0.0138116 -0.0134311 -0.0139314 -0.0130627 -0.0123019 -0.0140293 0.0113578 -0.0108332 0.00970696 0.0125557 0.0105879 0.011902 0.0103218 0.0109651
internal_weight=664 288 376 262 229 191 126 103 46 215 57 161 82 133 42 104 66
internal_count=664 288 376 262 229 191 126 103 46 215 57 161 82 133 42 104 66
cat_boundaries=0 1
cat_threshold=1
is_linear=0
shrinkage=0.03


Tree=34
num_leaves=15
num_cat=0
split_feature=3 20 32 25 12 26 34 32 12 24 3 3 34 27
split_gain=99.361 0.284392 0.354328 0.192282 0.370425 0.245742 0.369157 0.126457 0.122196 0.121654 0.102491 0.106994 0.0356347 0.0199014
threshold=2106311703621.6389 -2.5327056646347041 -0.24265208840370175 -0.73423102498054493 627.50000000000011 -0.82144173979759205 2.5000000000000004 -0.51593768596649159 26.250000000000004 0.75647154450416576 4031227684478.3267 4069636619068.7515 2.5000000000000004 1.1886519193649294
decision_type=2 2 2 2 2 2 2 2 2 2 2 2 2 2
left_child=1 2 -1 5 7 -3 -7 -5 -2 -9 -10 12 -12 -13
right_child=8 3 -4 4 -6 6 -8 9 10 -11 11 13 -14 -15
leaf_value=-0.013761702907549869 0.013267078155568286 -0.015041220122343534 -0.0082678503288185073 -0.011422201269844761 -0.016700588120931281 -0.013012087950872261 -0.0075335280578660768 -0.016123187214853951 0.0094196940234226728 -0.012401250072311017 0.010819034388042846 0.0096529603373763893 0.013517850078258316 0.011815408870771333
leaf_weight=23 20 23 30 44 51 31 24 30 163 32 37 104 29 23
leaf_count=23 20 23 30 44 51 31 24 30 163 32 37 104 29 23
internal_value=0.000184662 -0.0130682 -0.0107299 -0.013578 -0.014319 -0.0120318 -0.0106939 -0.0131301 0.0103445 -0.0142736 0.0101683 0.0107797 0.0120689 0.0100772
internal_weight=664 288 53 235 157 78 55 106 376 62 356 193 66 127
internal_count=664 288 53 235 157 78 55 106 376 62 356 193 66 127
is_linear=0
shrinkage=0.03


Tree=35
num_leaves=17
num_cat=1
split_feature=7 32 20 31 22 32 27 28 21 19 22 25 24 3 30 24
split_gain=91.517 0.288179 0.552457 0.224013 0.207351 0.313156 0.197826 0.538482 0.218791 0.145498 0.153118 0.135261 0.0869529 0.0553722 0.0193656 0.00289913
threshold=0 -0.0011882467078976331 -2.5327056646347041 -1.1832305192947385 -1.0966661572456358 -0.88156664371490467 -0.2656369805335998 -1.1756847500801084 1.267361640930176 -1.437523305416107 -0.2251426354050636 -1.5671584606170652 -1.62727814912796 3961124135566.7407 -0.84676256775856007 -0.78059375286102284
decision_type=9 2 2 2 2 2 2 2 2 2 2 2 2 2 2 2
left_child=4 3 -3 -2 5 -1 8 -8 -4 -5 14 -6 -13 -14 -11 -15
right_child=1 2 6 9 11 -7 7 -9 -10 10 -12 12 13 15 -16 -17
leaf_value=0.015277496638582711 -0.016885382746914764 -0.0072081515836319799 -0.0080618754001450244 -0.010534534378354731 0.011535201226199032 0.01028393344440654 -0.0090007020599806482 -0.015440638207409315 -0.01302386134418089 -0.010608892959556471 -0.016134237997316347 0.010940323564049182 0.0079084950390051426 0.0079088265190561443 -0.013387989857928101 0.009723502463379571
leaf_weight=20 23 27 24 30 43 54 20 47 20 20 27 42 73 25 47 116
leaf_count=20 23 27 24 30 43 54 20 47 20 20 27 42 73 25 47 116
internal_value=0.000253672 -0.0125387 -0.01138 -0.0135975 0.0100368 0.0116928 -0.0123604 -0.0135793 -0.0104098 -0.0129504 -0.0136775 0.00961309 0.00927415 0.00892817 -0.0126202 0.00942885
internal_weight=658 285 138 147 373 74 111 67 44 124 94 299 256 214 67 141
internal_count=658 285 138 147 373 74 111 67 44 124 94 299 256 214 67 141
cat_boundaries=0 1
cat_threshold=1
is_linear=0
shrinkage=0.03


Tree=36
num_leaves=22
num_cat=0
split_feature=3 32 20 12 33 12 30 19 4 31 3 4 20 2 21 19 12 12 26 28 26
split_gain=86.1567 0.268705 0.518263 0.340604 0.187826 0.300818 0.161827 0.292678 0.196982 0.138476 0.126691 0.105753 0.0664704 0.0640573 0.048192 0.0410234 0.0357654 0.0222691 0.0210332 0.0175658 0.0164552
threshold=2106311703621.6389 -0.0011882467078976331 -2.5327056646347041 635.00000000000011 -0.54312172532081593 75.000000000000014 -1.3711612224578855 1.8305429816246035 119.2655080931231 -0.7653265893459319 315932696319.99445 124.49621006272866 0.23721226304769519 2019.5000000000002 0.15444150567054751 -1.437523305416107 345.00000000000006 262.50000000000006 -0.20442449301481244 -0.014981379266828297 -0.16344019770622251
decision_type=2 2 2 2 2 2 2 2 2 2 2 2 2 2 2 2 2 2 2 2 2
left_child=1 3 -3 9 14 -6 -4 8 -8 -1 15 13 18 -7 19 -11 -15 -14 -13 -2 -5
right_child=4 2 6 20 5 11 7 -9 -10 10 -12 12 17 16 -16 -17 -18 -19 -20 -21 -22
leaf_value=-0.014715723837831171 0.0064220173829105274 -0.0069927048600687755 -0.014939153429597472 -0.01361906200647354 0.01381817883707552 0.0096090422596806172 -0.011591792440553986 -0.013968221624428252 -0.0075313799732065721 -0.010119399283063636 -0.0085734794970372275 0.0086989493082221762 0.0090828461638677895 0.01017337540425866 0.0099453370788387049 -0.01317105006258238 0.013286961888915058 0.0068879991772265916 0.010794544700224687 0.0084364520877084886 -0.016983726504633478
leaf_weight=22 25 27 21 21 24 47 33 30 27 21 21 35 32 22 32 36 27 30 47 52 26
leaf_count=22 25 27 21 21 24 47 33 30 27 21 21 35 32 22 32 36 27 30 47 52 26
internal_value=0.000245302 -0.0121666 -0.0110424 -0.0131934 0.00973769 0.0102391 -0.0119932 -0.0112567 -0.0098301 -0.0120291 -0.011215 0.00986313 0.00917172 0.0108584 0.00848742 -0.012119 0.0119737 0.00808193 0.00994831 0.0078305 -0.0155762
internal_weight=658 285 138 147 373 264 111 90 60 100 78 240 144 96 109 57 49 62 82 77 47
internal_count=658 285 138 147 373 264 111 90 60 100 78 240 144 96 109 57 49 62 82 77 47
is_linear=0
shrinkage=0.03


Tree=37
num_leaves=20
num_cat=1
split_feature=5 32 20 23 19 12 4 22 32 12 32 4 4 4 29 19 29 33 25
split_gain=81.1246 0.250699 0.486157 0.39198 0.465483 0.31782 0.204037 0.186302 0.286927 0.177786 0.139105 0.206037 0.0931762 0.0641475 0.0492852 0.0287366 0.0476055 0.00975054 0.00230739
threshold=0 -0.0011882467078976331 -2.5327056646347041 1.1972259879112246 1.8305429816246035 635.00000000000011 119.2655080931231 -1.0966661572456358 -0.88156664371490467 795.00000000000011 -0.51593768596649159 118.18795367845952 124.49621006272866 118.78191561322691 -0.53622454404830922 -1.8176372051239011 0.51366567611694347 -0.26130950450897211 -0.12688506394624707
decision_type=1 2 2 2 2 2 2 2 2 2 2 2 2 2 2 2 2 2 2
left_child=1 5 -3 4 6 10 -4 8 -2 12 11 -1 13 -9 -12 -14 17 -17 -11
right_child=7 2 3 -5 -6 -7 -8 9 -10 18 14 -13 15 -15 -16 16 -18 -19 -20
leaf_value=-0.012421872752098849 0.014464140107382588 -0.006783697834149058 -0.010347560101397521 -0.014849950239445976 -0.01355056701704513 -0.015112742070156107 -0.0059855833378705111 0.0086574594540341845 0.0096735935026087717 0.011962254593592946 -0.011453154058522218 -0.0081369541117464091 0.0061806088219886705 0.011032902183186295 -0.015029745464129329 0.0078219905945346169 0.0070095053605579724 0.0096105175454723364 0.0095220588699754961
leaf_weight=28 20 27 28 30 30 47 23 59 54 28 23 28 21 35 21 39 43 49 25
leaf_count=28 20 27 28 30 30 47 23 59 54 28 23 28 21 35 21 39 43 49 25
internal_value=0.000237692 -0.0118062 -0.0107149 -0.0116372 -0.0103934 -0.0128022 -0.00845467 0.00944884 0.0110266 0.00904477 -0.0116723 -0.0103512 0.00863124 0.0095846 -0.0132584 0.00801602 0.00828243 0.00886171 0.0108878
internal_weight=658 285 138 111 81 147 51 373 74 299 100 56 246 94 44 152 131 88 53
internal_count=658 285 138 111 81 147 51 373 74 299 100 56 246 94 44 152 131 88 53
cat_boundaries=0 1
cat_threshold=1
is_linear=0
shrinkage=0.03


Tree=38
num_leaves=20
num_cat=1
split_feature=5 32 20 23 19 12 4 22 32 12 32 4 4 4 27 29 22 27 33
split_gain=76.3819 0.233554 0.455977 0.366142 0.435652 0.295777 0.190369 0.173274 0.268067 0.165601 0.128766 0.195485 0.085821 0.0585482 0.0466904 0.0438382 0.0261015 0.0236605 0.00132269
threshold=0 -0.0011882467078976331 -2.5327056646347041 1.1972259879112246 1.8305429816246035 635.00000000000011 119.2655080931231 -1.0966661572456358 -0.88156664371490467 795.00000000000011 -0.51593768596649159 118.78191561322691 124.49621006272866 118.78191561322691 0.76806291937828075 -0.53622454404830922 0.048466527834534652 0.90544986724853527 -0.57245603203773487
decision_type=1 2 2 2 2 2 2 2 2 2 2 2 2 2 2 2 2 2 2
left_child=1 5 -3 4 6 10 -4 8 -2 12 11 -1 13 18 -11 -12 17 -14 -9
right_child=7 2 3 -5 -6 -7 -8 9 -10 14 15 -13 16 -15 -16 -17 -18 -19 -20
leaf_value=-0.011594259041305791 0.014032374736088425 -0.006580937909739043 -0.010038237480274352 -0.014405931604336142 -0.013145400951570055 -0.014660322526380845 -0.0058067929454438099 0.0069482357110550149 0.0093839221220470385 0.0093358831296694589 -0.011111046692670939 -0.0072737027484023175 0.0052161129019153638 0.010702857975012216 0.012384848843759564 -0.014580989708722307 0.0081832191950291996 0.0077261618726061423 0.0090453346359455362
leaf_weight=35 20 27 28 30 30 47 23 20 54 33 23 21 20 35 20 21 111 21 39
leaf_count=35 20 27 28 30 30 47 23 20 54 33 23 21 20 35 20 21 111 21 39
internal_value=0.000230344 -0.011456 -0.0103972 -0.0112917 -0.0100849 -0.0124219 -0.00820375 0.00916831 0.010698 0.00877625 -0.0113263 -0.0100434 0.00837474 0.00929864 0.0105641 -0.0128645 0.00777792 0.00659041 0.00839817
internal_weight=658 285 138 111 81 147 51 373 74 299 100 56 246 94 53 44 152 41 59
internal_count=658 285 138 111 81 147 51 373 74 299 100 56 246 94 53 44 152 41 59
cat_boundaries=0 1
cat_threshold=1
is_linear=0
shrinkage=0.03


Tree=39
num_leaves=20
num_cat=2
split_feature=5 32 20 23 12 8 31 22 32 12 32 4 4 29 26 4 29 26 18
split_gain=71.9174 0.217484 0.42762 0.341907 0.275145 0.22457 0.165601 0.161074 0.250371 0.154195 0.119107 0.182119 0.0805871 0.038787 0.0212023 0.00896778 0.0023296 0.00730435 0.0376694
threshold=0 -0.0011882467078976331 -2.5327056646347041 1.1972259879112246 635.00000000000011 1 0.51178720593452465 -1.0966661572456358 -0.88156664371490467 795.00000000000011 -0.51593768596649159 118.18795367845952 126.43715323239572 -0.53622454404830922 0.21839612722396853 118.78191561322691 0.26926550269126898 -0.20442449301481244 3.6069709062576298
decision_type=1 2 2 2 2 1 2 2 2 2 2 2 2 2 2 2 2 2 2
left_child=1 4 -3 5 10 -4 -7 8 -2 12 11 -1 15 -12 -6 -9 17 -14 -19
right_child=7 2 3 -5 14 6 -8 9 -10 -11 13 -13 16 -15 -16 -17 -18 18 -20
leaf_value=-0.011703953178354218 0.013613497801681062 -0.0063842382394739619 -0.012051992725754617 -0.01397518948452281 -0.012323467517999924 -0.0057476028627646497 -0.0098762302052390529 0.0081485651062829824 0.0091029247831615184 0.010250089461520565 -0.010779158395606201 -0.0076439904535580356 0.0069663429496538299 -0.014145634108867444 -0.015586397152008682 0.0097483511777695063 0.006650680244369378 0.0072691427598673974 0.010117263846911525
leaf_weight=28 20 27 31 30 21 20 30 59 54 53 23 28 39 21 26 50 52 25 21
leaf_count=28 20 27 31 30 21 20 30 59 54 53 23 28 39 21 26 50 52 25 21
internal_value=0.000223223 -0.0111163 -0.010089 -0.0109565 -0.0120529 -0.00978568 -0.00829943 0.00889618 0.0103792 0.00851577 -0.0109905 -0.00974469 0.00812591 -0.0124823 -0.0142214 0.00891817 0.00746765 0.00792378 0.00865357
internal_weight=658 285 138 111 147 81 50 373 74 299 100 56 246 44 47 109 137 85 46
internal_count=658 285 138 111 147 81 50 373 74 299 100 56 246 44 47 109 137 85 46
cat_boundaries=0 1 2
cat_threshold=1 1
is_linear=0
shrinkage=0.03


Tree=40
num_leaves=18
num_cat=1
split_feature=5 12 28 28 4 26 19 24 28 26 4 25 29 28 28 4 23
split_gain=71.9428 0.406521 0.408492 0.273166 0.183398 0.176688 0.164973 0.294278 0.17692 0.140082 0.124021 0.0344353 0.030197 0.0288728 0.0132912 0.0116447 0.00553618
threshold=0 665.00000000000011 1.3316814303398135 -0.73052307963371266 118.18795367845952 0.87873053550720226 -0.44041752815246576 0.74451115727424633 1.0775831341743471 -0.35631199181079859 117.74280706823112 -1.1255997419357298 -0.21484678238630292 -1.0153155922889707 -0.7107027769088744 132.2357534358608 -0.31206808984279627
decision_type=1 2 2 2 2 2 2 2 2 2 2 2 2 2 2 2 2
left_child=1 2 4 -3 5 10 7 8 13 -6 16 -8 -5 -2 -15 -9 -1
right_child=6 3 -4 12 9 -7 11 15 -10 -11 -12 -13 -14 14 -16 -17 -18
leaf_value=-0.010983154285884551 0.007635592371225357 -0.0096276213180322145 -0.0062348828029322925 -0.013004684882347597 -0.01156657073300362 -0.015092232125018959 0.0089091586638353551 0.0079419446618200461 0.012912781597173064 -0.00868316366660472 -0.013412899795700522 0.0073995044285406061 -0.015881565126949819 0.011573503108527422 0.0092979412039348591 0.0057678924923512467 -0.0083815917932379864
leaf_weight=22 22 23 23 46 37 20 50 32 24 63 22 139 24 21 61 20 21
leaf_count=22 22 23 23 46 37 20 50 32 24 63 22 139 24 21 61 20 21
internal_value=-0.000312387 -0.0111992 -0.010372 -0.0130039 -0.0108665 -0.0120841 0.00856066 0.00931772 0.0101581 -0.00979048 -0.0110907 0.00781925 -0.0140551 0.00948176 0.00993063 0.00717603 -0.00980462
internal_weight=670 301 208 93 185 85 369 180 128 100 65 189 70 104 82 52 43
internal_count=670 301 208 93 185 85 369 180 128 100 65 189 70 104 82 52 43
cat_boundaries=0 1
cat_threshold=1
is_linear=0
shrinkage=0.03


Tree=41
num_leaves=19
num_cat=2
split_feature=7 12 28 28 19 24 28 27 3 20 28 29 25 29 28 28 20 8
split_gain=67.7341 0.380112 0.382868 0.254689 0.154345 0.275187 0.164336 0.0952744 0.0851171 0.0754256 0.0596839 0.0388145 0.031952 0.0257845 0.025383 0.0106638 0.00859599 0.000838729
threshold=0 665.00000000000011 1.3316814303398135 -0.73052307963371266 -0.44041752815246576 0.74451115727424633 1.0775831341743471 -1.2246503829956052 315932696319.99445 -0.48436778783798212 -0.69376796483993519 -0.10685977339744566 -1.8563513755798338 -0.21484678238630292 -1.0153155922889707 -0.7107027769088744 0.029692223295569423 1
decision_type=9 2 2 2 2 2 2 2 2 2 2 2 2 2 2 2 2 1
left_child=4 2 7 -3 5 6 14 -2 9 11 -11 -9 -6 17 -1 -16 -7 -5
right_child=1 3 -4 13 12 16 -8 8 -10 10 -12 -13 -14 -15 15 -17 -18 -19
leaf_value=0.0074075609128669371 -0.012925568026996745 -0.0093400429542382039 -0.0060486461968439348 -0.014061995496293661 0.0089042250089698214 0.0079105175363606423 0.012527005215527111 -0.010719896858619852 -0.0086246145644312041 -0.013286864981278639 -0.010449325528931278 -0.0076954322925250444 0.0072498870640658542 -0.015407095301849959 0.011227943485523287 0.0090194596201425281 0.0058743891119956964 -0.011229537758694227
leaf_weight=22 24 23 23 21 36 26 24 21 46 27 45 22 153 24 21 61 26 25
leaf_count=22 24 23 23 21 36 26 24 21 46 27 45 22 153 24 21 61 26 25
internal_value=-0.000303335 -0.010867 -0.0100645 -0.0126169 0.00830613 0.0090416 0.00985641 -0.010544 -0.0101626 -0.0107437 -0.011572 -0.00926355 0.00758541 -0.013636 0.00919986 0.00963457 0.00696326 -0.0126154
internal_weight=670 301 208 93 369 180 128 185 161 115 72 43 189 70 104 82 52 46
internal_count=670 301 208 93 369 180 128 185 161 115 72 43 189 70 104 82 52 46
cat_boundaries=0 1 2
cat_threshold=1 1
is_linear=0
shrinkage=0.03


Tree=42
num_leaves=18
num_cat=1
split_feature=7 12 30 18 32 19 24 18 25 31 19 3 3 23 25 20 30
split_gain=63.7754 0.355827 0.169183 0.239556 0.226858 0.144367 0.257266 0.139057 0.123756 0.105303 0.0529798 0.0419916 0.0350382 0.0719964 0.0286522 0.00674385 0.00512912
threshold=0 665.00000000000011 1.1248661875724795 -4.359959363937377 0.13880023360252383 -0.44041752815246576 0.74451115727424633 -6.7471148967742911 -1.5289768576622007 0.53002581000328075 -2.219401359558105 4031227684478.3267 315932696319.99445 1.0000000180025095e-35 -1.8563513755798338 0.029692223295569423 0.29352170228958135
decision_type=9 2 2 2 2 2 2 2 2 2 2 2 2 2 2 2 2
left_child=5 2 3 4 -2 6 9 -3 -9 10 -1 -11 13 16 -7 -8 -5
right_child=1 7 -4 12 -6 14 15 8 -10 11 -12 -13 -14 -15 -16 -17 -18
leaf_value=0.011820171437202357 -0.0095814529356911139 -0.0096353234921454523 -0.012464284992766106 -0.013493954552297802 -0.0058791813919955339 0.0086378382010142887 0.0076741112734394516 -0.010327121801118352 -0.014135032475085704 0.006881483846594926 0.0091639432075086569 0.0094159554878127903 -0.0085976627469062806 -0.0094751910079161027 0.0070325325078961741 0.0056988327085286715 -0.010547214528784083
leaf_weight=35 39 24 26 21 36 36 26 20 49 27 34 32 26 39 153 26 21
leaf_count=35 39 24 26 21 36 36 26 20 49 27 34 32 26 39 153 26 21
internal_value=-0.000294726 -0.0105452 -0.00976616 -0.00935761 -0.0078545 0.00805922 0.00877375 -0.0122429 -0.0130912 0.00956377 0.0105699 0.00832048 -0.0103749 -0.010897 0.00735858 0.00675689 -0.0121204
internal_weight=670 301 208 182 75 369 180 93 69 128 69 59 107 81 189 52 42
internal_count=670 301 208 182 75 369 180 93 69 128 69 59 107 81 189 52 42
cat_boundaries=0 1
cat_threshold=1
is_linear=0
shrinkage=0.03


Tree=43
num_leaves=19
num_cat=1
split_feature=1 12 30 18 32 18 24 31 27 22 25 31 34 30 3 23 12 26
split_gain=60.046 0.332524 0.156958 0.22401 0.211959 0.1286 0.125718 0.155134 0.158147 0.218074 0.113812 0.0908729 0.0598482 0.131904 0.0258428 0.0249966 0.0101612 0.00183405
threshold=0 665.00000000000011 1.1248661875724795 -4.359959363937377 0.13880023360252383 -6.7471148967742911 0.88026174902915966 -0.18640892207622525 -0.28545100986957544 0.4687523245811463 -1.5289768576622007 0.47492279112339025 2.5000000000000004 -0.11423563957214354 4031227684478.3267 -0.17963090538978574 105.00000000000001 -0.35631199181079859
decision_type=1 2 2 2 2 2 2 2 2 2 2 2 2 2 2 2 2 2
left_child=1 2 3 4 -1 -3 7 8 17 -10 -7 16 13 -5 -13 -14 -9 -2
right_child=6 5 -4 12 -6 10 -8 11 9 -11 -12 14 15 -15 -16 -17 -18 -19
leaf_value=-0.0092947445745053502 0.0070015406009987886 -0.0093474632475130971 -0.012091789152259114 -0.013451400942850246 -0.0057032945916221742 -0.010018849575252675 0.0067389496364858885 0.0050863150165358917 0.013389230165908584 0.0088146954353826527 -0.013711845156435082 0.007209689599677614 -0.010001891398584687 -0.0096546742365078344 0.0093353675253629032 -0.007300041742723991 0.0069451415013600561 0.0088465166141424457
leaf_weight=39 35 24 26 20 36 20 104 21 20 36 49 34 23 42 37 22 52 30
leaf_count=39 35 24 26 20 36 20 104 21 20 36 49 34 23 42 37 22 52 30
internal_value=-0.000286188 -0.0102326 -0.00947678 -0.0090803 -0.00762069 -0.0118787 0.00781969 0.00822981 0.0091525 0.0105229 -0.0127009 0.00742787 -0.0100673 -0.0109474 0.0083712 -0.00876662 0.00645914 0.00791143
internal_weight=670 301 208 182 75 93 369 265 121 56 69 144 107 62 71 45 73 65
internal_count=670 301 208 182 75 93 369 265 121 56 69 144 107 62 71 45 73 65
cat_boundaries=0 1
cat_threshold=2
is_linear=0
shrinkage=0.03


Tree=44
num_leaves=21
num_cat=1
split_feature=1 19 28 3 28 34 27 19 24 28 20 28 27 34 25 3 19 28 3 25
split_gain=56.5376 0.19968 0.290333 0.261552 0.218315 0.137263 0.216223 0.126683 0.228526 0.13464 0.0665074 0.0268309 0.0261799 0.0579544 0.0261646 0.0172372 0.0814997 0.0130775 0.00644557 0.00152448
threshold=0 0.18447683006525042 0.24168008565902713 295463185185.79865 1.3316814303398135 2.5000000000000004 0.11813169717788698 -0.44041752815246576 0.74451115727424633 1.0775831341743471 1.0515956282615664 -1.0153155922889707 -0.55983465909957875 1.5000000000000002 -1.1255997419357298 315932696319.99445 1.190223813056946 -0.7107027769088744 4031227684478.3267 -0.45238147675991053
decision_type=1 2 2 2 2 2 2 2 2 2 2 2 2 2 2 2 2 2 2 2
left_child=1 4 3 -3 5 12 -7 8 9 11 -5 -2 -1 -14 -9 16 -4 -13 -10 -16
right_child=7 2 15 10 -6 6 -8 14 18 -11 -12 17 13 -15 19 -17 -18 -19 -20 -21
leaf_value=-0.0090228825355816739 0.0066636326089838504 -0.011795492190483611 -0.013329308878678779 -0.0060591716677337497 -0.0063721883651549826 -0.010113940338950233 -0.006007472328030645 0.0079172321118994374 0.0051659655031575328 0.011465101944460413 -0.0091681933848114759 0.010376231471579785 -0.0096719070776963411 -0.013255747475437988 0.0052744633679691691 -0.014120524587674379 -0.0098004663706073233 0.008228572650817138 0.0071004262437852116 0.0067737893657605092
leaf_weight=22 22 29 23 23 30 33 27 50 22 24 23 21 20 22 24 22 27 61 30 115
leaf_count=22 22 29 23 23 30 33 27 50 22 24 23 21 20 22 24 22 27 61 30 115
internal_value=-0.000277724 -0.00992927 -0.0108468 -0.00933423 -0.00902751 -0.0096401 -0.00832902 0.00758765 0.00826302 0.00901077 -0.00769527 0.0084051 -0.0108075 -0.0116474 0.00692454 -0.0123656 -0.011507 0.00882709 0.00635107 0.00654046
internal_weight=670 301 147 75 154 124 60 369 180 128 46 104 64 42 189 72 50 82 52 139
internal_count=670 301 147 75 154 124 60 369 180 128 46 104 64 42 189 72 50 82 52 139
cat_boundaries=0 1
cat_threshold=2
is_linear=0
shrinkage=0.03


Tree=45
num_leaves=16
num_cat=0
split_feature=3 19 4 19 12 12 4 32 28 25 22 27 24 22 22
split_gain=49.683 0.249061 0.249033 0.206922 0.2303 0.18506 0.168983 0.187795 0.0870617 0.0597659 0.0390784 0.0223514 0.0173822 0.0119226 0.0113088
threshold=2106311703621.6389 1.1902239918708803 117.52902357427357 0.7497307062149049 665.00000000000011 26.250000000000004 117.86815741863882 -0.30426509678363794 0.71281161904335033 -1.5671584606170652 -1.261013865470886 0.75999242067337047 0.31094230711460119 0.30622868239879614 1.5928171277046206
decision_type=2 2 2 2 2 2 2 2 2 2 2 2 2 2 2
left_child=1 2 -1 4 8 -2 -3 -8 12 -7 -11 13 -4 -12 -15
right_child=5 6 3 -5 -6 9 7 -9 -10 10 11 -13 -14 14 -16
leaf_value=-0.011459744557015877 0.010324545811329569 -0.013621157714492314 -0.0090954061690191757 -0.0050196460813672333 -0.011012713619563569 0.0083856139798215365 -0.012065569780409555 -0.0080946168583159572 -0.0060296298078326288 0.0084551540153268157 0.0056285841610397543 0.0073642929056689033 -0.0069563344950703048 0.0072974608120494992 0.0056969461632819336
leaf_weight=32 23 23 53 21 35 56 27 34 30 30 68 94 23 62 33
leaf_count=32 23 23 53 21 35 56 27 34 30 30 68 94 23 62 33
internal_value=0.000107651 -0.00944667 -0.00876078 -0.00820241 -0.00865128 0.00737355 -0.0109828 -0.00991822 -0.00783364 0.00716398 0.00691232 0.00671734 -0.00849747 0.00632157 0.00677961
internal_weight=644 278 194 162 141 366 84 61 106 343 287 257 76 163 95
internal_count=644 278 194 162 141 366 84 61 106 343 287 257 76 163 95
is_linear=0
shrinkage=0.03


Tree=46
num_leaves=18
num_cat=1
split_feature=1 29 4 19 23 12 23 26 23 19 23 23 32 22 18 24 31
split_gain=46.7777 0.29149 0.249128 0.506713 0.350488 0.172628 0.162806 0.157648 0.137961 0.0675379 0.0450197 0.0647716 0.0618284 0.0293996 0.0209344 0.0128525 0.00382463
threshold=0 1.6256852149963381 119.2655080931231 1.186323404312134 -0.19308520853519437 26.250000000000004 -0.83786854147911061 0.8794618844985963 -0.20973039418458936 0.18447683006525042 2.2417933940887456 0.46698528528213507 0.70297694206237804 0.43799346685409551 8.2360439300537127 0.66829755902290355 -1.2421813607215879
decision_type=1 2 2 2 2 2 2 2 2 2 2 2 2 2 2 2 2
left_child=1 2 7 4 -4 -2 -5 8 9 -1 11 14 13 -13 16 -10 -7
right_child=5 -3 3 6 -6 10 -8 -9 15 -11 -12 12 -14 -15 -16 -17 -18
leaf_value=-0.0092304535912371231 0.010016150877315116 -0.0061567872045474635 -0.0036770080235451986 -0.0084411181601302884 -0.0085265369435316481 0.0054381632560224673 -0.012987427346374654 -0.012708314265881744 -0.0091704151097381226 -0.012355676370274597 0.0058245782554149621 0.010223407893754633 0.0064221986489257773 0.0077244313610464422 0.0051736106486483047 -0.0068312200114353377 0.0071104293432321464
leaf_weight=26 23 32 28 21 33 20 22 32 33 31 58 24 28 33 23 20 157
leaf_count=26 23 32 28 21 33 20 22 32 33 31 58 24 28 33 23 20 157
internal_value=0.000103861 -0.00916676 -0.00954345 -0.00825823 -0.00635928 0.00715426 -0.0108615 -0.0104572 -0.00976407 -0.0110013 0.00695074 0.00716728 0.00809079 0.00884523 0.00675595 -0.00835872 0.00694159
internal_weight=644 278 246 104 61 366 43 142 110 57 343 285 85 57 200 53 177
internal_count=644 278 246 104 61 366 43 142 110 57 343 285 85 57 200 53 177
cat_boundaries=0 1
cat_threshold=2
is_linear=0
shrinkage=0.03


Tree=47
num_leaves=18
num_cat=1
split_feature=3 19 4 20 19 12 12 33 13 25 27 22 26 27 22 22 32
split_gain=44.0469 0.213008 0.223059 0.201544 0.195272 0.210527 0.160923 0.13372 0.0822278 0.0525541 0.0403492 0.032404 0.0216589 0.018002 0.00985035 0.00988179 0.000286113
threshold=2106311703621.6389 1.1902239918708803 117.52902357427357 -0.90772047638893116 0.7497307062149049 665.00000000000011 26.250000000000004 0.050848064944148071 0 -1.5671584606170652 0.68081524968147289 -1.261013865470886 0.37471114099025732 0.75999242067337047 0.30622868239879614 1.5928171277046206 -0.022234794683754441
decision_type=2 2 2 2 2 2 2 2 9 2 2 2 2 2 2 2 2
left_child=1 2 -1 -3 5 8 -2 -5 10 -8 12 -11 -4 14 -13 -16 -15
right_child=6 3 4 7 -6 -7 9 -9 -10 11 -12 13 -14 16 15 -17 -18
leaf_value=-0.010819513797107213 0.0097169667912961593 -0.0074584710346413891 -0.009229799825531404 -0.0095566849803952417 -0.0046334820180707623 -0.010420581445766566 0.0079065118809753549 -0.013186041735803957 -0.005105423344326997 0.0079587114599852064 -0.0060798185494226904 0.0052819761013128035 -0.0069880815794453972 0.0063129998492525222 0.0068784170577545524 0.0053397604438203336 0.0077446215013115428
leaf_weight=32 23 23 39 32 21 35 56 29 20 30 22 68 25 56 62 33 38
leaf_count=32 23 23 39 32 21 35 56 29 20 30 22 68 25 56 62 33 38
internal_value=0.000100177 -0.00889564 -0.00825401 -0.0103303 -0.00772238 -0.00815756 0.00694183 -0.01135 -0.00737294 0.00674422 -0.00785889 0.0065043 -0.0084132 0.00631983 0.00594481 0.00638166 0.00693124
internal_weight=644 278 194 84 162 141 366 61 106 343 86 287 64 257 163 95 94
internal_count=644 278 194 84 162 141 366 61 106 343 86 287 64 257 163 95 94
cat_boundaries=0 1
cat_threshold=4
is_linear=0
shrinkage=0.03


Tree=48
num_leaves=24
num_cat=1
split_feature=1 20 33 33 4 20 32 26 24 3 24 33 25 22 25 4 3 4 26 33 25 28 21
split_gain=41.4762 0.157276 0.426667 0.268978 0.150549 0.166691 0.142835 0.147632 0.0732031 0.464232 0.137211 0.146926 0.0385763 0.036107 0.0191038 0.0222688 0.0418108 0.0212791 0.01388 0.00894195 0.00222362 0.0234404 0.000535204
threshold=0 -2.5327056646347041 0.48890981078147894 -0.010345407761633394 117.86815741863882 -0.048253474757075303 -1.4095405936241148 1.0261285305023196 -0.22234681993722913 295463185185.79865 0.93460324406623851 -0.79935568571090687 -1.5671584606170652 -0.52477881312370289 -0.45583507418632502 132.2357534358608 4069636619068.7515 118.78191561322691 -0.20442449301481244 -0.48214967548847193 0.79013034701347362 0.16122762113809588 -0.19473349303007123
decision_type=1 2 2 2 2 2 2 2 2 2 2 2 2 2 2 2 2 2 2 2 2 2 2
left_child=1 2 -1 8 -5 -6 7 -2 9 -3 11 -10 -8 -7 -14 16 17 -16 20 -20 21 -17 -18
right_child=6 3 -4 4 5 13 12 -9 10 -11 -12 -13 14 -15 15 18 22 -19 19 -21 -22 -23 -24
leaf_value=-0.0092488061666033475 0.0067607948322271558 -0.0099169721381740881 -0.003554188665244486 -0.01236016245458621 -0.011874259877115932 -0.0092460945622898395 0.0078022151414274847 0.010764836989231962 -0.0081681056607416595 -0.0035853934597177618 -0.0064669233600705344 -0.012036589757667334 0.0050214119709733208 -0.0063931667042004554 0.0064933715074173516 0.0070037525186041521 0.0054532245922919425 0.0089552967986841307 0.0054101967900546622 0.0075768805879995633 0.0043946956562083816 0.0047291664357679295 0.0069027967473022879
leaf_weight=31 29 22 23 33 20 21 37 20 36 24 26 21 34 21 22 21 39 26 20 25 28 25 40
leaf_count=31 29 22 23 33 20 21 37 20 36 24 26 21 34 21 22 21 39 26 20 25 28 25 40
internal_value=9.66295e-05 -0.00863259 -0.00688983 -0.00903607 -0.0103763 -0.0092538 0.00673576 0.00847479 -0.00801859 -0.00669356 -0.00870791 -0.00966446 0.0064549 -0.00790946 0.00626343 0.00642079 0.00689426 0.00790513 0.00588494 0.00669456 0.00534375 0.00584558 0.00623291
internal_weight=644 278 54 224 95 62 366 49 129 46 83 57 317 42 280 246 127 48 119 45 74 46 79
internal_count=644 278 54 224 95 62 366 49 129 46 83 57 317 42 280 246 127 48 119 45 74 46 79
cat_boundaries=0 1
cat_threshold=2
is_linear=0
shrinkage=0.03


Tree=49
num_leaves=18
num_cat=1
split_feature=1 29 4 19 2 23 12 22 29 29 30 22 12 3 22 25 25
split_gain=39.0663 0.255776 0.221281 0.359702 0.198322 0.270223 0.144765 0.0792796 0.0733351 0.0930678 0.0577632 0.0701152 0.0428258 0.0293514 0.0487927 0.0425315 0.0385759
threshold=0 1.091130316257477 117.52902357427357 1.186323404312134 2020.5000000000002 -0.19308520853519437 26.250000000000004 0.096424136310815825 -1.3213160037994383 0.014951557386666538 0.44610598683357244 -0.72408804297447193 775.00000000000011 3904620736288.6938 -1.261013865470886 -1.1957739591598509 -0.45583507418632502
decision_type=1 2 2 2 2 2 2 2 2 2 2 2 2 2 2 2 2
left_child=1 2 -1 4 8 -6 -2 -3 -4 -10 11 -5 13 -8 -15 -16 -17
right_child=6 7 3 10 5 -7 12 -9 9 -11 -12 -13 -14 14 15 16 -18
leaf_value=-0.011245692512999486 0.009182028257856507 -0.0074483246601508178 -0.009907154603778414 -0.010783895863525902 -0.0027247036744562363 -0.0076146167709395798 0.0050005670941541871 -0.0044380572665803026 -0.0052522739542842792 -0.0086935026678015507 -0.011739178833376045 -0.0073704124610967838 0.0073900134680473465 0.0080485611533619977 0.0074431420085776566 0.0041698809488699669 0.0060404076158104966
leaf_weight=37 23 28 28 20 21 26 46 22 20 25 28 23 60 25 35 24 153
leaf_count=37 23 28 28 20 21 26 46 22 20 25 28 23 60 25 35 24 153
internal_value=9.38444e-05 -0.00837785 -0.00884042 -0.00835314 -0.00724731 -0.00550388 0.00653735 -0.00619519 -0.00831968 -0.00724562 -0.0101671 -0.00904902 0.00634864 0.00611473 0.00631613 0.00609399 0.00580621
internal_weight=644 278 228 191 120 47 366 50 73 45 71 43 343 283 237 212 177
internal_count=644 278 228 191 120 47 366 50 73 45 71 43 343 283 237 212 177
cat_boundaries=0 1
cat_threshold=2
is_linear=0
shrinkage=0.03


Tree=50
num_leaves=23
num_cat=1
split_feature=7 30 29 25 18 32 23 26 18 3 25 29 24 22 25 28 21 32 30 21 18 27
split_gain=39.5791 0.206433 0.112311 0.106942 0.0801556 0.329389 0.146938 0.162196 0.152593 0.0769377 0.0969303 0.0575492 0.206077 0.0639221 0.0375082 0.0353334 0.0273375 0.0265049 0.0162338 0.0157534 0.00455855 0.00202113
threshold=0 -1.4830321073532102 -1.7291930913925169 1.7068751454353335 -6.7471148967742911 -0.30426509678363794 -1.2014849185943601 -0.10021202266216277 -1.4748005270957945 3904620736288.6938 -1.1743203997611997 -0.10685977339744566 0.14836294203996661 -0.65033766627311695 -0.45583507418632502 0.16122762113809588 0.11120331659913064 -0.24947309494018552 0.24583993107080462 -1.3743818402290342 1.9514300823211672 -0.5728853940963744
decision_type=9 2 2 2 2 2 2 2 2 2 2 2 2 2 2 2 2 2 2 2 2 2
left_child=3 -2 -3 9 5 -4 7 -6 11 18 21 13 -13 -8 -12 16 19 -10 -1 -16 -17 -11
right_child=1 2 4 -5 6 -7 8 -9 17 10 14 12 -14 -15 15 20 -18 -19 -20 -21 -22 -23
leaf_value=0.0038704590580051707 -0.010921074009058699 -0.010631455386066324 -0.0092019615254618891 0.0083003562717115335 -0.0040950842576004311 -0.0040728404173224235 -0.0088115319666139304 -0.0083091045993764247 -0.0055230442001109152 0.0068167398337512135 0.0045039946248529228 -0.010272408689093742 -0.0060878818883631095 -0.01235717304121544 0.006327046841040425 0.0065464207855449328 0.0059655209335583992 -0.0080168858258617848 0.0058165554090667121 0.0085330024900471587 0.0050867989813572507 0.0087375838598584242
leaf_weight=29 33 21 23 32 21 29 21 21 21 36 29 31 25 21 26 26 62 24 20 27 68 24
leaf_count=29 33 21 23 32 21 29 21 21 21 36 29 31 25 21 26 26 62 24 20 27 68 24
internal_value=-5.89205e-05 -0.00838305 -0.00804269 0.00632504 -0.00779626 -0.00641238 -0.00816536 -0.00628809 -0.00869099 0.0061319 0.00634967 -0.0094591 -0.00847197 -0.0106808 0.00600663 0.00619853 0.0067145 -0.00693444 0.00473611 0.00752129 0.00552893 0.00764825
internal_weight=670 291 258 379 237 52 185 42 143 347 298 98 56 42 238 209 115 45 49 53 94 60
internal_count=670 291 258 379 237 52 185 42 143 347 298 98 56 42 238 209 115 45 49 53 94 60
cat_boundaries=0 1
cat_threshold=1
is_linear=0
shrinkage=0.03


Tree=51
num_leaves=21
num_cat=1
split_feature=5 12 29 30 22 34 30 4 4 30 18 3 26 27 25 29 33 32 34 26
split_gain=37.2784 0.201655 0.150991 0.144378 0.123768 0.170553 0.123224 0.104291 0.150832 0.0738112 0.0694412 0.0583806 0.058081 0.0570755 0.0462164 0.0352686 0.0204693 0.0169109 0.00407832 0.00347568
threshold=0 665.00000000000011 -1.7291930913925169 0.74654155969619762 0.21982335299253467 2.5000000000000004 0.29352170228958135 124.49621006272866 118.78191561322691 0.078800618648529067 1.4388653039932253 295463185185.79865 -0.034825833514332764 1.0338738560676577 1.1448620557785036 -1.0547464489936826 0.22712459415197375 -0.70725971460342396 1.5000000000000002 -0.13663546741008756
decision_type=1 2 2 2 2 2 2 2 2 2 2 2 2 2 2 2 2 2 2 2
left_child=1 2 -1 11 5 6 -4 8 13 -7 -10 -3 15 19 16 -9 -14 -17 -8 -2
right_child=7 3 4 -5 -6 9 18 12 10 -11 -12 -13 14 -15 -16 17 -18 -19 -20 -21
leaf_value=-0.010314023380313437 0.0047148389725056375 -0.0083575870683277719 -0.010164069491475233 -0.0073459509713111127 -0.0053334527565386345 -0.0047595791189908136 -0.0059826341257500108 0.0066974370470687522 0.010064822892124337 -0.0073726301101601352 0.0070472319145574941 -0.011425790253125522 0.004817031176980258 0.0075445740144978206 0.0081297141091147464 0.0036385350559175627 0.0066372887681946796 0.0051016451664379209 -0.008252617240841708 0.0061204835886913026
leaf_weight=21 40 20 38 30 38 28 20 20 21 36 34 40 33 28 20 29 35 81 20 38
leaf_count=21 40 20 38 30 38 28 20 20 21 36 34 40 33 28 20 29 35 81 20 38
internal_value=-5.72773e-05 -0.00813597 -0.00751918 -0.00947031 -0.00717091 -0.00763741 -0.00869884 0.00613822 0.00682145 -0.00628543 0.00827002 -0.0104686 0.00561698 0.00603448 0.00637707 0.00507489 0.00580635 0.00474682 -0.00721019 0.00544501
internal_weight=670 291 201 90 180 142 78 379 161 64 55 60 218 106 88 130 68 110 40 78
internal_count=670 291 201 90 180 142 78 379 161 64 55 60 218 106 88 130 68 110 40 78
cat_boundaries=0 1
cat_threshold=1
is_linear=0
shrinkage=0.03


Tree=52
num_leaves=20
num_cat=0
split_feature=3 30 4 19 31 29 19 24 31 27 32 26 26 18 4 24 4 31 21
split_gain=35.1083 0.185446 0.143156 0.186824 0.191938 0.145865 0.0971735 0.10029 0.106657 0.256775 0.0873137 0.0735778 0.116734 0.0423259 0.0316924 0.0303652 0.0165607 0.0104011 0.00465207
threshold=2106311703621.6389 -1.4830321073532102 118.78191561322691 1.1824229359626772 0.51178720593452465 -1.3565779924392698 -0.44041752815246576 0.75647154450416576 0.51178720593452465 -0.28545100986957544 -0.18638611584901807 0.94701901078224193 -0.82144173979759205 -5.5869932174682608 135.05514268920834 -1.4160867929458616 132.2357534358608 -0.14932929724454877 -0.034681165590882294
decision_type=2 2 2 2 2 2 2 2 2 2 2 2 2 2 2 2 2 2 2
left_child=1 -1 5 4 10 -3 7 8 9 -2 -4 12 -7 -14 -10 -8 -9 -5 -15
right_child=6 2 3 17 -6 11 15 16 14 -11 -12 -13 13 18 -16 -17 -18 -19 -20
leaf_value=-0.010312154277641426 0.0061345057077991684 -0.010845779477158769 -0.0055788761749863613 -0.0094775123758749531 -0.0073949914408994949 -0.0092701115088220463 0.0040094913240070881 0.0058832844690396516 0.0067473170740251316 0.010157558135340148 -0.0024317264445655714 -0.0095660197211092698 -0.007894658710974365 -0.006296450115691919 0.0045922828551782551 0.0055993359939524694 0.0039677690541574731 -0.0069893019435121051 -0.0043720884502816719
leaf_weight=33 39 24 21 23 35 24 29 36 34 32 21 27 20 23 25 163 21 20 20
leaf_count=33 39 24 21 23 35 24 29 36 34 32 21 27 20 23 25 163 21 20 20
internal_value=-5.53297e-05 -0.00789549 -0.00757088 -0.00666114 -0.00563668 -0.00833484 0.00595701 0.00653326 0.00707353 0.00800164 -0.00408607 -0.00777089 -0.00716899 -0.0063076 0.00589424 0.00537703 0.00523829 -0.00840871 -0.00548322
internal_weight=670 291 258 120 77 138 379 187 130 71 42 114 87 63 59 192 57 43 43
internal_count=670 291 258 120 77 138 379 187 130 71 42 114 87 63 59 192 57 43 43
is_linear=0
shrinkage=0.03


Tree=53
num_leaves=18
num_cat=1
split_feature=7 12 23 4 29 22 34 30 4 4 12 18 27 29 30 32 31
split_gain=33.0647 0.181742 0.139514 0.17072 0.134427 0.103064 0.11603 0.129756 0.0949007 0.14106 0.0778852 0.0607041 0.0527736 0.0343204 0.0428203 0.0115314 0.00568653
threshold=0 665.00000000000011 1.1776216030120852 119.2655080931231 -1.3776670098304746 0.21982335299253467 2.5000000000000004 0.29352170228958135 124.49621006272866 118.78191561322691 360.00000000000006 1.4388653039932253 1.0338738560676577 0.45332297682762152 -1.1294996738433836 -0.70726561546325672 -0.26216502487659449
decision_type=9 2 2 2 2 2 2 2 2 2 2 2 2 2 2 2 2
left_child=8 4 3 -3 -2 6 7 -6 9 12 -8 -11 -1 14 -10 -16 -17
right_child=1 2 -4 -5 5 -7 10 -9 13 11 -12 -13 -14 -15 15 16 -18
leaf_value=0.005103765931741765 -0.0091953306781708995 -0.0094660380443445657 -0.011032071513524842 -0.0057848595076917609 -0.0095570156150842547 -0.0049720095149878461 -0.0068930511807679734 -0.0065166874318273631 0.0071515138597121096 0.0095412221290524252 -0.0040776945347897704 0.0066690581241114566 0.0071274815123276349 0.0045389821521900171 0.0041375330607389613 0.0062643044658022527 0.0048632795134760575
leaf_weight=78 31 35 28 27 36 38 36 38 27 21 22 34 28 79 27 43 42
leaf_count=78 31 35 28 27 36 38 36 38 27 21 22 34 28 79 27 43 42
internal_value=-5.42668e-05 -0.00766296 -0.00893484 -0.00792315 -0.00707438 -0.00666481 -0.00712529 -0.00804715 0.00578033 0.00643464 -0.00588565 0.00783547 0.00567282 0.00528062 0.00567699 0.0052887 0.00561381
internal_weight=670 291 90 62 201 170 132 74 379 161 58 55 106 218 139 112 85
internal_count=670 291 90 62 201 170 132 74 379 161 58 55 106 218 139 112 85
cat_boundaries=0 1
cat_threshold=1
is_linear=0
shrinkage=0.03


Tree=54
num_leaves=20
num_cat=0
split_feature=3 30 4 33 33 29 20 19 24 31 27 24 19 27 26 24 4 27 2
split_gain=31.1369 0.162198 0.129419 0.260458 0.27671 0.132371 0.114289 0.0892368 0.0924229 0.0953244 0.23799 0.0722417 0.0481724 0.0416141 0.031403 0.028252 0.0145656 1.63178e-05 0.0131311
threshold=2106311703621.6389 -1.4830321073532102 118.78191561322691 0.41080045700073248 -0.35606376826763148 -1.1680334806442259 -0.48436778783798212 -0.44041752815246576 0.75647154450416576 -0.067138127982616411 -0.28545100986957544 -0.05623804219067096 1.1664915084838869 -0.54381355643272389 -0.16094839572906491 -1.4160867929458616 132.2357534358608 -0.13491909950971601 2020.5000000000002
decision_type=2 2 2 2 2 2 2 2 2 2 2 2 2 2 2 2 2 2 2
left_child=1 -1 5 4 6 -3 -4 8 9 10 -2 13 -13 -7 -11 -9 -10 -17 -19
right_child=7 2 3 -5 -6 11 -8 15 16 14 -12 12 -14 -15 -16 17 -18 18 -20
leaf_value=-0.0097147688029891044 0.0057650732240446699 -0.0099939882021743004 -0.0085276817114037628 -0.0084111059119786752 -0.0029419219812284059 -0.0066840975778349214 -0.0049858814441604516 0.0037302224845001371 0.0055312403230192621 0.0045383110930533894 0.009643150244221509 -0.004884789889844904 -0.0075493267968074589 -0.0091601495433850013 0.0066331026459806952 0.0058367957504018046 0.0036969337615921595 0.0057008163338732416 0.004352753806260652
leaf_weight=33 39 29 22 39 34 27 25 29 36 32 32 28 20 34 27 61 21 38 64
leaf_count=33 39 29 22 39 34 27 25 29 36 32 32 28 20 34 27 61 21 38 64
internal_value=-5.25586e-05 -0.00743624 -0.00712953 -0.00625979 -0.00517789 -0.00785901 -0.00672203 0.00560926 0.0061629 0.00668252 0.00756624 -0.00725485 -0.00607077 -0.00812603 0.00555731 0.00505149 0.00491564 0.00526573 0.00488945
internal_weight=670 291 258 120 81 138 47 379 187 130 71 109 48 61 59 192 57 163 102
internal_count=670 291 258 120 81 138 47 379 187 130 71 109 48 61 59 192 57 163 102
is_linear=0
shrinkage=0.03


Tree=55
num_leaves=20
num_cat=1
split_feature=1 25 4 28 28 30 34 25 34 25 22 12 3 34 19 4 3 28 32
split_gain=28.5431 0.184477 0.267911 0.515299 0.271072 0.269529 0.204267 0.138696 0.123551 0.157367 0.299255 0.119791 0.0764593 0.0442296 0.0473311 0.0332549 0.0168719 0.0238843 0.0154495
threshold=0 2.1125098466873173 118.78191561322691 1.1535356640815737 0.68284448981285106 -0.81309232115745533 3.5000000000000004 1.7068751454353335 2.5000000000000004 0.57611921429634105 -0.4475684911012649 345.00000000000006 3904620736288.6938 2.5000000000000004 2.5332442522048955 135.05514268920834 4069636619068.7515 -0.34935124218463892 0.64054757356643688
decision_type=1 2 2 2 2 2 2 2 2 2 2 2 2 2 2 2 2 2 2
left_child=1 2 8 4 5 -4 11 12 9 10 -1 -7 15 14 -14 -2 18 -18 -15
right_child=7 -3 3 -5 -6 6 -8 -9 -10 -11 -12 -13 13 16 -16 -17 17 -19 -20
leaf_value=-0.0071051257870926249 0.0052082182415205038 -0.009110704733018022 -0.0024228298157382912 -0.0012443826010459149 -0.0097412124120793628 -0.0058088007558192772 -0.0040962824546944545 0.0075964964626826963 -0.0057127097785664525 -0.0059784651975864651 -0.011569605541873687 -0.0097256439324148094 0.0053168136197196906 0.0071075592289902923 0.0035769391648615093 0.0031095003019286785 0.0063273653789419973 0.0044271768679083881 0.0052076070383191104
leaf_weight=36 20 41 21 22 21 20 24 32 31 26 31 22 121 51 31 33 27 36 23
leaf_count=36 20 41 21 22 21 20 24 32 31 26 31 22 121 51 31 33 27 36 23
internal_value=-3.09196e-05 -0.00701132 -0.00665718 -0.00560781 -0.00646693 -0.00563187 -0.00660233 0.00546739 -0.00772774 -0.00836034 -0.00922965 -0.00794997 0.00525724 0.00548216 0.00498428 0.00396628 0.00600864 0.00529782 0.00656534
internal_weight=669 295 254 130 108 87 66 374 124 93 67 42 342 289 152 53 137 63 74
internal_count=669 295 254 130 108 87 66 374 124 93 67 42 342 289 152 53 137 63 74
cat_boundaries=0 1
cat_threshold=2
is_linear=0
shrinkage=0.03


Tree=56
num_leaves=23
num_cat=1
split_feature=7 25 4 28 28 19 25 34 21 22 27 24 3 34 19 4 3 28 2 21 25 28
split_gain=26.8833 0.171574 0.250376 0.484564 0.253398 0.160593 0.129202 0.115021 0.224667 0.104619 0.0832523 0.0820025 0.070865 0.0408116 0.0435457 0.0305443 0.0146737 0.021462 0.0164168 0.00583503 0.0435897 0.00084142
threshold=0 2.1125098466873173 118.78191561322691 1.1535356640815737 0.68284448981285106 0.37956483662128454 1.7068751454353335 2.5000000000000004 -1.5427357554435728 -0.4475684911012649 1.0000000180025095e-35 0.12552953884005549 3904620736288.6938 2.5000000000000004 2.5332442522048955 135.05514268920834 4069636619068.7515 -0.34935124218463892 2020.5000000000002 -1.2477338910102842 -0.03642777353525161 0.16122762113809588
decision_type=9 2 2 2 2 2 2 2 2 2 2 2 2 2 2 2 2 2 2 2 2 2
left_child=6 2 7 4 5 11 12 8 -2 -10 -7 -4 15 14 19 -1 18 -18 -15 -14 -21 -20
right_child=1 -3 3 -5 -6 10 -8 -9 9 -11 -12 -13 13 16 -16 -17 17 -19 21 20 -22 -23
leaf_value=0.0050527478390787681 -0.0050911358919213797 -0.0088380484723479206 -0.0051227196269664774 -0.0012072200793351521 -0.0094503611585752094 -0.0022119324509777237 0.0073693115278103639 -0.0055418796276739558 -0.0075631600666028536 -0.010531139486128875 -0.0053560252921349954 -0.0082936081002381711 0.0041863399049458655 0.007665338145054843 0.0034699760903858868 0.00301649717585918 0.006138244842031345 0.0042947293681781379 0.0065070061287344381 0.0069339962238716387 0.0048705881416866307 0.004792045501999527
leaf_weight=20 22 41 24 22 21 20 32 31 38 33 20 23 32 22 31 33 27 36 27 24 65 25
leaf_count=20 22 41 24 22 21 20 32 31 38 33 20 23 32 22 31 33 27 36 27 24 65 25
internal_value=-3.0237e-05 -0.00680476 -0.0064614 -0.0054438 -0.00627714 -0.00546677 0.00530568 -0.00749882 -0.00811226 -0.00899771 -0.00386823 -0.00675244 0.00510172 0.00531959 0.00483552 0.00384946 0.00583086 0.00514083 0.0063701 0.00515744 0.00546784 0.00575087
internal_weight=669 295 254 130 108 87 374 124 93 71 40 47 342 289 152 53 137 63 74 121 89 52
internal_count=669 295 254 130 108 87 374 124 93 71 40 47 342 289 152 53 137 63 74 121 89 52
cat_boundaries=0 1
cat_threshold=1
is_linear=0
shrinkage=0.03


Tree=57
num_leaves=20
num_cat=1
split_feature=1 31 12 29 4 24 4 18 20 19 28 21 4 4 22 32 31 18 33
split_gain=25.3242 0.13528 0.320668 0.190609 0.142741 0.264983 0.148783 0.157029 0.106558 0.0865028 0.208047 0.0769078 0.0374212 0.0381354 0.0295989 0.0151993 0.00310957 0.00293882 0.00255409
threshold=0 -1.4722036719322202 577.50000000000011 -1.408938944339752 118.78191561322691 0.82200732827186596 117.74280706823112 -3.5529971122741695 1.382335960865021 -2.0629256963729854 0.9660853147506715 0.79981815814971935 132.2357534358608 138.68372960095027 -0.19467549026012418 1.4521813392639162 0.22385427355766299 3.5537674427032475 -0.50396010279655445
decision_type=1 2 2 2 2 2 2 2 2 2 2 2 2 2 2 2 2 2 2
left_child=1 -1 4 -4 6 8 7 -3 16 10 14 -5 15 -14 -2 17 -6 -11 -16
right_child=9 2 3 11 5 -7 -8 -9 -10 12 -12 -13 13 -15 18 -17 -18 -19 -20
leaf_value=-0.0038202901073356166 0.0064758805021063078 -0.0038200846820987239 -0.0056702004073269346 -0.0078293201590984227 -0.0037947961554598447 -0.0020871074394133572 -0.0085002957885641876 -0.0075573074576397578 -0.007720849313612642 0.0047124239601679619 0.008846873603255501 -0.010581790039321446 0.0033112547471073972 0.0047575937337955287 0.0035278864274622419 0.003813971827334877 -0.0056223802374147655 0.0058663527233951667 0.0051262027858612466
leaf_weight=20 23 27 25 37 20 24 39 24 26 45 22 33 44 90 21 20 20 80 29
leaf_count=20 23 27 25 37 20 24 39 24 26 45 22 33 44 90 21 20 20 80 29
internal_value=-2.90829e-05 -0.00660437 -0.00679448 -0.00829702 -0.00598065 -0.00499555 -0.00692583 -0.00564883 -0.00600302 0.00514967 0.00607486 -0.00918295 0.00482183 0.00430787 0.00518747 0.00527282 -0.00479514 0.00547902 0.00452317
internal_weight=669 295 275 95 180 90 90 51 66 374 95 70 279 134 73 145 40 125 50
internal_count=669 295 275 95 180 90 90 51 66 374 95 70 279 134 73 145 40 125 50
cat_boundaries=0 1
cat_threshold=2
is_linear=0
shrinkage=0.03


Tree=58
num_leaves=19
num_cat=1
split_feature=1 25 4 28 28 23 23 25 12 25 12 26 3 22 24 34 31 22
split_gain=23.8528 0.148987 0.223136 0.451195 0.241711 0.1352 0.171183 0.133503 0.138112 0.118068 0.0664835 0.0764185 0.0698372 0.0603721 0.0574129 0.0294335 0.0180785 0.048071
threshold=0 2.1125098466873173 118.78191561322691 1.1535356640815737 0.68284448981285106 0.46698528528213507 -1.67866975069046 -0.61850589513778675 275.00000000000006 1.7068751454353335 775.00000000000011 -1.581973075866699 3904620736288.6938 -0.4475684911012649 0.14836294203996661 2.5000000000000004 0.32936692237854009 0.67130479216575634
decision_type=1 2 2 2 2 2 2 2 2 2 2 2 2 2 2 2 2 2
left_child=1 2 5 4 7 6 -1 -4 -9 10 12 -12 -2 -8 -7 16 17 -14
right_child=9 -3 3 -5 -6 14 13 8 -10 -11 11 -13 15 -15 -16 -17 -18 -19
leaf_value=-0.0055840230210759175 0.0031474579250385616 -0.0083208784906968584 -0.0035521605468262236 -0.0010317926462823988 -0.009019896105920534 -0.0068211395095114586 -0.0072228828334666758 -0.0039422215777101793 -0.0076461127791491845 0.0069757162729086721 0.0041796381170842861 0.0068140515766833484 0.0027540143603278738 -0.010245947931456901 -0.0040675608460585787 0.0052867276227659965 0.0052413283860381927 0.0045295971765320006
leaf_weight=26 41 41 37 22 21 23 22 20 30 32 25 40 34 30 23 109 34 59
leaf_count=26 41 41 37 22 21 23 22 20 30 32 25 40 34 30 23 109 34 59
internal_value=-2.84371e-05 -0.00640997 -0.00608656 -0.0051214 -0.00592499 -0.0070693 -0.00793562 -0.005134 -0.00623526 0.00499748 0.00480162 0.00585488 0.00454162 -0.00904086 -0.00552124 0.00476968 0.00429851 0.00391634
internal_weight=669 295 254 130 108 124 78 87 50 374 342 65 277 52 46 236 127 93
internal_count=669 295 254 130 108 124 78 87 50 374 342 65 277 52 46 236 127 93
cat_boundaries=0 1
cat_threshold=2
is_linear=0
shrinkage=0.03


Tree=59
num_leaves=18
num_cat=1
split_feature=5 25 34 20 29 12 34 20 3 24 25 12 26 3 34 19 24
split_gain=22.4664 0.138352 0.167079 0.223776 0.247605 0.23302 0.199041 0.168555 0.207432 0.230723 0.109941 0.0616647 0.0707631 0.0649592 0.0265652 0.0190278 0.0089133
threshold=0 2.1125098466873173 2.5000000000000004 1.382335960865021 -1.3213160037994383 360.00000000000006 3.5000000000000004 -2.3484265804290767 315932696319.99445 -0.05623804219067096 1.7068751454353335 795.00000000000011 -1.581973075866699 3904620736288.6938 2.5000000000000004 2.5332442522048955 0.75647154450416576
decision_type=1 2 2 2 2 2 2 2 2 2 2 2 2 2 2 2 2
left_child=1 2 7 4 -4 -6 -7 -1 9 -9 11 13 -13 -2 15 -15 -11
right_child=10 -3 3 -5 5 6 -8 8 -10 16 -12 12 -14 14 -16 -17 -18
leaf_value=-0.0092907198112751679 0.0030532636731373571 -0.0080718593587623018 -0.0072707232360297172 -0.0073170581572620024 -0.0052538074527431391 -0.0037248005573218461 0.00032887978340262795 -0.0089796130205204161 -0.0037138421142224182 -0.0042195527698099559 0.0067670965694308829 0.0040547485028456639 0.0066101398079323947 0.0044640026275575484 0.0051282708138555263 0.0030669802567950379 -0.0062236416929564763
leaf_weight=24 41 41 20 32 32 21 20 34 29 21 32 25 40 98 109 29 21
leaf_count=24 41 41 20 32 32 21 20 34 29 21 32 25 40 98 109 29 21
internal_value=-2.79809e-05 -0.00622141 -0.00590785 -0.00501718 -0.00418659 -0.00329179 -0.00167841 -0.00674311 -0.00612397 -0.00699811 0.00484955 0.00465943 0.00568112 0.0044069 0.00462796 0.00417127 -0.00530526
