tree
version=v4
num_class=1
num_tree_per_iteration=1
label_index=0
max_feature_idx=32
objective=regression
feature_names=geolocation_name country year deflated_gdp_usd us_cpi developed_country landlocked region_economic_classification access_to_airport access_to_port access_to_highway access_to_railway straight_distance_to_capital_km seismic_hazard_zone flood_risk_class tropical_cyclone_wind_risk tornadoes_wind_risk koppen_climate_zone NDVI_mean NDVI_std NDVI_max NDBI_mean NDBI_std NDBI_max NDWI_mean NDWI_std NDWI_max s2_B4_mean s2_B8_mean s2_B11_mean viirs_mean viirs_max quarter
feature_infos=-1:15:41:13:17:5:11:12:46:7:8:24:37:18:20:25:39:43:4:19:22:23:29:32:33:34:91:14:21:28:30:31:38:40:76:88:1:10:45:56:59:112:113:119:123:2:3:9:26:36:44:74:89:93:110:118:27:35:42:66:78:83:84:98:99:102:111:0:6:16:47:52:58:63:64:69:72:73:75:80:94:101:124:51:60:62:65:70:85:86:92:95:97:103:104:105:106:108:109:114:116:117:120:121:48:50:54:55:57:61:67:68:77:82:90:96:115 -1:0:1 [2019:2024] [291244296180.30774:4247588558872.2593] [115.9781187205398:144.72798591795819] -1:1:0 -1:0:1 -1:0:2:1 -1:1:0 -1:1:0 none -1:1:0 [0:1550] -1:2:0 -1:1:0 -1:2:0:1:3 -1:1:0 -1:3:1:0:5:4:2 [0.065566932539309564:0.80122604438715139] [0.088965072018392044:0.48973581610932843] [0.87018825512784492:1] [-0.65074614039244716:0.025920270302666422] [0.074405169996592815:0.33361204054800625] [0.22304832713754646:1] [-0.71018472335989513:-0.068244011196281276] [0.085020842487462597:0.49718752400420652] [0.36713286713286714:1] [325.40644068197076:5378.195546555723] [1469.0457494958919:5875.585345900372] [970.24950447478739:3326.5496834032297] [0.092721223831176758:27.329729080200195] [1.3300000429153442:867.28997802734375] [1:4]
tree_sizes=1205 1186 1346 1346 1431 1267 1433 1258 1416 1083 1277 1251 1263 1619 1355 1090 1342 1259 1347 1422 1187 1270 1348 1354 1606 1259 1265 1701 1442 1439 1434 1507 1775 1778 1530 1708 1796 1954 1446 1957 2129 1964 1900 2067 1989 1995 1786 1715 2053 1632 2075 2330 2165 2262 1721 2079 2157 2230 1964 2330 2136 2150 2152 1973 2076 2329 2329 2259 2224 2327 2334 2143 2427 2243 2172 2257 2283 2163 2177 2178 2420 2418 2383 2339 2425 2233 2441 2423 2143 2313 2490 2420 2195 2281 2357 2485 2501 2512 2250 2496 2408 2294 2399 2373 2395 2401 2307 2086 2236 2236 2293 2323 2357 2222 2358 2402 2429 2415 2229 2205 2624 2481 2553 2493 2321 2314 2517 2279 2312 2466 2345 2131 2334 2263 2426 2470 2469 2449 2409 2317 2434 2312 2232 2500 2239 2286 2253 2544 2535 2413 2186 2158 2470 2540 2333 2343 2330 2336 2398 2496 2434 2108 2227 2492 2321 2288 2296 2221 2341 2160 2434 2571 2429 2268 2348 2615 2259 2193 2431

Tree=0
num_leaves=13
num_cat=1
split_feature=5 12 2 28 22 12 19 20 2 3 24 29
split_gain=779.506 2.37637 0.653747 0.65206 0.464079 0.376214 0.342533 0.249269 0.198502 0.121042 0.0113956 0.00629844
threshold=0 665.00000000000011 2021.5000000000002 4125.7766765617316 0.10656450577115871 875.00000000000011 0.27017781552950509 0.93187387969556956 2020.5000000000002 4069636619068.7515 -0.54784660878720859 1381.4479843555753
decision_type=1 2 2 2 2 2 2 2 2 2 2 2
left_child=1 3 6 4 7 10 9 -1 -6 -2 -3 -4
right_child=2 5 11 -5 8 -7 -8 -9 -10 -11 -12 -13
leaf_value=6.5015373395651768 6.5679219078189073 6.4975032524947975 6.5664608389736561 6.508161397034133 6.4986549999545122 6.4997590799884017 6.5704627045608106 6.5078342152215489 6.5031081544654246 6.5647437014493457 6.4920431306744888 6.5630852359442713
leaf_weight=27 56 23 25 21 89 32 33 25 38 108 42 144
leaf_count=27 56 23 25 21 89 32 33 25 38 108 42 144
internal_value=6.53598 6.49987 6.56528 6.50191 6.50121 6.49574 6.56667 6.50445 6.49994 6.56587 6.49387 6.56362
internal_weight=663 297 366 200 179 97 197 52 127 164 65 169
internal_count=663 297 366 200 179 97 197 52 127 164 65 169
cat_boundaries=0 1
cat_threshold=1
is_linear=0
shrinkage=1


Tree=1
num_leaves=12
num_cat=1
split_feature=5 12 4 28 22 12 20 19 4 12 24
split_gain=733.604 2.22993 0.784846 0.60672 0.428718 0.346522 0.228379 0.195883 0.179338 0.177067 0.00209034
threshold=0 665.00000000000011 124.49621006272866 4125.7766765617316 0.10656450577115871 875.00000000000011 0.93187387969556956 0.27017781552950509 120.04313886449401 56.250000000000007 -0.54784660878720859
decision_type=1 2 2 2 2 2 2 2 2 2 2
left_child=1 3 7 4 6 10 -1 -2 -6 -4 -3
right_child=2 5 9 -5 8 -7 -8 -9 -10 -11 -12
leaf_value=-0.03376188427099882 0.029050660138695568 -0.037676148476538718 0.030356529075575071 -0.027336710499361223 -0.036555176198683204 -0.03548636984602313 -0.027653476375032703 0.033361494319955096 -0.032236967236976916 0.026073501161993851 -0.042970579157532537
leaf_weight=27 134 23 24 21 89 32 25 29 38 179 42
leaf_count=27 134 23 24 21 89 32 25 29 38 179 42
internal_value=-0.00034802 -0.0353775 0.0280712 -0.033399 -0.0340779 -0.0393872 -0.0309414 0.029856 -0.0353131 0.0266093 -0.041204
internal_weight=663 297 366 200 179 97 52 163 127 203 65
internal_count=663 297 366 200 179 97 52 163 127 203 65
cat_boundaries=0 1
cat_threshold=1
is_linear=0
shrinkage=0.03


Tree=2
num_leaves=14
num_cat=1
split_feature=5 12 30 4 28 22 31 12 29 29 3 4 3
split_gain=690.396 2.0923 1.0204 0.691162 0.564277 0.395705 0.452613 0.318806 0.210798 0.196367 0.0878799 0.0512304 0.0491299
threshold=0 665.00000000000011 13.282342433929445 126.43715323239572 4125.7766765617316 0.10656450577115871 10.000000000000002 875.00000000000011 2293.814170514911 2279.3415018816963 4069636619068.7515 138.68372960095027 315932696319.99445
decision_type=1 2 2 2 2 2 2 2 2 2 2 2 2
left_child=1 4 3 10 5 9 8 -3 -7 -1 -2 -5 -8
right_child=2 7 -4 11 -6 6 12 -9 -10 -11 -12 -13 -14
leaf_value=-0.02739811193507375 0.030098847835186678 -0.039972979692819488 0.03439995692239553 0.023911046100699385 -0.026520495694395487 -0.034107255668560987 -0.033721645283616965 -0.03442509627787866 -0.041218560168992217 -0.033315783259016352 0.027238522665463151 0.026364362085582724 -0.029292300348262856
leaf_weight=30 64 65 21 85 21 24 58 32 20 22 108 88 25
leaf_count=30 64 65 21 85 21 24 58 32 20 22 108 88 25
internal_value=-0.000338687 -0.034321 0.0272308 0.0267759 -0.0324012 -0.0330592 -0.034256 -0.038211 -0.0374938 -0.0300185 0.0283371 0.0251908 -0.0324605
internal_weight=663 297 366 345 200 179 127 97 44 52 172 173 83
internal_count=663 297 366 345 200 179 127 97 44 52 172 173 83
cat_boundaries=0 1
cat_threshold=1
is_linear=0
shrinkage=0.03


Tree=3
num_leaves=14
num_cat=2
split_feature=5 12 30 4 28 19 25 12 30 3 4 24 13
split_gain=649.759 1.95957 0.955826 0.645179 0.525118 0.320198 0.431731 0.292164 0.194642 0.0773379 0.0433175 0.0116359 0.00116026
threshold=0 665.00000000000011 13.282342433929445 126.43715323239572 4125.7766765617316 0.18652857811777473 0.19112370069252724 875.00000000000011 0.41781771183013922 4069636619068.7515 138.68372960095027 -0.54784660878720859 1
decision_type=1 2 2 2 2 2 2 2 2 2 2 2 9
left_child=1 4 3 9 5 -1 8 11 -7 -2 -5 -3 -8
right_child=2 7 -4 10 -6 6 12 -9 -10 -11 -12 -13 -14
leaf_value=-0.0273487572662242 0.02919729088100368 -0.035356758740041155 0.033372849937863817 0.023194557660895149 -0.025728651682064993 -0.0379179295402279 -0.031913066404227412 -0.033395559258550124 -0.031690092248614556 0.026422122852544232 0.025574328593579922 -0.040488183501214137 -0.027710638820235407
leaf_weight=23 64 23 21 85 21 33 81 32 22 108 88 42 20
leaf_count=23 64 23 21 85 21 33 81 32 22 108 88 42 20
internal_value=-0.000329648 -0.0332968 0.026416 0.0259743 -0.0314353 -0.0320733 -0.0327327 -0.0370679 -0.0355433 0.0274885 0.0244365 -0.0387756 -0.0311388
internal_weight=663 297 366 345 200 179 156 97 55 172 173 65 101
internal_count=663 297 366 345 200 179 156 97 55 172 173 65 101
cat_boundaries=0 1 2
cat_threshold=1 4
is_linear=0
shrinkage=0.03


Tree=4
num_leaves=15
num_cat=0
split_feature=3 4 28 31 26 22 19 22 28 32 21 27 3 4
split_gain=611.516 0.646348 0.483767 1.01859 0.263288 0.215344 0.175417 0.169206 0.450898 0.271418 0.0959372 0.00274641 0.0189155 0.00111171
threshold=2106311703621.6389 124.49621006272866 3755.4976901518621 22.625000000000004 0.88613445378151268 0.14228254241578622 0.27017781552950509 0.095405499625943094 4125.7766765617316 2.5000000000000004 -0.13530827559777139 891.19955368595799 295463185185.79865 118.18795367845952
decision_type=2 2 2 2 2 2 2 2 2 2 2 2 2 2
left_child=2 6 3 4 11 -5 13 -4 9 -9 -3 12 -1 -2
right_child=1 10 7 5 -6 -7 -8 8 -10 -11 -12 -13 -14 -15
leaf_value=-0.029149335969739881 0.025206616917962527 0.023861929315937339 -0.034234615071407418 -0.028566734757558703 -0.039125330503855901 -0.033772686254019017 0.030567836724605751 -0.033949463593365876 -0.024411713987993432 -0.028325544259791956 0.027869493916853144 -0.036293805330729546 -0.034543525719797456 0.027827493460055631
leaf_weight=20 70 183 21 51 32 26 29 28 22 40 20 34 23 64
leaf_count=20 70 183 21 51 32 26 29 28 22 40 20 34 23 64
internal_value=-0.000320862 0.0256256 -0.0323033 -0.0334961 -0.0356224 -0.030405 0.0272609 -0.0302492 -0.029249 -0.0307318 0.0242851 -0.0340788 -0.0321777 0.0265006
internal_weight=663 366 297 186 109 77 163 111 90 68 203 77 43 134
internal_count=663 366 297 186 109 77 163 111 90 68 203 77 43 134
is_linear=0
shrinkage=0.03


Tree=5
num_leaves=13
num_cat=1
split_feature=3 12 4 30 21 13 4 12 30 3 4 28
split_gain=556.407 2.68474 0.908664 0.713598 0.503221 0.715489 0.473179 0.175687 0.203676 0.0773731 0.0338466 0.017487
threshold=2106311703621.6389 665.00000000000011 118.18795367845952 8.009378910064699 -0.28956993739606246 0 126.43715323239572 785.00000000000011 0.26150459051132208 4069636619068.7515 138.68372960095027 3620.7860304396036
decision_type=2 2 2 2 2 9 2 2 2 2 2 2
left_child=1 2 -1 6 -4 -6 9 -3 -9 -2 -8 -10
right_child=3 7 4 -5 5 -7 10 8 11 -11 -12 -13
leaf_value=-0.031617927079163187 0.027351763841563473 -0.039319187036688387 -0.021504563023127726 0.030140675086376849 -0.022502933712634024 -0.029908453551915196 0.021615124165463542 -0.030569181179840841 -0.033463741265157783 0.024630372427217835 0.023942639949537995 -0.03892687056866867
leaf_weight=84 61 24 20 27 22 61 76 27 28 108 87 21
leaf_count=84 61 24 20 27 22 61 76 27 28 108 87 21
internal_value=-0.000122075 -0.03126 -0.0289954 0.0247643 -0.0267989 -0.0280111 0.0243091 -0.0354316 -0.0341145 0.025646 0.0228897 -0.0359407
internal_weight=646 287 187 359 103 83 332 100 76 169 163 49
internal_count=646 287 187 359 103 83 332 100 76 169 163 49
cat_boundaries=0 1
cat_threshold=1
is_linear=0
shrinkage=0.03


Tree=6
num_leaves=15
num_cat=2
split_feature=5 20 28 28 30 23 3 28 23 13 21 2 2 2
split_gain=523.655 0.752571 0.875035 0.868198 0.667116 0.665619 0.365813 0.302653 0.348367 0.0541614 0.0871408 0.0434274 0.0257851 0.0501163
threshold=0 0.91410280315743686 3755.4976901518621 3620.7860304396036 8.009378910064699 0.92603567154823641 3904620736288.6938 4048.5461757181542 0.49779107841876785 1 -0.23823712020023877 2019.5000000000002 2020.5000000000002 2019.5000000000002
decision_type=1 2 2 2 2 2 2 2 2 9 2 2 2 2
left_child=1 -1 3 9 6 7 -2 8 -4 10 -3 -12 13 -8
right_child=4 2 5 -5 -6 -7 12 -9 -10 -11 11 -13 -14 -15
leaf_value=-0.036318758147386096 0.020711773603107924 -0.033746106030677986 -0.031134999274904096 -0.036138897092742289 0.029239791812052142 -0.032856047100095598 0.023597243709801718 -0.022467874341743167 -0.024329412696005279 -0.027257154125643786 -0.032437829334811381 -0.027921531247986919 0.023315490490953088 0.026532554930828983
leaf_weight=24 54 28 22 35 27 20 59 31 26 34 22 45 158 61
leaf_count=24 54 28 22 35 27 20 59 31 26 34 22 45 158 61
internal_value=-0.000119249 -0.030327 -0.0297552 -0.0312879 0.0240234 -0.0271568 0.0235815 -0.0256363 -0.0275693 -0.0299215 -0.0308139 -0.0294953 0.0241205 0.0251352
internal_weight=646 287 263 164 359 99 332 79 48 129 95 67 278 120
internal_count=646 287 263 164 359 99 332 79 48 129 95 67 278 120
cat_boundaries=0 1 2
cat_threshold=1 4
is_linear=0
shrinkage=0.03


Tree=7
num_leaves=13
num_cat=2
split_feature=5 12 4 30 21 13 4 12 30 3 4 28
split_gain=492.857 2.47687 0.804141 0.623488 0.457883 0.668059 0.417841 0.176655 0.181077 0.0563472 0.0239662 0.0134104
threshold=0 665.00000000000011 118.18795367845952 8.009378910064699 -0.28956993739606246 1 126.43715323239572 785.00000000000011 0.26150459051132208 4069636619068.7515 138.68372960095027 3620.7860304396036
decision_type=1 2 2 2 2 9 2 2 2 2 2 2
left_child=1 2 -1 6 -4 -6 9 -3 -9 -2 -8 -10
right_child=3 7 4 -5 5 -7 10 8 11 -11 -12 -13
leaf_value=-0.029726243191725368 0.025737881574615127 -0.037218813300132741 -0.020108574461469898 0.028365834947001886 -0.021014967427095944 -0.028158330577875312 0.020324403879363653 -0.028762496206703219 -0.03151563071271278 0.023188713500060822 0.022526523592004001 -0.036743828109090354
leaf_weight=84 61 24 20 27 22 61 76 27 28 108 87 21
leaf_count=84 61 24 20 27 22 61 76 27 28 108 87 21
internal_value=-0.000117071 -0.0294231 -0.0272478 0.0233048 -0.0251706 -0.0263286 0.0228757 -0.0334298 -0.0321465 0.0241412 0.0215313 -0.0338877
internal_weight=646 287 187 359 103 83 332 100 76 169 163 49
internal_count=646 287 187 359 103 83 332 100 76 169 163 49
cat_boundaries=0 1 2
cat_threshold=1 1
is_linear=0
shrinkage=0.03


Tree=8
num_leaves=15
num_cat=0
split_feature=3 12 4 30 22 4 29 12 4 30 29 3 22 4
split_gain=463.85 2.32793 0.756238 0.582543 0.398295 0.38872 0.340539 0.159337 0.169932 0.218752 0.132641 0.0484562 0.0434068 0.0183588
threshold=2106311703621.6389 665.00000000000011 119.2655080931231 8.009378910064699 0.10697642330829275 126.43715323239572 2179.6653613881303 785.00000000000011 117.86815741863882 0.3229720145463944 2459.5993619132237 4069636619068.7515 0.12887243525943215 138.68372960095027
decision_type=2 2 2 2 2 2 2 2 2 2 2 2 2 2
left_child=1 2 4 5 -1 11 -4 -3 -9 -10 -8 -2 -6 -7
right_child=3 7 6 -5 12 13 10 8 9 -11 -12 -13 -14 -15
leaf_value=-0.024585134541598958 0.024967006904403823 -0.036106882444061184 -0.019369865522455811 0.027518000092453618 -0.03192461823048548 0.01971547375057436 -0.026931038105917106 -0.034854174848999907 -0.026857633065939739 -0.032727646140142098 -0.021847459709466392 0.02249369457074606 -0.027927663445869198 0.021851504274679245
leaf_weight=33 61 24 20 27 33 76 36 22 30 24 20 108 45 87
leaf_count=33 61 24 20 27 33 76 36 22 30 24 20 108 45 87
internal_value=-0.000114362 -0.0285451 -0.0264334 0.0226076 -0.0282269 0.0221911 -0.0237409 -0.0324336 -0.0311883 -0.0295777 -0.0252111 0.0234184 -0.0296958 0.0208867
internal_weight=646 287 187 359 111 332 76 100 76 54 56 169 78 163
internal_count=646 287 187 359 111 332 76 100 76 54 56 169 78 163
is_linear=0
shrinkage=0.03


Tree=9
num_leaves=11
num_cat=2
split_feature=7 12 4 31 4 13 29 12 28 3
split_gain=436.573 2.18623 0.711391 0.448687 0.380318 0.377603 0.438938 0.161626 0.172225 0.0744308
threshold=0 665.00000000000011 118.18795367845952 313.47999572753912 126.43715323239572 1 2163.3697000036659 925.00000000000011 3620.7860304396036 4069636619068.7515
decision_type=9 2 2 2 2 9 2 2 2 2
left_child=3 2 -2 4 9 -4 -7 8 -3 -1
right_child=1 7 5 -5 -6 6 -8 -9 -10 -11
leaf_value=0.024310874427519679 -0.027988310036527419 -0.030502194786620564 -0.01960151392506413 0.026291677328191189 0.020245149003504818 -0.020679936689707249 -0.026710258597256734 -0.028378357725722766 -0.035748678723868631 0.021776431855701269
leaf_weight=63 84 39 25 28 161 24 54 32 29 107
leaf_count=63 84 39 25 28 161 24 54 32 29 107
internal_value=-0.000112262 -0.0276945 -0.0256453 0.0219314 0.0215457 -0.02368 -0.024922 -0.0314672 -0.0328329 0.022747
internal_weight=646 287 187 359 331 103 78 100 68 170
internal_count=646 287 187 359 331 103 78 100 68 170
cat_boundaries=0 1 2
cat_threshold=1 1
is_linear=0
shrinkage=0.03


Tree=10
num_leaves=13
num_cat=1
split_feature=7 20 4 4 4 22 22 30 20 19 20 31
split_gain=425.523 0.998259 0.71223 0.446774 0.482277 0.228701 0.375375 0.282206 0.215784 0.0991349 0.0936824 0.0372476
threshold=0 0.91410280315743686 124.49621006272866 119.2655080931231 126.43715323239572 0.10730036480727216 0.10020710547919016 0.35474967956542974 0.92966318005710613 0.27522785494201546 0.93568395532825999 79.805000305175795
decision_type=9 2 2 2 2 2 2 2 2 2 2 2
left_child=2 -2 9 5 8 6 -3 -7 -5 -1 -10 -4
right_child=1 3 11 4 -6 7 -8 -9 10 -11 -12 -13
leaf_value=0.022268646159697907 -0.033530604433420014 -0.027753795076983209 0.01870229255192396 -0.02074125327493833 -0.028659150973757812 -0.030536175714917929 -0.021462407573995743 -0.025871987777292878 -0.026995062115266148 0.026013932166161473 -0.02267093442489674 0.020652126842994594
leaf_weight=140 22 33 88 39 28 58 24 39 29 23 34 118
leaf_count=140 22 33 88 39 28 58 24 39 29 23 34 118
internal_value=-0.000506829 -0.0266632 0.021177 -0.0261091 -0.024473 -0.0274539 -0.0251996 -0.0287204 -0.0232676 0.0228311 -0.0247486 0.0198432
internal_weight=675 306 369 284 130 154 57 97 102 163 63 206
internal_count=675 306 369 284 130 154 57 97 102 163 63 206
cat_boundaries=0 1
cat_threshold=1
is_linear=0
shrinkage=0.03


Tree=11
num_leaves=13
num_cat=0
split_feature=3 12 4 4 21 12 22 31 19 19 20 3
split_gain=400.48 1.78678 0.666268 0.612829 0.57604 0.364754 0.292678 0.31743 0.212427 0.0893011 0.0653801 0.0551289
threshold=2106311703621.6389 665.00000000000011 124.49621006272866 119.2655080931231 -0.21516596054076917 925.00000000000011 0.10756604238263148 10.000000000000002 0.26053459338680024 0.27522785494201546 0.92618622043279153 3904620736288.6938
decision_type=2 2 2 2 2 2 2 2 2 2 2 2
left_child=1 3 9 6 8 10 -1 -8 -5 -2 -3 -4
right_child=2 5 11 4 -6 -7 7 -9 -10 -11 -12 -13
leaf_value=-0.022739858322066434 0.021601064302489897 -0.034162239715524387 0.01775122308903105 -0.017271320170041207 -0.02573554983814293 -0.02606646096168181 -0.030413210201509219 -0.025090475867608347 -0.022167580683821252 0.025236892731158762 -0.0293300495754815 0.019889881297537007
leaf_weight=37 140 22 64 29 30 37 29 50 29 23 43 142
leaf_count=37 140 22 64 29 30 37 29 50 29 23 43 142
internal_value=-0.000492827 -0.025868 0.0205432 -0.0241206 -0.0218878 -0.0293063 -0.0257684 -0.0271183 -0.019805 0.0221476 -0.0310616 0.0192489
internal_weight=675 306 369 204 88 102 116 79 58 163 65 206
internal_count=675 306 369 204 88 102 116 79 58 163 65 206
is_linear=0
shrinkage=0.03


Tree=12
num_leaves=13
num_cat=2
split_feature=5 12 28 4 12 21 8 18 30 20 30 4
split_gain=376.913 1.67617 0.697632 0.623137 0.338026 0.129449 0.172548 0.144704 0.0717368 0.0558461 0.0386408 0.0126913
threshold=0 665.00000000000011 4048.5461757181542 124.49621006272866 925.00000000000011 -0.23156428832585854 1 0.68127904493744806 3.2119617462158208 0.92618622043279153 2.0022519826889043 140.10997200254067
decision_type=1 2 2 2 2 2 1 2 2 2 2 2
left_child=1 2 5 8 9 7 -7 -1 -2 -3 11 -5
right_child=3 4 -4 10 -6 6 -8 -9 -10 -11 -12 -13
leaf_value=-0.021060894314578908 0.020842087963262403 -0.033142009935767394 -0.018349745293210831 0.017185839198521166 -0.025286574693060306 -0.027272688331946016 -0.02340222047966287 -0.025304773113384454 0.023854613181687551 -0.028452189853739016 0.020183739110747761 0.019226591444431129
leaf_weight=50 130 22 28 87 37 48 51 27 33 43 56 63
leaf_count=50 130 22 28 87 37 48 51 27 33 43 56 63
internal_value=-0.000479235 -0.0250966 -0.0234013 0.0199283 -0.0284315 -0.0241771 -0.0253347 -0.0226188 0.0214846 -0.0301341 0.0186725 0.0180752
internal_weight=675 306 204 369 102 176 99 77 163 65 206 150
internal_count=675 306 204 369 102 176 99 77 163 65 206 150
cat_boundaries=0 1 2
cat_threshold=1 1
is_linear=0
shrinkage=0.03


Tree=13
num_leaves=17
num_cat=1
split_feature=7 20 4 4 26 19 19 26 20 22 22 21 19 4 29 3
split_gain=354.733 0.892776 0.583606 0.379549 0.472573 0.212187 0.290635 0.187511 0.179453 0.143811 0.132364 0.315851 0.0975178 0.045806 0.022879 0.0142678
threshold=0 0.91410280315743686 126.43715323239572 119.2655080931231 0.96938695821944565 0.18652857811777473 0.23325338460883846 0.77653797568293081 0.92966318005710613 0.10390042007613352 0.14694910603948722 -0.26393294266210893 0.27522785494201546 138.68372960095027 1500.7247993747108 4069636619068.7515
decision_type=9 2 2 2 2 2 2 2 2 2 2 2 2 2 2 2
left_child=2 -2 12 5 8 -3 10 -8 -5 -10 11 -7 15 14 -4 -1
right_child=1 3 13 4 -6 6 7 -9 9 -11 -12 -13 -14 -15 -16 -17
leaf_value=0.021539047348365929 -0.030837769390366192 -0.020971344893718782 0.018584245582001446 -0.018719964012151626 -0.026292864618842129 -0.024958902091619026 -0.020240824826352009 -0.025472298412077675 -0.019537504377825133 -0.024128098868957868 -0.02383556624511619 -0.031170263391982315 0.023629070627261915 0.018904039389496551 0.015902690009561394 0.019351242193752834
leaf_weight=58 22 21 33 38 29 25 23 31 24 39 23 31 25 98 57 98
leaf_count=58 22 21 33 38 29 25 23 31 24 39 23 31 25 98 57 98
internal_value=-0.000465574 -0.0243477 0.0193323 -0.0238238 -0.022303 -0.0250728 -0.0256816 -0.0233411 -0.0211028 -0.0224606 -0.0272119 -0.0285002 0.0207005 0.0179887 0.0169388 0.0201972
internal_weight=675 306 369 284 130 154 133 54 101 63 79 56 181 188 90 156
internal_count=675 306 369 284 130 154 133 54 101 63 79 56 181 188 90 156
cat_boundaries=0 1
cat_threshold=1
is_linear=0
shrinkage=0.03


Tree=14
num_leaves=14
num_cat=1
split_feature=7 12 2 2 21 31 25 19 30 21 19 27 2
split_gain=333.89 1.55704 0.43646 0.434112 0.417085 0.33294 0.24739 0.449489 0.165069 0.148058 0.105047 0.0737482 0.0253886
threshold=0 665.00000000000011 2021.5000000000002 2020.5000000000002 -0.21516596054076917 22.625000000000004 0.20295677404645954 0.20458299097520158 0.33831976354122167 -0.25118205623302287 0.27522785494201546 909.82673189221964 2022.5000000000002
decision_type=9 2 2 2 2 2 2 2 2 2 2 2 2
left_child=2 3 10 6 8 11 7 -2 -5 -8 -1 -3 -4
right_child=1 5 12 4 -6 -7 9 -9 -10 -11 -12 -13 -14
leaf_value=0.019407572805145643 -0.021878965274363824 -0.025374507639742541 0.01618041571142521 -0.0201684244334428 -0.023350319259195208 -0.023820092448099388 -0.017787981691645149 -0.027341199960854958 -0.015242791518984562 -0.022791380555526757 0.022752651325587566 -0.030062725795985963 0.018157967360712433
leaf_weight=170 43 22 64 22 25 38 20 39 25 30 26 42 109
leaf_count=170 43 22 64 22 25 38 20 39 25 30 26 42 109
internal_value=-0.000452798 -0.0236229 0.0187545 -0.0219892 -0.0197005 -0.0268361 -0.023199 -0.0245435 -0.01765 -0.0208894 0.019878 -0.0285401 0.0174535
internal_weight=675 306 369 204 72 102 132 82 47 50 196 64 173
internal_count=675 306 369 204 72 102 132 82 47 50 196 64 173
cat_boundaries=0 1
cat_threshold=1
is_linear=0
shrinkage=0.03


Tree=15
num_leaves=11
num_cat=2
split_feature=5 12 28 4 19 21 6 19 25 3
split_gain=300.349 1.17345 0.502554 0.424116 0.388905 0.285738 0.225545 0.0913382 0.0707021 0.0395252
threshold=0 665.00000000000011 4048.5461757181542 124.49621006272866 0.27522785494201546 -0.23156428832585854 1 0.27684549086931159 0.25469396394501492 3904620736288.6938
decision_type=1 2 2 2 2 2 1 2 2 2
left_child=1 2 5 7 -3 -1 -7 -2 9 -5
right_child=3 4 -4 8 -6 6 -8 -9 -10 -11
leaf_value=-0.020620793872041063 0.019024809140018761 -0.024925007744115373 -0.017674084651221032 0.015148174183978081 -0.030962531815713908 -0.026726895631755222 -0.022376028247636286 0.022428255820670064 0.020006189319624827 0.017330944878714425
leaf_weight=68 138 74 31 49 20 33 60 24 20 114
leaf_count=68 138 74 31 49 20 33 60 24 20 114
internal_value=-0.000572781 -0.0233055 -0.021824 0.0182649 -0.026273 -0.022593 -0.0239792 0.0195611 0.017091 0.0167029
internal_weight=631 286 192 345 94 161 93 162 183 163
internal_count=631 286 192 345 94 161 93 162 183 163
cat_boundaries=0 1 2
cat_threshold=1 2
is_linear=0
shrinkage=0.03


Tree=16
num_leaves=14
num_cat=0
split_feature=3 26 28 31 4 30 20 30 30 27 22 3 2
split_gain=282.667 0.466144 0.579148 0.444012 0.395252 0.146272 0.0912538 0.128354 0.0641809 0.0542617 0.0249714 0.0120729 0.00331453
threshold=2106311703621.6389 0.88472526742409152 4000.1753580506424 6.8750000000000009 124.49621006272866 1.9170156717300417 0.91761649387782918 0.41781771183013922 3.0436699390411381 826.66649789054679 0.10697642330829275 3904620736288.6938 2019.5000000000002
decision_type=2 2 2 2 2 2 2 2 2 2 2 2 2
left_child=1 2 6 -3 8 11 -1 10 12 -5 -8 -6 -2
right_child=4 3 -4 9 5 -7 7 -9 -10 -11 -12 -13 -14
leaf_value=-0.024881020956549822 0.016944747073860369 -0.029398259271942603 -0.01732688496533398 -0.020254236044946 0.014298490335956886 0.018365868706452217 -0.020537832767199726 -0.019488100240917967 0.021022174416205307 -0.024397442025743472 -0.023738476619273176 0.016444731566548763 0.019159346366210618
leaf_weight=34 49 21 32 20 42 55 31 41 37 47 60 86 76
leaf_count=34 49 21 32 20 42 55 31 41 37 47 60 86 76
internal_value=-0.000555832 -0.0226094 -0.0216204 -0.0247734 0.0177188 0.0165801 -0.0224191 -0.0217439 0.0189755 -0.0232374 -0.0227048 0.0157756 0.0183294
internal_weight=631 286 198 88 345 183 166 132 162 67 91 128 125
internal_count=631 286 198 88 345 183 166 132 162 67 91 128 125
is_linear=0
shrinkage=0.03


Tree=17
num_leaves=13
num_cat=2
split_feature=5 12 31 28 4 27 21 6 30 19 4 31
split_gain=266.048 1.08999 0.456641 0.448943 0.369465 0.297877 0.269226 0.214851 0.119755 0.0746958 0.0408859 0.0146364
threshold=0 665.00000000000011 22.625000000000004 4048.5461757181542 126.43715323239572 989.02893713512128 -0.23156428832585854 1 1.9170156717300417 0.27664442084580959 138.68372960095027 11.274999618530275
decision_type=1 2 2 2 2 2 2 1 2 2 2 2
left_child=1 3 5 6 9 -3 11 -8 10 -2 -6 -1
right_child=4 2 -4 -5 8 -7 7 -9 -10 -11 -12 -13
leaf_value=-0.020645291413671853 0.017799511507281714 -0.023816633469590513 -0.021247997473914093 -0.016565220392252229 0.014006372288048985 -0.029529898215814962 -0.025239935869806843 -0.021023299841461281 0.017781986190226865 0.020778904313294485 0.016266259394350543 -0.017501788534644826
leaf_weight=38 151 32 33 31 58 29 33 60 48 28 60 30
leaf_count=38 151 32 33 31 58 29 33 60 48 28 60 30
internal_value=-0.00053965 -0.0219352 -0.0247943 -0.0205076 0.0171895 -0.0266258 -0.0212373 -0.0225773 0.0159704 0.0182937 0.0151937 -0.0193302
internal_weight=631 286 94 192 345 61 161 93 166 179 118 68
internal_count=631 286 94 192 345 61 161 93 166 179 118 68
cat_boundaries=0 1 2
cat_threshold=1 2
is_linear=0
shrinkage=0.03


Tree=18
num_leaves=14
num_cat=2
split_feature=1 12 28 18 4 21 26 6 30 19 4 4 18
split_gain=250.401 1.02176 0.418833 0.376026 0.346133 0.249015 0.204322 0.197997 0.122942 0.0756368 0.0560306 0.0165955 0.00801397
threshold=0 665.00000000000011 4048.5461757181542 0.55418218885271109 124.49621006272866 -0.23156428832585854 0.86500910576441659 1 1.9170156717300417 0.27684549086931159 118.18795367845952 117.86815741863882 0.62057793267218719
decision_type=1 2 2 2 2 2 2 1 2 2 2 2 2
left_child=1 2 5 -3 9 11 10 -7 12 -2 -5 -1 -6
right_child=4 3 -4 6 8 7 -8 -9 -10 -11 -12 -13 -14
leaf_value=-0.020469889854724255 0.017359576941148164 -0.028455074687987136 -0.016069861656216558 -0.022935024700458575 0.013505191409799316 -0.024485026935714763 -0.02533387117904682 -0.020393650480259373 0.017278468021463784 0.020535754247325087 -0.018446676701442146 -0.017351109796999227 0.015515523705671842
leaf_weight=29 138 21 31 21 45 33 30 60 55 24 22 39 83
leaf_count=29 138 21 31 21 45 33 30 60 55 24 22 39 83
internal_value=-0.000524169 -0.0212812 -0.0198958 -0.0240548 0.0166756 -0.0206034 -0.0227107 -0.0219024 0.0156006 0.017861 -0.0207564 -0.0187533 0.0148433
internal_weight=631 286 192 94 345 161 73 93 183 162 43 68 128
internal_count=631 286 192 94 345 161 73 93 183 162 43 68 128
cat_boundaries=0 1 2
cat_threshold=2 2
is_linear=0
shrinkage=0.03


Tree=19
num_leaves=15
num_cat=0
split_feature=3 26 28 31 30 4 25 25 27 30 27 4 28 28
split_gain=235.684 0.43027 0.491342 0.411499 0.330382 0.273236 0.0948998 0.194445 0.164595 0.149433 0.0574103 0.025043 0.0155782 0.0058821
threshold=2106311703621.6389 0.88472526742409152 4000.1753580506424 6.8750000000000009 12.239347457885744 126.43715323239572 0.19224126410293438 0.25003600273311094 882.29610210586327 0.43942230939865118 913.09696025233575 138.68372960095027 3170.5075682244437 3800.1971867173907
decision_type=2 2 2 2 2 2 2 2 2 2 2 2 2 2
left_child=1 2 6 -3 5 -2 8 9 -1 -8 -5 12 -7 -12
right_child=4 3 -4 10 -6 11 7 -9 -10 -11 13 -13 -14 -15
leaf_value=-0.020265172454603214 0.016901327290930683 -0.027140583647370896 -0.015722063977236498 -0.018878359257232864 0.020602494246924098 0.0145300231206006 -0.019365950196810033 -0.02268189199824831 -0.024592640323942871 -0.014917036567939751 -0.024600132599261127 0.015650745509715562 0.011821498703632957 -0.020286496619680034
leaf_weight=56 168 21 32 26 20 55 45 20 25 20 21 80 22 20
leaf_count=56 168 21 32 26 20 55 45 20 25 20 21 80 22 20
internal_value=-0.000509393 -0.0206473 -0.019702 -0.0227152 0.0161771 0.0158893 -0.0204413 -0.0192144 -0.0216665 -0.0180682 -0.0212451 0.0147771 0.0138114 -0.0226234
internal_weight=631 286 198 88 345 325 166 85 81 65 67 157 77 41
internal_count=631 286 198 88 345 325 166 85 81 65 67 157 77 41
is_linear=0
shrinkage=0.03


Tree=20
num_leaves=12
num_cat=1
split_feature=7 12 12 30 22 20 18 30 3 19 21
split_gain=218.661 1.04738 0.54115 0.499606 0.471339 0.312702 0.286905 0.243589 0.155194 0.0965613 0.0108659
threshold=0 665.00000000000011 875.00000000000011 13.282342433929445 0.1061142855711938 0.92936845102157695 0.63507631008906362 0.30217218399047857 3904620736288.6938 0.2279025798103293 -0.25118205623302287
decision_type=9 2 2 2 2 2 2 2 2 2 2
left_child=3 4 6 8 5 -2 10 9 -1 -6 -3
right_child=1 2 -4 -5 7 -7 -8 -9 -10 -11 -12
leaf_value=0.013365872767872086 -0.018117953115822313 -0.028275781683067772 -0.018741718235041571 0.02073281464292042 -0.023548632370485798 -0.012966484567411592 -0.020142305066336446 -0.017891937795029296 0.015651585877866615 -0.01885244895885517 -0.023463882141148865
leaf_weight=59 28 20 37 20 24 32 20 89 277 23 20
leaf_count=59 28 20 37 20 24 32 20 89 277 23 20
internal_value=-0.000206381 -0.0194018 -0.0221333 0.0155847 -0.0180241 -0.0154466 -0.0241402 -0.019127 0.0152632 -0.0213591 -0.0260092
internal_weight=649 293 97 356 196 60 60 136 336 47 40
internal_count=649 293 97 356 196 60 60 136 336 47 40
cat_boundaries=0 1
cat_threshold=1
is_linear=0
shrinkage=0.03


Tree=21
num_leaves=13
num_cat=1
split_feature=1 12 12 30 22 31 20 24 2 4 3 4
split_gain=205.801 0.983024 0.506174 0.467881 0.439826 0.333885 0.291329 0.288222 0.183566 0.140804 0.104441 0.0648462
threshold=0 665.00000000000011 875.00000000000011 12.239347457885744 0.1061142855711938 5.9800000190734872 0.92936845102157695 -0.54784660878720859 2020.5000000000002 132.2357534358608 4069636619068.7515 138.68372960095027
decision_type=1 2 2 2 2 2 2 2 2 2 2 2
left_child=1 4 7 9 6 -6 -1 -3 -7 10 -2 -11
right_child=3 2 -4 -5 5 8 -8 -9 -10 11 -12 -13
leaf_value=-0.017576347744304457 0.016895196214637507 -0.019594206507737036 -0.018180982052797896 0.019554894051228858 -0.021992125394418065 -0.018653048254466554 -0.012578701900370489 -0.025351934934516086 -0.0150238330126529 0.012516963699593915 0.014678340961110382 0.014648527451183484
leaf_weight=28 67 21 37 25 29 74 32 39 33 60 119 85
leaf_count=28 67 21 37 25 29 74 32 39 33 60 119 85
internal_value=-0.000201494 -0.0188241 -0.0214749 0.0151181 -0.0174866 -0.0185558 -0.0149862 -0.0234226 -0.0175768 0.0147681 0.0155017 0.0137964
internal_weight=649 293 97 356 196 136 60 60 107 331 186 145
internal_count=649 293 97 356 196 136 60 60 107 331 186 145
cat_boundaries=0 1
cat_threshold=2
is_linear=0
shrinkage=0.03


Tree=22
num_leaves=14
num_cat=2
split_feature=1 12 12 22 21 20 24 6 3 12 26 23 22
split_gain=193.701 0.921605 0.472649 0.410266 0.337406 0.271303 0.266475 0.187912 0.114951 0.0657444 0.010571 0.089971 0.160428
threshold=0 665.00000000000011 875.00000000000011 0.1061142855711938 -0.12978457797372148 0.92936845102157695 -0.54784660878720859 1 3904620736288.6938 215.00000000000003 0.70585127591706553 0.65554319614386369 0.12771496595518236
decision_type=1 2 2 2 2 2 2 1 2 2 2 2 2
left_child=1 3 6 5 8 -1 -3 9 -2 -5 -9 12 -12
right_child=4 2 -4 7 -6 -7 -8 10 -10 -11 11 -13 -14
leaf_value=-0.017050936400121428 0.012572921552331313 -0.019009166043516584 -0.017637022883101611 -0.017826912076170764 0.017812050885729229 -0.012202516298775917 -0.024593321905873922 -0.018975294494474552 0.014658773468921202 -0.022522052001597275 -0.016860673209837879 -0.018530547827853204 -0.012150724078737088
leaf_weight=28 59 21 37 20 37 32 39 25 260 20 27 24 20
leaf_count=28 59 21 37 20 37 32 39 25 260 20 27 24 20
internal_value=-0.000196053 -0.018263 -0.0208345 -0.0169652 0.0146662 -0.0145396 -0.0227237 -0.0180017 0.0142865 -0.0202996 -0.0169929 -0.016227 -0.0149502
internal_weight=649 293 97 196 356 60 60 136 319 40 96 71 47
internal_count=649 293 97 196 356 60 60 136 319 40 96 71 47
cat_boundaries=0 1 2
cat_threshold=2 2
is_linear=0
shrinkage=0.03


Tree=23
num_leaves=14
num_cat=1
split_feature=5 28 31 30 22 27 22 4 22 3 25 23 30
split_gain=182.322 0.446864 0.7334 0.42545 0.36498 0.339221 0.127232 0.122234 0.452536 0.121046 0.106467 0.100778 0.00925042
threshold=0 3755.4976901518621 22.625000000000004 13.282342433929445 0.095405499625943094 909.82673189221964 0.10863423647110944 118.78191561322691 0.10430395045812794 3904620736288.6938 0.20248834505636432 0.41615908028695953 1.1913337111473086
decision_type=1 2 2 2 2 2 2 2 2 2 2 2 2
left_child=1 2 5 9 -3 11 -4 -6 -9 12 -8 -1 -2
right_child=3 4 6 -5 7 -7 10 8 -10 -11 -12 -13 -14
leaf_value=-0.016114290097587126 0.010474494812984811 -0.01961043800730472 -0.013409619241285678 0.019003199676969156 -0.016875802138848425 -0.023418088233186383 -0.015485631673627747 -0.0098166501995732326 -0.016002452966990651 0.014281847040410592 -0.019304859572866824 -0.020332127084749727 0.013108337009049488
leaf_weight=21 22 26 20 20 33 38 33 22 33 277 30 37 37
leaf_count=21 22 26 20 20 33 38 33 22 33 277 30 37 37
internal_value=-0.000191846 -0.0177202 -0.018787 0.0142271 -0.0160039 -0.0207343 -0.0164763 -0.0148833 -0.0136049 0.0139283 -0.0173796 -0.018887 0.0121964
internal_weight=649 293 179 356 114 96 83 88 55 336 63 58 59
internal_count=649 293 179 356 114 96 83 88 55 336 63 58 59
cat_boundaries=0 1
cat_threshold=1
is_linear=0
shrinkage=0.03


Tree=24
num_leaves=17
num_cat=1
split_feature=1 12 12 30 22 20 24 30 4 27 30 25 3 26 4 28
split_gain=171.61 0.851733 0.420444 0.397944 0.368356 0.251772 0.246143 0.215358 0.116975 0.106278 0.131468 0.101199 0.0871236 0.058722 0.00371535 0.0463371
threshold=0 665.00000000000011 875.00000000000011 13.282342433929445 0.1061142855711938 0.92936845102157695 -0.54784660878720859 0.30217218399047857 126.43715323239572 1311.0962453439577 1.2301651239395144 0.19136303324461293 4069636619068.7515 0.79468553240338136 138.68372960095027 2508.702452388397
decision_type=1 2 2 2 2 2 2 2 2 2 2 2 2 2 2 2
left_child=1 4 6 8 5 -1 -3 11 12 10 13 -6 -2 -9 -10 -16
right_child=3 2 -4 -5 7 -7 -8 9 14 -11 -12 -13 -14 -15 15 -17
leaf_value=-0.016053285192486125 0.01565844628603481 -0.017881307407013047 -0.016629139395415621 0.018435940137550011 -0.021425523017820022 -0.011383904685205387 -0.023255943662446477 -0.017226278113024268 0.01192289108553409 -0.012934689213967576 -0.019451524553014271 -0.01688222272985283 0.01346988768804641 -0.01348417484554751 0.015621732159813431 0.012662246721414864
leaf_weight=28 60 21 37 20 21 32 39 22 82 21 20 26 107 26 21 66
leaf_count=28 60 21 37 20 21 32 39 22 82 21 20 26 107 26 21 66
internal_value=-0.000187309 -0.0171931 -0.0196657 0.0138015 -0.0159447 -0.013636 -0.0214576 -0.0169305 0.0135113 -0.0157748 -0.0165876 -0.0190171 0.014283 -0.0152939 0.012723 0.0134282
internal_weight=649 293 97 356 196 60 60 136 336 89 68 47 167 48 169 87
internal_count=649 293 97 356 196 60 60 136 336 89 68 47 167 48 169 87
cat_boundaries=0 1
cat_threshold=2
is_linear=0
shrinkage=0.03


Tree=25
num_leaves=13
num_cat=2
split_feature=1 13 29 31 12 4 12 12 31 18 18 4
split_gain=159.989 0.54688 0.574369 0.401924 0.191349 0.169132 0.112245 0.109132 0.259825 0.0694713 0.0674653 0.0378355
threshold=0 1 2217.5174280126735 313.47999572753912 627.50000000000011 126.43715323239572 890.00000000000011 785.00000000000011 17.190000534057621 0.67061825578061784 0.64036346608554429 118.78191561322691
decision_type=1 9 2 2 2 2 2 2 2 2 2 2
left_child=1 4 -3 5 9 6 11 -6 -9 10 -1 -2
right_child=3 2 -4 -5 7 -7 -8 8 -10 -11 -12 -13
leaf_value=-0.016522168233647175 0.012835550320645173 -0.016589610429991478 -0.010262156731115716 0.017708688556462869 -0.021417268485490682 0.012416006597002019 0.017152104217614702 -0.014674895277161815 -0.019835444469106161 -0.01905247549483885 -0.013199571755839816 0.014775835421228189
leaf_weight=91 80 36 27 26 27 157 20 24 33 24 20 65
leaf_count=91 80 36 27 26 27 157 20 24 33 24 20 65
internal_value=6.07555e-05 -0.0167255 -0.0139459 0.0136729 -0.0175047 0.0133323 0.014178 -0.0189849 -0.0177446 -0.0165481 -0.0159629 0.0137356
internal_weight=630 282 63 348 219 322 165 84 57 135 111 145
internal_count=630 282 63 348 219 322 165 84 57 135 111 145
cat_boundaries=0 1 2
cat_threshold=2 4
is_linear=0
shrinkage=0.03


Tree=26
num_leaves=13
num_cat=2
split_feature=1 12 13 31 12 4 25 12 19 18 18 4
split_gain=150.588 0.520114 0.750019 0.375655 0.34782 0.157049 0.155754 0.103026 0.0706975 0.0417883 0.0490175 0.0329592
threshold=0 665.00000000000011 1 313.47999572753912 785.00000000000011 126.43715323239572 0.18403908562890603 890.00000000000011 0.26411063124870676 0.67061825578061784 0.64626615982782643 118.78191561322691
decision_type=1 2 9 2 2 2 2 2 2 2 2 2
left_child=1 2 9 5 -3 7 -4 11 -6 10 -1 -2
right_child=3 4 6 -5 8 -7 -8 -9 -10 -11 -12 -13
leaf_value=-0.016214306740551809 0.012450964441069502 -0.022429976253144773 -0.013557626425997534 0.017179463163189503 -0.017985772411175441 0.012043763526225075 -0.008932115704668642 0.016640101030691346 -0.014339837378530359 -0.018522683072731312 -0.013097433269913515 0.014333241351189152
leaf_weight=102 80 20 20 26 54 157 21 20 20 25 20 65
leaf_count=102 80 20 20 26 54 157 21 20 20 25 20 65
internal_value=5.80917e-05 -0.0162274 -0.0151868 0.0132644 -0.0182583 0.0129337 -0.011289 0.0137546 -0.0170616 -0.0162451 -0.0157391 0.0133247
internal_weight=630 282 188 348 94 322 41 165 74 147 122 145
internal_count=630 282 188 348 94 322 41 165 74 147 122 145
cat_boundaries=0 1 2
cat_threshold=2 4
is_linear=0
shrinkage=0.03


Tree=27
num_leaves=18
num_cat=1
split_feature=3 13 21 30 4 23 26 3 22 28 18 4 4 28 29 4 23
split_gain=141.74 0.480723 0.736009 0.256265 0.125286 0.0953887 0.212555 0.0543856 0.0271807 0.0179737 0.0818621 0.0560413 0.178812 0.0728814 0.00627889 0.015665 0.0301218
threshold=2106311703621.6389 0 -0.26932642992756639 13.282342433929445 126.43715323239572 0.9652147610405325 0.95714804440294643 4069636619068.7515 0.16484122177950289 3765.4663378222986 0.55696276321850224 122.09567441928012 117.74280706823112 3412.775590786367 1504.7800613227892 144.1856927861638 0.55498584289240604
decision_type=2 9 2 2 2 2 2 2 2 2 2 2 2 2 2 2 2
left_child=1 5 -3 4 7 6 9 -2 -9 11 -11 12 -1 -14 -6 16 -16
right_child=3 2 -4 -5 14 -7 -8 8 -10 10 -12 -13 13 -15 15 -17 -18
leaf_value=-0.018745393994040887 0.014559652298074892 -0.017465308257900332 -0.010334887792120504 0.016755248441624994 0.012879737502441478 -0.019550661800512625 -0.012887688231194155 0.013407995227067595 0.01122300614100283 -0.017153056215965884 -0.013483511910486062 -0.019919189251403308 -0.013281694086686146 -0.016743679701167843 0.012682209024779604 0.013139200046729136 0.010154070746795141
leaf_weight=37 63 24 39 20 51 20 26 64 39 26 30 20 28 32 21 21 69
leaf_count=37 63 24 39 20 51 20 26 64 39 26 30 20 28 32 21 21 69
internal_value=5.5528e-05 -0.0157441 -0.0131222 0.0128681 0.0126169 -0.0164783 -0.0161448 0.0133834 0.0126215 -0.0166093 -0.0152682 -0.0172119 -0.0166029 -0.0152028 0.0118053 0.0112734 0.0107907
internal_weight=630 282 63 348 328 219 199 166 103 173 56 117 97 60 162 111 90
internal_count=630 282 63 348 328 219 199 166 103 173 56 117 97 60 162 111 90
cat_boundaries=0 1
cat_threshold=4
is_linear=0
shrinkage=0.03


Tree=28
num_leaves=15
num_cat=1
split_feature=1 12 31 12 19 18 4 20 4 12 28 12 27 4
split_gain=133.433 0.485406 0.341683 0.316024 0.276991 0.273967 0.249511 0.182764 0.135825 0.098524 0.0810895 0.0472778 0.0452657 0.0315656
threshold=0 665.00000000000011 313.47999572753912 785.00000000000011 0.18652857811777473 0.67334302849833172 117.86815741863882 0.93224946094321692 126.43715323239572 890.00000000000011 4048.5461757181542 215.00000000000003 961.83510706480672 118.78191561322691
decision_type=1 2 2 2 2 2 2 2 2 2 2 2 2 2
left_child=1 4 8 -3 -1 6 12 -5 9 13 11 -8 -6 -2
right_child=2 3 -4 7 5 -7 10 -9 -10 -11 -12 -13 -14 -15
leaf_value=-0.010575071787098784 0.011679192581370975 -0.021228452940930179 0.016228208863872221 -0.017792657258084221 -0.014058737912661091 -0.017980745828766836 -0.01198643225027579 -0.013838675182841695 0.0113275698409727 0.015744331959468214 -0.010342987834740041 -0.014829183620641296 -0.017839246642779544 0.013500457734968255
leaf_weight=23 80 20 26 41 21 28 32 33 157 20 20 39 25 65
leaf_count=23 80 20 26 41 21 28 32 33 157 20 20 39 25 65
internal_value=5.31729e-05 -0.0152763 0.0124848 -0.0172373 -0.0142713 -0.0147616 -0.0140692 -0.0160909 0.0121683 0.0129427 -0.0129361 -0.0136088 -0.0162127 0.012525
internal_weight=630 282 348 94 188 165 137 74 322 165 91 71 46 145
internal_count=630 282 348 94 188 165 137 74 322 165 91 71 46 145
cat_boundaries=0 1
cat_threshold=2
is_linear=0
shrinkage=0.03


Tree=29
num_leaves=15
num_cat=2
split_feature=1 12 13 31 21 20 25 4 12 18 18 4 19 12
split_gain=125.604 0.45338 0.666748 0.319169 0.319018 0.239377 0.151659 0.125881 0.0903262 0.0367756 0.0471865 0.0272913 0.00281208 0.0297821
threshold=0 665.00000000000011 1 313.47999572753912 -0.27661392024490067 0.92618622043279153 0.18403908562890603 126.43715323239572 890.00000000000011 0.67061825578061784 0.64626615982782643 118.78191561322691 0.20713707008180152 785.00000000000011
decision_type=1 2 9 2 2 2 2 2 2 2 2 2 2 2
left_child=1 2 9 7 -3 -6 -4 8 11 10 -1 -2 -9 -14
right_child=3 4 6 -5 5 -7 -8 12 -10 -11 -12 -13 13 -15
leaf_value=-0.014820163325277995 0.011329254505960515 -0.020157581608133957 -0.012371507729195168 0.015743228032671169 -0.017628434551626531 -0.013247962563099994 -0.0078821977453915424 0.012248814382321749 0.01527435200427895 -0.016996854874954753 -0.011840089368286417 0.013096066206212967 0.010047320771039989 0.012272968830048352
leaf_weight=102 80 25 20 26 33 36 21 37 20 25 20 65 94 26
leaf_count=102 80 25 20 26 33 36 21 37 20 25 20 65 94 26
internal_value=5.03304e-05 -0.0148225 -0.0138476 0.0121119 -0.0167238 -0.0154089 -0.0101699 0.0118046 0.0125563 -0.0148453 -0.0143663 0.0121504 0.010988 0.0105643
internal_weight=630 282 188 348 94 69 41 322 165 147 122 145 157 120
internal_count=630 282 188 348 94 69 41 322 165 147 122 145 157 120
cat_boundaries=0 1 2
cat_threshold=2 4
is_linear=0
shrinkage=0.03


Tree=30
num_leaves=15
num_cat=2
split_feature=5 26 4 18 19 3 13 21 29 29 24 28 4 3
split_gain=122.148 0.300213 0.439303 0.242681 0.273337 0.244486 0.240775 0.395958 0.0512848 0.271894 0.0740347 0.0423155 0.0193142 0.0504491
threshold=0 0.98816195012608576 117.86815741863882 0.44456717874251267 0.27017781552950509 3904620736288.6938 1 -0.28575842170902732 2254.549793544546 2382.1327017525805 -0.56099491515639721 3755.4976901518621 124.49621006272866 4069636619068.7515
decision_type=1 2 2 2 2 2 9 2 2 2 2 2 2 2
left_child=1 2 11 4 -2 -5 7 -4 10 -10 -9 -1 13 -7
right_child=3 -3 6 5 -6 12 -8 8 9 -11 -12 -13 -14 -15
leaf_value=-0.016345307908725806 0.011364493934262511 -0.017187763863191829 -0.0094539963212106129 0.0089946002463118357 0.015981941592455699 0.013428733201264876 -0.010243541279717173 -0.01337942331139721 -0.0098739644840582091 -0.015095874445676082 -0.017490553288909902 -0.013588880902713105 0.010950096776394124 0.011372438495078784
leaf_weight=69 35 38 23 52 30 52 39 20 20 33 24 29 120 80
leaf_count=69 35 38 23 52 30 52 39 20 20 33 24 29 120 80
internal_value=0.000112927 -0.0142706 -0.0138211 0.0116208 0.013563 0.0111914 -0.0127121 -0.0134802 -0.0143933 -0.0132041 -0.0157245 -0.0155749 0.011629 0.0122148
internal_weight=664 295 257 369 65 304 159 120 97 53 44 98 252 132
internal_count=664 295 257 369 65 304 159 120 97 53 44 98 252 132
cat_boundaries=0 1 2
cat_threshold=1 4
is_linear=0
shrinkage=0.03


Tree=31
num_leaves=16
num_cat=3
split_feature=5 30 26 4 13 21 9 4 30 21 3 29 22 29 30
split_gain=114.979 0.322727 0.279109 0.409721 0.224836 0.370556 0.205283 0.190373 0.134472 0.244299 0.0552371 0.0517373 0.0264961 0.000376605 0.000334887
threshold=0 12.239347457885744 0.98816195012608576 117.86815741863882 1 -0.28575842170902732 2 124.49621006272866 0.31037399172782904 -0.24982551795237543 4069636619068.7515 1504.7800613227892 0.1668598017227533 2202.4136715590012 1.0637370944023135
decision_type=1 2 2 2 9 2 1 2 2 2 2 2 2 2 2
left_child=2 7 3 6 5 -5 -1 10 9 -7 -2 -9 14 -8 -12
right_child=1 -3 -4 4 -6 8 13 11 -10 -11 12 -13 -14 -15 -16
leaf_value=-0.01820471436946423 0.013046384146392056 0.015234262767960041 -0.016673484463391338 -0.0091716040961154089 -0.0099370179304381478 -0.014982868655404047 -0.015565172901304165 0.011478249377744439 -0.015276128029702109 -0.0096322373542692755 0.010235542227972799 0.0097068052071582565 0.0098851126952658862 -0.013128022002234199 0.012806891129023302
leaf_weight=23 62 22 38 23 39 20 28 52 54 23 20 136 40 47 37
leaf_count=23 62 22 38 23 39 20 28 52 54 23 20 136 40 47 37
internal_value=0.000108769 0.011274 -0.0138462 -0.0134101 -0.012335 -0.0130805 -0.0151095 0.01101 -0.013966 -0.0122195 0.0119198 0.0102186 0.0111562 -0.0140974 0.0119767
internal_weight=664 369 295 257 159 120 98 347 97 43 159 188 97 75 57
internal_count=664 369 295 257 159 120 98 347 97 43 159 188 97 75 57
cat_boundaries=0 1 2 3
cat_threshold=1 4 1
is_linear=0
shrinkage=0.03


Tree=32
num_leaves=19
num_cat=0
split_feature=3 30 26 4 28 29 29 4 29 4 28 12 29 4 31 28 24 21
split_gain=108.236 0.301486 0.259969 0.41328 0.30803 0.247793 0.527902 0.177524 0.122676 0.0992284 0.300366 0.0526626 0.0467585 0.0377106 0.0314186 0.0276287 0.050969 0.0202199
threshold=2106311703621.6389 12.239347457885744 0.99182000669120118 117.74280706823112 4048.5461757181542 2382.1327017525805 2259.1610312680236 124.49621006272866 2491.2517438423861 122.09567441928012 3567.1778767786086 875.00000000000011 1504.7800613227892 118.78191561322691 73.654998779296889 3335.4803456743016 -0.55237865930949936 -0.26393294266210893
decision_type=2 2 2 2 2 2 2 2 2 2 2 2 2 2 2 2 2 2
left_child=2 7 3 15 5 6 9 11 -7 10 -5 13 -9 -2 17 -1 -17 -14
right_child=1 -3 -4 4 -6 8 -8 12 -10 -11 -12 -13 14 -15 -16 16 -18 -19
leaf_value=-0.017182056417858058 0.010367572154668388 0.014779303076580099 -0.016406489354065898 -0.014015874545069505 -0.0086403095485471874 -0.016665893558316564 -0.0078960273994192528 0.01113456292110075 -0.012346781086158977 -0.015544347103455621 -0.0094321727297585652 0.013678635593766494 0.0093781840553711412 0.012229772766142705 0.010069900541284963 -0.015916583147141838 -0.012342205920654707 0.0070334721923586861
leaf_weight=23 80 22 33 41 25 27 28 52 21 21 29 24 30 55 81 23 24 25
leaf_count=23 80 22 33 41 25 27 28 52 21 21 29 24 30 55 81 23 24 25
internal_value=0.000104918 0.0109379 -0.0134345 -0.0130426 -0.0122198 -0.0127322 -0.0118337 0.0106815 -0.0148682 -0.0130024 -0.0121759 0.0115648 0.00991283 0.0111569 0.00941582 -0.0152357 -0.0141851 0.00838155
internal_weight=664 369 295 262 192 167 119 347 48 91 70 159 188 135 136 70 47 55
internal_count=664 369 295 262 192 167 119 347 48 91 70 159 188 135 136 70 47 55
is_linear=0
shrinkage=0.03


Tree=33
num_leaves=19
num_cat=2
split_feature=7 30 13 30 21 3 23 31 24 18 29 27 27 4 3 30 29 31
split_gain=101.899 0.281492 0.255653 0.370102 0.288289 0.167655 0.0988106 0.34099 0.176806 0.121776 0.0938792 0.0829098 0.0597132 0.0241505 0.0507053 0.0131003 0.00109327 0.0176994
threshold=0 12.239347457885744 1 0.28735782206058508 -0.28756092334437422 3904620736288.6938 0.61492234374595722 10.340000152587892 -0.43426382436181971 0.54254463765076155 2202.4136715590012 925.01809062464974 975.8137443097271 124.49621006272866 4069636619068.7515 1.1814715862274172 1504.7800613227892 65.239997863769545
decision_type=9 2 9 2 2 2 2 2 2 2 2 2 2 2 2 2 2 2
left_child=1 5 4 -4 -2 15 8 -8 9 -6 -11 -9 -12 14 -7 -1 -15 -18
right_child=2 -3 3 -5 6 13 7 11 -10 10 12 -13 -14 16 -16 -17 17 -19
leaf_value=0.007177581451466129 -0.01076837271041288 0.014337930088668927 -0.013856976702377276 -0.0088619438116255347 -0.016874970475684349 0.012303711463863722 -0.018998869463329401 -0.011549433100277482 -0.010164286371373453 -0.014854068190783179 -0.013561568067638903 -0.015568906921911013 -0.010129701031132357 0.011199185408029274 0.010483910525956189 0.0094192611162756141 0.0081563276423766377 0.010160615258674354
leaf_weight=24 38 22 29 38 20 62 22 22 21 37 23 21 24 37 97 33 30 64
leaf_count=24 38 22 29 38 20 62 22 22 21 37 23 21 24 37 97 33 30 64
internal_value=0.000100968 0.0106122 -0.013036 -0.0110861 -0.0135907 0.0103633 -0.0141334 -0.0155088 -0.0133824 -0.013993 -0.0132519 -0.0136136 -0.011898 0.0107078 0.0112197 0.00854216 0.0100556 0.00956218
internal_weight=664 369 295 67 228 347 190 65 125 104 84 43 47 290 159 57 131 94
internal_count=664 369 295 67 228 347 190 65 125 104 84 43 47 290 159 57 131 94
cat_boundaries=0 1 2
cat_threshold=1 4
is_linear=0
shrinkage=0.03


Tree=34
num_leaves=16
num_cat=2
split_feature=1 30 13 30 26 21 3 24 18 29 12 30 22 30 19
split_gain=95.9345 0.262741 0.23865 0.346199 0.298444 0.22511 0.155571 0.11276 0.0983902 0.0891784 0.0180553 0.0670931 0.0126884 0.0106587 0.00487095
threshold=0 12.239347457885744 1 0.28735782206058508 0.99182000669120118 -0.28756092334437422 3904620736288.6938 -0.43426382436181971 0.5418702556433217 2116.9587628121085 105.00000000000001 2.086188912391663 0.10148236920948865 1.1814715862274172 0.22350042086103503
decision_type=1 2 9 2 2 2 2 2 2 2 2 2 2 2 2
left_child=2 6 4 -4 5 -1 13 8 -7 -10 -8 -12 -11 -2 -14
right_child=1 -3 3 -5 -6 7 10 -9 9 12 11 -13 14 -15 -16
leaf_value=-0.010041753610707501 0.0069631464838502436 0.013909738276878632 -0.013442696546559633 -0.0085967831688339089 -0.016543851579635591 -0.016468748647108004 0.0089685654086168014 -0.01055597645605439 -0.015131442034355947 -0.010601477478302366 0.010257579002049384 0.012259845208200134 -0.014144890159143421 0.0091375369805943921 -0.011680393904169029
leaf_weight=35 24 22 29 38 28 20 39 24 32 24 211 40 33 33 32
leaf_count=35 24 22 29 38 28 20 39 24 32 24 211 40 33 33 32
internal_value=9.71167e-05 0.0102962 -0.0126494 -0.0107559 -0.0131877 -0.0126948 0.0100545 -0.013233 -0.0136596 -0.0131573 0.0103884 0.0105934 -0.0123977 0.00828834 -0.0129975
internal_weight=664 369 295 67 228 200 347 165 141 121 290 251 89 57 65
internal_count=664 369 295 67 228 200 347 165 141 121 290 251 89 57 65
cat_boundaries=0 1 2
cat_threshold=2 4
is_linear=0
shrinkage=0.03


Tree=35
num_leaves=18
num_cat=1
split_feature=3 12 21 12 28 28 30 24 26 12 3 9 23 18 21 27 30
split_gain=91.0669 0.616818 0.433674 0.405089 0.227786 0.211944 0.201341 0.213024 0.161193 0.14361 0.0880959 0.0839637 0.0721457 0.0507241 0.080399 0.00449179 0.000911868
threshold=2106311703621.6389 665.00000000000011 -0.26528507642153049 785.00000000000011 3880.6199253418563 3422.737471646783 3.2119617462158208 -0.42131662511645868 0.78783370196364311 215.00000000000003 3904620736288.6938 0 0.52143282121781009 0.59436274709867565 -0.26594237352119826 619.74298975248371 1.2192833423614504
decision_type=2 2 2 2 2 2 2 2 2 2 2 1 2 2 2 2 2
left_child=1 2 8 -3 5 11 10 -8 -1 -7 -2 -4 -5 -12 16 -16 -15
right_child=6 3 4 12 -6 9 7 -9 -10 -11 13 -13 -14 14 15 -17 -18
leaf_value=-0.0069514505667933098 0.0078204801445052631 -0.01868287705896397 -0.013823365755935213 -0.014921297817476925 -0.0096626379916962893 -0.012231156132114467 0.01000503211049868 0.013887525584016527 -0.010680219892324863 -0.016735627841703668 0.0089463673536709816 -0.01029862662602184 -0.011870935236146508 0.0088673206631460343 0.012502669815983726 0.010334545429388102 0.010872710966821169
leaf_weight=26 42 22 20 33 29 20 46 30 35 29 95 35 37 64 32 41 22
leaf_count=26 42 22 20 33 29 20 46 30 35 29 95 35 37 64 32 41 22
internal_value=0.000194776 -0.0125266 -0.0114769 -0.0146927 -0.0125122 -0.0132679 0.00998403 0.0115933 -0.00915399 -0.0149868 0.00955694 -0.0116576 -0.013371 0.00982907 0.0103317 0.0113418 0.0094272
internal_weight=658 286 194 92 133 104 372 76 61 49 296 55 70 254 159 73 86
internal_count=658 286 194 92 133 104 372 76 61 49 296 55 70 254 159 73 86
cat_boundaries=0 1
cat_threshold=1
is_linear=0
shrinkage=0.03


Tree=36
num_leaves=19
num_cat=1
split_feature=1 28 31 26 23 30 25 28 26 23 20 28 3 21 18 21 29 19
split_gain=85.736 0.342681 0.396091 0.234428 0.302217 0.187487 0.203238 0.179265 0.333326 0.154384 0.163884 0.125818 0.081249 0.0525483 0.0461993 0.0736969 0.0127394 0.00333582
threshold=0 3755.4976901518621 22.625000000000004 0.80043290043290061 0.36816172128051811 3.2119617462158208 0.26146439612084121 3422.737471646783 0.86500910576441659 0.46567060854799075 0.92898049074737565 4033.600164457514 3904620736288.6938 -0.2683372191947288 0.59436274709867565 -0.26594237352119826 1604.1120334528434 0.22649575580257644
decision_type=1 2 2 2 2 2 2 2 2 2 2 2 2 2 2 2 2 2
left_child=1 2 7 4 -3 12 -7 -1 -9 -4 -11 13 16 -5 -14 -16 -2 -17
right_child=5 3 9 11 -6 6 -8 8 -10 10 -12 -13 14 -15 15 17 -18 -19
leaf_value=-0.012535290240711924 0.0087724731381593358 -0.011211890729400219 -0.014105573710220962 -0.0085896480795162825 -0.0055483386053967821 0.010044175245259936 0.014194631645747269 -0.013378576906119469 -0.018985803114922709 -0.0076261012019563056 -0.011646383852353245 -0.013928944879311145 0.0086782585446390816 -0.011882407055254951 0.0091461197896909215 0.011929480896505248 0.0063376339265393995 0.0098219580546327345
leaf_weight=40 20 21 20 20 20 55 21 30 24 21 38 27 95 25 86 39 22 34
leaf_count=40 20 21 20 20 20 55 21 30 24 21 38 27 95 25 86 39 22 34
internal_value=0.000188328 -0.012155 -0.0130912 -0.0106849 -0.0085424 0.00968687 0.0112476 -0.0145475 -0.0159566 -0.0113042 -0.0102815 -0.0118499 0.00927235 -0.0105078 0.00953623 0.0100242 0.00758642 0.0110037
internal_weight=658 286 173 113 41 372 76 94 54 79 59 72 296 45 254 159 42 73
internal_count=658 286 173 113 41 372 76 94 54 79 59 72 296 45 254 159 42 73
cat_boundaries=0 1
cat_threshold=2
is_linear=0
shrinkage=0.03


Tree=37
num_leaves=21
num_cat=0
split_feature=3 12 21 31 12 30 24 26 3 3 4 18 21 12 26 29 27 4 27 30
split_gain=80.7211 0.564328 0.399056 0.498656 0.380028 0.174526 0.191372 0.145763 0.102595 0.0743774 0.0685905 0.0418574 0.0676724 0.0224317 0.0371665 0.0105304 0.00243139 0.0155546 0.00233994 0.00152923
threshold=2106311703621.6389 665.00000000000011 -0.26528507642153049 6.1949999332427987 785.00000000000011 3.2119617462158208 -0.42131662511645868 0.78783370196364311 315932696319.99445 3904620736288.6938 119.2655080931231 0.59436274709867565 -0.26594237352119826 160.00000000000003 0.87724708467596757 1604.1120334528434 619.74298975248371 124.49621006272866 913.09696025233575 1.2192833423614504
decision_type=2 2 2 2 2 2 2 2 2 2 2 2 2 2 2 2 2 2 2 2
left_child=1 2 7 -4 -3 9 -7 -1 13 15 18 -11 19 -5 -15 -2 -14 -18 -6 -13
right_child=5 4 3 8 10 6 -8 -9 -10 11 -12 12 16 14 -16 -17 17 -19 -20 -21
leaf_value=-0.0064537832038155914 0.0085106079613984503 -0.017730954793783331 -0.016363086598567771 -0.01318511681897545 -0.012041958657218448 0.0093967577731014582 0.013097499765430971 -0.010012878720035664 -0.0089876253793666084 0.0084181845510137559 -0.010774627406265317 0.0083277606300416855 0.011783806385698719 -0.011862542941040355 -0.0088701843681620127 0.0061483652936926789 0.011054333902117032 0.0082437571212296244 -0.015208569640796896 0.010274863078246288
leaf_weight=26 20 22 21 27 20 46 30 35 34 95 29 64 32 31 20 22 20 21 21 22
leaf_count=26 20 22 21 27 20 46 30 35 34 95 29 64 32 31 20 22 20 21 21 22
internal_value=0.000181901 -0.0117949 -0.0107891 -0.0117827 -0.0138691 0.00939859 0.0109123 -0.00855803 -0.0108832 0.00899625 -0.012589 0.00925167 0.0097252 -0.0116585 -0.0107674 0.00736204 0.0106757 0.00971132 -0.0137699 0.00887205
internal_weight=658 286 194 133 92 372 76 61 112 296 70 254 159 78 51 42 73 41 41 86
internal_count=658 286 194 133 92 372 76 61 112 296 70 254 159 78 51 42 73 41 41 86
is_linear=0
shrinkage=0.03


Tree=38
num_leaves=15
num_cat=2
split_feature=7 12 13 19 31 12 30 24 29 3 23 18 18 29
split_gain=76.0057 0.528979 0.356862 0.385213 0.378213 0.354509 0.162165 0.178037 0.152284 0.0681077 0.0668701 0.0380631 0.0294088 0.00849435
threshold=0 665.00000000000011 1 0.23184914445898105 4.4749999046325692 785.00000000000011 3.2119617462158208 -0.42131662511645868 2168.9502786290764 3904620736288.6938 0.52143282121781009 0.59436274709867565 0.66007110591598772 1604.1120334528434
decision_type=9 2 9 2 2 2 2 2 2 2 2 2 2 2
left_child=6 2 4 -4 -2 -3 9 -8 -6 13 -7 -11 -13 -1
right_child=1 5 3 -5 8 10 7 -9 -10 11 -12 12 -14 -15
leaf_value=0.0082565605749529009 -0.015430397203386717 -0.017201433666556128 -0.010722791504851979 -0.0045747658988390264 -0.0085068984658230005 -0.013693311222662917 0.0091154665815080319 0.012705880184704282 -0.011297208574401585 0.0081659047401947925 -0.010783200480766855 0.010387478679071447 0.0088202088733704605 0.0059647488904215088
leaf_weight=20 20 22 21 21 38 33 46 30 94 95 37 60 99 22
leaf_count=20 20 22 21 21 38 33 46 30 94 95 37 60 99 22
internal_value=0.000176005 -0.0114455 -0.0104694 -0.00773821 -0.0111988 -0.0134577 0.00911958 0.010587 -0.0105237 0.00872923 -0.0122155 0.00897658 0.00943664 0.00714437
internal_weight=658 286 194 42 152 92 372 76 132 296 70 254 159 42
internal_count=658 286 194 42 152 92 372 76 132 296 70 254 159 42
cat_boundaries=0 1 2
cat_threshold=1 4
is_linear=0
shrinkage=0.03


Tree=39
num_leaves=21
num_cat=3
split_feature=7 12 13 25 31 12 12 29 3 23 12 27 20 29 26 25 23 18 9 22
split_gain=71.5506 0.495742 0.33339 0.380898 0.353893 0.330925 0.141614 0.141188 0.0945735 0.0605789 0.0429275 0.0115952 0.0196971 0.00778824 0.00485927 0.00421735 0.0525717 0.00738068 0.00105928 0.00139824
threshold=0 665.00000000000011 1 0.20248834505636432 4.4749999046325692 785.00000000000011 35.250000000000007 2168.9502786290764 3904620736288.6938 0.52143282121781009 890.00000000000011 1051.6216207802188 0.90783263685102045 1604.1120334528434 0.83476830722420969 0.16378026923087144 0.58640223928537483 0.56062519646692188 2 0.15053877206880159
decision_type=9 2 9 2 2 2 2 2 2 2 2 2 2 2 2 2 2 2 1 2
left_child=6 2 4 -4 -2 -3 -1 -6 13 -7 11 12 -10 -8 -13 -9 17 -17 -14 -20
right_child=1 5 3 -5 7 9 8 15 10 -11 -12 14 18 -15 -16 16 -18 -19 19 -21
leaf_value=0.011375900992678607 -0.014969789833942456 -0.01668772589095038 -0.010331358341415879 -0.0042197985603793777 -0.0082523614106567826 -0.013283753053445559 0.0081379390836923138 -0.0091851674323963333 0.0075586211902272668 -0.010460576469234298 0.0104663724394945 0.0064178998805427944 0.010202546226867667 0.0060702833803735166 0.0085582260756571753 -0.011554613157921311 -0.013138482892650296 -0.0089619733291593454 0.009488532925069619 0.0081156129387844837
leaf_weight=27 20 22 22 20 38 33 23 21 37 37 35 24 43 28 24 24 26 23 62 69
leaf_count=27 20 22 22 20 38 33 23 21 37 37 35 24 43 28 24 24 26 23 62 69
internal_value=0.00017032 -0.0111053 -0.0101579 -0.00750929 -0.0108647 -0.0130573 0.00884795 -0.0102091 0.00863818 -0.0118513 0.00889655 0.00866888 0.00890185 0.00707556 0.007566 -0.0109587 -0.0114145 -0.0103713 0.00916575 0.00879502
internal_weight=658 286 194 42 152 92 372 132 345 70 294 259 211 51 48 94 73 47 174 131
internal_count=658 286 194 42 152 92 372 132 345 70 294 259 211 51 48 94 73 47 174 131
cat_boundaries=0 1 2 3
cat_threshold=1 4 1
is_linear=0
shrinkage=0.03


Tree=40
num_leaves=23
num_cat=0
split_feature=3 20 26 4 21 12 25 24 25 28 19 4 3 4 30 27 24 19 23 12 23 3
split_gain=71.4689 0.523433 0.356701 0.619636 0.550688 0.546793 0.203892 0.153349 0.122726 0.349599 0.115313 0.0864488 0.127781 0.0480395 0.0696962 0.0446213 0.0323584 0.0280815 0.0194744 0.0160272 0.00594017 0.0041118
threshold=2106311703621.6389 0.91410280315743686 0.82508124601607158 118.78191561322691 -0.23447200678568877 215.00000000000003 0.22072206445461209 -0.40900494059290599 0.20366539678302836 3676.7930685974702 0.23246057773379578 124.49621006272866 4069636619068.7515 144.1856927861638 2.0022519826889043 1556.6308484101571 -0.4996134784622796 0.25708722673261547 0.42215256926419764 675.00000000000011 0.51719613738269632 3961124135566.7407
decision_type=2 2 2 2 2 2 2 2 2 2 2 2 2 2 2 2 2 2 2 2 2 2
left_child=1 -1 3 18 -5 10 8 11 9 -7 -4 12 -2 14 19 -9 -8 -16 -3 21 -14 -13
right_child=7 2 5 4 -6 6 16 15 -10 -11 -12 13 20 -15 17 -17 -18 -19 -20 -21 -22 -23
leaf_value=-0.01555133215911772 0.010249820908278277 -0.012658081072244759 -0.00661908035065043 -0.0039879857939343127 -0.010043148471368958 -0.0095019578344341538 -0.01666171268829237 0.011500233648425321 -0.0089931800816930949 -0.015868025069583708 -0.010549901713974666 0.0054874038606555799 0.0086487300308561617 0.0093721919463968812 0.01006575025729279 0.0085301143268114842 -0.013167853294556359 0.0071987611902833547 -0.01020672897228639 0.0078703792918926076 0.0069444819087656129 0.0070060440805562417
leaf_weight=26 58 33 21 30 29 20 21 30 20 20 21 41 49 26 20 22 25 21 33 32 35 37
leaf_count=26 58 33 21 30 29 20 21 30 20 20 21 41 49 26 20 22 25 21 33 32 35 37
internal_value=-0.000260458 -0.011177 -0.0107439 -0.00941742 -0.00702697 -0.0118369 -0.0130516 0.00853009 -0.0115923 -0.0127914 -0.00867614 0.00822577 0.00893679 0.00763368 0.00730848 0.01032 -0.0148606 0.00869137 -0.0114951 0.00675836 0.0079834 0.00625424
internal_weight=670 299 273 125 59 148 106 371 60 40 42 319 142 177 151 52 46 41 66 110 84 78
internal_count=670 299 273 125 59 148 106 371 60 40 42 319 142 177 151 52 46 41 66 110 84 78
is_linear=0
shrinkage=0.03


Tree=41
num_leaves=21
num_cat=0
split_feature=3 31 12 21 26 26 21 2 26 4 30 19 26 3 12 31 22 30 12 26
split_gain=67.3003 0.612762 0.488771 0.425961 0.390797 0.285673 0.241298 0.316762 0.228262 0.121877 0.102587 0.0930156 0.0464903 0.0432572 0.0408368 0.0393219 0.0245691 0.0164119 0.0146044 0.006407
threshold=2106311703621.6389 5.9800000190734872 555.00000000000011 -0.24982551795237543 0.82508124601607158 0.70585127591706553 -0.21801029326419805 2019.5000000000002 0.86738241308793473 124.49621006272866 1.8910418152809145 0.25393837563552296 0.99360859266519663 4069636619068.7515 675.00000000000011 51.625000000000007 0.16633815079260242 1.3524413704872134 325.00000000000006 0.79166184743178603
decision_type=2 2 2 2 2 2 2 2 2 2 2 2 2 2 2 2 2 2 2 2
left_child=1 4 6 11 -1 -5 7 -3 -9 13 12 -4 14 -2 -11 19 17 -15 -12 -8
right_child=9 2 3 5 -6 -7 15 8 -10 10 18 -13 -14 16 -16 -17 -18 -19 -20 -21
leaf_value=-0.011236358895248259 0.0099185905979724698 -0.01030930318320504 -0.012038003527127283 -0.012401140512197048 -0.01722820170610756 -0.0074214979529108518 -0.012153063127118063 -0.0031989177270964563 -0.0078914991278781904 0.0058323508208351482 0.0078722894736720471 -0.015748418907957723 0.0083094961835643438 0.0079027855529935648 0.0077600198550689435 -0.0085306474585753987 0.0072802170395436247 0.010229110771659555 0.0099736239661260984 -0.0094512387798793267
leaf_weight=28 68 25 29 23 23 30 27 21 23 65 39 25 38 30 32 25 43 27 29 20
leaf_count=28 68 25 29 23 23 30 27 21 23 65 39 25 38 30 32 25 43 27 29 20
internal_value=-0.000252827 -0.0108464 -0.0101751 -0.0118062 -0.0140257 -0.00965826 -0.00890851 -0.00744652 -0.00573222 0.00827736 0.00765836 -0.0138372 0.007042 0.00900248 0.00650652 -0.0102557 0.00834026 0.00907325 0.00882583 -0.0110896
internal_weight=670 299 248 107 51 53 141 69 44 371 203 54 135 168 97 72 100 57 68 47
internal_count=670 299 248 107 51 53 141 69 44 371 203 54 135 168 97 72 100 57 68 47
is_linear=0
shrinkage=0.03


Tree=42
num_leaves=20
num_cat=1
split_feature=1 31 20 22 25 28 26 31 24 31 24 31 4 3 4 30 26 24 23
split_gain=63.3716 0.574042 0.382585 0.256736 0.447563 0.353646 0.566235 0.203083 0.140021 0.132563 0.108173 0.0904241 0.071849 0.112058 0.0439718 0.0601733 0.039654 0.0257844 0.00491469
threshold=0 5.9800000190734872 0.93927584265887021 0.10189521723486407 0.22072206445461209 3704.6544849139768 0.83476830722420969 48.694999694824226 -0.40900494059290599 16.305000305175785 -0.51613190859395208 26.024999618530277 124.49621006272866 4069636619068.7515 144.1856927861638 2.0022519826889043 0.81312750366389841 -0.49714160864628038 0.51719613738269632
decision_type=1 2 2 2 2 2 2 2 2 2 2 2 2 2 2 2 2 2 2
left_child=1 2 -1 4 9 7 -7 10 12 -3 11 -5 13 -2 15 -14 -10 -17 -15
right_child=8 3 -4 5 -6 6 -8 -9 16 -11 -12 -13 14 18 -16 17 -18 -19 -20
leaf_value=-0.015989084776809617 0.0096458102350496702 -0.011479033651365629 -0.010005485013445123 -0.010772173446634796 -0.014944971405911719 -0.0027803582800508108 -0.0097292323558928959 -0.0074483149320017112 0.0082092907358762394 -0.0077002682076531583 -0.012713799380830355 -0.0074808531351832309 0.006350440477054028 0.0081379609377466716 0.0088576393668678977 0.0094340797658497687 0.011025848818661102 0.0066706097359532741 0.0065005013652336902
leaf_weight=30 58 26 21 44 26 21 25 30 25 26 30 20 110 49 26 21 27 20 35
leaf_count=30 58 26 21 44 26 21 25 30 25 26 30 20 110 49 26 21 27 20 35
internal_value=-0.000245746 -0.0105256 -0.0136084 -0.00987429 -0.0114807 -0.00911327 -0.00663491 -0.0100024 0.00803159 -0.00966564 -0.0107769 -0.00980371 0.00773948 0.00840368 0.00718524 0.00687175 0.00974767 0.00817855 0.0074999
internal_weight=670 299 51 248 78 170 46 124 371 52 94 64 319 142 177 151 52 41 84
internal_count=670 299 51 248 78 170 46 124 371 52 94 64 319 142 177 151 52 41 84
cat_boundaries=0 1
cat_threshold=2
is_linear=0
shrinkage=0.03


Tree=43
num_leaves=22
num_cat=1
split_feature=5 31 12 21 26 26 21 2 26 24 18 4 3 4 30 26 31 19 12 3 26
split_gain=59.6706 0.537821 0.444341 0.394978 0.374967 0.272198 0.22314 0.2971 0.203932 0.130288 0.110057 0.0660281 0.103621 0.0399075 0.0556522 0.0354285 0.0309443 0.0248928 0.0138359 0.00621381 0.0059063
threshold=0 5.9800000190734872 555.00000000000011 -0.24982551795237543 0.82508124601607158 0.70585127591706553 -0.21801029326419805 2019.5000000000002 0.86738241308793473 -0.40900494059290599 0.61818760852483357 124.49621006272866 4069636619068.7515 144.1856927861638 2.0022519826889043 0.81312750366389841 51.625000000000007 0.25708722673261547 675.00000000000011 3961124135566.7407 0.79166184743178603
decision_type=1 2 2 2 2 2 2 2 2 2 2 2 2 2 2 2 2 2 2 2 2
left_child=1 4 6 10 -1 -5 7 -3 -9 11 -4 12 -2 14 18 -11 20 -16 19 -13 -8
right_child=9 2 3 5 -6 -7 16 8 -10 15 -12 13 -14 -15 17 -17 -18 -19 -20 -21 -22
leaf_value=-0.01047999696100124 0.0093569340274177112 -0.0097331010166229123 -0.015133210526957055 -0.011739190321464043 -0.016329247824206656 -0.0068900027918162134 -0.011475584748548168 -0.0029007391767108463 -0.0073458767787541275 0.0079639927252377583 -0.011321712220242352 0.0049341859381618726 0.0072764942018087074 0.0085929284767172799 0.0092357837353179689 0.010696293879918946 -0.0080415021415903756 0.0065191112797689669 0.0072099272166944554 0.0064149144102600862 -0.0088660084011394583
leaf_weight=28 58 25 24 23 23 30 27 21 23 25 30 41 84 26 20 27 25 21 32 37 20
leaf_count=28 58 25 24 23 23 30 27 21 23 25 30 41 84 26 20 27 25 21 32 37 20
internal_value=-0.00023867 -0.0102139 -0.00958199 -0.0111397 -0.0132034 -0.00906901 -0.0083716 -0.00696377 -0.00530375 0.00779319 -0.013096 0.00750951 0.00815335 0.00697174 0.00666724 0.00945808 -0.00966764 0.00793656 0.0061601 0.00568231 -0.01045
internal_weight=670 299 248 107 51 53 141 69 44 371 54 319 142 177 151 52 72 41 110 78 47
internal_count=670 299 248 107 51 53 141 69 44 371 54 319 142 177 151 52 72 41 110 78 47
cat_boundaries=0 1
cat_threshold=1
is_linear=0
shrinkage=0.03


Tree=44
num_leaves=21
num_cat=1
split_feature=1 31 12 22 20 19 21 2 26 12 18 3 19 30 31 4 3 31 20 29
split_gain=56.1912 0.503666 0.416028 0.396985 0.366746 0.331038 0.20834 0.277932 0.190903 0.165369 0.102843 0.0870569 0.0814072 0.0558565 0.0274096 0.00582129 0.0797719 0.0348143 0.00453931 0.00320005
threshold=0 5.9800000190734872 555.00000000000011 0.10189521723486407 0.93927584265887021 0.23546023070208233 -0.21801029326419805 2019.5000000000002 0.86738241308793473 860.00000000000011 0.42710598638522301 3904620736288.6938 0.27920671188234919 1.1927230358123782 51.625000000000007 120.04313886449401 4069636619068.7515 61.409999847412116 0.92724161032920061 2228.8814588220002
decision_type=1 2 2 2 2 2 2 2 2 2 2 2 2 2 2 2 2 2 2 2
left_child=1 4 6 5 -1 -4 7 -3 -9 19 12 13 -2 -12 18 16 -13 -17 -8 -5
right_child=10 2 3 9 -6 -7 14 8 -10 -11 11 15 -14 -15 -16 17 -18 -19 -20 -21
leaf_value=-0.015133521503195146 0.0075482242636517021 -0.0094422714902733657 -0.010318751023466367 -0.011571919781280986 -0.0092940354970464777 -0.016175252515557816 -0.01145536178323524 -0.0028141293426648976 -0.0071264545404195008 -0.006401383712958386 0.0041849230715378201 0.0090639862564605572 0.010556650210130698 0.0068537890232876677 -0.0078012182332286711 0.0057095696073391029 0.0069774204318166395 0.0074890233783830654 -0.00892230459799369 -0.0088412207698644104
leaf_weight=30 33 25 25 20 21 21 21 21 23 21 21 58 27 30 25 32 58 112 26 20
leaf_count=30 33 25 25 20 21 21 21 21 23 21 21 58 27 30 25 32 58 112 26 20
internal_value=-0.000231833 -0.00991202 -0.00929892 -0.0108093 -0.0128106 -0.0130867 -0.00812467 -0.00675832 -0.00514737 -0.00902411 0.00756221 0.0072787 0.00896725 0.00582389 -0.00938129 0.00755018 0.00805345 0.00711864 -0.0101397 -0.0103068
internal_weight=670 299 248 107 51 46 141 69 44 61 371 311 60 51 72 260 116 144 47 40
internal_count=670 299 248 107 51 46 141 69 44 61 371 311 60 51 72 260 116 144 47 40
cat_boundaries=0 1
cat_threshold=2
is_linear=0
shrinkage=0.03


Tree=45
num_leaves=21
num_cat=1
split_feature=7 4 26 31 31 26 21 22 21 31 23 12 12 24 21 19 21 4 20 25
split_gain=48.1524 0.407942 0.523888 0.360714 0.24646 0.243983 0.951589 0.370193 0.167978 0.128998 0.110752 0.0873578 0.0657392 0.0491452 0.055698 0.0235842 0.0150445 0.014238 0.00683403 0.00507683
threshold=0 117.74280706823112 0.99182000669120118 4.4749999046325692 12.695000171661379 0.81312750366389841 -0.24537749331596209 0.12200590908316587 -0.2473493526665638 313.47999572753912 0.47359348891236991 985.00000000000011 635.00000000000011 -0.50053962587904455 -0.27134223353915726 0.23984882521289688 -0.20815810579363211 132.2357534358608 0.93168950653027094 0.18506324556786249
decision_type=9 2 2 2 2 2 2 2 2 2 2 2 2 2 2 2 2 2 2 2
left_child=9 12 3 -3 10 6 -6 -8 -7 11 -5 13 16 14 19 18 -2 -15 -16 -1
right_child=1 2 -4 4 5 8 7 -9 -10 -11 -12 -13 -14 17 15 -17 -18 -19 -20 -21
leaf_value=0.0070744988115679971 -0.011332785963781716 -0.0036852730156399162 -0.012336126954503543 -0.012128747449218552 -0.00052199899541187627 -0.010987832755206589 -0.011460972935925745 -0.0054436492345114641 -0.0068679122620844742 0.010030125083474369 -0.0083521484778444656 0.0094600112068455259 -0.013289589918037848 0.0067441887933777922 0.0089684027348951399 0.0068553912419900128 -0.0088459674500185864 0.005139283409046235 0.0071487129337131127 0.0055155955366730401
leaf_weight=54 29 21 28 22 21 25 21 22 25 23 26 24 20 60 61 45 26 32 28 31
leaf_count=54 29 21 28 22 21 25 21 22 25 23 26 24 20 60 61 45 26 32 28 31
internal_value=0.000109798 -0.00906169 -0.00831722 -0.00767952 -0.00817619 -0.00730346 -0.0059149 -0.00847172 -0.00900557 0.0074456 -0.0101671 0.00725627 -0.0111023 0.00707357 0.00741347 0.00793457 -0.0102298 0.00622472 0.00843825 0.00654836
internal_weight=644 286 211 183 162 114 64 43 50 358 48 335 75 311 219 134 55 92 89 85
internal_count=644 286 211 183 162 114 64 43 50 358 48 335 75 311 219 134 55 92 89 85
cat_boundaries=0 1
cat_threshold=1
is_linear=0
shrinkage=0.03


Tree=46
num_leaves=19
num_cat=0
split_feature=3 4 26 31 31 26 26 19 31 29 23 4 3 2 24 23 30 27
split_gain=45.347 0.381806 0.490521 0.338567 0.230081 0.227978 0.414137 0.12887 0.11977 0.1124 0.10229 0.0636314 0.0893142 0.0386768 0.0553773 0.0253484 0.0198896 0.0179274
threshold=2106311703621.6389 117.74280706823112 0.99182000669120118 4.4749999046325692 12.695000171661379 0.81312750366389841 0.6816975732600733 0.22829045346133534 313.47999572753912 2386.9110893288566 0.47359348891236991 132.2357534358608 4069636619068.7515 2023.5000000000002 -0.52606274593037483 0.43580705928136493 1.2192833423614504 820.75779423043548
decision_type=2 2 2 2 2 2 2 2 2 2 2 2 2 2 2 2 2 2
left_child=1 9 3 -3 10 6 -6 -7 11 17 -5 12 -2 14 16 -14 -13 -1
right_child=8 2 -4 4 5 7 -8 -9 -10 -11 -12 13 15 -15 -16 -17 -18 -19
leaf_value=-0.01030666716730865 0.0085818145644403297 -0.0035752388774911137 -0.011967360137090139 -0.011766530951291187 -0.008739682090650687 -0.0063713959857487857 -0.0035931119976421325 -0.01019011081601694 0.0097305239330638532 -0.0085501462799233499 -0.008102543994184884 0.0053632402385085211 0.0083482143765941444 0.0073428330496099359 0.0041306943813516636 0.0064649679878475965 0.0072370309188219102 -0.013137267727657142
leaf_weight=25 70 21 28 22 26 20 38 30 23 25 26 34 24 51 24 98 34 25
leaf_count=25 70 21 28 22 26 20 38 30 23 25 26 34 24 51 24 98 34 25
internal_value=0.000105766 -0.0087944 -0.00807214 -0.00745355 -0.00793527 -0.00708844 -0.00574108 -0.00873827 0.00722481 -0.010773 -0.00986521 0.00704097 0.00751166 0.00638321 0.00581128 0.00686655 0.00635344 -0.0118052
internal_weight=644 286 211 183 162 114 64 50 358 75 48 335 192 143 92 122 68 50
internal_count=644 286 211 183 162 114 64 50 358 75 48 335 192 143 92 122 68 50
is_linear=0
shrinkage=0.03


Tree=47
num_leaves=18
num_cat=0
split_feature=3 28 31 2 12 21 22 28 31 28 28 12 27 21 19 20 23
split_gain=42.7021 0.215342 0.188228 0.248616 0.272113 0.367197 0.316266 0.184781 0.111177 0.0909644 0.156649 0.0808885 0.0716623 0.00661804 0.0560449 0.00315397 3.11494e-05
threshold=2106311703621.6389 4125.7766765617316 6.1949999332427987 2019.5000000000002 335.00000000000006 -0.21516596054076917 0.10020710547919016 3700.9112135314404 313.47999572753912 3321.0594603224158 3628.1801052742962 985.00000000000011 1051.6216207802188 -0.27134223353915726 0.23984882521289688 0.93168950653027094 0.73293041521751512
decision_type=2 2 2 2 2 2 2 2 2 2 2 2 2 2 2 2 2
left_child=1 2 -1 9 5 -5 -6 -8 11 -4 -11 12 13 16 15 -15 -2
right_child=8 -3 3 4 6 -7 7 -9 -10 10 -12 -13 -14 14 -16 -17 -18
leaf_value=-0.011109460431045659 0.0066259422955938464 -0.0055575978670312073 -0.011630908766684612 -0.0021447896034415084 -0.011064597132793005 -0.0078199107361550634 -0.0083426622336354034 -0.0043342796412866496 0.0094398718491777184 -0.0062230694282855558 -0.01017349234949849 0.0089562730534442723 0.0052255732736726035 0.0083572755010606781 0.0063992229614102374 0.006682510030331071 0.0050800684007866253
leaf_weight=37 60 26 29 20 33 26 39 20 23 20 36 24 46 64 88 29 24
leaf_count=37 60 26 29 20 33 26 39 20 23 20 36 24 46 64 88 29 24
internal_value=0.000101852 -0.00853473 -0.00881866 -0.00842031 -0.00752183 -0.00542755 -0.00852937 -0.00704428 0.0070103 -0.00983321 -0.00882971 0.00683178 0.00665536 0.00689016 0.00717799 0.007875 0.0062265
internal_weight=644 286 260 223 138 46 92 59 358 85 56 335 311 265 181 93 84
internal_count=644 286 260 223 138 46 92 59 358 85 56 335 311 265 181 93 84
is_linear=0
shrinkage=0.03


Tree=48
num_leaves=22
num_cat=3
split_feature=5 4 26 24 29 13 24 26 23 24 27 29 27 27 4 14 20 20 4 25 27
split_gain=40.2098 0.338948 0.461336 0.336351 0.252181 0.401961 0.450816 0.124548 0.225531 0.106551 0.111179 0.105259 0.0354988 0.0171084 0.012015 0.0266738 0.00945092 0.0112616 0.00606141 0.00110723 0.00733255
threshold=0 117.74280706823112 0.99182000669120118 -0.43426382436181971 2029.7156781848564 1 -0.57391714062605714 0.8195291775807575 0.38433535969043076 -0.41131005967500062 1672.6233734197508 2386.9110893288566 1051.6216207802188 820.75779423043548 132.2357534358608 2 0.93786493057080722 0.92716270406311352 117.52902357427357 0.18506324556786249 676.02551481969806
decision_type=1 2 2 2 2 9 2 2 2 2 2 2 2 2 2 1 2 2 2 2 2
left_child=1 11 3 4 -3 6 -6 8 -8 12 -11 13 14 -1 18 -16 17 -17 -2 -20 -21
right_child=9 2 -4 -5 5 -7 7 -9 -10 10 -12 -13 -14 -15 15 16 -18 -19 19 20 -22
leaf_value=-0.0096975424690765744 0.0057683135228355263 -0.010086018353282848 -0.01137453253768729 -0.0031498392720781792 -0.0038053098810195175 -0.003244325204527583 -0.0098777509876195862 -0.010387240574400649 -0.00513750234788817 0.0097215373554202008 0.0061672514581708549 -0.0080025085941164836 0.0048630678545928509 -0.01244014192335456 0.0076168904462790583 0.0059012456551478919 0.006859462782740593 0.004303307221055667 0.0081223063790001916 0.0057974361899109086 0.007412079973118435
leaf_weight=25 27 32 28 21 24 26 21 35 24 30 21 25 25 25 24 47 28 28 45 33 50
leaf_count=25 27 32 28 21 24 26 21 35 24 30 21 25 25 25 24 47 28 28 45 33 50
internal_value=9.82769e-05 -0.00828234 -0.00759857 -0.00699855 -0.0074767 -0.00680408 -0.00766123 -0.00877436 -0.00743313 0.00680223 0.00833165 -0.0101534 0.00653575 -0.0111508 0.00667163 0.00616986 0.00579653 0.00535115 0.00705917 0.00730333 0.00681396
internal_weight=644 286 211 183 162 130 104 80 45 358 51 75 307 50 282 127 103 75 155 128 83
internal_count=644 286 211 183 162 130 104 80 45 358 51 75 307 50 282 127 103 75 155 128 83
cat_boundaries=0 1 2 3
cat_threshold=1 4 1
is_linear=0
shrinkage=0.03


Tree=49
num_leaves=17
num_cat=2
split_feature=1 4 12 12 12 8 20 21 18 22 29 21 27 27 25 22
split_gain=37.8706 0.317218 0.229984 0.1851 0.240284 0.339844 0.225908 0.14493 0.101212 0.13539 0.0972927 0.0341287 0.0326375 0.0146379 0.0129724 0.0119403
threshold=0 117.74280706823112 230.00000000000003 860.00000000000011 665.00000000000011 1 0.93458911935771938 -0.23254442455998195 0.44456717874251267 0.20639796120172169 2386.9110893288566 -0.24753930490995915 1073.5825563029209 777.70596892254844 0.26146439612084121 0.15374341232618263
decision_type=1 2 2 2 2 1 2 2 2 2 2 2 2 2 2 2
left_child=1 10 7 4 5 -4 -6 -3 9 14 13 -7 15 -1 -2 -10
right_child=8 2 3 -5 6 11 -8 -9 12 -11 -12 -13 -14 -15 -16 -17
leaf_value=-0.0091703417734905045 0.0076651946242823664 -0.0032530965114105069 -0.010626717373802174 -0.0056794904251077655 -0.0081938016055099865 -0.0047340461290608414 -0.013175170537251145 -0.0069366856278143679 0.0069024983751620802 0.0054607171281727384 -0.0077633899910397744 -0.0069435747461994331 0.0045299974867910736 -0.011874860167940215 0.010345125411873431 0.0060193055914187533
leaf_weight=21 21 22 24 34 25 25 20 27 126 20 25 34 21 29 20 150
leaf_count=21 21 22 24 34 25 25 20 27 126 20 25 34 21 29 20 150
internal_value=9.51205e-05 -0.00803793 -0.00737441 -0.00796336 -0.00854168 -0.00743327 -0.0104986 -0.00535392 0.00660128 0.00794489 -0.00985238 -0.00606769 0.00631264 -0.0108194 0.00906746 0.00643572
internal_weight=644 286 211 162 128 83 45 49 358 61 75 59 297 50 41 276
internal_count=644 286 211 162 128 83 45 49 358 61 75 59 297 50 41 276
cat_boundaries=0 1 2
cat_threshold=2 1
is_linear=0
shrinkage=0.03


Tree=50
num_leaves=22
num_cat=2
split_feature=5 28 31 30 13 30 26 21 4 12 12 30 4 30 26 20 26 18 31 25 28
split_gain=38.0652 0.493003 0.424456 0.544558 0.212078 0.292288 0.199171 0.174148 0.109854 0.0603841 0.0558089 0.0445112 0.0398478 0.0173228 0.0442115 0.0152639 0.00992843 0.00275327 0.0112384 0.00660255 0.000254872
threshold=0 4125.7766765617316 6.1949999332427987 0.24225801974534991 1 0.43942230939865118 0.97182958885086557 -0.28956993739606246 126.43715323239572 810.00000000000011 890.00000000000011 1.8910418152809145 118.18795367845952 0.26150459051132208 0.85306817027329074 0.9587144634962449 0.84213469122859574 0.62057793267218719 94.319999694824233 0.18374537967808899 3508.0677662020857
decision_type=1 2 2 2 9 2 2 2 2 2 2 2 2 2 2 2 2 2 2 2 2
left_child=1 2 3 -1 6 -6 7 -4 10 13 12 15 -2 -9 20 17 -13 -10 19 -19 -15
right_child=8 -3 4 -5 5 -7 -8 9 11 -11 -12 16 -14 14 -16 -17 -18 18 -20 -21 -22
leaf_value=-0.0077902717946411728 0.0057918982397810164 -0.0042367233433664693 -0.0060027070087728214 -0.014821997238444042 -0.0082436195535094767 -0.0034108846762055272 -0.0057851024074801081 -0.0073373822589843148 0.0040218950207058417 -0.011489790713941433 0.0088038395925075213 0.0053406543715922659 0.0071877723630071992 -0.009466985969201102 -0.011235899352110348 0.0063843888237044731 0.0072234492203382059 0.0044559988239780066 0.0039270532742809883 0.0063197983625545122 -0.0072095071821848848
leaf_weight=23 74 29 20 23 28 24 26 22 34 25 22 24 91 27 22 26 38 20 20 32 20
leaf_count=23 74 29 20 23 28 24 26 22 34 25 22 24 91 27 22 26 38 20 20 32 20
internal_value=2.56118e-05 -0.00817868 -0.00860502 -0.0113957 -0.0079861 -0.00608154 -0.0085748 -0.00908144 0.0062572 -0.00958079 0.00686558 0.00565207 0.0065838 -0.00901137 -0.0094903 0.0052017 0.00655271 0.00487758 0.00523391 0.00567046 -0.0085874
internal_weight=670 289 260 46 214 52 162 136 381 116 187 194 165 91 69 132 62 106 72 52 47
internal_count=670 289 260 46 214 52 162 136 381 116 187 194 165 91 69 132 62 106 72 52 47
cat_boundaries=0 1 2
cat_threshold=1 4
is_linear=0
shrinkage=0.03


Tree=51
num_leaves=25
num_cat=2
split_feature=5 28 31 30 13 30 26 12 31 23 12 3 26 22 20 26 20 12 2 2 24 30 22 31
split_gain=35.8515 0.463254 0.397409 0.51031 0.198389 0.27389 0.188039 0.150721 0.111846 0.0888894 0.0817788 0.0766369 0.06895 0.139958 0.0810129 0.0324558 0.0299943 0.0239382 0.00162504 0.0438992 0.0233363 0.00526823 0.00209233 0.00219525
threshold=0 4125.7766765617316 6.1949999332427987 0.24225801974534991 1 0.43942230939865118 0.95714804440294643 810.00000000000011 313.47999572753912 0.50618163292418228 875.00000000000011 3904620736288.6938 0.81312750366389841 0.1061142855711938 0.92537820125259251 0.74190629473325087 0.93661453532691297 262.50000000000006 2020.5000000000002 2019.5000000000002 -0.49483106900693358 1.9170156717300417 0.14228254241578622 91.77500152587892
decision_type=1 2 2 2 9 2 2 2 2 2 2 2 2 2 2 2 2 2 2 2 2 2 2 2
left_child=1 2 3 -1 6 -6 7 12 9 10 15 16 13 -4 -15 -2 -11 -14 19 -13 -21 22 -20 -24
right_child=8 -3 4 -5 5 -7 -8 -9 -10 11 -12 18 17 14 -16 -17 -18 -19 21 20 -22 -23 23 -25
leaf_value=-0.0075575766811002195 0.0050975544397997754 -0.0041100583885095472 -0.0050450349086684871 -0.014379262287508358 -0.0079971904342072721 -0.0033089826910667644 -0.0059219621153217611 -0.011434007954177025 0.008259059344710459 0.003338150715508012 0.0088144128701903596 0.0051124725698195785 -0.0079709600429259137 -0.010046317710891945 -0.0065566703477012581 0.0072186058037674306 0.0053544698208879632 -0.010889405307329096 0.0059013543502525537 0.0084961660933720561 0.0059241490892324401 0.0063181008181224267 0.0051931699553475251 0.0037391561307235661
leaf_weight=23 33 29 22 23 28 24 32 24 27 30 23 29 20 23 20 29 24 21 37 21 21 44 38 25
leaf_count=23 33 29 22 23 28 24 32 24 27 30 23 29 20 23 20 29 24 21 37 21 21 44 38 25
internal_value=2.42723e-05 -0.00793775 -0.0083514 -0.0110573 -0.00775086 -0.00590149 -0.00832197 -0.00888468 0.00607207 0.00589451 0.00691426 0.00555869 -0.00826896 -0.00739408 -0.00851181 0.00614799 0.00429799 -0.00956162 0.00585924 0.00645628 0.00729854 0.00553977 0.00516137 0.00467056
internal_weight=670 289 260 46 214 52 162 130 381 354 85 269 106 65 43 62 54 41 215 71 42 144 100 63
internal_count=670 289 260 46 214 52 162 130 381 354 85 269 106 65 43 62 54 41 215 71 42 144 100 63
cat_boundaries=0 1 2
cat_threshold=1 4
is_linear=0
shrinkage=0.03


Tree=52
num_leaves=23
num_cat=1
split_feature=3 28 13 30 21 19 4 26 26 30 23 2 30 3 18 21 27 27 20 30 4 18
split_gain=33.7718 0.43528 0.309671 0.29471 0.138925 0.17406 0.0967866 0.0898475 0.0847178 0.0592117 0.0776312 0.0507173 0.032719 0.0239713 0.0343339 0.0235841 0.0212571 0.017604 0.016649 0.00582645 0.00316345 0.00291872
threshold=2106311703621.6389 4125.7766765617316 0 0.43942230939865118 -0.28956993739606246 0.27362951835243704 132.2357534358608 0.96061814556331016 0.86413745024400124 0.30217218399047857 0.44439588249614809 2023.5000000000002 1.1927230358123782 4069636619068.7515 0.41470426985093001 -0.24365485865894679 665.60591185725445 826.66649789054679 0.92756245598299258 1.0971153974533083 137.14902857300098 0.56062519646692188
decision_type=2 2 9 2 2 2 2 2 2 2 2 2 2 2 2 2 2 2 2 2 2 2
left_child=1 2 4 -4 -1 7 13 8 9 -6 -11 12 20 17 -15 19 -14 -2 -13 -16 -8 -17
right_child=6 -3 3 -5 5 -7 11 -9 -10 10 -12 18 16 14 15 21 -18 -19 -20 -21 -22 -23
leaf_value=-0.006451750812854414 0.007689972209492555 -0.0039871803706646274 -0.0078025287586129507 -0.0032101251808269509 -0.0068385589655453908 -0.01201946625511301 0.0029518882981078185 -0.0065122333843389462 -0.010709708229853556 -0.010615181334886793 -0.0074792360368816334 0.0048248074092476613 0.0062680641069239361 0.0075133204872208917 0.0053257437801569468 0.00541985397471542 0.0044512635074266211 0.0058063160379956793 0.006815172621584314 0.0071131895312184328 0.0045241090588605216 0.0037985111897752295
leaf_weight=31 52 29 36 24 32 22 23 26 35 28 26 22 28 23 30 30 38 27 38 28 20 22
leaf_count=31 52 29 36 24 32 22 23 26 35 28 26 22 28 23 30 30 38 27 38 28 20 22
internal_value=2.34705e-05 -0.00770403 -0.00810537 -0.00602388 -0.0087115 -0.00910421 0.00589337 -0.00863965 -0.00906625 -0.0083509 -0.00917735 0.0052403 0.00470989 0.00639711 0.00595663 0.00559737 0.00527573 0.00709227 0.00614453 0.00625104 0.00376156 0.00480009
internal_weight=670 289 260 60 200 169 381 147 121 86 54 169 109 212 133 110 66 79 60 58 43 52
internal_count=670 289 260 60 200 169 381 147 121 86 54 169 109 212 133 110 66 79 60 58 43 52
cat_boundaries=0 1
cat_threshold=4
is_linear=0
shrinkage=0.03


Tree=53
num_leaves=24
num_cat=1
split_feature=7 28 31 29 26 31 23 12 3 27 27 23 30 29 29 20 26 20 26 2 21 12 30
split_gain=31.8095 0.408773 0.371207 0.485516 0.146005 0.104337 0.0800205 0.0755808 0.0664978 0.0580811 0.225417 0.130971 0.0748565 0.180721 0.0655113 0.0646999 0.0303986 0.0276273 0.000846432 0.0401452 0.0298818 0.0320232 0.0157981
threshold=0 4125.7766765617316 6.1949999332427987 2299.2970954383341 0.99200664382850634 313.47999572753912 0.50618163292418228 875.00000000000011 3904620736288.6938 1252.0161910700865 1507.4976331495238 0.34992260061919506 0.28167922794818884 2096.2461913173088 2214.0970008767813 0.93046742166952934 0.74190629473325087 0.93661453532691297 0.79722161498183497 2020.5000000000002 -0.26528507642153049 310.00000000000006 1.137407720088959
decision_type=9 2 2 2 2 2 2 2 2 2 2 2 2 2 2 2 2 2 2 2 2 2 2
left_child=5 2 3 -2 9 6 7 16 17 11 -11 -4 13 -13 15 -14 -1 -8 -10 -20 22 -22 -21
right_child=1 -3 4 -5 -6 -7 8 -9 18 10 -12 12 14 -15 -16 -17 -18 -19 19 20 21 -23 -24
leaf_value=0.0047644185179596893 -0.0074761796366401949 -0.0038679760130429538 -0.005501350578465557 -0.014181073376380684 -0.0046283862742220426 0.0078333611475695543 0.0031098618080214503 0.0083523171791782622 0.0048657559788000473 -0.003996679884559355 -0.0087131207928395089 -0.0091324154706009745 -0.0061169849174903404 -0.0046796320115714829 -0.010403446654545649 -0.0093121498810799785 0.0068161222523020707 0.0050522945171291647 0.0069674561886654066 0.0051744796291948213 0.0050008334382123376 0.0070602846606319693 0.0032665808915869508
leaf_weight=33 26 29 24 20 23 27 30 23 65 24 20 21 20 21 37 24 29 24 37 28 37 28 20
leaf_count=33 26 29 24 20 23 27 30 23 65 24 20 21 20 21 37 24 29 24 37 28 37 28 20
internal_value=2.3021e-05 -0.00747649 -0.00786581 -0.0104809 -0.00728505 0.00571997 0.00554814 0.00652162 0.00522708 -0.00758667 -0.00622344 -0.00796981 -0.00842223 -0.00699369 -0.00911643 -0.00794499 0.00578183 0.00403636 0.00551018 0.00576601 0.00534028 0.00594355 0.00445034
internal_weight=670 289 260 46 214 381 354 85 269 191 44 147 123 42 81 44 62 54 215 150 113 65 48
internal_count=670 289 260 46 214 381 354 85 269 191 44 147 123 42 81 44 62 54 215 150 113 65 48
cat_boundaries=0 1
cat_threshold=1
is_linear=0
shrinkage=0.03


Tree=54
num_leaves=18
num_cat=2
split_feature=1 13 4 22 31 12 26 20 31 4 12 22 23 2 21 12 24
split_gain=29.9646 0.392921 0.324327 0.253399 0.57021 0.352794 0.17142 0.145652 0.0967672 0.0753248 0.0693292 0.046492 0.0416541 0.0120335 0.0298254 0.00139629 0.0259205
threshold=0 1 118.78191561322691 0.10697642330829275 4.4749999046325692 380.00000000000006 0.92662857412698052 0.92868549147246815 313.47999572753912 126.43715323239572 890.00000000000011 0.13067681895822289 0.46076719205995958 2023.5000000000002 -0.2585507983467063 785.00000000000011 -0.48783208108945281
decision_type=1 9 2 2 2 2 2 2 2 2 2 2 2 2 2 2 2
left_child=1 3 -3 5 -5 -1 7 -7 9 10 11 -2 -6 15 -15 16 -11
right_child=8 2 -4 4 12 6 -8 -9 -10 13 -12 -13 -14 14 -16 -17 -18
leaf_value=-0.0031678529955322093 0.0069517293404432546 -0.0074107940091544212 -0.0029351451630011578 -0.01319017413101271 -0.0090068247645084237 -0.0068366601695488026 -0.0053743538431737618 -0.011011536056043412 0.0075992274935944926 0.0045759196528115777 0.0078967078815623103 0.0052148755936350221 -0.0070745813218863578 0.0043331153022831874 0.0064538817508672163 0.0054822096269722875 0.0028890610006008545
leaf_weight=24 33 30 35 24 37 23 26 21 27 75 22 122 69 26 30 23 23
leaf_count=24 33 30 35 24 37 23 26 21 27 75 22 122 69 26 30 23 23
internal_value=2.21076e-05 -0.00725654 -0.00505512 -0.00787941 -0.00881545 -0.00654502 -0.00765394 -0.00891769 0.00555151 0.00538475 0.00591392 0.00560824 -0.00778517 0.0048356 0.0055322 0.00448413 0.00421395
internal_weight=670 289 65 224 130 94 70 44 381 354 177 155 106 177 56 121 98
internal_count=670 289 65 224 130 94 70 44 381 354 177 155 106 177 56 121 98
cat_boundaries=0 1 2
cat_threshold=2 4
is_linear=0
shrinkage=0.03


Tree=55
num_leaves=22
num_cat=1
split_feature=5 12 31 28 19 23 2 23 30 24 31 21 27 2 2 20 31 19 21 20 29
split_gain=28.6604 0.643229 0.371931 0.170168 0.1773 0.336685 0.20823 0.244557 0.221291 0.15968 0.19967 0.139042 0.0340325 0.0327372 0.0414936 0.0395397 0.0217638 0.0327057 0.0223744 0.0149847 0.00381284
threshold=0 665.00000000000011 9.2150001525878924 4125.7766765617316 0.18652857811777473 0.76550511508951413 2020.5000000000002 0.46076719205995958 0.29489427804946905 -0.39958296645116076 92.384998321533217 -0.25118205623302287 954.1978501183213 2020.5000000000002 2019.5000000000002 0.93786493057080722 61.409999847412116 0.20713707008180152 -0.26101882465650489 0.94554004535436564 1714.854293898791
decision_type=1 2 2 2 2 2 2 2 2 2 2 2 2 2 2 2 2 2 2 2 2
left_child=1 3 -3 4 -1 6 7 12 -9 13 -11 -4 -6 14 20 16 18 -18 -15 -17 -2
right_child=9 2 11 -5 5 -7 -8 8 -10 10 -12 -13 -14 15 -16 19 17 -19 -20 -21 -22
leaf_value=-0.0034581672438373993 0.0041540916146069673 -0.012868664198647742 -0.0094443994554717203 -0.0031100978083043441 -0.010093254991598539 -0.010240343302101282 -0.0038278830688223881 -0.0026405332304572601 -0.0068314181606690307 0.0043208914556637839 0.0084941161251212705 -0.0064168628183243525 -0.0071740227135328148 0.0043546947935360599 0.0065871178901801674 0.0069022876838601742 0.0061309971181727737 0.0043430320633546333 0.0024159588772497734 0.0049355063757373606 0.0057461518196173875
leaf_weight=22 31 21 39 21 20 23 35 21 36 20 37 39 22 26 53 21 25 77 20 35 25
leaf_count=22 31 21 39 21 20 23 35 21 36 20 37 39 22 26 53 21 25 77 20 35 25
internal_value=-0.000105225 -0.00701576 -0.00905857 -0.00598555 -0.00630422 -0.00668148 -0.00604108 -0.0067886 -0.00534728 0.00547151 0.0070925 -0.0079792 -0.00865606 0.00516456 0.00576716 0.00482523 0.00445614 0.00481622 0.00358391 0.00573751 0.00492728
internal_weight=669 299 99 200 179 157 134 99 57 370 57 78 42 313 109 204 148 102 46 56 56
internal_count=669 299 99 200 179 157 134 99 57 370 57 78 42 313 109 204 148 102 46 56 56
cat_boundaries=0 1
cat_threshold=1
is_linear=0
shrinkage=0.03


Tree=56
num_leaves=23
num_cat=2
split_feature=7 26 31 4 20 20 24 31 21 21 23 4 25 4 3 14 4 18 20 21 30 20
split_gain=26.9964 0.349634 0.449602 0.301857 0.358045 0.240322 0.149063 0.188804 0.148623 0.085581 0.0568515 0.100461 0.0832683 0.031807 0.0553886 0.0457686 0.0303128 0.0435141 0.0417765 0.00696129 0.0105631 0.00278909
threshold=0 0.93504962779156331 21.664999961853031 118.78191561322691 0.92966318005710613 0.94709205855370759 -0.39958296645116076 103.35999679565431 -0.27068470336940437 -0.24584346984546324 0.46567060854799075 117.74280706823112 0.18403908562890603 132.2357534358608 4069636619068.7515 1 141.59567938743427 0.65101338987605273 0.9327055699918948 -0.24365485865894679 1.0971153974533083 0.92450298591907998
decision_type=9 2 2 2 2 2 2 2 2 2 2 2 2 2 2 1 2 2 2 2 2 2
left_child=6 3 8 10 -5 9 13 -8 -3 -6 12 -12 -2 14 -1 -15 17 -17 -18 20 -16 -21
right_child=1 2 -4 4 5 -7 7 -9 -10 -11 11 -13 -14 15 19 16 18 -19 -20 21 -22 -23
leaf_value=0.0063692506891314619 -0.0065449688007791947 -0.0085577126003023394 -0.0056998238731751734 -0.0022729766193745476 -0.0089374816293023018 -0.0034159444872435035 0.0046213708442809287 0.0085347100584027922 -0.013140183183461872 -0.0055581006341016105 -0.0075139621000007255 -0.0043629919332587369 -0.0091805844836113006 0.00613954460863614 0.0045502754601652344 0.0028267341072475559 0.0037473277086855594 0.0046099230403421117 0.0063001017526710199 0.0047479718058749554 0.0063971759947751075 0.00324142262589798
leaf_weight=58 36 20 29 35 25 23 25 32 20 20 29 24 38 22 29 43 22 36 21 38 24 20
leaf_count=58 36 20 29 35 25 23 25 32 20 20 29 24 38 22 29 43 22 36 21 38 24 20
internal_value=-0.000102013 -0.00680906 -0.00879873 -0.00619555 -0.00488592 -0.00618145 0.00531027 0.00688197 -0.0109508 -0.00751771 -0.00722941 -0.00615451 -0.00794944 0.00501236 0.00540916 0.00452243 0.00420146 0.00368205 0.00507536 0.00487521 0.00545358 0.00428658
internal_weight=669 299 69 230 103 68 370 57 40 45 127 53 74 313 169 144 122 79 43 111 53 58
internal_count=669 299 69 230 103 68 370 57 40 45 127 53 74 313 169 144 122 79 43 111 53 58
cat_boundaries=0 1 2
cat_threshold=1 1
is_linear=0
shrinkage=0.03


Tree=57
num_leaves=24
num_cat=3
split_feature=7 12 31 13 8 23 24 31 21 18 2 28 22 2 20 2 22 3 31 20 30 21 27
split_gain=25.4309 0.587488 0.340013 0.326569 0.251645 0.21351 0.139047 0.176396 0.127723 0.10168 0.233102 0.0872837 0.0336942 0.0265762 0.0347578 0.0345713 0.0281424 0.0167416 0.0147942 0.014318 0.0126028 0.00890569 0.00384513
threshold=0 665.00000000000011 9.2150001525878924 1 2 0.90660205935796501 -0.39958296645116076 92.384998321533217 -0.25118205623302287 0.58446136801673088 2019.5000000000002 3700.9112135314404 0.13868392224937556 2020.5000000000002 0.93786493057080722 2019.5000000000002 0.14714082392698427 4158926657701.8911 61.409999847412116 0.94554004535436564 1.9838638901710512 -0.26705726933764856 1507.4976331495238
decision_type=9 2 2 9 1 2 2 2 2 2 2 2 2 2 2 2 2 2 2 2 2 2 2
left_child=6 3 -3 5 -5 9 13 -8 -4 12 -11 -12 22 15 16 -1 18 20 -15 -16 21 -18 -2
right_child=1 2 8 4 -6 -7 7 -9 -10 10 11 -13 -14 14 19 -17 17 -19 -20 -21 -22 -23 -24
leaf_value=0.0046375619774840877 -0.0048867133600331509 -0.012211619146185886 -0.0089341840429988956 -0.0053637477453516063 -0.00077882703612832456 -0.0094741975938651083 0.0040539578968700743 0.0080004504439483756 -0.0060237712974248025 -0.0071204302392674614 -0.0046669724566622394 -0.0016513347453368241 -0.0083916523724571982 0.0036567024927346586 0.006544247845329026 0.0061991590699233571 0.0033246653006453785 0.0046333891771926216 0.0054655554494284601 0.0046341449152439446 0.0041369278318473795 0.0017722763447764276 -0.0069278243085219397
leaf_weight=56 20 21 39 25 22 20 20 37 39 28 24 20 20 21 21 53 20 27 39 35 21 20 21
leaf_count=56 20 21 39 25 22 20 20 37 39 28 24 20 20 21 21 53 20 27 39 35 21 20 21
internal_value=-9.87428e-05 -0.00660855 -0.00856227 -0.00562267 -0.00328752 -0.00631779 0.00515414 0.00667778 -0.00752697 -0.00581384 -0.00487864 -0.00337111 -0.00685879 0.00486505 0.00454632 0.00542935 0.00419421 0.00368107 0.00488951 0.0054143 0.00320356 0.00262964 -0.00601947
internal_weight=669 299 99 200 47 153 370 57 78 133 72 44 61 313 204 109 148 88 60 56 61 40 41
internal_count=669 299 99 200 47 153 370 57 78 133 72 44 61 313 204 109 148 88 60 56 61 40 41
cat_boundaries=0 1 2 3
cat_threshold=1 4 1
is_linear=0
shrinkage=0.03


Tree=58
num_leaves=21
num_cat=3
split_feature=5 12 31 13 8 22 29 28 28 24 31 29 27 4 3 20 22 12 2 25
split_gain=23.9582 0.550742 0.318244 0.306634 0.236194 0.133632 0.302457 0.181584 0.137355 0.129654 0.166847 0.120217 0.0563759 0.0262456 0.0471177 0.0395357 0.0451904 0.00666311 0.00631032 0.00448964
threshold=0 665.00000000000011 9.2150001525878924 1 2 0.10756604238263148 2217.5174280126735 3664.2008772371696 3321.0594603224158 -0.39958296645116076 103.35999679565431 2340.7596735606371 993.14235248722707 132.2357534358608 4069636619068.7515 0.93786493057080722 0.14694910603948722 137.50000000000003 2023.5000000000002 0.21738954691925438
decision_type=1 2 2 9 1 2 2 2 2 2 2 2 2 2 2 2 2 2 2 2
left_child=1 3 -3 5 -5 6 -1 8 -7 13 -11 12 -4 14 -2 16 -15 -16 -17 -19
right_child=9 2 11 4 -6 7 -8 -9 -10 10 -12 -13 -14 15 17 18 -18 19 -20 -21
leaf_value=-0.0015693246527338648 0.0059978206199834284 -0.01184700697395615 -0.007007909978054604 -0.0052034767129283625 -0.00075556807658251591 -0.007091716722949018 -0.0065748193251136131 -0.0086864267354906412 -0.0039595485713790814 0.0043385635348919503 0.0080402005739971371 -0.0048448991372402918 -0.0098094461130097468 0.0047476534855366223 0.0033916631558141997 0.0042781565196634043 0.003089595684670278 0.0052263030584836032 0.0061301027203058177 0.0038891631742392074
leaf_weight=20 58 21 37 25 22 36 30 37 30 25 32 20 21 39 21 25 59 61 21 29
leaf_count=20 58 21 37 25 22 36 30 37 30 25 32 20 21 39 21 25 59 61 21 29
internal_value=-9.57328e-05 -0.00641437 -0.00830804 -0.00545832 -0.0031912 -0.00613263 -0.00463963 -0.00682308 -0.00572153 0.00500266 0.00647966 -0.00730288 -0.00808903 0.00472212 0.00509485 0.00426062 0.00378418 0.00459105 0.00520015 0.00483354
internal_weight=669 299 99 200 47 153 50 103 66 370 57 78 58 313 169 144 98 111 46 90
internal_count=669 299 99 200 47 153 50 103 66 370 57 78 58 313 169 144 98 111 46 90
cat_boundaries=0 1 2 3
cat_threshold=1 4 1
is_linear=0
shrinkage=0.03


Tree=59
num_leaves=25
num_cat=2
split_feature=1 12 13 21 26 23 23 26 24 27 18 2 22 27 23 30 25 18 2 20 2 26 25 30
split_gain=22.5679 0.517139 0.287571 0.262515 0.347687 0.201377 0.167684 0.157392 0.120978 0.159071 0.0948678 0.230592 0.023928 0.04968 0.0227662 0.0430415 0.0306204 0.0213032 0.0139093 0.036632 0.0329928 0.0171849 0.00878795 0.0043539
threshold=0 665.00000000000011 1 -0.23624480507918247 0.82508124601607158 0.90660205935796501 0.76550511508951413 0.79843105925319235 -0.39958296645116076 1672.6233734197508 0.60407728276247352 2019.5000000000002 0.14110091921297427 1383.0669948663083 0.50357522106571551 1.0971153974533083 0.16908390840260945 0.59248328229514224 2023.5000000000002 0.93552430320705426 2021.5000000000002 0.97844999600925864 0.20248834505636432 1.6004309654235842
decision_type=1 2 9 2 2 2 2 2 2 2 2 2 2 2 2 2 2 2 2 2 2 2 2 2
left_child=1 2 5 4 -3 10 -6 -4 14 -10 12 -12 13 -1 15 -2 -16 -17 20 -20 23 22 -22 -18
right_child=8 3 7 -5 6 -7 -8 -9 9 -11 11 -13 -14 -15 16 17 18 -19 19 -21 21 -23 -24 -25
leaf_value=-0.0040756267207670265 0.0040849438291402397 -0.0056406484966847427 -0.0049956838374038753 -0.0057096525597680583 -0.013148060361920939 -0.0090146347513394565 -0.0086055362785791411 -0.0012947965868975058 0.0078698325822267601 0.004262992261277361 -0.0068080260293921493 -0.0028115160129671018 -0.0076359127522385743 -0.0066941029247157688 0.0054799558703950155 0.0047793223086132928 0.0037104915016088779 0.0071515641789630519 0.0036513021788714337 0.0061335850051511516 0.0018163314301264579 0.0040884263494185037 0.0032555466417456902 0.004955648761121415
leaf_weight=21 31 20 22 35 21 20 23 25 31 26 24 38 23 27 36 20 38 22 21 21 21 30 27 46
leaf_count=21 31 20 22 35 21 20 23 25 31 26 24 38 23 27 36 20 38 22 21 21 21 30 27 46
internal_value=-9.29425e-05 -0.00622562 -0.00529778 -0.00806254 -0.00929156 -0.00595155 -0.0108665 -0.00309775 0.00485516 0.00628749 -0.00546197 -0.00441533 -0.00632624 -0.00562174 0.00458282 0.00529625 0.0043512 0.00610722 0.00413473 0.00497532 0.00389535 0.00327288 0.00269335 0.00443312
internal_weight=669 299 200 99 64 153 44 47 370 57 133 62 71 48 313 73 240 42 204 42 162 78 48 84
