tree
version=v4
num_class=1
num_tree_per_iteration=1
label_index=0
max_feature_idx=34
objective=regression
feature_names=geolocation_name country year deflated_gdp_usd us_cpi developed_country landlocked region_economic_classification access_to_airport access_to_port access_to_highway access_to_railway straight_distance_to_capital_km seismic_hazard_zone flood_risk_class tropical_cyclone_wind_risk tornadoes_wind_risk koppen_climate_zone emb_0 emb_1 emb_2 emb_3 emb_4 emb_5 emb_6 emb_7 emb_8 emb_9 emb_10 emb_11 emb_12 emb_13 emb_14 emb_15 quarter
feature_infos=-1:15:41:13:17:5:11:12:46:7:8:24:37:18:20:25:39:43:4:19:22:23:29:32:33:34:91:14:21:28:30:31:38:40:76:88:1:10:45:56:59:112:113:119:123:2:3:9:26:36:44:74:89:93:110:118:27:35:42:66:78:83:84:98:99:102:111:0:6:16:47:52:58:63:64:69:72:73:75:80:94:101:124:51:60:62:65:70:85:86:92:95:97:103:104:105:106:108:109:114:116:117:120:121:48:50:54:55:57:61:67:68:77:82:90:96:115 -1:0:1 [2019:2024] [291244296180.30774:4247588558872.2593] [115.9781187205398:144.72798591795819] -1:1:0 -1:0:1 -1:0:2:1 -1:1:0 -1:1:0 none -1:1:0 [0:1550] -1:2:0 -1:1:0 -1:2:0:1:3 -1:1:0 -1:3:1:0:5:4:2 [-11.774698257446289:9.305729866027832] [-6.9519658088684082:6.6133174896240234] [-10.115411758422852:5.6430459022521973] [-4.8394718170166016:10.324617385864258] [-5.5101094245910645:4.8206863403320312] [-3.5843377113342285:4.6972017288208008] [-4.7980990409851074:5.9568448066711426] [-4.5267086029052734:3.5982933044433594] [-4.1509742736816406:7.4660391807556152] [-5.6310200691223145:3.0169312953948975] [-3.4443502426147461:3.1466257572174072] [-3.4167263507843018:3.6283295154571533] [-3.1024589538574219:2.8740499019622803] [-2.892491340637207:3.292057991027832] [-3.5679471492767334:2.9971084594726562] [-2.6749768257141113:3.4988248348236084] [1:4]
tree_sizes=1189 1435 1278 1277 1362 1269 1534 1356 1442 1429 1620 1280 1623 1434 1785 1447 1362 1512 1700 1426 1453 1450 1434 1539 1535 1520 1704 1622 1523 1635 1604 1524 1606 1796 1440 1800 1883 1721 1622 1620 2231 1994 1992 1723 1979 2073 1991 1990 2083 2252 1907 1978 1912 2088 1993 2262 2085 2088 2151 2081 2245 2089 2178 2259 1721 2093 2178 2174 2177 2257 2069 2015 2089 2171 2190 2069 2085 2097 2339 2001 2010 2280 2100 2439 2359 2407 2352 1973 2367 2321 2258 2249 2159 2352 2299 2003 2164 2149 2338 2322 2356 2335 2336 2353 2284 2319 2379 2402 2356 2349 2165 2099 2261 2358 2189 2374 2399 2184 2474 2537 2337 2513 2279 2401 2327 2332 2413 2336 2261 2157 2340 2278 2257 2399 2260 2256 2509 2351 2531 2425 2367 2441 2333 2422 2302 2325 2438 2264 2227 2344 2346 2307 2473 2514 2364 2334 2351 2321 2239 2439 2413 2359 2373 2345 2517 2458

Tree=0
num_leaves=13
num_cat=2
split_feature=5 12 30 4 4 23 13 12 25 26 22 26
split_gain=779.507 2.37637 0.945492 0.83227 0.65774 0.568009 0.54633 0.325534 0.190661 0.114803 0.0770367 0.0694726
threshold=0 665.00000000000011 1.1497547626495364 124.49621006272866 117.52902357427357 0.99725484848022472 1 875.00000000000011 1.6569316983222964 0.45391090214252477 0.3174355030059815 0.08215635642409326
decision_type=1 2 2 2 2 2 9 2 2 2 2 2
left_child=1 2 4 9 -1 7 10 -3 -5 -2 11 -6
right_child=3 5 -4 8 6 -7 -8 -9 -10 -11 -12 -13
leaf_value=6.4984120434993882 6.5659500952765519 6.4959377034636416 6.4953929326204287 6.5632496578749828 6.5001018134383122 6.4927688939286403 6.5087087294515689 6.5034231461226142 6.5678194303034125 6.5691596642798524 6.5063464940096667 6.5043689898318799
leaf_weight=36 106 28 24 181 48 49 29 20 22 57 25 38
leaf_count=36 106 28 24 181 48 49 29 20 22 57 25 38
internal_value=6.53598 6.49987 6.50191 6.56528 6.50284 6.49574 6.50403 6.49892 6.56377 6.56711 6.50286 6.50191
internal_weight=663 297 200 366 176 97 140 48 203 163 111 86
internal_count=663 297 200 366 176 97 140 48 203 163 111 86
cat_boundaries=0 1 2
cat_threshold=1 4
is_linear=0
shrinkage=1


Tree=1
num_leaves=15
num_cat=1
split_feature=7 12 2 20 23 31 27 12 18 26 32 25 3 2
split_gain=733.609 2.2289 0.614474 0.56442 0.525276 0.38267 0.319796 0.298855 0.27536 0.179804 0.189465 0.0852153 0.0543449 0.047756
threshold=0 665.00000000000011 2021.5000000000002 -1.318641662597656 0.99725484848022472 -0.86571392416954029 -0.086580712348222719 875.00000000000011 -3.6021792888641353 0.45391090214252477 1.0247984528541567 1.4373403787612917 4069636619068.7515 2019.5000000000002
decision_type=9 2 2 2 2 2 2 2 2 2 2 2 2 2
left_child=2 3 9 8 7 -5 13 -3 -2 12 -11 -4 -1 -7
right_child=1 4 11 5 -6 6 -8 -9 -10 10 -12 -13 -14 -15
leaf_value=0.030492650936119744 -0.027311127279732384 -0.039194000577587242 0.025932439644811619 -0.039685431492274693 -0.042266093946522948 -0.034221082716824044 -0.0359858194311947 -0.031933718199160556 -0.033301488570181642 0.033005276938238161 0.027423952123000157 0.030083922521391908 0.0272219074183025 -0.029546755805728939
leaf_weight=41 31 28 149 22 49 25 57 20 27 48 21 20 87 38
leaf_count=41 31 28 149 22 49 25 57 20 27 48 21 20 87 38
internal_value=-0.000348606 -0.0353782 0.0280707 -0.0334001 -0.0393871 -0.0346623 -0.0336842 -0.0363039 -0.0302039 0.029424 0.0313922 0.026459 0.028316 -0.0315005
internal_weight=663 297 366 200 97 142 120 48 58 197 69 169 128 63
internal_count=663 297 366 200 97 142 120 48 58 197 69 169 128 63
cat_boundaries=0 1
cat_threshold=1
is_linear=0
shrinkage=0.03


Tree=2
num_leaves=13
num_cat=1
split_feature=5 12 30 4 33 28 4 24 12 26 26 28
split_gain=690.438 2.09033 0.87655 0.735435 0.640739 0.414868 0.297774 0.221171 0.177749 0.0917252 0.0581068 0.0471152
threshold=0 665.00000000000011 1.1497547626495364 124.49621006272866 0.57528504729270946 -0.73145550489425648 117.52902357427357 -0.66636621952056874 56.250000000000007 0.45391090214252477 0.08215635642409326 0.76591500639915477
decision_type=1 2 2 2 2 2 2 2 2 2 2 2
left_child=1 2 4 9 6 -3 -1 -7 -5 -2 -8 -11
right_child=3 5 -4 8 -6 7 10 -9 -10 11 -12 -13
leaf_value=-0.03635692823178989 0.02786936416814734 -0.032871744734416071 -0.038674184029527714 0.029518170294919942 -0.026388821307026189 -0.035530302990005307 -0.032865577689226273 -0.041465080206641476 0.025281302911951714 0.028904998577558075 -0.029463996473063431 0.033782201282578896
leaf_weight=29 106 21 24 24 28 25 67 51 179 35 52 22
leaf_count=29 106 21 24 24 28 25 67 51 179 35 52 22
internal_value=-0.00033905 -0.0343224 -0.0324034 0.0272313 -0.0315097 -0.0382108 -0.0324398 -0.0396015 0.0258113 0.0289644 -0.0314303 0.0308958
internal_weight=663 297 200 366 176 97 148 76 203 163 119 57
internal_count=663 297 200 366 176 97 148 76 203 163 119 57
cat_boundaries=0 1
cat_threshold=1
is_linear=0
shrinkage=0.03


Tree=3
num_leaves=13
num_cat=1
split_feature=5 12 30 4 33 28 4 24 12 26 28 26
split_gain=649.786 1.96088 0.818784 0.687596 0.596838 0.382763 0.274199 0.19998 0.162857 0.0829213 0.0509779 0.0485053
threshold=0 665.00000000000011 1.1497547626495364 124.49621006272866 0.57528504729270946 -0.73145550489425648 117.52902357427357 -0.66636621952056874 46.250000000000007 0.20332344621419909 0.76591500639915477 0.08215635642409326
decision_type=1 2 2 2 2 2 2 2 2 2 2 2
left_child=1 2 4 9 6 -3 -1 -7 -5 -2 -11 -8
right_child=3 5 -4 8 -6 7 11 -9 -10 10 -12 -13
leaf_value=-0.03526996428050945 0.026947457177060232 -0.031890266447270645 -0.037518772970096696 0.028636299675307328 -0.025599974026883621 -0.03446864094689072 -0.031881079868970083 -0.040223562778092178 0.024523287120726042 0.028104369109564452 0.032773322384821335 -0.02858177286420811
leaf_weight=29 100 21 24 24 28 25 67 51 179 41 22 52
leaf_count=29 100 21 24 24 28 25 67 51 179 41 22 52
internal_value=-0.00032973 -0.0332976 -0.0314355 0.0264165 -0.0305681 -0.0370697 -0.0314699 -0.0384177 0.0250382 0.0280982 0.0298317 -0.0304898
internal_weight=663 297 200 366 176 97 148 76 203 163 63 119
internal_count=663 297 200 366 176 97 148 76 203 163 63 119
cat_boundaries=0 1
cat_threshold=1
is_linear=0
shrinkage=0.03


Tree=4
num_leaves=14
num_cat=1
split_feature=5 12 30 18 4 18 4 23 25 24 12 26 28
split_gain=611.531 1.83924 0.764585 0.866172 0.642702 0.516282 0.277537 0.193352 0.173271 0.121465 0.103921 0.0733868 0.0424865
threshold=0 665.00000000000011 1.1497547626495364 -6.7471148967742911 124.49621006272866 -6.7471148967742911 117.52902357427357 0.19348768144845965 1.6569316983222964 0.75647136569023143 292.50000000000006 0.20332344621419909 0.76591500639915477
decision_type=1 2 2 2 2 2 2 2 2 2 2 2 2
left_child=1 2 3 -1 11 -3 -5 -7 -6 -8 -11 -2 -13
right_child=4 5 -4 6 8 7 9 -9 -10 10 -12 12 -14
leaf_value=-0.023017450487726666 0.026139844703626684 -0.030869468550711741 -0.036397879325255317 -0.033884901366809488 0.023796243865077893 -0.033330495888493711 -0.030950215849297611 -0.03924518545079838 0.028074547640338739 -0.029773409811929722 -0.024677878967319346 0.027263289272350114 0.031794570560369009
leaf_weight=21 100 24 24 35 181 22 69 51 22 26 25 41 22
leaf_count=21 100 24 24 35 181 22 69 51 22 26 25 41 22
internal_value=-0.000320673 -0.0323035 -0.0304966 -0.0296547 0.0256261 -0.0359628 -0.0305192 -0.0375518 0.0242883 -0.0294851 -0.0273875 0.027258 0.0289411
internal_weight=663 297 200 176 366 97 155 73 203 120 51 163 63
internal_count=663 297 200 176 366 97 155 73 203 120 51 163 63
cat_boundaries=0 1
cat_threshold=1
is_linear=0
shrinkage=0.03


Tree=5
num_leaves=13
num_cat=1
split_feature=5 12 4 22 4 27 21 4 21 26 28 21
split_gain=556.644 2.58765 0.998539 0.621154 0.464673 0.419338 0.443623 0.24809 0.145592 0.0484435 0.124111 0.0264131
threshold=0 665.00000000000011 118.18795367845952 2.6276419162750249 132.2357534358608 -0.15612336248159406 -0.14285418391227719 138.68372960095027 -1.6235019564628599 0.40879134833812719 0.81094554066658031 0.30515927076339727
decision_type=1 2 2 2 2 2 2 2 2 2 2 2
left_child=1 2 8 11 9 6 -4 -6 -1 -2 -11 -3
right_child=4 3 5 -5 7 -7 -8 -9 -10 10 -12 -13
leaf_value=-0.027813315693801043 0.025067545959234779 -0.034883446369447513 -0.028491708071374175 -0.030845921413787301 0.021207438413647636 -0.029158427503557759 -0.021504006947033871 0.024537970354128337 -0.032979247943659078 0.02596110656887839 0.030926988053677679 -0.039608545880163867
leaf_weight=21 133 35 20 31 62 51 32 95 63 49 20 34
leaf_count=21 133 35 20 31 62 51 32 95 63 49 20 34
internal_value=-0.000120448 -0.031265 -0.0290369 -0.0353683 0.0247713 -0.02676 -0.0242987 0.0232562 -0.031758 0.0259219 0.0274866 -0.0373091
internal_weight=646 287 187 100 359 103 52 157 84 202 69 69
internal_count=646 287 187 100 359 103 52 157 84 202 69 69
cat_boundaries=0 1
cat_threshold=1
is_linear=0
shrinkage=0.03


Tree=6
num_leaves=16
num_cat=1
split_feature=5 19 4 33 20 33 25 4 4 21 23 3 26 25 19
split_gain=523.878 1.1671 0.950442 0.746844 0.94011 1.0975 0.680995 0.432719 0.228838 0.217891 0.201581 0.126753 0.038851 0.0213771 0.00493708
threshold=0 4.1756865978240976 118.78191561322691 -0.36481662094593043 -1.5400031208992002 -1.0000000180025095e-35 -1.7464383244514463 132.2357534358608 138.68372960095027 -1.5763460993766782 -0.13155433535575864 4069636619068.7515 -0.10021228343248366 -0.75029793381690968 -1.8338202834129331
decision_type=1 2 2 2 2 2 2 2 2 2 2 2 2 2 2
left_child=1 2 6 10 -5 -6 -1 11 -9 -8 -4 -2 -13 -11 -14
right_child=7 -3 3 4 5 -7 9 8 -10 13 -12 12 14 -15 -16
leaf_value=-0.037860395605884375 0.026793766127906835 -0.037249678758036087 -0.027937684724821107 -0.019391101307459007 -0.022131164853008947 -0.031644521484995955 -0.027284492504930941 0.020572239776740324 0.023802604611363701 -0.028729074256760731 -0.033576199576772485 0.022906306073503586 0.028126314867164281 -0.033140802989193661 0.024007023496505537
leaf_weight=20 74 25 32 22 24 31 32 62 95 23 26 72 21 52 35
leaf_count=20 74 25 32 22 24 31 32 62 95 23 26 72 21 52 35
internal_value=-0.000117659 -0.0303318 -0.0296463 -0.027618 -0.0253184 -0.0275954 -0.0317553 0.0240302 0.0225599 -0.0305519 -0.0305704 0.0251463 0.0241503 -0.0318679 0.0256526
internal_weight=646 287 262 135 77 55 127 359 157 107 58 202 128 75 56
internal_count=646 287 262 135 77 55 127 359 157 107 58 202 128 75 56
cat_boundaries=0 1
cat_threshold=1
is_linear=0
shrinkage=0.03


Tree=7
num_leaves=14
num_cat=1
split_feature=3 12 4 22 25 3 30 13 25 32 19 4 3
split_gain=493.074 2.36117 0.88108 0.549545 0.417947 0.486389 0.400827 0.504901 0.184567 0.160552 0.138755 0.0483203 0.118662
threshold=2106311703621.6389 665.00000000000011 118.18795367845952 2.6276419162750249 1.6977142095565798 3904620736288.6938 -0.76364952325820912 0 -0.21724260598421094 0.61008813977241527 0.044257177039980895 122.09567441928012 4069636619068.7515
decision_type=2 2 2 2 2 2 2 9 2 2 2 2 2
left_child=1 2 10 8 5 -2 -4 -8 -3 -9 -1 12 -7
right_child=4 3 6 -5 -6 11 7 9 -10 -11 -12 -13 -14
leaf_value=-0.027923472505411336 0.01976543770413023 -0.032029132466033047 -0.020574103292768896 -0.029059920284142445 0.028218007551598867 0.026004555509869524 -0.021662827496017726 -0.030011944686606978 -0.037453649525752149 -0.02466930541247803 -0.032288038552302729 0.022640592364706277 0.022980022365030859
leaf_weight=48 52 30 22 31 22 66 23 36 39 22 36 148 71
leaf_count=48 52 30 22 31 22 66 23 36 39 22 36 148 71
internal_value=-0.000115257 -0.0294278 -0.0272979 -0.0333494 0.0233118 0.0229743 -0.0251476 -0.0263259 -0.0351883 -0.028083 -0.0298658 0.0235421 0.0244769
internal_weight=646 287 187 100 359 337 103 81 69 58 84 285 137
internal_count=646 287 187 100 359 337 103 81 69 58 84 285 137
cat_boundaries=0 1
cat_threshold=1
is_linear=0
shrinkage=0.03


Tree=8
num_leaves=15
num_cat=1
split_feature=7 12 3 22 21 21 3 21 12 3 26 27 32 22
split_gain=464.064 2.21571 0.610408 0.510973 0.503688 0.531094 0.379862 0.294457 0.189037 0.142701 0.10083 0.0532124 0.0512062 0.0410606
threshold=0 665.00000000000011 315932696319.99445 2.6276419162750249 -1.6476292014122007 -0.92336058616638172 3904620736288.6938 0.78635305166244518 35.250000000000007 295463185185.79865 0.11085406318306924 1.8245425820350649 1.0914413928985598 -0.65033632516860951
decision_type=9 2 2 2 2 2 2 2 2 2 2 2 2 2
left_child=6 2 4 12 -2 -6 10 -4 -8 -7 -1 -10 13 -3
right_child=1 3 7 -5 5 9 8 -9 11 -11 -12 -13 -14 -15
leaf_value=0.018014596258829511 -0.023351091161865144 -0.029698193226612449 -0.025946139153536909 -0.028190925500783885 -0.033699395895241735 -0.025069543379991004 0.026675906770530784 -0.020473325069640759 0.022484152070715795 -0.029552388081974735 0.022211380524259382 0.025894071025546316 -0.037296952667174393 -0.035094186628566067
leaf_weight=34 27 24 34 31 25 36 26 28 253 37 24 22 23 22
leaf_count=34 27 24 34 31 25 36 26 28 253 37 24 22 23 22
internal_value=-0.000112849 -0.0285501 -0.0264839 -0.0323537 -0.0278903 -0.0290852 0.0226144 -0.0235598 0.0231326 -0.02742 0.0198381 0.0227772 -0.034137 -0.0324145
internal_weight=646 287 187 100 125 98 359 62 301 73 58 275 69 46
internal_count=646 287 187 100 125 98 359 62 301 73 58 275 69 46
cat_boundaries=0 1
cat_threshold=1
is_linear=0
shrinkage=0.03


Tree=9
num_leaves=15
num_cat=2
split_feature=5 12 13 29 19 22 25 3 2 29 19 33 2 3
split_gain=436.775 2.08052 0.582357 0.496407 1.14811 0.418306 0.385732 0.424328 0.361205 0.2073 0.0871809 0.0948534 0.0283811 0.130879
threshold=0 665.00000000000011 1 -0.67653316259384144 0.73441880941391002 -0.73196932673454274 1.6977142095565798 3904620736288.6938 2020.5000000000002 0.27764290571212774 0.87107685208320629 0.18221473693847659 2020.5000000000002 4069636619068.7515
decision_type=1 2 9 2 2 2 2 2 2 2 2 2 2 2
left_child=1 2 8 -3 -5 -4 7 -2 10 -10 11 -1 13 -9
right_child=6 3 5 4 -6 -7 -8 12 9 -11 -12 -13 -14 -15
leaf_value=-0.024501719619871232 0.018588297337350825 -0.034640193471587505 -0.018051070255130083 -0.033972411673264147 -0.024685718308542371 -0.025246382642101928 0.026653397034735696 0.024538650271932225 -0.021315426980437382 -0.027101866291530094 -0.030405337174843547 -0.029072051079070869 0.021386693388425883 0.021359613137988405
leaf_weight=34 52 40 20 28 32 23 22 66 27 20 36 27 162 57
leaf_count=34 52 40 20 28 32 23 22 66 27 20 36 27 162 57
internal_value=-0.000110824 -0.0276995 -0.0256943 -0.0313897 -0.0291187 -0.022019 0.0219379 0.0216134 -0.026755 -0.0238937 -0.0280844 -0.026618 0.0221481 0.0231084
internal_weight=646 287 187 100 60 43 359 337 144 47 97 61 285 123
internal_count=646 287 187 100 60 43 359 337 144 47 97 61 285 123
cat_boundaries=0 1 2
cat_threshold=1 4
is_linear=0
shrinkage=0.03


Tree=10
num_leaves=17
num_cat=1
split_feature=1 4 4 4 25 19 28 27 33 25 28 29 18 3 29 26
split_gain=425.529 0.872662 0.744775 0.415534 0.39214 0.224165 0.298835 0.178308 0.0954931 0.0765804 0.0696686 0.039279 0.174564 0.033388 0.0176726 0.00875299
threshold=0 119.2655080931231 124.49621006272866 126.43715323239572 -2.144500613212585 0.26630753278732305 0.17053695768117907 -0.72450286149978627 -0.54312172532081593 0.21091613173484805 0.71281161904335033 -0.21484678238630292 -4.4958879947662345 3904620736288.6938 0.013660737313330175 0.11085406318306924
decision_type=1 2 2 2 2 2 2 2 2 2 2 2 2 2 2 2
left_child=1 4 8 7 -1 14 9 -3 -2 -7 -10 -9 -13 15 -6 -4
right_child=2 3 13 -5 5 6 -8 11 10 -11 -12 12 -14 -15 -16 -17
leaf_value=-0.033075973059796634 0.02078057880234566 -0.020395125504007041 0.017017838823513719 -0.028539209204636432 -0.027371110317480529 -0.023675110521378797 -0.031769614945042803 -0.026572984896863768 0.022615235168509801 -0.028947991860377317 0.025874565167304794 -0.019753222625647018 -0.025430502221955878 0.0204274782183974 -0.02378357305338508 0.020144507830170376
leaf_weight=22 47 29 38 28 37 20 37 31 81 23 35 20 23 142 36 26
leaf_count=22 47 29 38 28 37 20 37 31 81 23 35 20 23 142 36 26
internal_value=-0.00051645 -0.026673 0.0211676 -0.0245488 -0.028231 -0.0274936 -0.0290789 -0.0234084 0.0228514 -0.0266257 0.0236459 -0.0245196 -0.0229115 0.0198103 -0.0256779 0.0183643
internal_weight=675 306 369 131 175 153 80 103 163 43 116 74 43 206 73 64
internal_count=675 306 369 131 175 153 80 103 163 43 116 74 43 206 73 64
cat_boundaries=0 1
cat_threshold=2
is_linear=0
shrinkage=0.03


Tree=11
num_leaves=13
num_cat=1
split_feature=5 4 4 4 32 25 20 33 34 33 28 19
split_gain=400.519 0.815817 0.697027 0.385605 0.430724 0.363304 0.208937 0.41797 0.302374 0.0855411 0.0611856 0.0239921
threshold=0 119.2655080931231 124.49621006272866 126.43715323239572 0.52392402291297924 -2.144500613212585 -1.318641662597656 -0.034348905086517327 2.5000000000000004 -0.54312172532081593 0.71281161904335033 1.2924875617027285
decision_type=1 2 2 2 2 2 2 2 2 2 2 2
left_child=1 5 9 4 -3 -1 -7 8 -8 -2 -11 -4
right_child=2 3 11 -5 -6 6 7 -9 -10 10 -12 -13
leaf_value=-0.032088184416024387 0.02015848468823038 -0.024466485285333225 0.019824255755932989 -0.027686079396896088 -0.019574240393877965 -0.024035583320929078 -0.027713279959487139 -0.03031813790746761 -0.021922420619434335 0.021937615220996513 0.025100539504972277 0.017857542518588312
leaf_weight=22 47 65 140 28 38 44 37 48 24 81 35 66
leaf_count=22 47 65 140 28 38 44 37 48 24 81 35 66
internal_value=-0.000502212 -0.0258786 0.0205348 -0.0238179 -0.0227114 -0.0273896 -0.0266738 -0.0276883 -0.0255236 0.0221682 0.0229386 0.0192177
internal_weight=675 306 369 131 103 175 153 109 61 163 116 206
internal_count=675 306 369 131 103 175 153 109 61 163 116 206
cat_boundaries=0 1
cat_threshold=1
is_linear=0
shrinkage=0.03


Tree=12
num_leaves=17
num_cat=1
split_feature=5 20 32 27 33 3 27 19 23 3 32 19 28 34 3 26
split_gain=376.947 0.502354 0.776534 0.694757 0.603511 0.483648 0.427129 0.273582 0.23032 0.164426 0.0959052 0.0786277 0.213464 0.0505606 0.0255712 0.00846918
threshold=0 -2.4820984601974483 -0.24265208840370175 -1.3973824381828306 -0.010345407761633394 4031227684478.3267 -0.15612336248159406 2.8731025457382207 0.85380074381828319 4069636619068.7515 0.71949717402458202 1.3678612112998965 0.79444384574890148 2.5000000000000004 3904620736288.6938 0.11085406318306924
decision_type=1 2 2 2 2 2 2 2 2 2 2 2 2 2 2 2
left_child=1 2 -1 -3 6 14 10 -6 13 -7 -5 12 -11 -8 15 -2
right_child=5 3 -4 4 7 9 8 -9 -10 11 -12 -13 -14 -15 -16 -17
leaf_value=-0.025628420012381373 0.015943350679292451 -0.031935218596627922 -0.018663230198831499 -0.022915527871908373 -0.025958636328193282 0.022841731555060373 -0.025807466267310463 -0.031234196699947946 -0.029258923534815906 0.019800458143461118 -0.018499787605590949 0.018080462453615328 0.024457754530518298 -0.021487293456105273 0.019284868214132587 0.018954560016763621
leaf_weight=39 38 21 34 33 58 67 29 25 21 68 22 39 22 24 109 26
leaf_count=39 38 21 34 33 58 67 29 25 21 68 22 39 22 24 109 26
internal_value=-0.000487869 -0.0251063 -0.0224554 -0.025914 -0.0252887 0.0199206 -0.0237456 -0.0276194 -0.0255358 0.0210992 -0.0212405 0.0201539 0.0209981 -0.0239518 0.0185565 0.0172411
internal_weight=675 306 73 233 212 369 129 83 74 196 55 129 90 53 173 64
internal_count=675 306 73 233 212 369 129 83 74 196 55 129 90 53 173 64
cat_boundaries=0 1
cat_threshold=1
is_linear=0
shrinkage=0.03


Tree=13
num_leaves=15
num_cat=2
split_feature=5 12 30 4 4 19 29 13 31 19 33 28 3 3
split_gain=354.795 1.56229 0.855835 0.667323 0.615322 0.576846 0.754759 0.200735 0.346214 0.0813258 0.0791508 0.0504214 0.0263264 0.00402509
threshold=0 665.00000000000011 1.1497547626495364 118.78191561322691 124.49621006272866 0.73441880941391002 -0.67653316259384144 1 1.1202859282493594 -2.0792015790939327 -0.54312172532081593 0.71281161904335033 3904620736288.6938 4069636619068.7515
decision_type=1 2 2 2 2 2 2 9 2 2 2 2 2 2
left_child=1 2 3 9 10 -3 -7 8 -5 -1 -2 13 -6 -12
right_child=4 5 -4 7 12 6 -8 -9 -10 -11 11 -13 -14 -15
leaf_value=-0.021160332894530783 0.018933379019901251 -0.030596918441900392 -0.028613355723654081 -0.022354804819037098 0.016726922618803479 -0.029806093128470625 -0.021756157647392266 -0.016118891105723024 -0.016576182043819283 -0.025003462486585106 0.022210512509636599 0.023662983652872914 0.018658205966224646 0.019299487940752317
leaf_weight=26 47 45 24 50 64 23 34 20 20 64 36 35 142 45
leaf_count=26 47 45 24 50 64 23 34 20 20 64 36 35 142 45
internal_value=-0.000473998 -0.0243583 -0.022718 -0.0218998 0.0193256 -0.027584 -0.0251034 -0.0197908 -0.0207726 -0.0239512 0.0208678 0.0216088 0.0180812 0.0206561
internal_weight=675 306 204 180 369 102 57 90 70 90 163 116 206 81
internal_count=675 306 204 180 369 102 57 90 70 90 163 116 206 81
cat_boundaries=0 1 2
cat_threshold=1 4
is_linear=0
shrinkage=0.03


Tree=14
num_leaves=19
num_cat=1
split_feature=1 12 30 4 4 19 29 27 19 19 24 19 27 26 3 4 29 29
split_gain=333.931 1.46523 0.800767 0.623076 0.576417 0.53669 0.705717 0.403738 0.159533 0.0757737 0.0974023 0.0716608 0.0505633 0.0263324 0.0274153 0.0190297 0.00030597 0.0255242
threshold=0 665.00000000000011 1.1497547626495364 118.78191561322691 124.49621006272866 0.73441880941391002 -0.67653316259384144 0.2232867628335953 0.15263684093952182 -0.44041752815246576 0.79891434311866771 -2.0792015790939327 -0.15612336248159406 -0.029393414035439488 3904620736288.6938 118.78191561322691 0.45332297682762152 -0.52726873755455006
decision_type=1 2 2 2 2 2 2 2 2 2 2 2 2 2 2 2 2 2
left_child=1 2 3 11 9 -3 -7 8 -5 10 12 -1 -2 14 -6 -11 17 -15
right_child=4 5 -4 7 13 6 -8 -9 -10 15 -12 -13 -14 16 -16 -17 -18 -19
leaf_value=-0.020527954726726156 0.020401471351785411 -0.029681045890118749 -0.027758516642067934 -0.01925780831792644 0.015009389073894954 -0.028915780929775977 -0.021105387084994494 -0.02236150393976229 -0.014866571695297613 0.017860542696457784 0.018738502291427258 -0.024254528720879149 0.024497855710813581 0.017471369603245527 0.017472605853386922 0.020801837885111474 0.016470431443229613 0.020866583769566543
leaf_weight=26 27 45 24 32 36 23 34 32 26 51 26 64 28 29 84 31 25 32
leaf_count=26 27 45 24 32 36 23 34 32 26 51 26 64 28 29 84 31 25 32
internal_value=-0.000460455 -0.0236319 -0.0220405 -0.0212465 0.018748 -0.0267607 -0.0243546 -0.0192009 -0.0173699 0.020245 0.0214099 -0.0232352 0.022582 0.0175397 0.0167717 0.019033 0.0185557 0.0193328
internal_weight=675 306 204 180 369 102 57 90 58 163 81 90 55 206 120 82 86 61
internal_count=675 306 204 180 369 102 57 90 58 163 81 90 55 206 120 82 86 61
cat_boundaries=0 1
cat_threshold=2
is_linear=0
shrinkage=0.03


Tree=15
num_leaves=15
num_cat=1
split_feature=7 28 25 25 4 31 26 4 28 33 30 26 26 28
split_gain=300.842 0.650345 0.657824 0.846773 0.457449 0.440166 0.369695 0.203543 0.187055 0.177868 0.0698741 0.0640162 0.0425188 0.0147631
threshold=0 1.5645629763603213 -0.71540004014968861 -1.0991072058677671 126.43715323239572 0.31860987842082983 -0.5362451672554015 118.18795367845952 0.6159142553806306 -0.54312172532081593 0.44610598683357244 -0.20442449301481244 0.20332344621419909 0.76591500639915477
decision_type=9 2 2 2 2 2 2 2 2 2 2 2 2 2
left_child=4 2 3 7 12 6 -4 -2 10 -9 -7 -6 -1 -14
right_child=1 -3 5 -5 11 8 -8 9 -10 -11 -12 -13 13 -15
leaf_value=0.018662558700440722 -0.02458993855132257 -0.029004448054198221 -0.030540239844841974 -0.014505126779871199 0.015938469083220868 -0.021561958378682099 -0.024421416391598498 -0.022962114826425326 -0.019492577847438988 -0.017874760356941341 -0.025727479507855797 0.01807098358289741 0.019504369621763648 0.022926734238244682
leaf_weight=112 33 22 21 20 89 30 51 23 29 27 30 77 43 24
leaf_count=112 33 22 21 20 89 30 51 23 29 27 30 77 43 24
internal_value=-0.000566713 -0.023318 -0.022822 -0.0206529 0.0182864 -0.0241774 -0.0262876 -0.0220789 -0.022409 -0.020316 -0.023734 0.016956 0.0194933 0.0208073
internal_weight=631 286 264 103 345 161 72 83 89 50 60 166 179 67
internal_count=631 286 264 103 345 161 72 83 89 50 60 166 179 67
cat_boundaries=0 1
cat_threshold=1
is_linear=0
shrinkage=0.03


Tree=16
num_leaves=14
num_cat=1
split_feature=5 12 32 30 4 29 33 4 26 27 26 26 28
split_gain=283.162 1.13604 1.23307 0.46651 0.42726 0.420176 0.398613 0.198307 0.506343 0.114834 0.0569687 0.0367396 0.0100034
threshold=0 665.00000000000011 1.1610304117202761 1.1497547626495364 126.43715323239572 -0.67653316259384144 0.57528504729270946 118.78191561322691 0.80659928917884838 0.47776210308074957 -0.20442449301481244 0.20332344621419909 0.76591500639915477
decision_type=1 2 2 2 2 2 2 2 2 2 2 2 2
left_child=1 3 5 6 11 -3 7 -1 -9 -7 -6 -2 -13
right_child=4 2 -4 -5 10 9 -8 8 -10 -11 -12 12 -14
leaf_value=-0.022555780892590142 0.018103181069366217 -0.026678434960620917 -0.032070377074278789 -0.025666566028656707 0.015460851756410567 -0.023329033408119777 -0.016011717791681163 -0.021397504397302283 -0.014907360418006705 -0.018252076807462769 0.017529557451663777 0.018920596200808569 0.022241786238563502
leaf_weight=77 112 29 23 25 89 21 23 46 21 21 77 43 24
leaf_count=77 112 29 23 25 89 21 23 46 21 21 77 43 24
internal_value=-0.000550927 -0.0226237 -0.0255423 -0.0211667 0.0177397 -0.0233432 -0.0204602 -0.0211382 -0.0194332 -0.0209112 0.0164485 0.0189105 0.0201864
internal_weight=631 286 94 192 345 71 167 144 67 42 166 179 67
internal_count=631 286 94 192 345 71 167 144 67 42 166 179 67
cat_boundaries=0 1
cat_threshold=1
is_linear=0
shrinkage=0.03


Tree=17
num_leaves=16
num_cat=0
split_feature=3 12 32 30 4 4 27 21 19 19 26 19 26 32 24
split_gain=266.515 1.06602 1.15477 0.434826 0.398944 0.350375 0.511302 0.383026 0.232392 0.172793 0.0504345 0.0394819 0.0313923 0.00963962 0.0229456
threshold=2106311703621.6389 665.00000000000011 1.1610304117202761 1.1497547626495364 126.43715323239572 118.78191561322691 0.17355591058731082 0.78635305166244518 0.72438117861747753 1.186323404312134 -0.20442449301481244 -2.0792015790939327 0.20332344621419909 0.83038815855979931 0.79891434311866771
decision_type=2 2 2 2 2 2 2 2 2 2 2 2 2 2 2
left_child=1 3 8 5 12 11 7 -7 -3 -10 -6 -1 -2 14 -14
right_child=4 2 -4 -5 10 6 -8 -9 9 -11 -12 -13 13 -15 -16
leaf_value=-0.018911992582934075 0.017560569689169622 -0.026089390861502595 -0.031112430653014739 -0.02489963694694507 0.014997546628669456 -0.018854685671694946 -0.021232625242446481 -0.012519712906439027 -0.017922629591130529 -0.023115819198381005 0.017004352631735893 -0.022328287201997025 0.022463568224535355 0.017199872206737646 0.018452699416643615
leaf_weight=25 112 22 23 25 89 22 33 24 21 28 77 63 23 21 23
leaf_count=25 112 22 23 25 89 22 33 24 21 28 77 63 23 21 23
internal_value=-0.000535343 -0.0219497 -0.0247821 -0.0205351 0.0172093 -0.0198493 -0.0180432 -0.0156489 -0.0226483 -0.0209923 0.0159562 -0.0214144 0.0183452 0.019584 0.0205676
internal_weight=631 286 94 192 345 167 79 46 71 49 166 88 179 67 46
internal_count=631 286 94 192 345 167 79 46 71 49 166 88 179 67 46
is_linear=0
shrinkage=0.03


Tree=18
num_leaves=18
num_cat=1
split_feature=1 12 32 30 29 21 4 33 4 26 26 26 32 24 2 22 4
split_gain=250.861 0.999753 1.08123 0.404898 0.37737 0.398114 0.372742 0.36748 0.164944 0.451266 0.0443806 0.0268358 0.0054557 0.0176217 0.00237372 0.00162873 0.00112026
threshold=0 665.00000000000011 1.1610304117202761 1.1497547626495364 -0.67653316259384144 0.78635305166244518 126.43715323239572 0.57528504729270946 118.78191561322691 0.80659928917884838 -0.20442449301481244 0.20332344621419909 0.83038815855979931 0.79891434311866771 2019.5000000000002 0.91095495223999035 138.68372960095027
decision_type=1 2 2 2 2 2 2 2 2 2 2 2 2 2 2 2 2
left_child=1 3 4 7 -3 -6 11 8 -1 -10 16 14 13 -13 -2 -12 -8
right_child=6 2 -4 -5 5 -7 10 -9 9 -11 15 12 -14 -15 -16 -17 -18
leaf_value=-0.021236261655159787 0.015663485747396514 -0.025149888470000825 -0.030183098254265715 -0.024155623788140203 -0.01620884074344894 -0.023198649634176224 0.013403878834453759 -0.014982210696106413 -0.020171389278840601 -0.014011874313320592 0.017248113058007129 0.021792578641083329 0.016686321553460795 0.017901514869231683 0.017885441473628298 0.014406540226612695 0.015617301305946038
leaf_weight=77 45 29 23 25 22 20 45 23 46 21 55 23 21 23 67 22 44
leaf_count=77 45 29 23 25 22 20 45 23 46 21 55 23 21 23 67 22 44
internal_value=-0.00052023 -0.0212963 -0.0240446 -0.0199233 -0.0219743 -0.0196558 0.0166953 -0.0192577 -0.0199089 -0.0183093 0.0154786 0.0177976 0.0190017 0.0199552 0.0170342 0.0164949 0.0145481
internal_weight=631 286 94 192 71 42 345 167 144 67 166 179 67 46 112 77 89
internal_count=631 286 94 192 71 42 345 167 144 67 166 179 67 46 112 77 89
cat_boundaries=0 1
cat_threshold=2
is_linear=0
shrinkage=0.03


Tree=19
num_leaves=15
num_cat=0
split_feature=3 12 32 29 30 4 33 4 26 18 26 26 2 22
split_gain=236.137 0.937914 1.01359 0.383901 0.377073 0.348702 0.342097 0.150852 0.420897 0.0908884 0.0373447 0.0229799 0.017998 0.0114175
threshold=2106311703621.6389 665.00000000000011 1.2004663944244387 -0.67653316259384144 1.1497547626495364 124.49621006272866 0.57528504729270946 118.78191561322691 0.80659928917884838 -6.6932790279388419 0.20332344621419909 -0.20442449301481244 2019.5000000000002 0.6740207076072694
decision_type=2 2 2 2 2 2 2 2 2 2 2 2 2 2
left_child=1 4 3 -3 6 10 7 -1 -9 -5 12 -7 -2 -12
right_child=5 2 -4 9 -6 11 -8 8 -10 -11 13 -13 -14 -15
leaf_value=-0.020600000425409038 0.015194622909571735 -0.024461157877728866 -0.029651307048390821 -0.01649604285386071 -0.023433842446462086 0.014286101994479732 -0.014534690539026028 -0.019567559940453592 -0.013593510430111986 -0.02119098443790798 0.019961694871258529 0.015999949081265182 0.017575769334666154 0.016688083265407151
leaf_weight=77 45 31 21 20 25 96 23 46 21 22 35 87 57 25
leaf_count=77 45 31 21 20 25 96 23 46 21 22 35 87 57 25
internal_value=-0.000504665 -0.0206619 -0.0233292 -0.0214314 -0.0193289 0.0161978 -0.0186828 -0.019314 -0.0177629 -0.0190711 0.0173805 0.0151256 0.0165706 0.0186776
internal_weight=631 286 94 73 192 345 167 144 67 42 162 183 102 60
internal_count=631 286 94 73 192 345 167 144 67 42 162 183 102 60
is_linear=0
shrinkage=0.03


Tree=20
num_leaves=15
num_cat=1
split_feature=5 12 25 12 19 19 3 29 4 32 25 25 29 33
split_gain=219.034 0.914067 0.517893 0.484498 0.410794 0.275278 0.243534 0.164448 0.161877 0.0801458 0.0539068 0.0495994 0.0158463 0.00662192
threshold=0 665.00000000000011 1.6977142095565798 875.00000000000011 1.1001197099685671 0.1519134342670441 3904620736288.6938 -0.077489413321018205 118.78191561322691 1.5232557654380801 -0.21724260598421094 0.037487473338842399 0.013660737313330175 -0.54312172532081593
decision_type=1 2 2 2 2 2 2 2 2 2 2 2 2 2
left_child=1 4 6 10 5 11 -2 8 -6 13 -3 -1 -13 -8
right_child=2 3 -4 -5 7 -7 9 -9 -10 -11 -12 12 -14 -15
leaf_value=-0.01864861613165663 0.013037842620502817 -0.021412510800646593 0.020702779722439731 -0.018723288988970681 -0.02102511485556207 -0.012998734123837114 0.014843601333347082 -0.023406178225626309 -0.016030048169701348 0.012726289914615118 -0.025534126004602149 -0.017541169996385449 -0.013992614429166066 0.01636798848735898
leaf_weight=64 56 25 21 37 25 21 78 21 22 20 35 23 20 181
leaf_count=64 56 25 21 37 25 21 78 21 22 20 35 23 20 181
internal_value=-0.00019215 -0.019404 0.0156124 -0.0219808 -0.0181028 -0.0169017 0.0152783 -0.0202917 -0.0187897 0.0157124 -0.0239052 -0.0176268 -0.0159966 0.0159264
internal_weight=649 293 356 97 196 128 335 68 47 279 60 107 43 259
internal_count=649 293 356 97 196 128 335 68 47 279 60 107 43 259
cat_boundaries=0 1
cat_threshold=1
is_linear=0
shrinkage=0.03


Tree=21
num_leaves=15
num_cat=1
split_feature=5 12 25 31 32 21 21 31 3 4 12 32 21 33
split_gain=206.166 0.855819 0.484621 0.484077 0.312492 0.244926 0.548402 0.378296 0.22628 0.110729 0.0726027 0.0721997 0.0161269 0.0030835
threshold=0 665.00000000000011 1.6977142095565798 -1.4625277519226072 1.2159875035285952 -1.8354657888412473 -0.57315236330032338 -0.14932914078235623 3904620736288.6938 120.04313886449401 785.00000000000011 1.5232557654380801 1.0381608009338381 -0.54312172532081593
decision_type=1 2 2 2 2 2 2 2 2 2 2 2 2 2
left_child=1 4 8 -3 5 -1 7 -7 -2 -8 -5 13 -12 -10
right_child=2 3 -4 10 -6 6 9 -9 11 -11 12 -13 -14 -15
leaf_value=-0.014985865845892973 0.01264740417985355 -0.016370800751358716 0.020084639782024218 -0.025522210206558447 -0.013732162629183663 -0.025444824651106077 -0.018174354971848522 -0.018802591607743523 0.014398863615513458 -0.014728513100777762 -0.01998651875077553 0.012346400912128278 -0.023787732658101548 0.015877219890442294
leaf_weight=31 56 20 21 20 25 20 64 28 78 28 37 20 20 181
leaf_count=31 56 20 21 20 25 20 64 28 78 28 37 20 20 181
internal_value=-0.000187456 -0.0188265 0.0151457 -0.0213253 -0.0175644 -0.0180988 -0.0187555 -0.0216797 0.0148212 -0.0171753 -0.0225503 0.0152421 -0.0214121 0.0154493
internal_weight=649 293 356 97 196 171 140 48 335 92 77 279 57 259
internal_count=649 293 356 97 196 171 140 48 335 92 77 279 57 259
cat_boundaries=0 1
cat_threshold=1
is_linear=0
shrinkage=0.03


Tree=22
num_leaves=15
num_cat=0
split_feature=3 12 25 12 19 19 3 21 32 25 25 26 28 4
split_gain=194.057 0.802338 0.453378 0.436576 0.370808 0.247874 0.210133 0.129903 0.0648251 0.0517851 0.0505087 0.00728027 0.00263451 0.00953584
threshold=2106311703621.6389 665.00000000000011 1.6977142095565798 875.00000000000011 1.1001197099685671 0.1519134342670441 3904620736288.6938 -0.91310378909111012 1.5232557654380801 -0.21724260598421094 -0.0038520577363669868 -0.029393414035439488 0.062315654009580619 126.43715323239572
decision_type=2 2 2 2 2 2 2 2 2 2 2 2 2 2
left_child=1 4 6 9 5 10 -2 -6 11 -3 -1 12 -8 -14
right_child=2 3 -4 -5 7 -7 8 -9 -10 -11 -12 -13 13 -15
leaf_value=-0.017581915598651996 0.012268657254025258 -0.020115146247514211 0.019484956448112052 -0.017584841482722852 -0.02115848669056589 -0.012171094188771775 0.015358858375059369 -0.017187585229121165 0.011977851537626179 -0.024096909491424887 -0.01499640254813096 0.015829860124770855 0.014588158650041311 0.012376721819953234
leaf_weight=64 56 25 21 37 32 21 69 36 20 35 43 99 52 39
leaf_count=64 56 25 21 37 32 21 69 36 20 35 43 99 52 39
internal_value=-0.000182924 -0.0182665 0.014693 -0.0206909 -0.0170414 -0.015895 0.0143779 -0.0191286 0.014786 -0.022524 -0.0165859 0.0149865 0.0144364 0.013688
internal_weight=649 293 356 97 196 128 335 68 279 60 107 259 160 91
internal_count=649 293 356 97 196 128 335 68 279 60 107 259 160 91
is_linear=0
shrinkage=0.03


Tree=23
num_leaves=16
num_cat=1
split_feature=7 12 31 25 23 26 31 3 25 32 26 32 26 28 22
split_gain=182.657 0.751676 0.455078 0.423863 0.376397 0.347193 0.21197 0.195259 0.187161 0.0913234 0.124253 0.0580998 0.00396462 0.0215805 0.00591911
threshold=0 665.00000000000011 -1.4625277519226072 1.6977142095565798 0.19348768144845965 1.5861845016479494 -0.21280786395072934 3904620736288.6938 -0.48748239874839777 1.1192091703414919 -0.77078866958618153 1.5232557654380801 -0.16094839572906491 0.048277128487825401 1.0583028793334963
decision_type=9 2 2 2 2 2 2 2 2 2 2 2 2 2 2
left_child=3 5 -3 7 -4 6 8 -1 -2 10 -8 12 13 -9 -14
right_child=1 2 4 -5 -6 -7 9 11 -10 -11 -12 -13 14 -15 -16
leaf_value=0.011901254457954496 -0.016505192245664966 -0.015279443731058889 -0.017884308324032219 0.018903178194122856 -0.023194009034028913 -0.012925481187160482 -0.019419612311697625 0.014977839396992309 -0.021184615007666652 -0.013168527582910521 -0.015677839181246447 0.01162030371267404 0.015778619997228436 0.013087645393191077 0.013471426375680587
leaf_weight=56 28 20 29 21 48 29 23 59 30 20 66 20 89 81 30
leaf_count=56 28 20 29 21 48 29 23 59 30 20 66 20 89 81 30
internal_value=-0.000177635 -0.0177221 -0.020074 0.0142546 -0.021259 -0.0165332 -0.0171337 0.0139486 -0.0190095 -0.0160915 -0.0166992 0.0143444 0.0145386 0.0139158 0.015234
internal_weight=649 293 97 356 77 196 167 335 58 109 89 279 259 140 119
internal_count=649 293 97 356 77 196 167 335 58 109 89 279 259 140 119
cat_boundaries=0 1
cat_threshold=1
is_linear=0
shrinkage=0.03


Tree=24
num_leaves=16
num_cat=1
split_feature=7 12 31 25 23 26 31 25 4 32 26 4 2 33 4
split_gain=171.933 0.703669 0.424359 0.396158 0.349927 0.323964 0.196209 0.172442 0.154289 0.0828108 0.113907 0.0488929 0.0470597 0.00476172 0.00159504
threshold=0 665.00000000000011 -1.4625277519226072 1.6977142095565798 0.19348768144845965 1.5861845016479494 -0.21280786395072934 -0.48748239874839777 126.43715323239572 1.1192091703414919 -0.77078866958618153 138.68372960095027 2019.5000000000002 -0.46403224766254419 120.04313886449401
decision_type=9 2 2 2 2 2 2 2 2 2 2 2 2 2 2
left_child=3 5 -3 8 -4 6 7 -2 12 10 -8 -10 -1 -13 -14
right_child=1 2 4 -5 -6 -7 9 -9 11 -11 -12 13 14 -15 -16
leaf_value=0.013013979810014393 -0.01601179864058715 -0.014823340471111125 -0.017349623168252174 0.01833877048503731 -0.022499635167528335 -0.012539049316312847 -0.018839545941778592 -0.020551187898035457 0.011693760428280957 -0.012775437327574437 -0.015208216284693368 0.012128588348372368 0.015846447229633333 0.014348363904371827 0.013816901234693656
leaf_weight=57 28 20 29 21 48 29 23 30 79 20 66 35 63 52 49
leaf_count=57 28 20 29 21 48 29 23 30 79 20 66 35 63 52 49
internal_value=-0.000172701 -0.0171945 -0.0194753 0.0138293 -0.0206239 -0.0160411 -0.0166234 -0.0184427 0.0135323 -0.0156118 -0.0162004 0.0126685 0.0143549 0.0135047 0.0149984
internal_weight=649 293 97 356 77 196 167 58 335 109 89 166 169 87 112
internal_count=649 293 97 356 77 196 167 58 335 109 89 166 169 87 112
cat_boundaries=0 1
cat_threshold=1
is_linear=0
shrinkage=0.03


Tree=25
num_leaves=16
num_cat=2
split_feature=7 18 12 13 26 12 12 33 22 12 4 33 31 4 32
split_gain=160.601 0.491318 0.336981 0.372916 0.300027 0.338006 0.196036 0.174672 0.128806 0.110478 0.108865 0.0411791 0.0354473 0.0248898 0.017728
threshold=0 -7.6476118564605704 665.00000000000011 1 -0.13663546741008756 35.250000000000007 785.00000000000011 -0.33840265870094294 -2.7863595485687251 292.50000000000006 126.43715323239572 -0.59032291173934925 0.71907389163970958 141.59567938743427 1.4456284642219546
decision_type=9 2 2 9 2 2 2 2 2 2 2 2 2 2 2
left_child=4 9 3 8 10 -6 -4 -8 -3 -2 11 -1 -10 -12 -7
right_child=1 2 6 -5 5 14 7 -9 12 -11 13 -13 -14 -15 -16
leaf_value=0.011627023712233389 -0.011323938104626421 -0.014133260654463312 -0.022683452894883369 -0.012321788374319116 0.019017767113313745 0.014519502404955233 -0.019877065822176219 -0.015392415783871179 -0.018420517499559821 -0.015558516645883496 0.010966806043384656 0.014412380141833806 -0.015695445345383936 0.013233593595384362 0.011923158471053245
leaf_weight=24 23 24 20 24 20 119 34 26 78 21 66 68 32 30 21
leaf_count=24 23 24 20 24 20 119 34 26 78 21 66 68 32 30 21
internal_value=5.34073e-05 -0.0167649 -0.0173604 -0.0163759 0.0136916 0.0147977 -0.0192445 -0.0180125 -0.0170699 -0.0134437 0.0127269 0.0137318 -0.01767 0.0117194 0.0141603
internal_weight=630 282 238 158 348 160 80 60 134 44 188 92 110 96 140
internal_count=630 282 238 158 348 160 80 60 134 44 188 92 110 96 140
cat_boundaries=0 1 2
cat_threshold=1 4
is_linear=0
shrinkage=0.03


Tree=26
num_leaves=18
num_cat=2
split_feature=1 12 13 12 26 12 33 19 3 29 22 21 21 22 32 33 29
split_gain=151.176 0.41561 0.516701 0.281299 0.279518 0.315445 0.158805 0.198899 0.102437 0.100639 0.0584773 0.0774547 0.14434 0.01485 0.0137942 0.000238933 0.0191803
threshold=0 665.00000000000011 1 785.00000000000011 -0.13663546741008756 35.250000000000007 -0.33840265870094294 0.74709352850914013 3904620736288.6938 -0.30736915767192835 -2.7863595485687251 -1.728037357330322 -0.14285418391227719 -0.72408804297447193 1.4456284642219546 -0.59017884731292714 -0.45959296822547907
decision_type=1 2 9 2 2 2 2 2 2 2 2 2 2 2 2 2 2
left_child=1 2 10 -3 8 -6 7 -5 -2 -4 -1 -12 -13 -14 -7 -10 -17
right_child=4 3 9 6 5 14 -8 -9 15 -11 11 12 13 -15 -16 16 -18
leaf_value=-0.013711022024827378 0.010159669017123283 -0.022006335545386838 -0.013881041602500805 -0.021000040150307986 0.018450073021561351 0.014084283048920428 -0.014556890105463793 -0.015647207334030806 0.011550067306340644 -0.0097432290240010207 -0.013844924853028844 -0.019072746978519645 -0.017438898990894184 -0.01444032708658151 0.011567158995646434 0.015356982679509405 0.012722256997647745
leaf_weight=24 32 20 21 23 20 119 29 22 46 20 21 42 26 34 21 20 90
leaf_count=24 32 20 21 23 20 119 29 22 46 20 21 42 26 34 21 20 90
internal_value=5.11399e-05 -0.0162661 -0.0153101 -0.0181279 0.0132832 0.0143557 -0.0170109 -0.0184901 0.0123473 -0.0119642 -0.0162141 -0.0166666 -0.017204 -0.0158165 0.0137367 0.0127701 0.0132421
internal_weight=630 282 188 94 348 160 74 45 188 41 147 123 102 60 140 156 110
internal_count=630 282 188 94 348 160 74 45 188 41 147 123 102 60 140 156 110
cat_boundaries=0 1 2
cat_threshold=2 4
is_linear=0
shrinkage=0.03


Tree=27
num_leaves=17
num_cat=1
split_feature=7 18 29 26 25 25 23 21 4 33 4 26 28 3 2 21
split_gain=142.315 0.449277 0.411202 0.260297 0.302248 0.162486 0.339947 0.258947 0.294182 0.457529 0.0975242 0.0679236 0.0638994 0.0627545 0.0210662 0.0173568
threshold=0 -7.6476118564605704 -0.52726873755455006 -0.13663546741008756 1.4241474866867068 2.1125098466873173 1.5684527754783633 -0.19473349303007123 119.2655080931231 -0.33840265870094294 126.43715323239572 0.073333960026502623 0.76591500639915477 4069636619068.7515 2023.5000000000002 1.2427894473075869
decision_type=9 2 2 2 2 2 2 2 2 2 2 2 2 2 2 2
left_child=3 2 -2 10 15 6 7 12 11 -10 13 -9 -3 -1 -12 -5
right_child=1 5 -4 4 -6 -7 -8 8 9 -11 14 -13 -14 -15 -16 -17
leaf_value=0.014600247882103991 -0.016041538110419886 -0.016718429314786207 -0.0095547674559211329 0.012849527141301638 0.017938126725937004 -0.019310872448106531 -0.011661955423264706 -0.015085078486114987 -0.016455210521480076 -0.0098886820947031578 0.010295495717319886 -0.018395583456736673 -0.02006871567558996 0.011935560334152375 0.012461310232992583 0.015124558527091332
leaf_weight=33 20 45 24 113 20 27 21 36 22 25 66 33 29 59 30 27
leaf_count=33 20 45 24 113 20 27 21 36 22 25 66 33 29 59 30 27
internal_value=4.85037e-05 -0.0157832 -0.012601 0.0128871 0.013927 -0.0163533 -0.0159517 -0.0164036 -0.0152828 -0.0130545 0.0119791 -0.0167361 -0.0180972 0.0129388 0.0110158 0.0133202
internal_weight=630 282 44 348 160 238 211 190 116 47 188 69 74 92 96 140
internal_count=630 282 44 348 160 238 211 190 116 47 188 69 74 92 96 140
cat_boundaries=0 1
cat_threshold=1
is_linear=0
shrinkage=0.03


Tree=28
num_leaves=16
num_cat=2
split_feature=1 18 29 12 12 33 9 12 4 33 3 30 33 4 21
split_gain=133.97 0.419762 0.384624 0.282917 0.233437 0.194997 0.255687 0.160056 0.146914 0.145671 0.0968327 0.0257182 0.0143976 0.0026073 0.0394398
threshold=0 -7.6476118564605704 -0.52726873755455006 665.00000000000011 35.250000000000007 0.57528504729270946 1 785.00000000000011 126.43715323239572 -0.33840265870094294 4069636619068.7515 0.45329003036022192 -0.12774233147501943 138.68372960095027 0.39351597428321844
decision_type=1 2 2 2 2 2 1 2 2 2 2 2 2 2 2
left_child=1 2 -1 5 -2 6 -3 -5 10 -9 -6 12 -8 14 -10
right_child=4 3 -4 7 8 -7 11 9 13 -11 -12 -13 -14 -15 -16
leaf_value=-0.015562686270742272 0.015755158998500343 -0.019270673574351551 -0.0092693138159656921 -0.020784414139256545 0.014334418273482193 -0.011581120132995407 -0.014374859118039724 -0.018198835224000589 0.0097054430994035663 -0.014032035956437561 0.012164739817529769 -0.012879826690732817 -0.016890990763345611 0.012008112947511069 0.012416120055727484
leaf_weight=20 26 20 24 20 63 22 55 34 51 26 100 29 32 87 21
leaf_count=20 26 20 24 20 63 22 55 34 51 26 100 29 32 87 21
internal_value=4.62013e-05 -0.0153142 -0.0122268 -0.015867 0.0125028 -0.0149547 -0.0154695 -0.0176103 0.0122261 -0.0164695 0.01303 -0.0147723 -0.0153531 0.0113755 0.0105538
internal_weight=630 282 44 238 348 158 136 80 322 60 163 116 87 159 72
internal_count=630 282 44 238 348 158 136 80 322 60 163 116 87 159 72
cat_boundaries=0 1 2
cat_threshold=2 1
is_linear=0
shrinkage=0.03


Tree=29
num_leaves=17
num_cat=1
split_feature=5 18 29 26 25 19 28 28 2 3 30 26 32 22 33 29
split_gain=126.113 0.392096 0.359678 0.240602 0.277164 0.170225 0.360194 0.274662 0.156475 0.0841955 0.0777275 0.0366215 0.0133043 0.00559434 0.00274568 0.0243019
threshold=0 -7.6476118564605704 -0.52726873755455006 -0.13663546741008756 1.4241474866867068 0.21631683409214023 0.71281161904335033 0.76591500639915477 2020.5000000000002 3904620736288.6938 -0.10533490404486655 0.71963918209075939 1.4456284642219546 -1.4723350405693052 -0.59017884731292714 -0.45959296822547907
decision_type=1 2 2 2 2 2 2 2 2 2 2 2 2 2 2 2
left_child=1 2 -1 9 12 6 13 8 10 -2 -7 -9 -5 -3 -11 -16
right_child=3 5 -4 4 -6 7 -8 11 -10 14 -12 -13 -14 -15 15 -17
leaf_value=-0.015098128759149294 0.0092266829158658172 -0.013738687236443706 -0.0089923893873622308 0.012877505006507901 0.016979787189569044 -0.014030245190316979 -0.011069440174716078 -0.020757638865442418 -0.012357654994227496 0.010474337795163441 -0.017968579306373734 -0.016788988956089677 0.010481842651751368 -0.01622391551972073 0.014166238561495025 0.011591481973606262
leaf_weight=20 32 30 24 119 20 23 31 20 25 46 27 26 21 56 20 90
leaf_count=20 32 30 24 119 20 23 31 20 25 46 27 26 21 56 20 90
internal_value=4.3737e-05 -0.0148592 -0.0118637 0.0121297 0.0131304 -0.0153952 -0.0142951 -0.0164215 -0.0150096 0.0112556 -0.0162484 -0.0186208 0.0125473 -0.0154088 0.0116464 0.0120993
internal_weight=630 282 44 348 160 238 117 121 75 188 50 46 140 86 156 110
internal_count=630 282 44 348 160 238 117 121 75 188 50 46 140 86 156 110
cat_boundaries=0 1
cat_threshold=1
is_linear=0
shrinkage=0.03


Tree=30
num_leaves=17
num_cat=2
split_feature=1 25 28 28 4 31 4 13 33 4 32 23 4 21 33 32
split_gain=123.472 0.620144 0.432163 0.263733 0.327639 0.280635 0.25121 0.199286 0.21117 0.0790652 0.0652883 0.0552609 0.0219017 0.0217458 0.000768334 0.0311817
threshold=0 2.3251180648803715 1.3254269957542422 0.68284448981285106 118.78191561322691 0.19359348714351657 124.49621006272866 1 -0.36481662094593043 118.78191561322691 -1.4064928293228147 -0.95249158143997181 140.78785752556885 1.0288841128349306 -0.54312172532081593 -0.51839557290077198
decision_type=1 2 2 2 2 2 2 9 2 2 2 2 2 2 2 2
left_child=1 2 3 4 11 -5 9 -6 -9 14 -8 -1 13 -12 -2 -16
right_child=6 -3 -4 5 7 -7 10 8 -10 -11 12 -13 -14 -15 15 -17
leaf_value=-0.016627177930763314 0.010253792209981599 -0.01944031632416476 -0.010659162217317639 -0.018710145366876145 -0.0094728219722846601 -0.013195028603076933 0.012857846275143239 -0.015584066842020171 -0.011333202648366618 0.013779272536140618 0.0093913878583881914 -0.013924359735220099 0.011379285895306129 0.01166116150210819 0.013994088061302305 0.011343108959147011
leaf_weight=43 28 24 39 33 25 20 26 29 35 67 91 47 62 21 25 49
leaf_count=43 28 24 39 33 25 20 26 29 35 67 91 47 62 21 25 49
internal_value=4.1303e-05 -0.01442 -0.0139573 -0.014494 -0.0138109 -0.0167142 0.0116114 -0.0122902 -0.0133275 0.0125956 0.0107589 -0.015266 0.0104208 0.00985376 0.011776 0.0122969
internal_weight=664 295 271 232 179 53 369 89 64 169 200 90 174 112 102 74
internal_count=664 295 271 232 179 53 369 89 64 169 200 90 174 112 102 74
cat_boundaries=0 1 2
cat_threshold=2 1
is_linear=0
shrinkage=0.03


Tree=31
num_leaves=16
num_cat=0
split_feature=3 32 24 28 30 4 29 12 21 4 4 32 27 4 30
split_gain=116.232 0.324885 0.313887 0.369061 0.56816 0.234251 0.202012 0.327906 0.163236 0.181661 0.0715478 0.0593147 0.0205382 0.00879494 0.0564239
threshold=2106311703621.6389 1.6179621219635012 -2.5581076145172115 -1.4969305992126463 1.0442116856575014 124.49621006272866 -0.67653316259384144 665.00000000000011 -1.8354657888412473 122.09567441928012 118.78191561322691 -1.4064928293228147 -0.81174221634864796 140.10997200254067 0.31538103520870214
decision_type=2 2 2 2 2 2 2 2 2 2 2 2 2 2 2
left_child=1 2 -1 -4 6 10 7 -5 -8 -10 -2 -7 -13 -14 -15
right_child=5 -3 3 4 -6 11 8 -9 9 -11 -12 12 13 14 -16
leaf_value=-0.010677773494727056 0.011425529435408338 -0.0096921733199660451 -0.011123746627780019 -0.013994137023591088 -0.019445161334786215 0.012473588849621256 -0.011035287158857205 -0.018967836060133688 -0.015315388353561834 -0.011330708340777979 0.013366510622014587 0.0088571701487716349 0.0097716909412564716 0.012500846228028974 0.0093854116152853988
leaf_weight=27 102 20 31 42 29 26 31 28 64 23 67 44 73 35 22
leaf_count=27 102 20 31 42 29 26 31 28 64 23 67 44 73 35 22
internal_value=3.9638e-05 -0.0139911 -0.0142893 -0.0146659 -0.0151527 0.0112655 -0.0144647 -0.0160506 -0.0134856 -0.0143106 0.0122202 0.0104381 0.0101098 0.0105035 0.0113695
internal_weight=664 295 275 248 217 369 188 70 118 87 169 200 174 130 57
internal_count=664 295 275 248 217 369 188 70 118 87 169 200 174 130 57
is_linear=0
shrinkage=0.03


Tree=32
num_leaves=17
num_cat=0
split_feature=3 25 28 19 31 21 25 3 28 21 12 3 21 23 21 24
split_gain=109.414 0.562936 0.407048 0.255798 0.263697 0.327546 0.251792 0.21384 0.136879 0.190422 0.0512029 0.0757169 0.0401188 0.0237904 0.0131541 0.00516584
threshold=2106311703621.6389 2.3251180648803715 1.3254269957542422 1.5309725999832156 -0.14017654955387113 -0.92336058616638172 1.6977142095565798 3904620736288.6938 -1.4969305992126463 -2.0135735273361202 440.00000000000006 315932696319.99445 1.2768616080284121 0.30401588231325155 0.27217257022857672 -1.589384853839874
decision_type=2 2 2 2 2 2 2 2 2 2 2 2 2 2 2 2
left_child=1 2 3 8 5 -5 7 -2 -1 -10 11 14 15 -14 -11 -9
right_child=6 -3 -4 4 -6 -7 -8 12 9 10 -12 -13 13 -15 -16 -17
leaf_value=-0.010304163395297909 0.008636533999832486 -0.018367586564968234 -0.0099359758190639171 -0.020301422906147924 -0.012667467971713517 -0.013855528889307333 0.014209073483943938 0.012303765170090563 -0.010369201015191249 -0.012408045294222892 -0.01538442748186945 -0.010726748580846312 0.011137317087605734 0.014128517428440833 -0.015643845045171079 0.010500637028207005
leaf_weight=28 55 24 39 21 28 20 26 28 25 23 44 22 32 20 21 208
leaf_count=28 55 24 39 21 28 20 26 28 25 23 44 22 32 20 21 208
internal_value=3.78444e-05 -0.0135751 -0.013133 -0.013653 -0.0154676 -0.0172714 0.0109297 0.0106683 -0.0128574 -0.0133567 -0.0139984 -0.0130071 0.0110427 0.0123703 -0.0140524 0.0107324
internal_weight=664 295 271 232 69 41 369 343 163 135 110 66 288 52 44 236
internal_count=664 295 271 232 69 41 369 343 163 135 110 66 288 52 44 236
is_linear=0
shrinkage=0.03


Tree=33
num_leaves=19
num_cat=1
split_feature=5 19 30 26 23 4 4 19 2 30 19 27 22 4 29 21 28 4
split_gain=103.003 0.411745 0.369937 0.326055 0.321907 0.379407 0.214562 0.203192 0.0867836 0.0790132 0.0605927 0.0642058 0.0558522 0.0336701 0.0279481 0.00785242 0.0339505 0.00476358
threshold=0 1.5309725999832156 1.1228160858154299 -0.45208911597728724 -0.1758894473314285 118.78191561322691 124.49621006272866 0.1519134342670441 2019.5000000000002 -0.28947079181671137 0.15118997544050219 0.68081524968147289 -1.114524185657501 140.78785752556885 0.013660737313330175 -1.2343448400497434 0.34399992227554327 132.2357534358608
decision_type=1 2 2 2 2 2 2 2 2 2 2 2 2 2 2 2 2 2
left_child=1 2 4 -3 5 14 8 -7 -2 -5 11 -6 -8 17 -1 -10 -17 -14
right_child=6 3 -4 9 10 7 12 -9 15 -11 -12 -13 13 -15 -16 16 -18 -19
leaf_value=-0.015273740360098428 0.010364842330998174 -0.017950281049469274 -0.0084778505940717522 -0.011431725621817121 -0.014500118479367313 -0.011360944757858911 0.01140383344936885 -0.0068690281598405402 0.010457195920102736 -0.014925005650117848 -0.016100880371474741 -0.011300002399431281 0.0099483936726828467 0.01045584319747068 -0.011782714337555331 0.011891587442497917 0.014640490085010211 0.0082760267720013731
leaf_weight=21 72 31 25 25 38 26 37 23 22 31 30 25 34 56 20 51 24 73
leaf_count=21 72 31 25 25 38 26 37 23 22 31 30 25 34 56 20 51 24 73
internal_value=3.55389e-05 -0.0131724 -0.0123442 -0.0151017 -0.012851 -0.0113574 0.0106036 -0.00933188 0.0115192 -0.0134421 -0.0142505 -0.0132977 0.00980946 0.00942238 -0.0136766 0.0123337 0.0128295 0.00884424
internal_weight=664 295 208 87 183 90 369 49 169 56 93 63 200 163 41 97 75 107
internal_count=664 295 208 87 183 90 369 49 169 56 93 63 200 163 41 97 75 107
cat_boundaries=0 1
cat_threshold=1
is_linear=0
shrinkage=0.03


Tree=34
num_leaves=15
num_cat=2
split_feature=1 25 28 25 19 31 2 19 3 25 8 25 27 24
split_gain=96.9734 0.504248 0.375404 0.235663 0.220498 0.24118 0.199113 0.398422 0.188399 0.164607 0.120086 0.0396718 0.0183021 0.00776631
threshold=0 2.3251180648803715 1.3254269957542422 1.6977142095565798 1.5309725999832156 -0.14017654955387113 2019.5000000000002 0.39094780385494238 3904620736288.6938 0.34595599770545965 1 -1.1957739591598509 0.091403696686029448 -1.589384853839874
decision_type=1 2 2 2 2 2 2 2 2 2 1 2 2 2
left_child=1 2 4 8 6 9 12 10 -2 -6 -8 -10 -1 -13
right_child=3 -3 -4 -5 5 -7 7 -9 11 -11 -12 13 -14 -15
leaf_value=-0.015225764018917632 0.0081119020205471133 -0.017331864153386643 -0.0092877645414236858 0.013458944490586204 -0.013674286740933548 -0.011878702963480321 -0.010061316544939559 -0.007962157523013963 0.011584359952792297 -0.018814090997425478 -0.013488892784557229 0.011600086943004479 -0.012322450518289918 0.0098280183773085828
leaf_weight=28 55 24 39 26 21 28 25 31 59 20 51 28 28 201
leaf_count=28 55 24 39 26 21 28 25 31 59 20 51 28 28 201
internal_value=3.36933e-05 -0.0127817 -0.0123614 0.0102879 -0.012861 -0.0145656 -0.0121125 -0.0111619 0.0100349 -0.0162942 -0.0124155 0.0103888 -0.0138521 0.0100628
internal_weight=664 295 271 369 232 69 163 107 343 41 76 288 56 229
internal_count=664 295 271 369 232 69 163 107 343 41 76 288 56 229
cat_boundaries=0 1 2
cat_threshold=2 1
is_linear=0
shrinkage=0.03


Tree=35
num_leaves=19
num_cat=1
split_feature=5 26 30 27 19 28 22 25 27 31 3 33 27 22 3 3 21 29
split_gain=91.5379 0.499982 0.302283 0.343643 0.209104 0.20959 0.200985 0.162651 0.146679 0.136888 0.0970021 0.0371972 0.0639286 0.0422034 0.059875 0.0669373 0.0732415 0.0176243
threshold=0 1.5861845016479494 1.1497547626495364 -0.54640159010887135 -0.38573335111141199 1.0975114703178408 -0.2251426354050636 1.6977142095565798 1.8245425820350649 0.19359348714351657 3904620736288.6938 -0.54312172532081593 -0.23037912696599958 2.1195747852325444 4069636619068.7515 4031227684478.3267 0.22802904993295672 -0.37446670234203333
decision_type=1 2 2 2 2 2 2 2 2 2 2 2 2 2 2 2 2 2
left_child=1 2 3 6 9 17 -1 8 10 -5 -2 12 -12 14 15 16 -13 -6
right_child=7 -3 -4 4 5 -7 -8 -9 -10 -11 11 13 -14 -15 -16 -17 -18 -19
leaf_value=-0.012431470674468951 0.0079115320409938791 -0.009089746001983999 -0.016414588806555441 -0.0097698629276338975 -0.011672060425792422 -0.017601175355721279 -0.0088563268629688451 0.012961187815511381 0.012776490769115103 -0.01375858936176832 0.0071629207803974287 0.011269493555886084 0.0096938616286982131 0.0083626719386870121 0.0094508970860342611 0.012576350820319385 0.008076931525074757 -0.014510774369128147
leaf_weight=44 47 39 29 27 23 25 37 23 21 25 27 37 59 27 68 42 21 37
leaf_count=44 47 39 29 27 23 25 37 23 21 25 27 37 59 27 68 42 21 37
internal_value=0.000193169 -0.0125611 -0.0130932 -0.0126303 -0.0136533 -0.0147563 -0.0108483 0.0100077 0.0098008 -0.0117678 0.00959731 0.00986568 0.00894335 0.0102523 0.010533 0.0112286 0.0101811 -0.0134937
internal_weight=658 286 247 218 137 85 81 372 349 52 328 281 86 195 168 100 58 60
internal_count=658 286 247 218 137 85 81 372 349 52 328 281 86 195 168 100 58 60
cat_boundaries=0 1
cat_threshold=1
is_linear=0
shrinkage=0.03


Tree=36
num_leaves=20
num_cat=1
split_feature=1 12 26 3 28 12 33 33 4 3 4 30 33 12 19 20 33 21 34
split_gain=86.1808 0.481577 0.555254 0.317438 0.259314 0.256253 0.186028 0.36937 0.106962 0.198633 0.135525 0.0815447 0.106647 0.0404977 0.01951 0.00985267 0.00535525 0.0225472 0.00288607
threshold=0 665.00000000000011 1.6252921223640444 295463185185.79865 0.76591500639915477 35.250000000000007 0.57528504729270946 0.18221473693847659 132.2357534358608 4069636619068.7515 138.68372960095027 0.31538103520870214 -0.36481662094593043 675.00000000000011 1.7347381711006167 0.46001408994197851 -0.59017884731292714 0.37376648187637335 2.5000000000000004
decision_type=1 2 2 2 2 2 2 2 2 2 2 2 2 2 2 2 2 2 2
left_child=1 2 6 -3 -5 -2 7 11 9 13 -10 12 -1 18 15 -11 -12 -18 -7
right_child=5 3 -4 4 -6 8 -8 -9 10 14 16 -13 -14 -15 -16 -17 17 -19 -20
leaf_value=-0.013505247019807737 0.012894329543301072 -0.01168719486964633 -0.0065200061372227289 -0.013591884379889035 -0.01882061691170904 0.0095321074168386328 -0.0093519848551364814 -0.015230082322762704 0.0071099570583759474 0.010208089096462048 0.0080540051418476876 -0.0097595029602993155 -0.0098358419838789572 0.013413505002633849 0.0078426448394346114 0.0082111726786106079 0.010860096904475366 0.0084358463059383548 0.011833320568347799
leaf_weight=39 27 39 23 31 22 33 33 38 52 58 27 40 21 20 37 28 39 25 26
leaf_count=39 27 39 23 31 22 33 33 38 52 58 27 40 21 20 37 28 39 25 26
internal_value=0.000187311 -0.012188 -0.0112436 -0.0141326 -0.0158502 0.00971045 -0.0118572 -0.0124273 0.00944892 0.0100137 0.00862377 -0.0113182 -0.0122894 0.0113777 0.00910468 0.00960307 0.00944712 0.00997456 0.0106153
internal_weight=658 286 194 92 53 372 171 138 345 202 143 100 60 79 123 86 91 64 59
internal_count=658 286 194 92 53 372 171 138 345 202 143 100 60 79 123 86 91 64 59
cat_boundaries=0 1
cat_threshold=2
is_linear=0
shrinkage=0.03


Tree=37
num_leaves=18
num_cat=1
split_feature=7 12 30 32 12 33 12 33 22 4 4 23 20 12 24 4 19
split_gain=81.1406 0.450751 0.401007 0.274853 0.238871 0.233174 0.188451 0.197869 0.122729 0.0989134 0.126237 0.0942188 0.184896 0.0739362 0.0377125 0.0336696 0.0275981
threshold=0 665.00000000000011 1.1497547626495364 1.1610304117202761 35.250000000000007 0.57528504729270946 785.00000000000011 0.48890946805477148 0.21982335299253467 132.2357534358608 138.68372960095027 -0.59693315625190724 0.16920230537652972 890.00000000000011 0.90351215004920971 117.52902357427357 1.1664915084838869
decision_type=9 2 2 2 2 2 2 2 2 2 2 2 2 2 2 2 2
left_child=4 2 3 5 -1 8 -3 16 11 13 -11 -2 -13 15 -12 -6 -8
right_child=1 6 -4 -5 9 -7 7 -9 -10 10 14 12 -14 -15 -16 -17 -18
leaf_value=0.012508928177404007 -0.013245916534853103 -0.016715019403733482 -0.015080257810618541 -0.0065763368224030115 0.0077070969796365065 -0.0079128420425519288 -0.015266005417462642 -0.0095448425617903013 -0.0087417378165333525 0.0068970675955235157 0.0096724791089190711 -0.012397679297711415 -0.0079862551723046318 0.011812909043383325 0.0071822324150533816 0.0096878775662820431 -0.012074219710737853
leaf_weight=27 51 22 22 20 29 28 27 20 22 52 71 30 21 26 20 147 23
leaf_count=27 51 22 22 20 29 28 27 20 22 52 71 30 21 26 20 147 23
internal_value=0.000181828 -0.011826 -0.0109096 -0.0103502 0.00942243 -0.0108224 -0.013712 -0.0127029 -0.0114483 0.00916863 0.00836767 -0.0119936 -0.0106591 0.00971638 0.00916659 0.0093831 -0.0138847
internal_weight=658 286 194 172 372 152 92 70 124 345 143 102 51 202 91 176 50
internal_count=658 286 194 172 372 152 92 70 124 345 143 102 51 202 91 176 50
cat_boundaries=0 1
cat_threshold=1
is_linear=0
shrinkage=0.03


Tree=38
num_leaves=17
num_cat=1
split_feature=5 12 30 27 4 12 19 12 33 27 4 4 2 21 2 19
split_gain=76.3929 0.422075 0.374849 0.338404 0.299464 0.222842 0.175462 0.174345 0.183953 0.160419 0.0652464 0.140988 0.0476125 0.0437886 0.0255959 0.0232679
threshold=0 665.00000000000011 1.1497547626495364 0.23414474725723269 118.78191561322691 35.250000000000007 0.15263684093952182 785.00000000000011 0.48890946805477148 1.8245425820350649 132.2357534358608 138.68372960095027 2019.5000000000002 0.14050511270761493 2020.5000000000002 1.1664915084838869
decision_type=1 2 2 2 2 2 2 2 2 2 2 2 2 2 2 2
left_child=1 2 3 4 -1 -2 -6 -3 15 10 12 -12 -7 -13 -14 -9
right_child=5 7 -4 -5 6 9 -8 8 -10 -11 11 13 14 -15 -16 -17
leaf_value=-0.010696969779948625 0.01213504418077779 -0.016215837700840303 -0.014629897460408879 -0.012087583655488263 -0.0088851269924421616 0.0080873170758047012 -0.0051213445672872423 -0.014809714892391128 -0.0092599219498016045 0.011427739317884151 0.006368687570762731 0.0095686491818751298 0.010480965385346328 0.0073147266350950067 0.0087440983884545416 -0.011713561293028005
leaf_weight=55 27 22 22 58 33 63 26 27 20 29 49 53 63 31 57 23
leaf_count=55 27 22 22 58 33 63 26 27 20 29 49 53 63 31 57 23
internal_value=0.000175416 -0.0114757 -0.0105862 -0.0100433 -0.00896729 0.00914173 -0.00728874 -0.0133053 -0.012326 0.00889533 0.0086499 0.00792101 0.00915864 0.0087822 0.0096889 -0.0134716
internal_weight=658 286 194 172 114 372 59 92 70 345 316 133 183 84 120 50
internal_count=658 286 194 172 114 372 59 92 70 345 316 133 183 84 120 50
cat_boundaries=0 1
cat_threshold=1
is_linear=0
shrinkage=0.03


Tree=39
num_leaves=17
num_cat=1
split_feature=3 26 30 12 3 12 13 22 4 3 4 12 24 34 34 23
split_gain=71.9205 0.427215 0.254679 0.316795 0.301384 0.207747 0.187252 0.24296 0.0846577 0.175516 0.108428 0.0390396 0.0339009 0.0233664 0.005258 0.00126011
threshold=2106311703621.6389 1.5861845016479494 1.1497547626495364 665.00000000000011 295463185185.79865 35.250000000000007 0 0.21982335299253467 132.2357534358608 4069636619068.7515 138.68372960095027 675.00000000000011 0.90351215004920971 1.5000000000000002 2.5000000000000004 0.52718791365623485
decision_type=2 2 2 2 2 2 9 2 2 2 2 2 2 2 2 2
left_child=1 2 3 6 -5 -2 -1 13 9 11 15 14 -12 -8 -7 -10
right_child=5 -3 -4 4 -6 8 7 -9 10 -11 12 -13 -14 -15 -16 -17
leaf_value=-0.0075766026971318731 0.011772335287479072 -0.007920986727604171 -0.014687830837270648 -0.010394434150914813 -0.015036987666888614 0.008651498813277779 -0.0098159890883154684 -0.0080566523938449385 0.0073051813917021464 0.0082886983896057163 0.0091095865376387974 0.01238661865689861 0.0067192107350078981 -0.012271946359973151 0.010873669276292295 0.0054668095218114166
leaf_weight=27 27 39 29 30 39 33 23 29 27 123 71 20 20 70 26 25
leaf_count=27 27 39 29 30 39 33 23 29 27 123 71 20 20 70 26 25
internal_value=0.000169746 -0.011135 -0.011627 -0.0111995 -0.0130799 0.00886977 -0.0103004 -0.0108719 0.00863058 0.00914635 0.00787516 0.0104316 0.00862511 -0.011708 0.00969826 0.00649112
internal_weight=658 286 247 218 69 372 149 122 345 202 143 79 91 93 59 52
internal_count=658 286 247 218 69 372 149 122 345 202 143 79 91 93 59 52
cat_boundaries=0 1
cat_threshold=1
is_linear=0
shrinkage=0.03


Tree=40
num_leaves=24
num_cat=2
split_feature=7 28 25 25 12 31 4 4 22 18 3 29 28 30 25 18 28 4 23 27 20 8 30
split_gain=71.7045 0.393181 0.37995 0.506629 0.370538 0.402564 0.134525 0.132537 0.136439 0.110624 0.0853508 0.0430781 0.0453606 0.0536772 0.0403943 0.0336571 0.038037 0.0278666 0.0160101 0.00683046 0.00442999 0.00359671 0.00105687
threshold=0 1.4829698801040652 -0.71540004014968861 -1.1447204351425169 627.50000000000011 -0.22218134254217145 124.49621006272866 118.78191561322691 -0.14581429213285443 -4.8441650867462149 4069636619068.7515 0.45332297682762152 1.1535356640815737 0.31404668092727667 0.78919050097465526 1.441582262516022 0.25434538722038275 119.2655080931231 0.12005054764449598 0.76591888070106517 0.23613870888948443 1 -0.28947004675865168
decision_type=9 2 2 2 2 2 2 2 2 2 2 2 2 2 2 2 2 2 2 2 2 1 2
left_child=6 2 3 9 5 -4 10 8 -7 -2 20 12 13 19 -9 -12 -17 -11 -15 -8 -1 -13 -6
right_child=1 -3 4 -5 22 7 11 14 -10 17 15 21 -14 18 -16 16 -18 -19 -20 -21 -22 -23 -24
leaf_value=0.011253393689823119 -0.0078020072050059017 -0.014909876669853182 -0.013569737198388474 -0.0049282839710449236 -0.01261064333937217 -0.0126809115794959 0.0077123946706964585 -0.009148100765677989 -0.0084386343943281764 -0.012351958357468487 0.0099608820523183362 0.0055943398244345365 0.010186228071381937 0.0077542577283197193 -0.0062087665765143147 0.008629693110847169 0.0062857012364132278 -0.0095406794359351142 0.0054761614759951394 0.0097946945862057277 0.0091059729779503999 0.0074477020380821881 -0.01538869348417715
leaf_weight=39 20 28 35 23 29 23 32 21 21 31 29 20 24 25 20 47 24 23 21 29 29 52 25
leaf_count=39 20 28 35 23 29 23 32 21 21 31 29 20 24 25 20 47 24 23 21 29 29 52 25
internal_value=-0.000250659 -0.0111852 -0.0107839 -0.00910607 -0.0116963 -0.0106337 0.00855438 -0.00937492 -0.0107479 -0.0103557 0.00930873 0.00791104 0.00839253 0.00795306 -0.00780587 0.00852953 0.00788951 -0.0112299 0.00679347 0.00876585 0.0103964 0.00698296 -0.0139783
internal_weight=670 299 271 97 174 120 371 85 44 74 168 203 131 107 41 100 71 54 46 61 68 72 54
internal_count=670 299 271 97 174 120 371 85 44 74 168 203 131 107 41 100 71 54 46 61 68 72 54
cat_boundaries=0 1 2
cat_threshold=1 1
is_linear=0
shrinkage=0.03


Tree=41
num_leaves=21
num_cat=1
split_feature=7 28 25 25 12 31 33 28 19 3 3 27 27 32 28 29 30 20 29 33
split_gain=67.5237 0.367062 0.355572 0.475511 0.346057 0.375937 0.115128 0.185961 0.27301 0.0870435 0.102653 0.0825598 0.0750095 0.0403495 0.0345787 0.0324629 0.0116804 0.00698215 0.00799576 0.00417053
threshold=0 1.4829698801040652 -0.71540004014968861 -1.1447204351425169 627.50000000000011 -0.22218134254217145 -0.54312172532081593 1.0975114703178408 -2.2635641098022456 4031227684478.3267 4069636619068.7515 -0.36020934581756586 -0.23037912696599958 -0.44026416540145868 0.76148244738578807 0.25272475928068167 0.48829700052738195 0.13396055996418002 0.45332297682762152 0.48297537863254553
decision_type=9 2 2 2 2 2 2 2 2 2 2 2 2 2 2 2 2 2 2 2
left_child=6 2 3 13 5 -4 12 9 -9 17 -11 16 -1 -2 -14 -15 -7 18 -8 -19
right_child=1 -3 4 -5 -6 11 7 8 -10 10 -12 -13 14 15 -16 -17 -18 19 -20 -21
leaf_value=0.0059449073672294614 -0.01183404397269989 -0.014464172025168068 -0.013163804819759648 -0.0047810753342973711 -0.013562165300694057 -0.0089205951243638993 0.008906922248578435 0.013650297620403233 0.0080535104616558384 0.010575609625574953 0.0081321570065213938 -0.010531049879045946 0.0089539373689054586 -0.010281177106687791 0.0068865011773240848 -0.0075840970656383625 -0.0066213411071687532 0.0054302525701532267 0.0067188645063212546 0.0075149396923481007
leaf_weight=41 22 28 35 23 54 27 31 20 21 40 73 36 42 30 38 22 22 22 22 21
leaf_count=41 22 28 35 23 54 27 31 20 21 40 73 36 42 30 38 22 22 22 22 21
internal_value=-0.000243132 -0.0108542 -0.010465 -0.00883674 -0.0113499 -0.0103189 0.00830121 0.00874814 0.0108832 0.00830994 0.00903221 -0.00909813 0.00734659 -0.0100486 0.00801918 -0.00921443 -0.00796496 0.00742004 0.00806953 0.00653304
internal_weight=670 299 271 97 174 120 371 250 41 209 113 85 121 74 80 52 49 96 53 43
internal_count=670 299 271 97 174 120 371 250 41 209 113 85 121 74 80 52 49 96 53 43
cat_boundaries=0 1
cat_threshold=1
is_linear=0
shrinkage=0.03


Tree=42
num_leaves=21
num_cat=1
split_feature=1 12 29 18 21 18 20 30 21 33 33 12 21 3 18 33 33 3 2 30
split_gain=63.5802 0.339132 0.77009 0.465916 0.248633 0.390003 0.204217 0.163779 0.120886 0.107015 0.174156 0.08187 0.073058 0.0668227 0.014945 0.0136554 0.00923997 0.00386526 0.0548695 0.0113786
threshold=0 665.00000000000011 -0.68202269077301014 -6.6932790279388419 -0.14800307899713513 -9.4020290374755842 -0.51858428120613087 0.55485379695892345 1.2427894473075869 -0.54312172532081593 -0.41049851477146143 985.00000000000011 0.37376648187637335 3904620736288.6938 -4.4118342399597159 -0.77483224868774403 -0.74173539876937855 4069636619068.7515 2022.5000000000002 0.31404668092727667
decision_type=1 2 2 2 2 2 2 2 2 2 2 2 2 2 2 2 2 2 2 2
left_child=1 4 -3 -4 5 -1 -7 8 -6 12 -11 13 15 -12 -5 -2 -10 18 -15 -20
right_child=9 2 3 14 7 6 -8 -9 16 10 11 -13 -14 17 -16 -17 -18 -19 19 -21
leaf_value=-0.0071147655918226606 0.0071465124448442142 -0.016445240556579272 -0.0064485407949655092 -0.013635730494820111 -0.0071605486344096473 -0.010267225322065109 -0.013974881175740354 -0.006031597844636684 -0.0087719011279792265 0.011450541237225898 0.0063621720036043956 0.010412571484392339 0.0085545079257449679 0.0099975375979757669 -0.010500662859473655 0.0055223325352499802 -0.011267675672241536 0.0075421046110396642 0.0086035356605070421 0.0064358435507138921
leaf_weight=23 46 29 23 21 26 43 36 25 22 22 39 23 37 39 20 38 31 71 34 22
leaf_count=23 46 29 23 21 26 43 36 25 22 22 39 23 37 39 20 38 31 71 34 22
internal_value=-0.000235619 -0.0105323 -0.0121944 -0.0101987 -0.00976191 -0.0109438 -0.0120102 -0.00856453 -0.00931952 0.00805534 0.00848904 0.00818523 0.00712822 0.00791575 -0.0122087 0.00645488 -0.0103067 0.00825864 0.00875412 0.00781841
internal_weight=670 299 93 64 206 102 79 104 79 371 250 228 121 205 41 84 53 166 95 56
internal_count=670 299 93 64 206 102 79 104 79 371 250 228 121 205 41 84 53 166 95 56
cat_boundaries=0 1
cat_threshold=2
is_linear=0
shrinkage=0.03


Tree=43
num_leaves=18
num_cat=1
split_feature=7 12 32 32 33 33 22 3 27 31 27 22 32 34 22 3 2
split_gain=59.8689 0.3173 0.653648 0.454607 0.230087 0.370533 0.16689 0.195607 0.133901 0.127224 0.101365 0.111875 0.168905 0.0783997 0.0725277 0.0856025 0.00910392
threshold=0 665.00000000000011 1.1610304117202761 0.51896679401397716 -0.014889745973050593 0.57528504729270946 0.21982335299253467 315932696319.99445 1.0578452348709109 -0.22218134254217145 1.8245425820350649 -1.114524185657501 -0.76725518703460682 2.5000000000000004 0.41794523596763616 3904620736288.6938 2022.5000000000002
decision_type=9 2 2 2 2 2 2 2 2 2 2 2 2 2 2 2 2
left_child=10 4 3 8 6 9 7 13 -3 -6 11 12 -1 -2 16 -16 -13
right_child=1 2 -4 -5 5 -7 -8 -9 -10 -11 -12 14 -14 -15 15 -17 -18
leaf_value=0.011611012994353449 -0.011628382013307724 -0.013459038178984112 -0.016608302698415869 -0.0060879051040357611 -0.015048817149154951 -0.0080280590328684377 -0.0060541854868213412 -0.0070379329237163571 -0.009389565954276171 -0.010852198419840574 0.0097659912399532499 0.0066925964503479285 0.0077314748703318182 -0.0086680526509162314 0.0055913809971861626 0.0080402413889383642 0.0049067423548271403
leaf_weight=20 34 30 22 20 20 31 27 35 21 28 34 72 48 31 25 152 20
leaf_count=20 34 30 22 20 20 31 27 35 21 28 34 72 48 31 25 152 20
internal_value=-0.000228683 -0.0102205 -0.0118329 -0.0102898 -0.00947261 -0.0109115 -0.00854606 -0.00918217 -0.0118637 -0.0126908 0.00781652 0.0076081 0.00893194 -0.0102781 0.00725911 0.00771465 0.00634269
internal_weight=670 299 93 71 206 79 127 100 51 48 371 337 68 65 269 177 92
internal_count=670 299 93 71 206 79 127 100 51 48 371 337 68 65 269 177 92
cat_boundaries=0 1
cat_threshold=1
is_linear=0
shrinkage=0.03


Tree=44
num_leaves=21
num_cat=2
split_feature=1 28 21 21 18 21 25 21 25 33 28 19 3 3 27 26 28 2 9 24
split_gain=56.3696 0.325129 0.356568 0.398998 0.344863 0.22481 0.166222 0.160145 0.12945 0.0962692 0.162224 0.24143 0.0743254 0.0907824 0.0621426 0.0346246 0.0331369 0.0253775 0.0200327 0.000608597
threshold=0 1.4829698801040652 -0.57315236330032338 -1.5161185860633848 -6.7471148967742911 1.0000000180025095e-35 -0.21221939474344251 -1.7787703871726988 -1.2317681312561033 -0.54312172532081593 1.0975114703178408 -2.2635641098022456 4031227684478.3267 4069636619068.7515 -0.23037901520729062 0.91422250866889965 0.76148244738578807 2023.5000000000002 1 -0.84666141867637623
decision_type=1 2 2 2 2 2 2 2 2 2 2 2 2 2 2 2 2 2 1 2
left_child=1 2 3 4 -1 -4 8 -6 -7 14 12 -12 17 -14 -2 -8 -16 -11 -5 -15
right_child=9 -3 5 18 7 6 15 -9 -10 10 11 -13 13 19 16 -17 -18 -19 -20 -21
leaf_value=-0.0063704585307857746 0.0054195969820801269 -0.013320779205429172 -0.0053439399906034983 -0.014748899084410516 -0.013012658945628716 -0.0088183774585983733 -0.0090397605170884476 -0.00862549092586898 -0.0053405404132179811 0.0061345483335636317 0.012607606302446393 0.0073282666737434421 0.0097173114919900296 0.0062768346065744706 0.008246585706072132 -0.0115304493024638 0.0062474846616974019 0.0079291083076759167 -0.011662660168333986 0.0079935874339039578
leaf_weight=28 42 28 23 22 24 37 38 22 22 65 20 21 40 27 41 29 38 31 26 46
leaf_count=28 42 28 23 22 24 37 38 22 22 65 20 21 40 27 41 29 38 31 26 46
internal_value=-0.000222487 -0.00991803 -0.0095506 -0.0108565 -0.00930146 -0.00845462 -0.00899396 -0.0110028 -0.00758355 0.00758392 0.00799786 0.010001 0.00758596 0.00826057 0.00669801 -0.0101781 0.00733203 0.00675291 -0.0131673 0.00740912
internal_weight=670 299 271 122 74 149 126 46 59 371 250 41 209 113 121 67 79 96 48 73
internal_count=670 299 271 122 74 149 126 46 59 371 250 41 209 113 121 67 79 96 48 73
cat_boundaries=0 1 2
cat_threshold=2 1
is_linear=0
shrinkage=0.03


Tree=45
num_leaves=22
num_cat=1
split_feature=1 4 32 25 30 22 18 24 27 12 4 3 12 4 21 12 18 31 28 18 27
split_gain=48.0355 0.381369 0.277679 0.223443 0.155243 0.135513 0.181335 0.150911 0.112282 0.127326 0.0649886 0.11765 0.0391513 0.0388338 0.0435891 0.0226899 0.0970051 0.0135321 0.0196987 0.00826923 0.00450038
threshold=0 117.74280706823112 0.52392402291297924 -0.75029793381690968 0.44610598683357244 0.43799346685409551 -5.7176129817962638 -0.22582229971885678 1.8245425820350649 35.250000000000007 132.2357534358608 4069636619068.7515 440.00000000000006 138.68372960095027 0.11120396852493288 555.00000000000011 -3.5402747392654415 0.61318063735961925 0.31972323358058935 3.5537674427032475 0.59819176793098461
decision_type=1 2 2 2 2 2 2 2 2 2 2 2 2 2 2 2 2 2 2 2 2
left_child=1 15 5 -4 -5 6 -3 -7 9 -2 11 19 -8 20 -15 16 -1 18 -13 -11 -12
right_child=8 2 3 4 -6 7 12 -9 -10 10 13 17 -14 14 -16 -17 -18 -19 -20 -21 -22
leaf_value=-0.0082869628276601732 0.0097305027247479962 -0.0060851208309633687 -0.0037189645599132459 -0.0061696148221598605 -0.010111132433165365 -0.0083493920871570929 -0.0077949407458005621 -0.012750096631031561 0.0095788493940600506 0.0075459935946979974 0.0045652534129822075 0.0069410836762518677 -0.010335129642873767 0.0078380611370341413 0.0057354740062967322 -0.01245261715135116 -0.011949635672876062 0.008153602666669077 0.005197298025149245 0.0096249918474091405 0.0062927338713175294
leaf_weight=25 24 30 21 32 20 20 26 24 30 28 30 57 38 43 35 28 22 23 30 35 23
leaf_count=25 24 30 21 32 20 20 26 24 30 28 30 57 38 43 35 28 22 23 30 35 23
internal_value=0.000117229 -0.00904312 -0.00831941 -0.00664499 -0.00775966 -0.00917798 -0.00835684 -0.0108413 0.00744413 0.00723688 0.00702701 0.00752745 -0.00936375 0.006338 0.00694156 -0.0110254 -0.0100868 0.00678586 0.00638088 0.00876196 0.00538185
internal_weight=644 286 211 73 52 138 94 44 358 328 304 173 64 131 78 75 47 110 87 63 53
internal_count=644 286 211 73 52 138 94 44 358 328 304 173 64 131 78 75 47 110 87 63 53
cat_boundaries=0 1
cat_threshold=2
is_linear=0
shrinkage=0.03


Tree=46
num_leaves=21
num_cat=1
split_feature=7 4 20 32 23 32 20 26 24 27 12 4 3 4 21 23 19 31 18 24
split_gain=45.2383 0.356975 0.267102 0.741586 0.338602 0.664452 0.375167 0.247664 0.110049 0.103875 0.118143 0.0597837 0.109228 0.0352262 0.0396668 0.0339535 0.0227356 0.0113773 0.00607471 0.00458458
threshold=0 117.74280706823112 -2.4820984601974483 -0.060023425146937363 1.1776216030120852 1.0231362581253054 -0.048253320157527917 0.80161088705062877 0.73517897725105297 1.8245425820350649 35.250000000000007 132.2357534358608 4069636619068.7515 138.68372960095027 0.11120396852493288 0.30401588231325155 1.1664915084838869 0.61318063735961925 3.5537674427032475 0.11648357287049295
decision_type=9 2 2 2 2 2 2 2 2 2 2 2 2 2 2 2 2 2 2 2
left_child=9 7 3 -3 5 6 -4 19 16 10 -1 12 18 15 -15 -13 -8 -14 -12 -2
right_child=1 2 4 -5 -6 -7 8 -9 -10 -11 11 13 17 14 -16 -17 -18 -19 -20 -21
leaf_value=0.0094397971117907657 -0.010431768656468268 -0.0092061908107461312 -0.012315665836375488 -0.0019377286512311932 -0.011418299254939311 -0.0027915896820478242 -0.0074086603223609609 -0.013941879806233874 -0.0057143888774531327 0.0092924385708431853 0.0073204202043204115 0.0061962557171663648 0.0061909038103885958 0.0076034648073383384 0.0055639000415292558 0.0039924614572251927 -0.010017864918673403 0.0079100533952186636 0.0093370647715707109 -0.0081858167934349205
leaf_weight=24 29 30 25 24 38 21 25 20 26 30 28 28 87 43 35 25 22 23 35 26
leaf_count=24 29 30 25 24 38 21 25 20 26 30 28 28 87 43 35 25 22 23 35 26
internal_value=0.000113494 -0.008776 -0.00807374 -0.00604077 -0.00874959 -0.00786334 -0.00891561 -0.0106983 -0.00769491 0.007224 0.00702289 0.00681918 0.00730436 0.00615048 0.00673498 0.0052227 -0.00871236 0.00658447 0.00850134 -0.00944128
internal_weight=644 286 211 54 157 119 98 75 73 358 328 304 173 131 78 53 47 110 63 55
internal_count=644 286 211 54 157 119 98 75 73 358 328 304 173 131 78 53 47 110 63 55
cat_boundaries=0 1
cat_threshold=1
is_linear=0
shrinkage=0.03


Tree=47
num_leaves=21
num_cat=1
split_feature=5 4 20 32 25 32 30 26 12 27 12 4 3 4 21 23 31 28 25 18
split_gain=42.6031 0.334095 0.250081 0.696723 0.346545 0.314987 0.280315 0.230848 0.211116 0.096064 0.109598 0.0548158 0.101511 0.0318727 0.0360162 0.0309406 0.00947947 0.0187466 0.0042641 0.00406071
threshold=0 117.74280706823112 -2.4820984601974483 -0.060023425146937363 -0.71540004014968861 0.52392402291297924 1.0501109361648562 0.80161088705062877 627.50000000000011 1.8245425820350649 35.250000000000007 132.2357534358608 4069636619068.7515 138.68372960095027 0.11120396852493288 0.30401588231325155 0.61318063735961925 0.31972323358058935 -0.8139539062976836 3.5537674427032475
decision_type=1 2 2 2 2 2 2 2 2 2 2 2 2 2 2 2 2 2 2 2
left_child=1 7 3 -3 5 -4 8 18 -6 10 -2 12 19 15 -15 -13 17 -14 -1 -12
right_child=9 2 4 -5 6 -7 -8 -9 -10 -11 11 13 16 14 -16 -17 -18 -19 -20 -21
leaf_value=-0.010544698620910075 0.009157778565014452 -0.0089309227615099792 -0.0082406525680358521 -0.0018798379167270479 -0.0072773901034062201 -0.0033859481153445002 -0.012868529521412661 -0.013525704330027992 -0.011135654859690076 0.0090145915984315324 0.0071015888618908528 0.0060110294430937581 0.006547813946201797 0.0073758900873881613 0.0053974585883064651 0.0038731647869831767 0.0076737792770583896 0.0048567870553842809 -0.0082565604076689936 0.009057750847095097
leaf_weight=20 24 30 37 24 50 22 23 20 25 30 28 28 57 43 35 25 23 30 35 35
leaf_count=20 24 30 37 24 50 22 23 20 25 30 28 28 57 43 35 25 23 30 35 35
internal_value=0.000109714 -0.00851684 -0.00783538 -0.00586183 -0.00849092 -0.00648998 -0.00965714 -0.0103811 -0.00861654 0.00701015 0.00681498 0.00661721 0.00708732 0.00596856 0.00653459 0.00506829 0.00638814 0.00600539 -0.00916068 0.00824852
internal_weight=644 286 211 54 157 59 98 75 75 358 328 304 173 131 78 53 110 87 55 63
internal_count=644 286 211 54 157 59 98 75 75 358 328 304 173 131 78 53 110 87 55 63
cat_boundaries=0 1
cat_threshold=1
is_linear=0
shrinkage=0.03


Tree=48
num_leaves=22
num_cat=1
split_feature=1 4 20 32 25 32 30 26 34 27 22 32 4 3 4 27 20 25 18 30 24
split_gain=40.1219 0.31278 0.233951 0.654538 0.324566 0.295137 0.261816 0.21508 0.183566 0.0887176 0.092145 0.108259 0.0502604 0.0673881 0.0497782 0.0110463 0.00730646 0.00625074 0.00568106 0.00563733 0.00335801
threshold=0 117.74280706823112 -2.4820984601974483 -0.060023425146937363 -0.71540004014968861 0.52392402291297924 1.0501109361648562 0.80161088705062877 2.5000000000000004 1.8245425820350649 -1.0966661572456358 -0.90070047974586476 132.2357534358608 4069636619068.7515 138.68372960095027 -0.011436487548053263 0.23613870888948443 -0.0038520342204719778 3.1348465681076054 0.29897654056549078 0.11648357287049295
decision_type=1 2 2 2 2 2 2 2 2 2 2 2 2 2 2 2 2 2 2 2 2
left_child=1 7 3 -3 5 -4 8 20 -6 10 11 -2 13 18 16 -10 -14 -15 -12 -16 -1
right_child=9 2 4 -5 6 -7 -8 -9 15 -11 12 -13 14 17 19 -17 -18 -19 -20 -21 -22
leaf_value=-0.0098376621958828469 0.0099061309603544374 -0.0086638852288061594 -0.0079940993411120043 -0.0018236769481824854 -0.0062622120091616745 -0.0032848292880805364 -0.012484144905170837 -0.013121951951909421 -0.01098752389037223 0.0087450522857646998 0.0065255884117108179 0.0067347912204304382 0.0055385080591511364 0.0051018261102526215 0.0069567871020417508 -0.0083373428667617364 0.003786551901586751 0.0065689923041287413 0.008575167613120372 0.0051990424970394938 -0.0076812850606852567
leaf_weight=29 22 30 37 24 31 22 23 20 22 30 23 46 20 33 38 22 28 59 34 25 26
leaf_count=29 22 30 37 24 31 22 23 20 22 30 23 46 20 33 38 22 28 59 34 25 26
internal_value=0.000106376 -0.00826507 -0.00760364 -0.00568824 -0.0082393 -0.00629739 -0.00937022 -0.0100734 -0.00835998 0.006803 0.00661362 0.00781791 0.00628423 0.00676896 0.00560104 -0.00975237 0.0045889 0.00608141 0.00781356 0.00631616 -0.00888852
internal_weight=644 286 211 54 157 59 98 75 75 358 328 68 260 149 111 44 48 92 57 63 55
internal_count=644 286 211 54 157 59 98 75 75 358 328 68 260 149 111 44 48 92 57 63 55
cat_boundaries=0 1
cat_threshold=2
is_linear=0
shrinkage=0.03


Tree=49
num_leaves=24
num_cat=1
split_feature=5 4 32 23 23 29 22 18 24 24 31 19 29 4 25 4 12 31 21 31 4 23 34
split_gain=37.7881 0.292596 0.213149 0.224042 0.328467 0.13636 0.117404 0.14453 0.14394 0.0818299 0.155297 0.122233 0.112251 0.044801 0.037712 0.0321643 0.0314537 0.0296488 0.0199773 0.0124111 0.0092553 0.00185485 0.00212989
threshold=0 117.74280706823112 0.52392402291297924 1.1776213049888613 -0.75045117735862721 0.64790886640548717 0.43799346685409551 -5.7176129817962638 -0.22582229971885678 0.88026174902915966 0.03825491480529309 -1.3589982986450193 -0.50059309601783741 132.2357534358608 0.075342226773500456 117.86815741863882 380.00000000000006 0.1906961873173714 1.0000000180025095e-35 0.47492250800132757 136.18665890105962 -0.034019667655229562 2.5000000000000004
decision_type=1 2 2 2 2 2 2 2 2 2 2 2 2 2 2 2 2 2 2 2 2 2 2
left_child=1 5 6 4 -4 17 7 -3 -8 10 11 12 -2 15 -12 -11 -9 -1 -15 -16 -21 22 -13
right_child=9 2 3 -5 -6 -7 8 16 -10 13 14 21 -14 18 19 -17 -18 -19 -20 20 -22 -23 -24
leaf_value=-0.012384074711774903 0.007462464139342732 -0.0053184032530069003 -0.006800818577461819 -0.0085111018337986691 -0.0016737632517917795 -0.0072533614448023059 -0.0072889965216615307 -0.0066354843816505034 -0.011525596307582875 0.005011283185669217 0.0046942217707216186 0.0054995266309792587 0.011102813307735309 0.0034513342560533043 0.0053033274001180065 0.0072204312199294924 -0.0090517742133582099 -0.0095477304957528528 0.0055246334154886081 0.0078525098098868942 0.0058471897894524011 0.008148826012780705 0.0071402748947979036
leaf_weight=21 28 30 28 23 22 22 20 22 24 24 32 31 22 20 28 37 42 32 25 30 25 21 35
leaf_count=21 28 30 28 23 22 22 20 22 24 24 32 31 22 20 28 37 42 32 25 30 25 21 35
internal_value=0.000102967 -0.00802121 -0.00737936 -0.00589192 -0.00461264 -0.00977477 -0.00813963 -0.00737309 -0.00968879 0.00660204 0.0069635 0.00773644 0.00914306 0.00570867 0.00601071 0.00640998 -0.00827962 -0.0107493 0.00467938 0.00647591 0.00700771 0.00688403 0.00642449
internal_weight=644 286 211 73 50 75 138 94 44 358 252 137 50 106 115 61 64 53 45 83 55 87 66
internal_count=644 286 211 73 50 75 138 94 44 358 252 137 50 106 115 61 64 53 45 83 55 87 66
cat_boundaries=0 1
cat_threshold=1
is_linear=0
shrinkage=0.03


Tree=50
num_leaves=20
num_cat=1
split_feature=3 28 21 21 21 3 9 26 25 3 3 31 21 2 27 28 18 23 27
split_gain=38.4513 0.272561 0.346795 0.527537 0.28621 0.173351 0.153666 0.134939 0.122171 0.0790521 0.0856515 0.0289358 0.0221766 0.0527813 0.0147689 0.0263284 0.0144028 0.00516947 0.00142386
threshold=2106311703621.6389 1.4731600880622866 -0.57315236330032338 -2.0135735273361202 0.27217257022857672 315932696319.99445 0 -0.5362451672554015 1.6977142095565798 4031227684478.3267 4069636619068.7515 -0.44174148142337794 1.000023424625397 2023.5000000000002 1.1387206315994265 0.31972323358058935 -3.6021792888641353 0.059926232323050506 0.16442246735095981
decision_type=2 2 2 2 2 2 1 2 2 2 2 2 2 2 2 2 2 2 2
left_child=1 2 3 6 -4 11 -1 -5 9 12 18 -6 13 -2 15 -12 -13 -14 -11
right_child=8 -3 4 7 5 -7 -8 -9 -10 10 14 16 17 -15 -16 -17 -18 -19 -20
leaf_value=-0.0042985491473953438 0.0046089593451098046 -0.011018059111433807 -0.0037467679312888501 -0.012479615471202013 -0.0065827219226265521 -0.0054990840427518832 -0.0083368305642360831 -0.009182624900818075 0.0089811426289935613 0.0070989811847111664 0.0062087242113222068 -0.0076897774100833536 0.0055039342055681444 0.0063810613922112066 0.007156454612997091 0.0045098633232099989 -0.010057526939811453 0.00749988610145605 0.0090553539146238284
leaf_weight=23 85 33 28 33 20 38 21 40 20 46 61 26 27 37 32 32 27 21 20
leaf_count=23 85 33 28 33 20 38 21 40 20 46 61 26 27 37 32 32 27 21 20
internal_value=5.28704e-05 -0.00819292 -0.00781287 -0.00909908 -0.00670291 -0.00741755 -0.00630847 -0.0107291 0.00631593 0.00615752 0.00667251 -0.00836628 0.0055577 0.00517576 0.00607388 0.00566187 -0.00896916 0.00645331 0.00775001
internal_weight=670 289 256 117 139 111 44 73 381 361 191 73 170 122 125 93 53 48 66
internal_count=670 289 256 117 139 111 44 73 381 361 191 73 170 122 125 93 53 48 66
cat_boundaries=0 1
cat_threshold=1
is_linear=0
shrinkage=0.03


Tree=51
num_leaves=21
num_cat=2
split_feature=5 13 34 30 26 25 4 3 30 26 23 26 12 21 2 27 23 33 34 18
split_gain=36.2111 0.280929 0.337679 0.278749 0.171425 0.113574 0.11644 0.0535316 0.0530729 0.0620106 0.121835 0.088726 0.0631007 0.0235543 0.0511072 0.0137831 0.0051459 0.00124604 0.0189676 0.000683523
threshold=0 1 2.5000000000000004 1.1497547626495364 1.6252921223640444 1.6977142095565798 126.43715323239572 4069636619068.7515 0.45329003036022192 -0.5362451672554015 0.12005054764449598 0.91840043663978588 267.50000000000006 1.000023424625397 2023.5000000000002 0.091403696686029448 0.059927668422460563 0.06836868450045587 2.5000000000000004 4.364579677581788
decision_type=1 9 2 2 2 2 2 2 2 2 2 2 2 2 2 2 2 2 2 2
left_child=1 2 -1 4 8 6 7 17 9 10 -3 12 -11 14 -8 19 -15 18 -2 -9
right_child=5 3 -4 -5 -6 -7 13 15 -10 11 -12 -13 -14 16 -16 -17 -18 -19 -20 -21
leaf_value=-0.0082985203921172764 0.00567564513435765 -0.0082050771092672947 -0.0036371710367291881 -0.01170039879779021 -0.0054418197172484278 0.0087130485652987637 0.0044799876743908222 0.0047446409853004381 -0.0068858480317791574 -0.0054409541318996392 -0.012044170295221233 -0.0102515741762533 -0.0081485338819792998 0.0053581056229232513 0.0061901456224066863 0.0067370583874936758 0.0073174917230855166 0.0087546915931724246 0.0080350151262577104 0.0063314679666181045
leaf_weight=31 24 27 32 26 27 20 96 39 36 21 22 21 46 29 37 52 20 21 21 22
leaf_count=31 24 27 32 26 27 20 96 39 36 21 22 21 46 29 37 52 20 21 21 22
internal_value=5.10968e-05 -0.00795076 -0.00598791 -0.00848176 -0.00804271 0.00612911 0.00597527 0.00660239 -0.00842792 -0.00880593 -0.0100109 -0.00809035 -0.00735397 0.00533874 0.00498258 0.00603397 0.00623223 0.0075196 0.00685858 0.00537546
internal_weight=670 289 63 226 200 381 361 179 173 137 49 88 67 182 133 113 49 66 45 61
internal_count=670 289 63 226 200 381 361 179 173 137 49 88 67 182 133 113 49 66 45 61
cat_boundaries=0 1 2
cat_threshold=1 1
is_linear=0
shrinkage=0.03


Tree=52
num_leaves=20
num_cat=1
split_feature=5 4 26 26 24 18 27 4 19 30 3 26 4 27 19 22 27 32 27
split_gain=34.1038 0.277713 0.537317 0.492369 0.6508 0.32885 0.247946 0.0972438 0.0556564 0.046916 0.0418819 0.0405478 0.034423 0.0262765 0.0528782 0.0139084 0.0127934 0.00598108 0.00415838
threshold=0 117.86815741863882 0.87873074412345897 -0.45208911597728724 -0.22582229971885678 -6.6932790279388419 -0.63150459527969349 126.43715323239572 1.2021700739860537 -1.1160647273063657 4069636619068.7515 -0.80146193504333485 140.78785752556885 -0.23037901520729062 -0.50889733433723439 -1.8718838691711424 -0.55983465909957875 -0.2294565141201019 -0.815467208623886
decision_type=1 2 2 2 2 2 2 2 2 2 2 2 2 2 2 2 2 2 2
left_child=1 2 11 4 -3 -5 -7 10 9 -9 18 -1 -10 -12 -15 -8 -13 -17 -2
right_child=7 3 -4 5 -6 6 15 8 12 -11 13 16 -14 14 -16 17 -18 -19 -20
leaf_value=-0.0094426502426391227 0.0060145202546570253 -0.0056653600040068265 -0.013115607447239505 -0.0030898139079557482 -0.011952338627180977 -0.0036862293135256786 -0.0061261471656255144 0.0073526570479973208 0.0037380282880279947 0.0053988165552383838 0.0050650504864792698 -0.0056710570960250839 0.0056386738454644704 0.0080113902448237621 0.0056915897131159807 -0.0070779628598043867 -0.007789936598006867 -0.0093125672601013041 0.0079336371696645033
leaf_weight=20 21 30 25 34 36 22 20 27 45 96 46 22 26 26 48 25 31 24 46
leaf_count=20 21 30 25 34 36 22 20 27 45 96 46 22 26 26 48 25 31 24 46
internal_value=4.95293e-05 -0.00771587 -0.00912942 -0.00697049 -0.0091529 -0.0057878 -0.00675841 0.00594817 0.00537268 0.0058577 0.00652597 -0.00770718 0.00448319 0.00601467 0.00655685 -0.00768778 -0.00697924 -0.0082503 0.00738669
internal_weight=670 289 98 191 66 125 91 381 194 123 187 73 71 120 74 69 53 49 67
internal_count=670 289 98 191 66 125 91 381 194 123 187 73 71 120 74 69 53 49 67
cat_boundaries=0 1
cat_threshold=1
is_linear=0
shrinkage=0.03


Tree=53
num_leaves=22
num_cat=1
split_feature=5 4 28 29 21 21 23 12 3 4 31 29 27 19 30 2 4 19 21 27 33
split_gain=32.1187 0.259861 0.376799 0.349151 0.286105 0.449758 0.204023 0.218442 0.106169 0.0904958 0.0739746 0.0555599 0.118756 0.0512321 0.0430618 0.0410195 0.0315428 0.0160778 0.0153953 0.00867127 0.00254865
threshold=0 117.86815741863882 -1.3683585524559019 -1.101951479911804 -2.0845496654510494 -0.79165309667587269 -0.1758894473314285 760.00000000000011 315932696319.99445 126.43715323239572 0.19359348714351657 0.51366278529167186 -0.55983465909957875 1.2021700739860537 -1.1160647273063657 2019.5000000000002 140.78785752556885 -0.44041752815246576 -0.92336058616638172 0.091403696686029448 -0.57245603203773487
decision_type=1 2 2 2 2 2 2 2 2 2 2 2 2 2 2 2 2 2 2 2 2
left_child=1 3 -3 -1 -4 10 8 -8 -7 15 -6 12 -5 14 -11 19 -15 18 -17 -2 -16
right_child=9 2 4 11 5 6 7 -9 -10 13 -12 -13 -14 16 20 17 -18 -19 -20 -21 -22
leaf_value=-0.012672281979180093 0.0046437931034992606 -0.0028245097261377318 -0.0042842941604477845 -0.0065821851872048948 -0.012322542977088423 -0.0068635091221710635 -0.0053398866228648078 -0.010007770636094891 -0.0035601446520391305 0.0071328910565299298 -0.0087833729816741684 -0.0064051596807733731 -0.010394580772446201 0.0036261360294303283 0.0042672302128420663 0.0060539755373486973 0.0054701616490880648 0.0060998017902307326 0.0082510495875185545 0.006265665739217767 0.0056050862149639412
leaf_weight=20 36 22 29 21 20 20 20 27 28 27 25 32 25 45 29 21 26 64 36 30 67
leaf_count=20 36 22 29 21 20 20 20 27 28 27 25 32 25 45 29 21 26 64 36 30 67
internal_value=4.75148e-05 -0.00748836 -0.00676494 -0.00885939 -0.00725818 -0.00784928 -0.0065777 -0.00810069 -0.00501032 0.00577204 -0.0104467 -0.00782834 -0.00873727 0.00521324 0.00568301 0.00633264 0.00435035 0.00679273 0.00750616 0.00543476 0.00523702
internal_weight=670 289 191 98 169 140 95 47 48 381 45 78 46 194 123 187 71 121 57 66 96
internal_count=670 289 191 98 169 140 95 47 48 381 45 78 46 194 123 187 71 121 57 66 96
cat_boundaries=0 1
cat_threshold=1
is_linear=0
shrinkage=0.03


Tree=54
num_leaves=21
num_cat=2
split_feature=7 13 32 30 26 24 19 4 19 2 22 23 26 23 21 19 30 4 27 33
split_gain=30.2531 0.247695 0.322218 0.263125 0.150208 0.103765 0.0901683 0.0847568 0.0593873 0.0546399 0.036448 0.0332282 0.0901646 0.0748661 0.0286444 0.0528734 0.0276681 0.0221691 0.00745345 0.0041574
threshold=0 1 0.5177011787891389 1.1228160858154299 1.6252921223640444 -0.57430335879325856 -0.82567101716995228 124.49621006272866 1.2021700739860537 2019.5000000000002 0.21982335299253467 0.19348768144845965 -0.5362451672554015 -0.93695750832557667 -1.2343448400497434 -0.48876306414604181 -1.1160647273063657 140.78785752556885 1.0350132584571841 -0.54312172532081593
decision_type=9 9 2 2 2 2 2 2 2 2 2 2 2 2 2 2 2 2 2 2
left_child=7 2 -2 4 6 -4 10 9 16 18 -3 13 -13 -8 -11 -16 -9 -10 -1 -18
right_child=1 3 5 -5 -6 -7 11 8 17 14 -12 12 -14 -15 15 -17 19 -19 -20 -21
leaf_value=0.0046635693151244042 -0.0022704326213923245 -0.0073963647735524806 -0.0088275569277023198 -0.010882412622543587 -0.004896833249591153 -0.0051375920755426735 -0.008311654100325078 0.0068370728432824929 0.0036603157834512773 0.0052376801498945323 -0.0050548301359631146 -0.011080171591286206 -0.0076857335352790114 -0.0054198131473985178 0.0087154731599763894 0.0063684338179636826 0.0043186237363733795 0.0053066856020140916 0.0063312061623210817 0.0055820832746044467
leaf_weight=44 22 30 20 26 27 21 47 29 52 24 25 22 29 20 26 52 35 26 22 71
leaf_count=44 22 30 20 26 27 21 47 29 52 24 25 22 29 20 26 52 35 26 22 71
internal_value=4.55403e-05 -0.00726807 -0.00542018 -0.0077673 -0.0073421 -0.00702767 -0.00770335 0.00560146 0.00510857 0.00620512 -0.00639758 -0.00828064 -0.00922753 -0.00750249 0.00677275 0.00719935 0.00557682 0.00425361 0.00527357 0.00519764
internal_weight=670 289 63 226 200 41 173 381 213 168 55 118 51 67 102 78 135 78 66 106
internal_count=670 289 63 226 200 41 173 381 213 168 55 118 51 67 102 78 135 78 66 106
cat_boundaries=0 1 2
cat_threshold=1 1
is_linear=0
shrinkage=0.03


Tree=55
num_leaves=24
num_cat=1
split_feature=1 12 19 28 4 29 32 12 22 32 27 12 27 27 29 4 4 3 22 29 22 18 4
split_gain=28.9262 0.485487 0.36612 0.210238 0.158142 0.137759 0.133481 0.116476 0.0998975 0.141723 0.0797458 0.0718142 0.0709543 0.0709 0.0586833 0.0426889 0.0614807 0.0491431 0.0462346 0.00813161 0.00591945 0.00465001 0.000309215
threshold=0 665.00000000000011 0.95046856999397289 1.0600922703742983 120.04313886449401 0.26926550269126898 -0.30426420271396631 267.50000000000006 -1.0966661572456358 -0.90070047974586476 -0.011437133885920046 345.00000000000006 -0.041466928087174885 1.8245425820350649 -0.58478564023971547 132.2357534358608 138.68372960095027 4069636619068.7515 0.43799346685409551 -0.36331824958324427 0.30368450284004217 2.6146476268768315 124.49621006272866
decision_type=1 2 2 2 2 2 2 2 2 2 2 2 2 2 2 2 2 2 2 2 2 2 2
left_child=1 3 10 4 7 -6 -4 14 9 -2 -3 -5 -9 15 -1 17 21 -10 -18 -20 -19 -17 -11
right_child=8 2 6 11 5 -7 -8 12 13 22 -12 -13 -14 -15 -16 16 18 20 19 -21 -22 -23 -24
leaf_value=-0.0070627824934306497 0.0090075987549189714 -0.012339960048938619 -0.0085600484845796548 -0.0054728020560830381 -0.0033571751000586467 -0.007036289702822913 -0.0048577716268011634 -0.0043882104814476309 0.0063367171274684043 0.0064757049956769451 -0.0089442036830007544 -0.0025123526531125972 -0.0071564667660009374 0.0069140830390232123 -0.0099859700009398075 0.0024612137415750894 0.003483631654360175 0.0038734582702619662 0.006513745926063636 0.0046091569171516919 0.0052141255931313349 0.0039178833947259226 0.0047057973687676174
leaf_weight=26 21 26 24 20 27 20 24 21 57 21 25 21 39 29 26 21 22 29 26 23 68 27 26
leaf_count=26 21 26 24 20 27 20 24 21 57 21 25 21 39 29 26 21 22 29 26 23 68 27 26
internal_value=-0.000131261 -0.00707371 -0.00886924 -0.00616594 -0.00669259 -0.00499807 -0.00678523 -0.00737182 0.00547128 0.00668897 -0.0107548 -0.00403927 -0.00624641 0.00518504 -0.00859832 0.00498792 0.00439609 0.00542262 0.00505582 0.00569206 0.00484861 0.0033494 0.00557237
internal_weight=669 299 99 200 159 47 48 112 370 68 51 41 60 302 52 273 119 154 71 49 97 48 47
internal_count=669 299 99 200 159 47 48 112 370 68 51 41 60 302 52 273 119 154 71 49 97 48 47
cat_boundaries=0 1
cat_threshold=2
is_linear=0
shrinkage=0.03


Tree=56
num_leaves=22
num_cat=1
split_feature=7 12 19 28 3 29 12 21 22 33 12 27 27 29 24 4 4 3 22 29 22
split_gain=27.2494 0.455361 0.342801 0.196737 0.147575 0.128705 0.108233 0.101296 0.0930386 0.11204 0.0668119 0.0655382 0.0654667 0.0638317 0.0593865 0.0388705 0.0570658 0.0450789 0.0426547 0.00654879 0.00461675
threshold=0 665.00000000000011 0.95046856999397289 1.0600922703742983 315932696319.99445 0.26926550269126898 267.50000000000006 1.0288841128349306 -1.0966661572456358 0.27602580189704901 345.00000000000006 -0.28493532538413996 1.8245425820350649 -0.67653316259384144 0.31094230711460119 132.2357534358608 138.68372960095027 4069636619068.7515 0.43799346685409551 -0.36331824958324427 0.30368450284004217
decision_type=9 2 2 2 2 2 2 2 2 2 2 2 2 2 2 2 2 2 2 2 2
left_child=8 3 7 4 6 -6 14 -3 9 -1 -5 -8 15 -4 -2 17 -17 -10 -18 -20 -19
right_child=1 2 13 10 5 -7 11 -9 12 -11 -12 -13 -14 -15 -16 16 18 20 19 -21 -22
leaf_value=0.0080243308629565115 -0.0068713930523713771 -0.0087948991268148313 -0.0081490963612687525 -0.005309434832254452 -0.0032568313555303972 -0.0068262511469534973 -0.0042571881409928687 -0.012412107656983768 0.0061469481445073386 0.0051088228312915953 -0.0024373393575550534 -0.0069423221505414976 0.0067073733935651084 -0.0052310959187875814 -0.0097792679855073124 0.0032511891291927926 0.0033795953609420159 0.0037576536538521032 0.0063190822977701134 0.0044714807933075472 0.0050579315521610728
leaf_weight=31 27 29 21 20 27 20 21 22 57 37 21 39 29 27 25 48 22 29 26 23 68
leaf_count=31 27 29 21 20 27 20 21 22 57 37 21 39 29 27 25 48 22 29 26 23 68
internal_value=-0.00012727 -0.00686563 -0.00860694 -0.00598481 -0.00649537 -0.0048507 -0.00715384 -0.0104352 0.00531033 0.00649184 -0.00392086 -0.00606109 0.0050323 -0.00658438 -0.00834308 0.00484099 0.00426776 0.00526141 0.00490729 0.00552381 0.00470435
internal_weight=669 299 99 200 159 47 112 51 370 68 41 60 302 48 52 273 119 154 71 49 97
internal_count=669 299 99 200 159 47 112 51 370 68 41 60 302 48 52 273 119 154 71 49 97
cat_boundaries=0 1
cat_threshold=1
is_linear=0
shrinkage=0.03


Tree=57
num_leaves=22
num_cat=1
split_feature=1 12 19 28 20 4 20 32 29 20 22 32 20 27 4 4 22 19 19 29 18
split_gain=25.6682 0.427063 0.320909 0.184065 0.293192 0.137668 0.178013 0.125541 0.120211 0.0990812 0.086391 0.126811 0.0861625 0.0604309 0.0354394 0.0531504 0.0393106 0.00928188 0.0223108 0.00509189 0.00443827
threshold=0 665.00000000000011 0.95046856999397289 1.0600922703742983 -0.82949018478393544 120.04313886449401 1.6976002454757693 -0.30426420271396631 0.26926550269126898 -0.81008681654930104 -1.0966661572456358 -0.90070047974586476 -0.51858428120613087 1.8245425820350649 132.2357534358608 138.68372960095027 0.43799346685409551 1.7347381711006167 -3.0040907859802242 -0.36331824958324427 2.6146476268768315
decision_type=1 2 2 2 2 2 2 2 2 2 2 2 2 2 2 2 2 2 2 2 2
left_child=1 3 9 5 -5 6 12 -4 -7 -3 11 -2 -1 14 17 20 -17 18 -12 -18 -16
right_child=10 2 7 4 -6 8 -8 -9 -10 -11 13 -13 -14 -15 15 16 19 -19 -20 -21 -22
leaf_value=-0.0065232923685276797 0.0085032076547496126 -0.01192054510673052 -0.008108074864473085 -0.0010156158491301892 -0.0063039068851213883 -0.0031594869714381504 -0.0044450492840046162 -0.0045200376105939202 -0.0066224824854019858 -0.0083804596496601606 0.0041253366332030155 0.0052344568003900348 -0.0089883172219824472 0.0065068436091400908 0.0022906536753598368 0.0032786664767064386 0.0061302360903000694 0.004299881191580159 0.0058013476754260815 0.0043379170809231399 0.0037036048909271221
leaf_weight=48 21 24 24 20 21 27 26 24 20 27 26 47 38 29 21 22 26 47 81 23 27
leaf_count=48 21 24 24 20 21 27 26 24 20 27 26 47 38 29 21 22 26 47 81 23 27
internal_value=-0.000123712 -0.00666377 -0.0083525 -0.0058091 -0.00380599 -0.00630405 -0.00694238 -0.00638955 -0.00470773 -0.0101252 0.00515363 0.00629898 -0.00765651 0.00488381 0.00469809 0.00414244 0.0047632 0.00510503 0.00542634 0.00536059 0.00315386
internal_weight=669 299 99 200 41 159 112 48 47 51 370 68 86 302 273 119 71 154 107 49 48
internal_count=669 299 99 200 41 159 112 48 47 51 370 68 86 302 273 119 71 154 107 49 48
cat_boundaries=0 1
