tree
version=v4
num_class=1
num_tree_per_iteration=1
label_index=0
max_feature_idx=57
objective=regression
feature_names=geolocation_name country year deflated_gdp_usd us_cpi developed_country landlocked region_economic_classification access_to_airport access_to_port access_to_highway access_to_railway straight_distance_to_capital_km seismic_hazard_zone flood_risk_class tropical_cyclone_wind_risk tornadoes_wind_risk koppen_climate_zone s2_B1_mean s2_B1_std s2_B1_max s2_B2_mean s2_B2_std s2_B2_max s2_B3_mean s2_B3_std s2_B3_max s2_B4_mean s2_B4_std s2_B4_max s2_B5_mean s2_B5_std s2_B5_max s2_B6_mean s2_B6_std s2_B6_max s2_B7_mean s2_B7_std s2_B7_max s2_B8_mean s2_B8_std s2_B8_max s2_B8A_mean s2_B8A_std s2_B8A_max s2_B9_mean s2_B9_std s2_B9_max s2_B11_mean s2_B11_std s2_B11_max s2_B12_mean s2_B12_std s2_B12_max viirs_mean viirs_max viirs_std quarter
feature_infos=-1:15:41:13:17:5:11:12:46:7:8:24:37:18:20:25:39:43:4:19:22:23:29:32:33:34:91:14:21:28:30:31:38:40:76:88:1:10:45:56:59:112:113:119:123:2:3:9:26:36:44:74:89:93:110:118:27:35:42:66:78:83:84:98:99:102:111:0:6:16:47:52:58:63:64:69:72:73:75:80:94:101:124:51:60:62:65:70:85:86:92:95:97:103:104:105:106:108:109:114:116:117:120:121:48:50:54:55:57:61:67:68:77:82:90:96:115 -1:0:1 [2019:2024] [291244296180.30774:4247588558872.2593] [115.9781187205398:144.72798591795819] -1:1:0 -1:0:1 -1:0:2:1 -1:1:0 -1:1:0 none -1:1:0 [0:1550] -1:2:0 -1:1:0 -1:2:0:1:3 -1:1:0 -1:3:1:0:5:4:2 [188.25929041102961:5233.291874072198] [159.58609146053595:3653.5304341121087] [2974:20396] [258.58785296881712:5333.2710180037557] [186.84990134586025:3509.6672147616687] [4575:19329] [409.3389851882423:5327.0927653621002] [187.95340611497849:3299.5694319544555] [4613:18187] [325.40644068197076:5378.195546555723] [251.74015182595068:3244.5748372714529] [4923:17239] [724.692213528661:5602.1618077390376] [249.71295808209504:3248.4980416989106] [5147:17174] [1191.9560378437172:5682.2845977688594] [371.75276874933581:2629.4069393996679] [5481:16878] [1340.2669688907968:5647.2153661499942] [434.3771824625174:2501.3234901513424] [5642.5:16687] [1469.0457494958919:5875.585345900372] [466.74531164209287:2560.7405760407596] [5803:16518] [1463.8734889653449:5589.7512963440231] [455.209411603859:2371.6103738908519] [5791.5:16408] [1538.2443763815247:7287.2360908297551] [444.41860575303423:4292.6608334589528] [4933.5:16686] [970.24950447478739:3326.5496834032297] [347.53362645081398:1793.074037911518] [4537:15413] [624.21973454411568:2443.3542375260049] [294.40722811510346:1717.2650347831552] [3931:15237] [0.092721223831176758:27.329729080200195] [1.3300000429153442:867.28997802734375] [0.051337528973817825:31.540206909179688] [1:4]
tree_sizes=1118 1002 1352 1181 1266 1076 1169 1338 1180 1423 1261 1359 1352 1531 1530 1275 1442 1360 1346 1505 1440 1268 1610 1438 1442 1354 1522 1613 1589 1699 1773 1532 1704 1601 1533 1772 1917 1946 1790 2042 2123 1971 1877 2237 1711 2236 2152 1807 1979 1972 1890 2066 1986 2242 2061 2158 2238 2314 2247 1965 2341 2160 2325 2419 2326 1875 2216 2391 2404 2300 2249 2294 2247 2232 2250 2426 2418 2316 2588 2403 2395 2421 2598 2417 2420 2245 2220 2241 2428 2410 2412 2149 2410 2251 2208 2380 2492 2528 2330 2274 2186 2392 2462 2349 2410 2355 2408 2344 2344 2331 2339 2470 2201 2301 2313 2329 2360 2314 2387 2400 2320 2338 2407 2365 2462 2411 2431 2361 2276 2283 2223 2238 2253 2209 2371 2349 2362 2323 2258 2342 2408 2295 2423 2325 2136 2361 2444 2345 2449 2176 2393 2417 2340 2376 2254

Tree=0
num_leaves=12
num_cat=1
split_feature=5 12 54 4 36 12 55 38 3 51 4
split_gain=779.506 2.37637 1.05999 0.776165 0.577522 0.376214 0.173953 0.331253 0.0899708 0.0582129 0.0280418
threshold=0 665.00000000000011 13.282342433929445 126.43715323239572 4120.8244617205073 875.00000000000011 9.7100000381469744 9950.0000000000018 4069636619068.7515 1286.052964332491 138.68372960095027
decision_type=1 2 2 2 2 2 2 2 2 2 2
left_child=1 4 3 8 6 -3 7 -1 -2 -8 -5
right_child=2 5 -4 10 -6 -7 9 -9 -10 -11 -12
leaf_value=6.4956226063936056 6.5682801041227457 6.4938664666537891 6.5726155657693726 6.5618655540086381 6.5069246334078201 6.4997590799884017 6.5047168506966564 6.5023815534120191 6.5653216777427597 6.5009860508678274 6.5643053702509579
leaf_weight=30 64 65 21 85 29 32 43 28 108 70 88
leaf_count=30 64 65 21 85 29 32 43 28 108 70 88
internal_value=6.53598 6.49987 6.56528 6.56481 6.50191 6.49574 6.5011 6.49877 6.56646 6.50235 6.56314
internal_weight=663 297 366 345 200 97 171 58 172 113 173
internal_count=663 297 366 345 200 97 171 58 172 113 173
cat_boundaries=0 1
cat_threshold=1
is_linear=0
shrinkage=1


Tree=1
num_leaves=10
num_cat=2
split_feature=1 12 56 39 3 56 12 3 13
split_gain=733.589 2.22793 1.04695 0.618467 0.557578 0.515416 0.345667 0.144695 0.102345
threshold=0 665.00000000000011 13.934206485748293 4125.7766765617316 4031227684478.3267 0.16079026460647586 875.00000000000011 4069636619068.7515 1
decision_type=1 2 2 2 2 2 2 2 9
left_child=1 3 4 5 -2 -1 -3 -6 -7
right_child=2 6 -4 -5 7 8 -8 -9 -10
leaf_value=-0.039230251388245839 0.025945023424937558 -0.041200743139064806 0.034430372147542521 -0.027299782540560893 0.030903251315084628 -0.033988442678709291 -0.03548636984602313 0.027823720927202436 -0.0300149849864924
leaf_weight=25 158 65 27 21 62 122 32 119 32
leaf_count=25 158 65 27 21 62 122 32 119 32
internal_value=-0.000347741 -0.0353768 0.0280712 -0.0333992 0.0275459 -0.0340824 -0.039385 0.0289116 -0.0332023
internal_weight=663 297 366 200 339 179 97 181 154
internal_count=663 297 366 200 339 179 97 181 154
cat_boundaries=0 1 2
cat_threshold=2 4
is_linear=0
shrinkage=0.03


Tree=2
num_leaves=14
num_cat=1
split_feature=7 12 54 4 39 12 32 31 51 3 4 51 27
split_gain=690.354 2.08934 0.937774 0.682359 0.57508 0.317185 0.202683 0.489195 0.231308 0.0672852 0.0328609 0.0108476 0.00716908
threshold=0 665.00000000000011 13.282342433929445 126.43715323239572 4125.7766765617316 875.00000000000011 10398.000000000002 681.98486959472268 1394.9823955279742 4069636619068.7515 138.68372960095027 1355.8442369512854 948.88326598195044
decision_type=9 2 2 2 2 2 2 2 2 2 2 2 2
left_child=2 4 3 9 6 11 7 -2 12 -1 -5 -3 -8
right_child=1 5 -4 10 -6 -7 8 -9 -10 -11 -12 -13 -14
leaf_value=0.030054981178500913 -0.032712780704474878 -0.038127826160314127 0.034164982531307994 0.023972192481597921 -0.026484671042993731 -0.03442509627787866 -0.031216636447163368 -0.03919633410442834 -0.033620259237896861 0.027275967328885882 0.026347547486745813 -0.043478187825442487 -0.026385552208887501
leaf_weight=64 61 44 21 85 21 32 23 26 47 108 88 21 22
leaf_count=64 61 44 21 85 21 32 23 26 47 108 88 21 22
internal_value=-0.000337843 -0.0343191 0.0272308 0.0267902 -0.0324005 -0.0382067 -0.0330626 -0.0347276 -0.0314195 0.0283443 0.0252123 -0.0399666 -0.028985
internal_weight=663 297 366 345 200 97 179 87 92 172 173 65 45
internal_count=663 297 366 345 200 97 179 87 92 172 173 65 45
cat_boundaries=0 1
cat_threshold=1
is_linear=0
shrinkage=0.03


Tree=3
num_leaves=12
num_cat=1
split_feature=1 12 56 4 39 56 4 12 48 3 4
split_gain=649.72 1.95941 0.926391 0.621556 0.535005 0.480775 0.293683 0.291456 0.158012 0.0413328 0.0150228
threshold=0 665.00000000000011 13.934206485748293 126.43715323239572 4125.7766765617316 0.16079026460647586 118.78191561322691 875.00000000000011 2291.2000199370054 4069636619068.7515 138.68372960095027
decision_type=1 2 2 2 2 2 2 2 2 2 2
left_child=1 4 3 9 5 -1 -7 -3 -8 -2 -5
right_child=2 7 -4 10 -6 6 8 -9 -10 -11 -12
leaf_value=-0.037034362309957401 0.029077449006158947 -0.038772765128843249 0.032424396060929526 0.023214241732598489 -0.025693895910023509 -0.032822103102889154 -0.02646257572033614 -0.033395559258550124 -0.031378161604670961 0.026418852599357008 0.025477964700157965
leaf_weight=25 62 65 27 84 21 88 33 32 33 106 87
leaf_count=25 62 65 27 84 21 88 33 32 33 106 87
internal_value=-0.000328856 -0.0332951 0.026416 0.0259192 -0.0314336 -0.0320755 -0.0312275 -0.037066 -0.0290095 0.0274346 0.0243977
internal_weight=663 297 366 339 200 179 154 97 66 168 171
internal_count=663 297 366 339 200 179 154 97 66 168 171
cat_boundaries=0 1
cat_threshold=2
is_linear=0
shrinkage=0.03


Tree=4
num_leaves=13
num_cat=1
split_feature=5 12 54 4 39 48 55 12 4 30 51 2
split_gain=611.453 1.83635 0.828944 0.594532 0.497238 0.34347 0.359439 0.266674 0.25946 0.10293 0.0210326 0.0188823
threshold=0 665.00000000000011 13.282342433929445 124.49621006272866 4125.7766765617316 2349.6517068267271 9.0350003242492694 875.00000000000011 118.78191561322691 1453.1315950702062 1355.8442369512854 2019.5000000000002
decision_type=1 2 2 2 2 2 2 2 2 2 2 2
left_child=1 4 3 11 5 8 -7 10 -1 -10 -3 -2
right_child=2 7 -4 -5 -6 6 -8 -9 9 -11 -12 -13
leaf_value=-0.031509496056791486 0.025259794817454571 -0.035826039695415361 0.032176767175231491 0.023877261408227983 -0.024926732351994624 -0.037541545126345242 -0.031167965473107632 -0.032396814862144324 -0.029515179145610193 -0.024332630007297958 -0.041022353861569223 0.027861224801558695
leaf_weight=59 62 44 21 192 21 23 48 32 26 23 21 91
leaf_count=59 62 44 21 192 21 23 48 32 26 23 21 91
internal_value=-0.000319528 -0.0323003 0.0256256 0.025209 -0.0304947 -0.0311169 -0.0333247 -0.0359571 -0.0296082 -0.0271982 -0.0376114 0.0268438
internal_weight=663 297 366 345 200 179 71 97 108 49 65 153
internal_count=663 297 366 345 200 179 71 97 108 49 65 153
cat_boundaries=0 1
cat_threshold=1
is_linear=0
shrinkage=0.03


Tree=5
num_leaves=11
num_cat=0
split_feature=3 12 36 56 3 38 47 56 48 55
split_gain=556.334 2.60377 1.00334 0.654445 0.42401 0.401888 0.351068 0.294014 0.240829 0.0962276
threshold=2106311703621.6389 665.00000000000011 4120.8244617205073 5.1003644466400155 3904620736288.6938 9758.2500000000018 15619.500000000002 0.2908275723457337 2112.7383712588039 307.77499389648443
decision_type=2 2 2 2 2 2 2 2 2 2
left_child=1 2 5 4 -2 7 -3 -1 -7 -5
right_child=3 6 -4 9 -6 8 -8 -9 -10 -11
leaf_value=-0.036442581647122059 0.02041370091647127 -0.032046039262859836 -0.023615962223253937 0.026223977109536684 0.024499105361170066 -0.024501824874307233 -0.037304220763687494 -0.030302391829304474 -0.029684096309603843 0.030725768454266944
leaf_weight=22 41 38 33 67 230 24 62 46 62 21
leaf_count=22 41 38 33 67 230 24 62 46 62 21
internal_value=-0.000119552 -0.0312554 -0.0290213 0.0247652 0.0238998 -0.030144 -0.0353701 -0.0323836 -0.0283029 0.027366
internal_weight=646 287 187 359 271 154 100 68 86 88
internal_count=646 287 187 359 271 154 100 68 86 88
is_linear=0
shrinkage=0.03


Tree=6
num_leaves=12
num_cat=2
split_feature=5 12 42 56 38 3 47 14 56 55 4
split_gain=523.565 2.44264 0.997472 0.612007 0.404714 0.393948 0.323236 0.289974 0.270904 0.0857052 0.0718607
threshold=0 665.00000000000011 4384.4367104997464 5.1003644466400155 9758.2500000000018 3904620736288.6938 15619.500000000002 1 0.2908275723457337 307.77499389648443 118.18795367845952
decision_type=1 2 2 2 2 2 2 1 2 2 2
left_child=1 2 4 5 8 -2 -3 -6 -1 -5 -9
right_child=3 6 -4 9 7 -7 -8 10 -10 -11 -12
leaf_value=-0.035354255475609546 0.019802783022831824 -0.031087180550877502 -0.022237131645458867 0.025438430653954406 -0.023210261828219721 0.023764451311651079 -0.036186894899333161 -0.030831705306366846 -0.029395291916460377 0.029808364750649689 -0.026537162272099638
leaf_weight=22 41 38 28 67 22 230 62 33 46 21 36
leaf_count=22 41 38 28 67 22 230 62 33 46 21 36
internal_value=-0.000116764 -0.0303219 -0.0281549 0.0240239 -0.0291635 0.0231837 -0.034312 -0.0274146 -0.0314163 0.026548 -0.0286761
internal_weight=646 287 187 359 159 271 100 91 68 88 69
internal_count=646 287 187 359 159 271 100 91 68 88 69
cat_boundaries=0 1 2
cat_threshold=1 1
is_linear=0
shrinkage=0.03


Tree=7
num_leaves=14
num_cat=2
split_feature=5 12 42 54 4 38 13 34 37 55 4 4 57
split_gain=492.739 2.29046 0.933938 0.575328 0.456049 0.374927 0.701625 0.216086 0.18393 0.181131 0.0768948 0.010561 0.00359304
threshold=0 665.00000000000011 4384.4367104997464 8.009378910064699 126.43715323239572 9758.2500000000018 1 983.82833167907927 1140.3124170731423 11.274999618530275 119.2655080931231 138.68372960095027 2.5000000000000004
decision_type=1 2 2 2 2 2 9 2 2 2 2 2 2
left_child=1 2 5 4 -2 9 10 12 -9 -1 -7 -6 -3
right_child=3 7 -4 -5 11 6 -8 8 -10 -11 -12 -13 -14
leaf_value=-0.033417526262934941 0.024191772751664353 -0.033449108335471232 -0.021572391504812917 0.028217964994951363 0.020333939831454241 -0.02989308722154067 -0.020754421749221746 -0.039327588490585777 -0.032455560702395123 -0.028267335274124381 -0.025621120786647068 0.022465886801447031 -0.028960582300559756
leaf_weight=28 169 28 28 27 76 41 20 20 23 40 30 87 29
leaf_count=28 169 28 28 27 76 41 20 20 23 40 30 87 29
internal_value=-0.000114311 -0.0294169 -0.0273154 0.0233047 0.0228877 -0.0282936 -0.0265968 -0.0332855 -0.0358053 -0.030478 -0.0281688 0.0215033 -0.0312727
internal_weight=646 287 187 359 332 159 91 100 43 68 71 163 57
internal_count=646 287 187 359 332 159 91 100 43 68 71 163 57
cat_boundaries=0 1 2
cat_threshold=1 4
is_linear=0
shrinkage=0.03


Tree=8
num_leaves=12
num_cat=1
split_feature=3 12 42 56 38 13 3 47 56 55 4
split_gain=463.753 2.15079 0.874273 0.561274 0.347079 0.655083 0.34628 0.30006 0.236442 0.179867 0.0672709
threshold=2106311703621.6389 665.00000000000011 4384.4367104997464 4.5723383426666269 9758.2500000000018 0 3904620736288.6938 15619.500000000002 0.2908275723457337 313.47999572753912 118.18795367845952
decision_type=2 2 2 2 2 9 2 2 2 2 2
left_child=1 2 4 6 8 10 -2 -3 -1 -5 -6
right_child=3 7 -4 9 5 -7 -8 -9 -10 -11 -12
leaf_value=-0.033300433458246251 0.018498842536362626 -0.02919261517252509 -0.020927523522740524 0.023745360067650847 -0.029383339155192246 -0.020134886378672584 0.022297620194407699 -0.034095947653919025 -0.027649056493848106 0.028393486080126519 -0.025283079416845041
leaf_weight=22 40 38 28 78 34 20 219 62 46 22 37
leaf_count=22 40 38 28 78 34 20 219 62 46 22 37
internal_value=-0.0001125 -0.0285403 -0.0265009 0.0226071 -0.0274497 -0.0258034 0.0217299 -0.0322937 -0.0295677 0.0248253 -0.0273273
internal_weight=646 287 187 359 159 91 259 100 68 100 71
internal_count=646 287 187 359 159 91 259 100 68 100 71
cat_boundaries=0 1
cat_threshold=4
is_linear=0
shrinkage=0.03


Tree=9
num_leaves=15
num_cat=2
split_feature=1 12 42 56 3 38 13 47 56 55 4 12 4 3
split_gain=436.451 2.01636 0.818276 0.526589 0.321368 0.321051 0.611455 0.275872 0.217193 0.0646769 0.0609207 0.0133963 0.00854006 0.0258335
threshold=0 665.00000000000011 4384.4367104997464 5.1003644466400155 3904620736288.6938 9758.2500000000018 1 15619.500000000002 0.2908275723457337 307.77499389648443 119.2655080931231 925.00000000000011 126.43715323239572 4069636619068.7515
decision_type=1 2 2 2 2 2 9 2 2 2 2 2 2 2
left_child=1 2 5 4 -2 8 10 -3 -1 -5 -7 -9 13 -6
right_child=3 7 -4 9 12 6 -8 11 -10 -11 -12 -13 -14 -15
leaf_value=-0.032305941061871082 0.018044163461801779 -0.028319135491303566 -0.020301931642022417 0.023253127827729623 0.023997408578934832 -0.028140067092693632 -0.019533854780802086 -0.034538738266022918 -0.026821383606973798 0.02729722346739746 -0.024099067530758751 -0.029694475558266705 0.020549941404459898 0.021442610615498483
leaf_weight=22 41 38 28 67 49 41 20 42 46 21 30 20 91 90
leaf_count=22 41 38 28 67 49 41 20 42 46 21 30 20 91 90
internal_value=-0.000110132 -0.0276885 -0.0257107 0.0219304 0.0211471 -0.026631 -0.0250337 -0.0313277 -0.0286847 0.0242821 -0.0265111 -0.0330747 0.0216791 0.0223814
internal_weight=646 287 187 359 271 159 91 100 68 88 71 62 230 139
internal_count=646 287 187 359 271 159 91 100 68 88 71 62 230 139
cat_boundaries=0 1 2
cat_threshold=2 4
is_linear=0
shrinkage=0.03


Tree=10
num_leaves=13
num_cat=2
split_feature=7 12 36 3 56 12 41 56 3 13 50 56
split_gain=425.532 1.65328 0.779342 0.623259 0.516044 0.407608 0.364592 0.155851 0.17373 0.124402 0.0730764 0.0262036
threshold=0 665.00000000000011 4120.8244617205073 4031227684478.3267 0.16079026460647586 925.00000000000011 10659.500000000002 5.2648973464965829 4069636619068.7515 1 6846.7500000000009 4.8174972534179696
decision_type=9 2 2 2 2 2 2 2 2 9 2 2
left_child=3 2 4 11 -2 6 10 8 -5 -6 -3 -1
right_child=1 5 -4 7 9 -7 -8 -9 -10 -11 -12 -13
leaf_value=0.019014847160780082 -0.030876821707208433 -0.032336039076100533 -0.01994978731396305 0.023791342241190182 -0.025767737963991632 -0.026627740890711463 -0.036027570930541368 0.024787863050779391 0.020643986986816593 -0.022221580583523404 -0.026802105981034115 0.021306698428597417
leaf_weight=126 23 20 31 51 117 37 22 46 99 33 23 47
leaf_count=126 23 20 31 51 117 37 22 46 99 33 23 47
internal_value=-0.000503949 -0.0266606 -0.0249663 0.0211802 -0.0258359 -0.029992 -0.0318171 0.0224899 0.0217492 -0.0250229 -0.0295147 0.0196668
internal_weight=675 306 204 369 173 102 65 196 150 150 43 173
internal_count=675 306 204 369 173 102 65 196 150 150 43 173
cat_boundaries=0 1 2
cat_threshold=1 4
is_linear=0
shrinkage=0.03


Tree=11
num_leaves=14
num_cat=1
split_feature=5 12 4 36 12 55 4 23 54 3 3 50 49
split_gain=400.488 1.55289 0.766862 0.728573 0.378951 0.221744 0.432869 0.165381 0.0538149 0.0522047 0.0206914 0.00786211 0.0740155
threshold=0 665.00000000000011 124.49621006272866 4120.8244617205073 925.00000000000011 6.1949999332427987 117.52902357427357 11700.750000000002 4.1475687026977548 4069636619068.7515 3904620736288.6938 7066.5000000000009 668.38723841390026
decision_type=1 2 2 2 2 2 2 2 2 2 2 2 2
left_child=1 3 8 5 7 -1 -7 -3 9 -2 -4 -8 -13
right_child=2 4 10 -5 -6 6 11 -9 -10 -11 -12 12 -14
leaf_value=-0.028148673779803634 0.023157475251917917 -0.029064354375830773 0.017801503025332406 -0.01935321820798027 -0.025831062068756055 -0.027654740548921079 -0.020876902210935251 -0.034617745022275548 0.02466528117081743 0.020513669569880041 0.019765321052384831 -0.02092130569715845 -0.025115840511237754
leaf_weight=34 54 45 64 31 37 37 32 20 31 78 142 22 48
leaf_count=34 54 45 64 31 37 37 32 20 31 78 142 22 48
internal_value=-0.000489591 -0.025865 0.0205466 -0.0242201 -0.0290984 -0.0250632 -0.0242672 -0.0308697 0.0222442 0.0216346 0.0191787 -0.0229832 -0.0238721
internal_weight=675 306 369 204 102 173 139 65 163 132 206 102 70
internal_count=675 306 369 204 102 173 139 65 163 132 206 102 70
cat_boundaries=0 1
cat_threshold=1
is_linear=0
shrinkage=0.03


Tree=12
num_leaves=14
num_cat=2
split_feature=5 12 4 36 56 12 4 41 56 13 51 56 38
split_gain=376.927 1.45612 0.718364 0.681529 0.46992 0.351437 0.349693 0.325586 0.126467 0.0928607 0.0571872 0.0422788 0.000334372
threshold=0 665.00000000000011 124.49621006272866 4120.8244617205073 0.16079026460647586 925.00000000000011 117.52902357427357 10659.500000000002 5.2648973464965829 1 1281.403784688797 4.8174972534179696 9904.5000000000018
decision_type=1 2 2 2 2 2 2 2 2 9 2 2 2
left_child=1 3 8 4 -1 7 -6 12 -2 10 -8 -4 -3
right_child=2 5 11 -5 6 -7 9 -9 -10 -11 -12 -13 -14
leaf_value=-0.029137187104720567 0.020812347694266618 -0.030163228280508689 0.018010036069221799 -0.018774488576930433 -0.026611293777251788 -0.025058219032788855 -0.021134028546830524 -0.033955494073721074 0.023961851089958127 -0.019556997555425795 -0.024574930989099832 0.020145787963417178 -0.025407543422339796
leaf_weight=23 125 20 151 31 39 37 35 22 38 26 50 55 23
leaf_count=23 125 20 151 31 39 37 35 22 38 26 50 55 23
internal_value=-0.000475862 -0.0250937 0.0199321 -0.0234978 -0.0243155 -0.0282299 -0.0235373 -0.029948 0.0215792 -0.0224073 -0.0232198 0.0186043 -0.0277539
internal_weight=675 306 369 204 173 102 150 65 163 111 85 206 43
internal_count=675 306 369 204 173 102 150 65 163 111 85 206 43
cat_boundaries=0 1 2
cat_threshold=1 4
is_linear=0
shrinkage=0.03


Tree=13
num_leaves=16
num_cat=1
split_feature=5 12 4 36 56 12 4 41 56 50 50 49 3 56 3
split_gain=354.757 1.36635 0.672254 0.637392 0.437424 0.326337 0.324072 0.300199 0.115072 0.0796873 0.0751345 0.0996391 0.0702802 0.0363025 0.0116206
threshold=0 665.00000000000011 124.49621006272866 4120.8244617205073 0.16079026460647586 925.00000000000011 117.52902357427357 10659.500000000002 5.2648973464965829 6846.7500000000009 7085.2500000000009 664.34328541135142 4069636619068.7515 4.8174972534179696 3904620736288.6938
decision_type=1 2 2 2 2 2 2 2 2 2 2 2 2 2 2
left_child=1 3 8 4 -1 7 -6 9 12 -3 -8 -12 -2 14 -4
right_child=2 5 13 -5 6 -7 10 -9 -10 -11 11 -13 -14 -15 -16
leaf_value=-0.028266857343834714 0.021762486090282168 -0.029644194325404376 0.015956755159604572 -0.018213064634627466 -0.025814995826281547 -0.024308498765259094 -0.01950600207870842 -0.032941438229375286 0.023244882258843247 -0.024316783260989492 -0.019647643717165986 -0.023849629245271523 0.019035296483561098 0.019542511142317049 0.018088719800015383
leaf_weight=23 51 20 46 31 39 37 35 22 38 23 22 54 74 55 105
leaf_count=23 51 20 46 31 39 37 35 22 38 23 22 54 74 55 105
internal_value=-0.000463014 -0.024346 0.0193355 -0.0227971 -0.0235902 -0.027389 -0.0228348 -0.0290564 0.0209332 -0.0269273 -0.0217384 -0.0227001 0.0201885 0.0180472 0.0174701
internal_weight=675 306 369 204 173 102 150 65 163 43 111 76 125 206 151
internal_count=675 306 369 204 173 102 150 65 163 43 111 76 125 206 151
cat_boundaries=0 1
cat_threshold=1
is_linear=0
shrinkage=0.03


Tree=14
num_leaves=16
num_cat=1
split_feature=3 12 4 42 56 55 4 41 56 13 3 42 45 56 3
split_gain=333.905 1.28198 0.629107 0.60046 0.425303 0.334491 0.316231 0.201758 0.104216 0.0990628 0.0622894 0.0352172 0.0670244 0.0306054 0.00746054
threshold=2106311703621.6389 665.00000000000011 124.49621006272866 4384.4367104997464 0.16079026460647586 22.625000000000004 117.52902357427357 10659.500000000002 5.2648973464965829 0 4069636619068.7515 4101.5501244485304 4146.3686405458884 4.8174972534179696 3904620736288.6938
decision_type=2 2 2 2 2 2 2 2 2 9 2 2 2 2 2
left_child=1 3 8 4 -1 7 -6 -3 10 11 -2 12 -8 14 -4
right_child=2 5 13 -5 6 -7 9 -9 -10 -11 -12 -13 -14 -15 -16
leaf_value=-0.02742252020092753 0.021110887693682294 -0.026242407303656973 0.015479092076259164 -0.017180286931923062 -0.025042527481684899 -0.02356192457394337 -0.021196000824438913 -0.031638784602090901 0.022549366265770018 -0.018298036375828771 0.018465007181592316 -0.019623938614001302 -0.025439234127151475 0.01895729973722932 0.017546575151093226
leaf_weight=23 51 41 46 26 39 38 37 23 38 27 74 30 22 55 105
leaf_count=23 51 41 46 26 39 38 37 23 38 27 74 30 22 55 105
internal_value=-0.000450096 -0.0236207 0.0187576 -0.0221174 -0.0228117 -0.0265732 -0.0220909 -0.0282749 0.0203075 -0.021052 0.0195845 -0.0218323 -0.0228694 0.0175074 0.0169473
internal_weight=675 306 369 204 178 102 155 64 163 116 125 89 59 206 151
internal_count=675 306 369 204 178 102 155 64 163 116 125 89 59 206 151
cat_boundaries=0 1
cat_threshold=4
is_linear=0
shrinkage=0.03


Tree=15
num_leaves=13
num_cat=1
split_feature=1 12 47 56 42 2 25 56 50 23 28 56
split_gain=301.238 0.93231 0.688436 0.490777 0.514409 0.378887 0.280298 0.0764746 0.0432599 0.0303803 0.161836 0.0235288
threshold=0 665.00000000000011 15617.500000000002 0.14832053333520892 4384.4367104997464 2021.5000000000002 1298.6041718548029 4.8717398643493661 7330.7500000000009 9300.5000000000018 822.72828872282639 3.6247353553771977
decision_type=1 2 2 2 2 2 2 2 2 2 2 2
left_child=1 3 8 -1 9 7 -4 -2 -3 -5 -11 -7
right_child=5 2 6 4 -6 11 -8 -9 -10 10 -12 -13
leaf_value=-0.026842856796143889 0.018661835751978748 -0.024743023194483852 -0.025826907343803107 -0.023796444520069533 -0.016740400911062613 0.016114501321866356 -0.031997043467187257 0.021112476401700227 -0.020021840476278047 -0.017637152238123451 -0.022107836210148096 0.018140646080728833
leaf_weight=23 141 20 31 47 26 93 23 50 20 20 76 61
leaf_count=23 141 20 31 47 26 93 23 50 20 20 76 61
internal_value=-0.000585119 -0.0233514 -0.0260481 -0.0220027 -0.0213108 0.0182804 -0.0285647 0.0193298 -0.0225131 -0.0221085 -0.021227 0.0169478
internal_weight=631 286 94 192 169 345 54 191 40 143 96 154
internal_count=631 286 94 192 169 345 54 191 40 143 96 154
cat_boundaries=0 1
cat_threshold=2
is_linear=0
shrinkage=0.03


Tree=16
num_leaves=15
num_cat=1
split_feature=5 12 47 4 56 36 25 4 50 54 56 12 50 3
split_gain=283.521 0.874058 0.642415 0.45931 0.457582 0.480687 0.258443 0.085472 0.12034 0.0735429 0.0609741 0.0414116 0.0363691 0.0110354
threshold=0 665.00000000000011 15617.500000000002 124.49621006272866 0.14832053333520892 4097.7515887196123 1298.6041718548029 117.86815741863882 7279.5000000000009 1.9170156717300417 4.8717398643493661 380.00000000000006 7330.7500000000009 4069636619068.7515
decision_type=1 2 2 2 2 2 2 2 2 2 2 2 2 2
left_child=1 4 12 10 -1 7 -4 11 -9 -5 13 -6 -3 -2
right_child=3 2 6 9 5 -7 -8 8 -10 -11 -12 -13 -14 -15
leaf_value=-0.026041058438358366 0.019602789386048654 -0.024004425700031105 -0.025054591648831625 0.0158328660900336 -0.024345404040858037 -0.016828399726338792 -0.031041287864957537 -0.017320596022265294 -0.021522158030131439 0.018068594353817767 0.020903136499243379 -0.020641481089820002 -0.019424173649567274 0.017314580719801423
leaf_weight=23 52 20 31 128 40 33 23 23 45 55 43 28 20 67
leaf_count=23 52 20 31 128 40 33 23 23 45 55 43 28 20 67
internal_value=-0.000568781 -0.0226556 -0.0252728 0.0177334 -0.0213462 -0.0206745 -0.0277126 -0.0215726 -0.0201726 0.0165307 0.0190625 -0.0228969 -0.0218433 0.0183553
internal_weight=631 286 94 345 192 169 54 136 68 183 162 68 40 119
internal_count=631 286 94 345 192 169 54 136 68 183 162 68 40 119
cat_boundaries=0 1
cat_threshold=1
is_linear=0
shrinkage=0.03


Tree=17
num_leaves=14
num_cat=1
split_feature=1 56 12 42 2 12 55 56 54 3 49 23 28
split_gain=266.861 0.835117 0.722359 0.453205 0.330573 0.301792 0.156247 0.0599431 0.0523137 0.051391 0.0461818 0.0312036 0.158403
threshold=0 0.14832053333520892 665.00000000000011 4384.4367104997464 2021.5000000000002 785.00000000000011 22.625000000000004 4.8717398643493661 1.9170156717300417 4069636619068.7515 688.96808526357142 9300.5000000000018 822.72828872282639
decision_type=1 2 2 2 2 2 2 2 2 2 2 2 2
left_child=1 -1 3 11 7 -4 10 9 -6 -2 -7 -3 -13
right_child=4 2 5 -5 8 6 -8 -9 -10 -11 -12 12 -14
leaf_value=-0.027541962570039984 0.019015834341236815 -0.022447242854507103 -0.027752876361301037 -0.015737195509518014 0.015245335636938744 -0.021437397034310583 -0.019590827010828867 0.019866405343581101 0.017540233451088356 0.016660908143528386 -0.02624579208738663 -0.016457835717766142 -0.020815025309245158
leaf_weight=27 52 47 22 26 109 20 26 50 45 89 22 20 76
leaf_count=27 52 47 22 26 109 20 26 50 45 89 22 20 76
internal_value=-0.000552927 -0.0219811 -0.0213794 -0.0200581 0.0172033 -0.0238023 -0.0224412 0.0181921 0.0159463 0.0175635 -0.0240837 -0.0208113 -0.0199566
internal_weight=631 286 259 169 345 90 68 191 154 141 42 143 96
internal_count=631 286 259 169 345 90 68 191 154 141 42 143 96
cat_boundaries=0 1
cat_threshold=2
is_linear=0
shrinkage=0.03


Tree=18
num_leaves=14
num_cat=2
split_feature=1 56 12 13 47 4 4 23 51 54 56 4 3
split_gain=251.175 0.781007 0.677005 0.425425 0.418243 0.405288 0.164049 0.292842 0.0748702 0.0583451 0.0484409 0.00310749 0.00245121
threshold=0 0.14832053333520892 665.00000000000011 1 15617.500000000002 124.49621006272866 118.18795367845952 12416.500000000002 1350.0404410825734 1.9170156717300417 4.8717398643493661 138.68372960095027 4069636619068.7515
decision_type=1 2 2 9 2 2 2 2 2 2 2 2 2
left_child=1 -1 3 6 -4 10 -3 -8 -6 11 12 -7 -2
right_child=5 2 4 -5 8 9 7 -9 -10 -11 -12 -13 -14
leaf_value=-0.026718752455186248 0.018446453856965687 -0.021694922397534053 -0.020166712487902479 -0.015674761093350371 -0.023078099040640995 0.013973297166272932 -0.016465085171104413 -0.021452216536728373 -0.027814900502899649 0.016994839021817743 0.019682887973752207 0.015864582617151953 0.016296834963444626
leaf_weight=27 52 71 39 31 29 68 38 29 22 55 43 60 67
leaf_count=27 52 71 39 31 29 68 38 29 22 55 43 60 67
internal_value=-0.000537289 -0.0213263 -0.0207425 -0.0194593 -0.0230943 0.016689 -0.0202758 -0.0186972 -0.0252306 0.0155514 0.0179452 0.0148949 0.0172761
internal_weight=631 286 259 169 90 345 138 67 51 183 162 128 119
internal_count=631 286 259 169 90 345 138 67 51 183 162 128 119
cat_boundaries=0 1 2
cat_threshold=2 4
is_linear=0
shrinkage=0.03


Tree=19
num_leaves=16
num_cat=2
split_feature=1 12 43 4 36 50 48 6 24 4 39 54 39 19 30
split_gain=236.41 0.743215 0.488103 0.379377 0.34596 0.270882 0.165837 0.266488 0.113969 0.0365233 0.0364728 0.0175241 0.0147892 0.0134012 0.25058
threshold=0 665.00000000000011 1035.750527656782 126.43715323239572 4120.8244617205073 7085.2500000000009 2320.2888295749585 1 1123.3088757166627 138.68372960095027 3170.5075682244437 4.6255385875701913 2494.3145135225391 846.70171015405276 1261.1972708558496
decision_type=1 2 2 2 2 2 2 1 2 2 2 2 2 2 2
left_child=1 4 5 11 6 -3 8 -8 13 10 -5 -2 -11 14 -1
right_child=3 2 -4 9 -6 -7 7 -9 -10 12 -12 -13 -14 -15 -16
leaf_value=-0.02120813279569923 0.016857967095775625 -0.023850009928510035 -0.026744911835507944 0.014728022011426777 -0.016037138727834035 -0.018713395107548759 -0.025442006908245936 -0.020114070600700903 -0.015870396912064214 0.018068902207844292 0.011830153621699476 0.019299775969942541 0.015109066045983281 -0.022103440638687182 -0.015332562142232459
leaf_weight=23 149 30 31 61 33 33 20 54 22 20 22 30 63 20 20
leaf_count=23 149 30 31 61 33 33 20 54 22 20 22 30 63 20 20
internal_value=-0.000521654 -0.0206905 -0.0231144 0.0161905 -0.0194768 -0.0212409 -0.0201613 -0.0216269 -0.0188262 0.0149723 0.0140112 0.0172945 0.0158793 -0.019784 -0.0185868
internal_weight=631 286 94 345 192 63 159 74 85 166 83 179 83 63 43
internal_count=631 286 94 345 192 63 159 74 85 166 83 179 83 63 43
cat_boundaries=0 1 2
cat_threshold=2 2
is_linear=0
shrinkage=0.03


Tree=20
num_leaves=15
num_cat=1
split_feature=5 12 45 49 56 12 31 56 4 4 12 3 4 42
split_gain=219.128 0.763841 0.637564 0.505376 0.485335 0.416851 0.394944 0.250529 0.172696 0.0527462 0.0791299 0.0524826 0.0195508 0.0108764
threshold=0 627.50000000000011 4557.8698519233903 850.8559950308271 13.934206485748293 875.00000000000011 901.79288854492199 0.25415086746215826 126.43715323239572 120.04313886449401 160.00000000000003 4069636619068.7515 138.68372960095027 2549.5223288947104
decision_type=1 2 2 2 2 2 2 2 2 2 2 2 2 2
left_child=1 2 7 -4 8 6 -3 -1 11 10 -9 -2 -10 -14
right_child=4 5 3 -5 -6 -7 -8 9 12 -11 -12 -13 13 -15
leaf_value=-0.022766355963629331 0.017483597034123596 -0.018749095357176081 -0.011997510782406528 -0.017851474311229954 0.020029656976118852 -0.018469833997542644 -0.024932522541748544 -0.021608204208240205 0.013416748459550808 -0.015845932651187569 -0.01785061985504945 0.015355844930249716 0.017257071832167122 0.014423028796241718
leaf_weight=28 58 20 28 41 26 37 50 25 81 21 43 106 20 65
leaf_count=28 58 20 28 41 26 37 50 25 81 21 43 106 20 65
internal_value=-0.000203533 -0.0194195 -0.0181173 -0.0155402 0.0156044 -0.0216359 -0.0232379 -0.019597 0.0152407 -0.0185418 -0.0193058 0.0161368 0.0143281 0.0151446
internal_weight=649 293 186 69 356 107 70 117 330 89 68 164 166 85
internal_count=649 293 186 69 356 107 70 117 330 89 68 164 166 85
cat_boundaries=0 1
cat_threshold=1
is_linear=0
shrinkage=0.03


Tree=21
num_leaves=13
num_cat=1
split_feature=7 12 45 49 54 3 55 12 3 50 52 4
split_gain=206.254 0.714509 0.596979 0.472485 0.427523 0.410045 0.211224 0.173246 0.160138 0.0665156 0.0593122 0.0801687
threshold=0 627.50000000000011 4557.8698519233903 850.8559950308271 13.282342433929445 295463185185.79865 10.000000000000002 785.00000000000011 3904620736288.6938 7636.5000000000009 704.71451644223941 118.78191561322691
decision_type=9 2 2 2 2 2 2 2 2 2 2 2
left_child=4 2 6 -4 8 -3 -2 -7 -1 -9 11 -8
right_child=1 5 3 -5 -6 7 10 9 -10 -11 -12 -13
leaf_value=0.012936920726123421 -0.021630981148103155 -0.017923495966618453 -0.011638866320643508 -0.017317233116087252 0.019963012649052179 -0.025889277718078463 -0.018195836439005769 -0.01910487463677905 0.015225348667477235 -0.023535390122612909 -0.02020387955473666 -0.01438351894395923
leaf_weight=59 34 38 28 41 20 21 37 28 277 20 24 22
leaf_count=59 34 38 28 41 20 21 37 28 277 20 24 22
internal_value=-0.000198038 -0.0188411 -0.017578 -0.0150766 0.0151384 -0.0209903 -0.0190134 -0.0226074 0.0148364 -0.0210584 -0.0178803 -0.0168518
internal_weight=649 293 186 69 356 107 117 69 336 48 83 59
internal_count=649 293 186 69 356 107 117 69 336 48 83 59
cat_boundaries=0 1
cat_threshold=1
is_linear=0
shrinkage=0.03


Tree=22
num_leaves=17
num_cat=1
split_feature=5 12 45 52 54 3 55 12 53 4 3 52 30 4 39 53
split_gain=194.13 0.669008 0.558859 0.444367 0.399828 0.382727 0.194591 0.158443 0.169683 0.154294 0.0630928 0.0522247 0.0765248 0.0251962 0.0205207 0.0147622
threshold=0 627.50000000000011 4557.8698519233903 762.57826542897362 13.282342433929445 295463185185.79865 10.000000000000002 785.00000000000011 6675.0000000000009 126.43715323239572 4069636619068.7515 704.71451644223941 1437.3098817168423 138.68372960095027 2508.702452388397 8275.7500000000018
decision_type=1 2 2 2 2 2 2 2 2 2 2 2 2 2 2 2
left_child=1 2 6 -4 9 -3 -1 -7 -9 10 -2 12 -8 -11 -15 -5
right_child=4 5 3 15 -6 7 11 8 -10 13 -12 -13 -14 14 -16 -17
leaf_value=-0.020983955053465106 0.016563108741443684 -0.017387202119264075 -0.010603806237622724 -0.018069848874946694 0.019367102224435377 -0.025116281393579958 -0.017566831659268384 -0.018159230285692045 -0.023356448260705858 0.012628052427765803 0.014453575547669781 -0.019600278020399733 -0.013750631470066397 0.016393378562254219 0.013600772223301491 -0.014645475172650269
leaf_weight=34 60 38 22 23 20 21 39 28 20 82 107 24 20 21 66 24
leaf_count=34 60 38 22 23 20 21 39 28 20 82 107 24 20 21 66 24
internal_value=-0.000193583 -0.0182805 -0.0170547 -0.0146268 0.0146851 -0.0203655 -0.0184472 -0.0219348 -0.0204312 0.0143918 0.0152389 -0.017348 -0.0163494 0.0135285 0.0143273 -0.0164197
internal_weight=649 293 186 69 356 107 117 69 48 336 167 83 59 169 87 47
internal_count=649 293 186 69 356 107 117 69 48 336 167 83 59 169 87 47
cat_boundaries=0 1
cat_threshold=1
is_linear=0
shrinkage=0.03


Tree=23
num_leaves=15
num_cat=1
split_feature=3 12 12 55 45 52 55 50 6 53 4 53 3 33
split_gain=182.739 0.632508 0.469526 0.293367 0.291588 0.46759 0.223431 0.128938 0.478103 0.355253 0.127461 0.101668 0.0432036 0.0344791
threshold=2106311703621.6389 665.00000000000011 875.00000000000011 21.664999961853031 4557.8698519233903 762.57826542897362 313.47999572753912 7071.0000000000009 0 5770.0000000000009 126.43715323239572 8275.7500000000018 4069636619068.7515 2963.5086770889889
decision_type=2 2 2 2 2 2 2 2 1 2 2 2 2 2
left_child=1 4 3 -3 7 -6 10 9 -9 -1 12 -7 -2 -12
right_child=6 2 -4 -5 5 11 -8 8 -10 -11 13 -13 -14 -15
leaf_value=-0.018550318191415841 0.016020825844437824 -0.023630467955756958 -0.0167631142415769 -0.017885522290841858 -0.010770553371735981 -0.018269640723454581 0.017758463179910339 -0.022482320296808359 -0.016462492237005695 -0.012805683760250689 0.013484535428222338 -0.014207933998601006 0.014047771654075097 0.010908368397082679
leaf_weight=30 60 40 37 20 23 29 23 27 39 24 145 24 106 22
leaf_count=30 60 40 37 20 23 29 23 27 39 24 145 24 106 22
internal_value=-0.000188821 -0.0177372 -0.0199278 -0.0217983 -0.0166282 -0.0148339 0.0142466 -0.0177264 -0.0190008 -0.016081 0.0139898 -0.0165171 0.0147882 0.0131698
internal_weight=649 293 97 60 196 76 356 120 66 54 333 53 166 167
internal_count=649 293 97 60 196 76 356 120 66 54 333 53 166 167
cat_boundaries=0 1
cat_threshold=2
is_linear=0
shrinkage=0.03


Tree=24
num_leaves=15
num_cat=1
split_feature=1 12 12 56 55 45 52 56 3 52 3 12 48 12
split_gain=172.007 0.591256 0.438433 0.396642 0.271627 0.271069 0.437474 0.245378 0.122256 0.0785791 0.0490426 0.0947303 0.0186157 0.0166215
threshold=0 665.00000000000011 875.00000000000011 13.934206485748293 21.664999961853031 4557.8698519233903 762.57826542897362 0.18248293548822406 3904620736288.6938 945.36921762872646 315932696319.99445 137.50000000000003 2275.0186307508011 105.00000000000001
decision_type=1 2 2 2 2 2 2 2 2 2 2 2 2 2
left_child=1 5 4 8 -3 7 -7 -1 -2 -8 11 -9 -13 -10
right_child=3 2 -4 -5 -6 6 9 10 13 -11 -12 12 -14 -15
leaf_value=-0.020875449100050243 0.011771816700782039 -0.022923321814979993 -0.01626157665349081 0.017845350599837027 -0.01735162627341142 -0.010448835480038995 -0.017668140496789792 -0.019356103129684922 0.012180597559220064 -0.013850230833098167 -0.013810776285650606 -0.017222772247930226 -0.014018775495548409 0.014093223285631765
leaf_weight=21 59 40 37 26 20 23 29 25 37 24 21 28 25 234
leaf_count=21 59 40 37 26 20 23 29 25 37 24 21 28 25 234
internal_value=-0.000184172 -0.0172096 -0.0193336 0.0138208 -0.021148 -0.0161339 -0.0143929 -0.0171986 0.0134894 -0.0160251 -0.0163681 -0.0169996 -0.0157972 0.0138477
internal_weight=649 293 97 356 60 196 76 120 330 53 99 78 53 271
internal_count=649 293 97 356 60 196 76 120 330 53 99 78 53 271
cat_boundaries=0 1
cat_threshold=2
is_linear=0
shrinkage=0.03


Tree=25
num_leaves=14
num_cat=1
split_feature=3 13 48 55 4 39 30 12 49 22 4 50 12
split_gain=160.115 0.648767 0.518724 0.306853 0.184851 0.126449 0.311005 0.125544 0.0874846 0.0660401 0.0431832 0.00324283 0.0168338
threshold=2106311703621.6389 0 2082.0064243983775 313.47999572753912 126.43715323239572 3755.4976901518621 1453.1315950702062 890.00000000000011 705.47273530884877 675.93346269549545 118.78191561322691 6971.2500000000009 395.00000000000006
decision_type=2 9 2 2 2 2 2 2 2 2 2 2 2
left_child=1 5 -3 4 7 6 9 10 -8 -1 -2 -7 -13
right_child=3 2 -4 -5 -6 11 8 -9 -10 -11 -12 12 -14
leaf_value=-0.01805982897981712 0.012853436638576708 -0.017161308912443496 -0.011103097386761384 0.01730489062166762 0.012412699492473955 -0.017929750124466813 -0.02258865095520415 0.01728743665253938 -0.018667273401808574 -0.014722089811057522 0.014830063404300795 -0.01339798442148543 -0.016471465691443411
leaf_weight=36 80 27 36 26 157 27 24 20 44 31 65 23 34
leaf_count=36 80 27 36 26 157 27 24 20 44 31 65 23 34
internal_value=4.56715e-05 -0.0167472 -0.0137701 0.0136632 0.0133546 -0.0175833 -0.0184044 0.0142246 -0.0201265 -0.0165845 0.0137698 -0.0162077 -0.0153095
internal_weight=630 282 63 348 322 219 135 165 68 67 145 84 57
internal_count=630 282 63 348 322 219 135 165 68 67 145 84 57
cat_boundaries=0 1
cat_threshold=4
is_linear=0
shrinkage=0.03


Tree=26
num_leaves=16
num_cat=1
split_feature=7 12 12 55 24 4 4 12 27 38 20 44 47 4 41
split_gain=150.712 0.367236 0.404442 0.28618 0.219327 0.171851 0.155038 0.115537 0.106417 0.079853 0.421713 0.149289 0.0521628 0.037985 0.00234275
threshold=0 665.00000000000011 785.00000000000011 313.47999572753912 1340.5954823977468 126.43715323239572 117.74280706823112 890.00000000000011 909.82673189221964 9758.2500000000018 11494.500000000002 8749.7500000000018 15736.500000000002 118.78191561322691 8128.2500000000009
decision_type=9 2 2 2 2 2 2 2 2 2 2 2 2 2 2
left_child=3 6 -3 5 8 7 -2 13 -4 11 -11 -8 -12 -1 -7
right_child=1 2 4 -5 -6 14 9 -9 -10 10 12 -13 -14 -15 -16
leaf_value=0.012468315389439854 -0.017217486853439743 -0.022418518922667004 -0.016021215540846599 0.016787732805328807 -0.013382922168026603 0.013441317114662213 -0.013418508392021553 0.016771394227867695 -0.020252469936656255 -0.010423615797859094 -0.013032071458714267 -0.01807031145284976 -0.016487080549278596 0.014385844652759864 0.011618378181994011
leaf_weight=80 51 20 29 26 21 34 21 20 24 30 21 27 38 65 123
leaf_count=80 51 20 29 26 21 34 21 20 24 30 21 27 38 65 123
internal_value=4.32281e-05 -0.0162489 -0.0180265 0.013255 -0.0167703 0.0129553 -0.0153351 0.0137997 -0.0180283 -0.0146004 -0.0137249 -0.0161296 -0.0153322 0.0133579 0.0120406
internal_weight=630 282 94 348 74 322 188 165 53 137 89 48 59 145 157
internal_count=630 282 94 348 74 322 188 165 53 137 89 48 59 145 157
cat_boundaries=0 1
cat_threshold=1
is_linear=0
shrinkage=0.03


Tree=27
num_leaves=17
num_cat=1
split_feature=3 13 51 55 42 42 18 4 34 12 34 30 39 57 12 4
split_gain=141.87 0.608622 0.49228 0.266713 0.187642 0.354149 0.174599 0.159421 0.109562 0.106191 0.0938779 0.0790074 0.0576237 0.0587368 0.0404454 0.0331723
threshold=2106311703621.6389 0 1421.3935979569862 313.47999572753912 4101.5501244485304 4017.8358399618169 874.00982001439763 126.43715323239572 635.60573140289637 890.00000000000011 749.21689536521365 1680.9364882097684 3931.8805653803943 2.5000000000000004 555.00000000000011 118.78191561322691
decision_type=2 9 2 2 2 2 2 2 2 2 2 2 2 2 2 2
left_child=1 4 14 7 5 6 8 9 -1 15 -10 -8 -6 -14 -3 -2
right_child=3 2 -4 -5 12 -7 11 -9 10 -11 -12 -13 13 -15 -16 -17
leaf_value=-0.017448892995100659 0.012094732922840207 -0.012727670123550429 -0.0085497777041659423 0.016286030439124709 -0.012765061495462393 -0.021782779818150532 -0.020530324053962198 0.01168039045464378 -0.011788503891742068 0.016270754933357237 -0.015861588113687253 -0.016248943252222876 -0.013488834309044169 -0.017189348027153793 -0.016422174069788548 0.013954931932591624
leaf_weight=29 80 20 20 26 24 20 24 157 22 20 23 23 20 34 23 65
leaf_count=29 80 20 20 26 24 20 24 157 22 20 23 23 20 34 23 65
internal_value=4.08589e-05 -0.0157661 -0.0128848 0.0128594 -0.016575 -0.0174178 -0.0166542 0.0125684 -0.0153939 0.0133876 -0.0139674 -0.0185378 -0.0149926 -0.0159017 -0.0148069 0.0129583
internal_weight=630 282 63 348 219 141 121 322 74 165 45 47 78 54 43 145
internal_count=630 282 63 348 219 141 121 322 74 165 45 47 78 54 43 145
cat_boundaries=0 1
cat_threshold=4
is_linear=0
shrinkage=0.03


Tree=28
num_leaves=17
num_cat=2
split_feature=1 13 53 56 47 34 39 4 48 51 39 52 3 4 49 37
split_gain=133.554 0.569797 0.479483 0.229018 0.136847 0.240648 0.192795 0.115185 0.109521 0.0822763 0.0383745 0.16607 0.0337084 0.0333511 0.0418091 0.00862336
threshold=0 1 7412.5000000000009 5.1003644466400155 15099.000000000002 739.96775824564133 3821.4099082937369 126.43715323239572 2040.4299947813226 992.43775748297355 3968.0929766404411 885.83020283599672 4069636619068.7515 138.68372960095027 588.48411342202132 840.08181841274234
decision_type=1 9 2 2 2 2 2 2 2 2 2 2 2 2 2 2
left_child=1 4 8 7 -1 -6 -7 12 -3 -5 -8 -12 -2 14 -9 -11
right_child=3 2 -4 9 5 6 10 13 -10 15 11 -13 -14 -15 -16 -17
leaf_value=-0.018714200063203259 0.013979661078277647 -0.016680568219788035 -0.0083764779371743522 0.016612413694609453 -0.012966702510052778 -0.017440358076274191 -0.012321369318819757 0.011345888943646725 -0.01225828524308102 0.012335837206263448 -0.01776371158175654 -0.012784347107161335 0.011973706741809257 0.011844525387647579 0.0086271307189203176 0.015011781812844118
leaf_weight=30 49 20 21 20 38 88 20 28 22 47 23 20 81 72 30 21
leaf_count=30 49 20 21 20 38 88 20 28 22 47 23 20 81 72 30 21
internal_value=3.79451e-05 -0.0152986 -0.0125029 0.0124752 -0.016083 -0.0156398 -0.0162837 0.011926 -0.01447 0.0140485 -0.0145954 -0.0155524 0.012763 0.0110568 0.0100085 0.0132271
internal_weight=630 282 63 348 219 189 151 260 42 88 63 43 130 130 58 68
internal_count=630 282 63 348 219 189 151 260 42 88 63 43 130 130 58 68
cat_boundaries=0 1 2
cat_threshold=2 4
is_linear=0
shrinkage=0.03


Tree=29
num_leaves=18
num_cat=1
split_feature=3 13 53 55 42 42 27 4 48 12 12 34 46 39 57 4 41
split_gain=125.723 0.532622 0.449246 0.242688 0.163409 0.328247 0.172357 0.14057 0.100303 0.0998615 0.0989421 0.0878921 0.0652662 0.0516453 0.0586128 0.0312601 0.00271721
threshold=2106311703621.6389 0 7412.5000000000009 313.47999572753912 4101.5501244485304 4017.8358399618169 909.82673189221964 126.43715323239572 2040.4299947813226 890.00000000000011 665.00000000000011 635.60573140289637 1242.1347245534889 3931.8805653803943 2.5000000000000004 118.78191561322691 8128.2500000000009
decision_type=2 9 2 2 2 2 2 2 2 2 2 2 2 2 2 2 2
left_child=1 4 8 7 5 6 11 9 -3 15 -8 -1 -13 -6 -15 -2 -9
right_child=3 2 -4 -5 13 -7 10 16 -10 -11 -12 12 -14 14 -16 -17 -18
leaf_value=-0.016230231472239502 0.011351604341679299 -0.016182637430949887 -0.0081263745392527054 0.015382867119778161 -0.011968596853408574 -0.02060433478497747 -0.015260861044040352 0.012313315004896908 -0.011892200625792349 0.015390599943808656 -0.01931464554934666 -0.010798736182944987 -0.014686303654713417 -0.012622411918284287 -0.016230834075782304 0.013148691351375271 0.010579336994213364
leaf_weight=27 80 20 21 26 24 20 28 34 22 20 26 20 20 20 34 65 123
leaf_count=27 80 20 21 26 24 20 28 34 22 20 26 20 20 20 34 65 123
internal_value=3.63898e-05 -0.0148435 -0.0121324 0.0121037 -0.0156038 -0.016401 -0.015665 0.0118249 -0.0140401 0.012602 -0.0173002 -0.0142785 -0.0128491 -0.0141053 -0.0149756 0.0121864 0.0109815
internal_weight=630 282 63 348 219 141 121 322 42 165 54 67 40 78 54 145 157
internal_count=630 282 63 348 219 141 121 322 42 165 54 67 40 78 54 145 157
cat_boundaries=0 1
cat_threshold=4
is_linear=0
shrinkage=0.03


Tree=30
num_leaves=19
num_cat=1
split_feature=1 52 24 45 48 56 4 42 42 39 55 35 46 48 2 12 55 53
split_gain=122.51 0.38897 0.485804 0.455371 0.57969 0.334423 0.228265 0.174694 0.528512 0.251348 0.230881 0.172299 0.112561 0.0444492 0.0425117 0.010022 0.00780912 0.0066484
threshold=0 945.36921762872646 1737.1412216742474 4557.8698519233903 2320.2888295749585 13.934206485748293 124.49621006272866 3981.6632509598344 3854.6847480120646 3754.0299781343888 44.420000076293952 9691.0000000000018 1581.4781102886952 1504.7800613227892 2019.5000000000002 675.00000000000011 73.654998779296889 9628.0000000000018
decision_type=1 2 2 2 2 2 2 2 2 2 2 2 2 2 2 2 2 2
left_child=1 2 3 7 -5 6 14 8 10 -9 11 -1 -13 -8 -2 -16 -15 -18
right_child=5 -3 -4 4 -6 -7 13 9 -10 -11 -12 12 -14 16 15 -17 17 -19
leaf_value=-0.018242486240056432 0.01128092070643867 -0.01085332462427553 -0.019487334233603326 -0.0085948283160614432 -0.014941712385907614 0.01555818864277431 0.011736628712939666 -0.01985717242801344 -0.010120534298556118 -0.014076090328284163 -0.01253949808123896 -0.012089575996149831 -0.016594305565995626 0.0090566523692244393 0.01245748222521176 0.01504787977506865 0.01134269144590906 0.0093060038997748191
leaf_weight=39 69 34 22 31 29 23 52 23 26 20 30 20 21 55 69 20 49 32
leaf_count=39 69 34 22 31 29 23 52 23 26 20 30 20 21 55 69 20 49 32
internal_value=9.61016e-05 -0.0143087 -0.014743 -0.0142858 -0.0117322 0.011621 0.0113462 -0.015118 -0.0144012 -0.0172768 -0.0153757 -0.0163848 -0.0145046 0.0105005 0.0123263 0.0130895 0.00999758 0.0105875
internal_weight=664 295 261 239 60 369 346 179 136 43 110 80 41 188 158 89 136 81
internal_count=664 295 261 239 60 369 346 179 136 43 110 80 41 188 158 89 136 81
cat_boundaries=0 1
cat_threshold=2
is_linear=0
shrinkage=0.03


Tree=31
num_leaves=16
num_cat=1
split_feature=7 52 30 45 56 4 34 21 28 4 4 34 4 3 33
split_gain=115.335 0.364133 0.593846 0.837609 0.312337 0.21248 0.197411 0.222098 0.309688 0.130832 0.0810982 0.0604125 0.0419506 0.0338232 0.00323795
threshold=0 945.36921762872646 1931.9363597649406 4557.8698519233903 13.934206485748293 124.49621006272866 974.35277537999366 945.83130340203786 822.72828872282639 118.78191561322691 119.2655080931231 630.81648016940437 140.10997200254067 4069636619068.7515 2902.9698165780565
decision_type=9 2 2 2 2 2 2 2 2 2 2 2 2 2 2
left_child=4 2 3 6 5 13 7 8 9 11 -5 -2 14 -1 -7
right_child=1 -3 -4 10 -6 12 -8 -9 -10 -11 -12 -13 -14 -15 -16
leaf_value=0.013013098380906024 -0.015817172149610186 -0.010528679837928838 -0.018263534483237143 -0.011475801943129752 0.015093463535432691 0.009893084523050627 -0.017633987192298212 -0.011101566992295753 -0.017366913695504346 -0.011002971198098116 -0.0080405504788671218 -0.012489069237177115 0.011060739054842634 0.011251477807852316 0.0079476011960537413
leaf_weight=61 35 34 35 25 23 86 27 28 38 25 23 25 79 97 23
leaf_count=61 35 34 35 25 23 86 27 28 38 25 23 25 79 97 23
internal_value=9.23981e-05 -0.0138841 -0.0143055 -0.0136715 0.0112749 0.0110081 -0.0146623 -0.0140997 -0.0147483 -0.0135233 -0.00991225 -0.0145035 0.0101876 0.0119584 0.00951773
internal_weight=664 295 261 226 369 346 178 151 123 85 48 60 188 158 109
internal_count=664 295 261 226 369 346 178 151 123 85 48 60 188 158 109
cat_boundaries=0 1
cat_threshold=1
is_linear=0
shrinkage=0.03


Tree=32
num_leaves=18
num_cat=1
split_feature=5 52 18 56 45 47 56 4 50 50 57 12 48 18 4 55 53
split_gain=108.571 0.34068 0.428832 0.449784 0.632049 0.341178 0.291764 0.197648 0.113646 0.134218 0.181175 0.0453237 0.0408928 0.0378887 0.0282417 0.00747107 0.00603112
threshold=0 945.36921762872646 1615.7865780753577 0.20772245526313785 4557.8698519233903 15687.500000000002 13.934206485748293 124.49621006272866 8059.2500000000009 6774.7500000000009 2.5000000000000004 875.00000000000011 1504.7800613227892 767.98790266571211 118.78191561322691 73.654998779296889 9628.0000000000018
decision_type=1 2 2 2 2 2 2 2 2 2 2 2 2 2 2 2 2
left_child=1 2 3 -1 8 -6 7 11 9 13 -11 14 -9 -5 -2 -14 -17
right_child=6 -3 -4 4 5 -7 -8 12 -10 10 -12 -13 15 -15 -16 16 -18
leaf_value=-0.016976179832761937 0.010441675777180812 -0.010213745631430505 -0.018253966064809203 -0.012971345489200257 -0.0062273908706743323 -0.01179752398888732 0.014642619769294539 0.01107396634520816 -0.015847550488887929 -0.0134520773613339 -0.009682724997666382 0.013660592470178959 0.008488341156670489 -0.016685489973326997 0.012245186383314361 0.010695736504135208 0.0087303666672973994
leaf_weight=34 80 34 23 21 20 30 23 52 37 47 28 24 55 21 54 49 32
leaf_count=34 80 34 23 21 20 30 23 52 37 47 28 24 55 21 54 49 32
internal_value=8.86529e-05 -0.0134717 -0.0138805 -0.0134378 -0.0128254 -0.00964623 0.0109384 0.0106794 -0.0138312 -0.0131549 -0.0120996 0.0116007 0.0098834 -0.0149349 0.0111994 0.00939833 0.00996801
internal_weight=664 295 261 238 204 50 369 346 154 117 75 158 188 42 134 136 81
internal_count=664 295 261 238 204 50 369 346 154 117 75 158 188 42 134 136 81
cat_boundaries=0 1
cat_threshold=1
is_linear=0
shrinkage=0.03


Tree=33
num_leaves=17
num_cat=2
split_feature=3 4 13 53 51 54 47 52 12 4 9 48 2 4 12 55
split_gain=102.211 0.334555 0.598009 0.33593 0.323994 0.253246 0.20153 0.252022 0.51369 0.1912 0.163099 0.0861204 0.0391872 0.0388117 0.00684556 0.00411053
threshold=2106311703621.6389 117.86815741863882 0 6675.0000000000009 1167.0889167262114 12.239347457885744 15568.500000000002 939.52701368940086 627.50000000000011 124.49621006272866 1 2202.4136715590012 2019.5000000000002 140.78785752556885 675.00000000000011 56.965000152587898
decision_type=2 2 9 2 2 2 2 2 2 2 1 2 2 2 2 2
left_child=1 10 4 -4 -3 9 -6 8 -8 12 -1 -12 -2 15 -14 -11
right_child=5 2 3 -5 6 -7 7 -9 -10 13 11 -13 14 -15 -16 -17
leaf_value=-0.017440776933772929 0.010276359726827155 -0.0095447347342849254 -0.011437908610353221 -0.0056285716837911458 -0.016178024916437522 0.014190846039698673 -0.010924213543709073 -0.0092945668368197183 -0.016720314824959299 0.0078151719018685843 -0.015595199477385444 -0.012514461238762573 0.011406783682643602 0.010566401827218132 0.013837890295840019 0.0094522712886265809
leaf_weight=24 69 25 23 20 36 22 34 20 33 34 30 50 70 66 20 88
leaf_count=24 69 25 23 20 36 22 34 20 33 34 30 50 70 66 20 88
internal_value=8.53964e-05 -0.0130716 -0.0122016 -0.00882483 -0.0131558 0.0106127 -0.0138571 -0.0128448 -0.0138444 0.0103732 -0.0146274 -0.0137252 0.011275 0.00958895 0.0119951 0.00902737
internal_weight=664 295 191 43 148 369 123 87 67 347 104 80 159 188 90 122
internal_count=664 295 191 43 148 369 123 87 67 347 104 80 159 188 90 122
cat_boundaries=0 1 2
cat_threshold=4 1
is_linear=0
shrinkage=0.03


Tree=34
num_leaves=16
num_cat=1
split_feature=5 52 24 45 48 56 34 21 28 3 35 35 12 56 53
split_gain=96.2215 0.298347 0.411914 0.557431 0.305505 0.254926 0.186928 0.199261 0.284679 0.165813 0.126734 0.170859 0.0561954 0.047965 0.0102196
threshold=0 945.36921762872646 1622.3738118609333 4557.8698519233903 2320.2888295749585 13.934206485748293 974.35277537999366 945.83130340203786 822.72828872282639 3904620736288.6938 8636.5000000000018 9244.5000000000018 105.00000000000001 5.1003644466400155 7680.5000000000009
decision_type=1 2 2 2 2 2 2 2 2 2 2 2 2 2 2
left_child=1 2 3 6 -5 9 7 8 10 14 -1 -12 -11 -14 -2
right_child=5 -3 -4 4 -6 -7 -8 -9 -10 12 11 -13 13 -15 -16
leaf_value=-0.014044309522223932 0.0093069073915261619 -0.0096105812441918161 -0.016620883667301908 -0.0072936145331326903 -0.012536106483207495 0.013784976199075772 -0.016257695137794608 -0.01001255998275246 -0.015967634943291894 0.0087014488506270207 -0.0083394286778018367 -0.012716657036245929 0.01034704383066287 0.012349926358269106 0.0071681051273084556
leaf_weight=36 27 34 32 30 21 23 27 28 38 38 21 28 217 34 30
leaf_count=36 27 34 32 30 21 23 27 28 38 38 21 28 217 34 30
internal_value=8.20768e-05 -0.0126835 -0.0130685 -0.012552 -0.0095313 0.0102964 -0.0133947 -0.0128525 -0.013466 0.0100519 -0.0122949 -0.0109226 0.0103943 0.0106351 0.00824829
internal_weight=664 295 261 229 51 369 178 151 123 346 85 49 289 251 57
internal_count=664 295 261 229 51 369 178 151 123 346 85 49 289 251 57
cat_boundaries=0 1
cat_threshold=1
is_linear=0
shrinkage=0.03


Tree=35
num_leaves=19
num_cat=2
split_feature=7 12 13 12 33 55 50 42 48 3 55 27 52 37 48 23 53 51
split_gain=91.2066 0.49858 0.465695 0.413601 0.400016 0.298443 0.234184 0.209247 0.166626 0.136759 0.111967 0.0625409 0.0584457 0.0942373 0.0336558 0.0235338 0.0455752 0.019937
threshold=0 665.00000000000011 1 785.00000000000011 3068.5723758296758 4.4749999046325692 7085.2500000000009 3854.6847480120646 2168.9502786290764 3904620736288.6938 307.77499389648443 1525.632729719495 649.56315262840553 973.90265551616767 1537.667859787221 9300.5000000000018 6719.0000000000009 1184.870556106818
decision_type=9 2 9 2 2 2 2 2 2 2 2 2 2 2 2 2 2 2
left_child=9 2 5 -3 -4 -2 -5 -8 -7 14 11 12 13 17 -1 -10 -17 -11
right_child=1 3 4 6 -6 8 7 -9 15 10 -12 -13 -14 -15 -16 16 -18 -19
leaf_value=0.0097972477794583158 -0.016315226353593726 -0.018540948818509394 -0.011417776405541605 -0.0160257913453574 -0.0051165779324165023 -0.0096587667590755169 -0.013850853250852758 -0.0090008402238199604 -0.014470423382598083 0.010366405325306723 0.013021431706527961 0.00762135639119504 0.011479872804314837 0.007398848953572186 0.0071873100788012977 -0.010557099124442507 -0.013224156141663208 0.008349887651513772
leaf_weight=20 20 22 22 24 20 38 24 22 23 169 21 20 60 23 34 36 35 25
leaf_count=20 20 22 22 24 20 38 24 22 23 169 21 20 60 23 34 36 35 25
internal_value=0.000185368 -0.0125458 -0.011585 -0.0145244 -0.00850775 -0.0124095 -0.0131947 -0.0116209 -0.0117831 0.00998212 0.0102683 0.0100592 0.0102216 0.0098547 0.00822573 -0.0125988 -0.0119308 0.0101264
internal_weight=658 286 194 92 42 152 70 46 132 372 318 297 277 217 54 94 71 194
internal_count=658 286 194 92 42 152 70 46 132 372 318 297 277 217 54 94 71 194
cat_boundaries=0 1 2
cat_threshold=1 4
is_linear=0
shrinkage=0.03


Tree=36
num_leaves=21
num_cat=4
split_feature=1 12 13 12 33 51 30 50 36 47 3 54 12 48 37 14 37 47 31 6
split_gain=85.8704 0.466945 0.43598 0.38597 0.374827 0.273425 0.261902 0.217539 0.194673 0.16698 0.126591 0.113246 0.0611451 0.030122 0.0248578 0.0268735 0.015919 0.0374397 0.00925613 0.0035703
threshold=0 665.00000000000011 1 785.00000000000011 3068.5723758296758 1281.403784688797 1437.3098817168423 7085.2500000000009 3620.5833185508286 15563.250000000002 3904620736288.6938 10.138306617736818 890.00000000000011 1537.667859787221 1020.0928326756929 2 930.35926143111271 15812.000000000002 504.36738403274188 3
decision_type=1 2 9 2 2 2 2 2 2 2 2 2 2 2 2 1 2 2 2 1
left_child=1 2 5 -3 -4 6 -1 -5 -9 -7 13 12 14 -2 15 -12 -11 -18 -17 -20
right_child=10 3 4 7 -6 9 -8 8 -10 16 11 -13 -14 -15 -16 18 17 -19 19 -21
leaf_value=-0.011937793378637342 0.009504792799811753 -0.017987236780413671 -0.011076793555355719 -0.015547012700332149 -0.0049638442939786758 -0.015556012045896985 -0.0070761399102561608 -0.01343705172669838 -0.0087320368774066667 -0.01016803971875759 0.011307169722967615 0.012574132088716928 0.011487429755875187 0.0069723231212134931 0.008300163368831175 0.0088420566293625422 -0.011040312730672448 -0.014215328145729398 0.011607964812935172 0.0094953956543869771
leaf_weight=31 20 22 22 24 20 28 22 24 22 21 32 23 35 34 51 95 24 26 23 59
leaf_count=31 20 22 22 24 20 28 22 24 22 21 32 23 35 34 51 95 24 26 23 59
internal_value=0.000178973 -0.012174 -0.0112415 -0.0140935 -0.00825583 -0.0120408 -0.00999337 -0.0128031 -0.0112757 -0.0130955 0.00968496 0.00996219 0.00974418 0.00798156 0.00949366 0.00976644 -0.0120624 -0.0127763 0.00946472 0.0101379
internal_weight=658 286 194 92 42 152 53 70 46 99 372 318 295 54 260 209 71 50 177 82
internal_count=658 286 194 92 42 152 53 70 46 99 372 318 295 54 260 209 71 50 177 82
cat_boundaries=0 1 2 3 4
cat_threshold=2 4 1 2
is_linear=0
shrinkage=0.03


Tree=37
num_leaves=21
num_cat=3
split_feature=5 12 13 12 24 55 50 42 51 12 12 54 34 32 44 26 32 6 50 41
split_gain=80.8535 0.437009 0.40828 0.360062 0.282983 0.274549 0.201959 0.181024 0.148035 0.118679 0.105248 0.0868431 0.071844 0.0904385 0.0758959 0.0217729 0.0158531 0.0141523 0.00843024 0.0617327
threshold=0 665.00000000000011 1 785.00000000000011 1172.4621284369593 4.4749999046325692 7085.2500000000009 3854.6847480120646 1202.8951330735342 35.250000000000007 985.00000000000011 0.2846187055110932 870.48407038613902 11570.750000000002 7184.5000000000009 9729.7500000000018 14627.000000000002 2 6738.2500000000009 8128.2500000000009
decision_type=1 2 9 2 2 2 2 2 2 2 2 2 2 2 2 2 2 1 2 2
left_child=1 2 5 -3 -4 -1 -5 -8 -7 -2 12 -10 14 -14 -11 -13 -15 -16 -19 -20
right_child=9 3 4 6 -6 8 7 -9 11 10 -12 15 13 16 17 -17 -18 18 19 -21
leaf_value=-0.015435632280916605 0.011812215204316835 -0.017450061587456663 -0.010501271694541079 -0.015082537690757219 -0.005084742796954823 -0.0087188714223471395 -0.013035613043674295 -0.0084712610275766969 -0.0094890854641229688 0.0069575287478514259 0.011774009869379156 -0.01356607467992099 0.0060110428269909717 0.0094587632649557243 0.010752586134257178 -0.011186424770185253 0.0071065442909055681 0.007464480127082832 0.011207888554122861 0.0089921824254722126
leaf_weight=20 27 22 22 24 20 30 24 22 25 21 22 38 26 40 45 39 20 20 31 120
leaf_count=20 27 22 22 24 20 30 24 22 25 21 22 38 26 40 45 39 20 20 31 120
internal_value=0.000172821 -0.0118138 -0.0109089 -0.0136754 -0.00801144 -0.0116839 -0.0124231 -0.0109408 -0.0110815 0.00939707 0.009196 -0.0117378 0.00900753 0.00795617 0.00937287 -0.0124158 0.00873774 0.00959049 0.00926103 0.00947403
internal_weight=658 286 194 92 42 152 70 46 132 372 345 102 323 86 237 77 60 216 171 151
internal_count=658 286 194 92 42 152 70 46 132 372 345 102 323 86 237 77 60 216 171 151
cat_boundaries=0 1 2 3
cat_threshold=1 4 2
is_linear=0
shrinkage=0.03


Tree=38
num_leaves=19
num_cat=1
split_feature=3 12 13 33 12 55 56 47 56 3 55 55 37 2 47 31 3 4
split_gain=76.1299 0.409137 0.382074 0.337292 0.335772 0.255913 0.249061 0.219613 0.189818 0.0772007 0.073848 0.108579 0.0631653 0.0561495 0.00812019 0.00237737 0.026613 0.0348403
threshold=2106311703621.6389 665.00000000000011 0 3068.5723758296758 785.00000000000011 4.4749999046325692 0.3097816407680512 15617.500000000002 5.1003644466400155 3904620736288.6938 139.95999908447268 289.61000061035162 1020.0928326756929 2020.5000000000002 15708.000000000002 308.48210799905422 4069636619068.7515 124.49621006272866
decision_type=2 2 9 2 2 2 2 2 2 2 2 2 2 2 2 2 2 2
left_child=1 2 5 -4 -3 -1 -7 -6 9 -2 -10 -12 15 14 -8 -11 17 -17
right_child=8 4 3 -5 7 6 13 -9 10 12 11 -13 -14 -15 -16 16 -18 -19
leaf_value=-0.014974868940606489 0.0069608342056841493 -0.016928928725050585 -0.010454436733938671 -0.0046396331744852351 -0.0097383789301301888 -0.0081657781535513767 -0.01325282394470278 -0.013789325021874263 0.012722772457305853 0.0075140320516839517 0.0086228568544873957 0.01190428102171266 0.0075146168691927447 -0.0098546133171068875 -0.010794287878891516 0.011311342474638775 0.0086218806613335575 0.0091923037650970887
leaf_weight=20 39 22 22 20 31 34 41 39 21 20 46 23 49 31 26 37 79 58
leaf_count=20 39 22 22 20 31 34 41 39 21 20 46 23 49 31 26 37 79 58
internal_value=0.000167197 -0.0114638 -0.0105855 -0.00777434 -0.0132699 -0.0113369 -0.0107521 -0.0120546 0.00911808 0.00865963 0.01051 0.00977572 0.00891696 -0.0116096 -0.012361 0.00925166 0.00942972 0.0100602
internal_weight=658 286 194 42 92 152 132 70 372 282 90 69 243 98 67 194 174 95
internal_count=658 286 194 42 92 152 132 70 372 282 90 69 243 98 67 194 174 95
cat_boundaries=0 1
cat_threshold=4
is_linear=0
shrinkage=0.03


Tree=39
num_leaves=22
num_cat=2
split_feature=7 12 13 33 12 51 30 47 47 3 54 12 34 26 19 48 32 37 47 49 55
split_gain=71.6782 0.382474 0.357481 0.315936 0.313333 0.24797 0.242423 0.204303 0.149551 0.111395 0.0971469 0.0527278 0.033198 0.0743999 0.0416336 0.0282029 0.0262625 0.0171957 0.0341536 0.0122896 0.00521045
threshold=0 665.00000000000011 1 3068.5723758296758 785.00000000000011 1281.403784688797 1437.3098817168423 15617.500000000002 15563.250000000002 3904620736288.6938 10.138306617736818 890.00000000000011 890.18688737127457 11023.500000000002 578.67810488107227 1537.667859787221 14487.000000000002 930.35926143111271 15812.000000000002 467.48817123462101 83.975002288818374
decision_type=9 2 9 2 2 2 2 2 2 2 2 2 2 2 2 2 2 2 2 2 2
left_child=9 2 5 -4 -3 6 -2 -6 -7 15 11 12 14 -14 19 -1 -15 -10 -19 -11 -21
right_child=1 4 3 -5 7 8 -8 -9 17 10 -12 -13 13 16 -16 -17 -18 18 -20 20 -22
leaf_value=0.0086926369957014242 -0.010913578830329982 -0.016423358809017487 -0.010142220014293268 -0.0045011368227093956 -0.0094471671707760472 -0.014334119541099911 -0.0062548563216404136 -0.013376703224980921 -0.0091990538366509694 0.0096428871064264069 0.011552438054765973 0.010542525995490897 0.0055727486645997448 0.0094842450304811962 0.0099096575920856293 0.0062765877991040773 0.0068503911948915733 -0.010055132100814605 -0.013076130306754988 0.0088705012767763998 0.007215081916231797
leaf_weight=20 31 22 22 20 31 28 22 39 21 32 23 35 20 28 72 34 20 24 26 36 52
leaf_count=20 31 22 22 20 31 28 22 39 21 32 23 35 20 28 72 34 20 24 26 36 52
internal_value=0.000161779 -0.0111239 -0.0102718 -0.00754432 -0.0128751 -0.0110003 -0.00905169 -0.0116952 -0.0120031 0.00884715 0.00910805 0.00890345 0.00866731 0.00766832 0.00900132 0.00724129 0.0084657 -0.0110227 -0.0117089 0.00842354 0.00793565
internal_weight=658 286 194 42 92 152 53 70 99 372 318 295 260 68 192 54 48 71 50 120 88
internal_count=658 286 194 42 92 152 53 70 99 372 318 295 260 68 192 54 48 71 50 120 88
cat_boundaries=0 1 2
cat_threshold=1 4
is_linear=0
shrinkage=0.03


Tree=40
num_leaves=23
num_cat=0
split_feature=3 56 54 4 47 12 47 44 56 4 37 21 4 39 33 47 3 42 26 54 39 46
split_gain=72.0192 0.717989 0.666335 0.328727 0.403222 0.515017 0.468334 0.199432 0.156795 0.124175 0.107322 0.0775212 0.0477133 0.0444565 0.110695 0.0907578 0.040886 0.00751553 0.00734235 0.00664763 0.00657561 0.00696118
threshold=2106311703621.6389 0.19361203908920291 0.23731242120265963 118.78191561322691 15626.500000000002 395.00000000000006 15563.250000000002 8849.5000000000018 5.1003644466400155 124.49621006272866 976.7584948242046 563.36940727010051 144.1856927861638 3270.4236035045137 3158.9553384033766 15752.500000000002 4069636619068.7515 3284.2313088607139 12972.500000000002 1.0744773745536806 3208.9699652344989 655.1221232642514
decision_type=2 2 2 2 2 2 2 2 2 2 2 2 2 2 2 2 2 2 2 2 2 2
left_child=1 2 -1 7 6 -6 -5 -3 9 16 11 -10 19 -9 -15 -16 -2 -18 -7 -11 21 -21
right_child=8 3 -4 4 5 18 -8 13 10 12 -12 -13 -14 14 15 -17 17 -19 -20 20 -22 -23
leaf_value=-0.011513297491774115 0.0099543872573312694 -0.0086216579655711313 -0.019239372061704521 -0.009463065904522951 -0.006933633657288254 -0.01380444208755321 -0.003426921839397665 -0.014367433354199169 0.01055650607519543 0.0060163540010366064 0.012049398515131565 0.0077922800668203344 0.0091680671603648692 -0.0099214801977858449 -0.015013677155802032 -0.010920699875077929 0.0075497495535821963 0.0095363978637019956 -0.010966010467983534 0.0066218018442837159 0.0064144604137151848 0.0088661288603694727
leaf_weight=29 51 22 20 33 24 29 21 25 29 40 23 42 23 33 21 21 55 22 21 20 36 30
leaf_count=29 51 22 20 33 24 29 21 25 29 40 23 42 23 33 21 21 55 22 21 20 36 30
internal_value=-0.000299478 -0.011258 -0.0147607 -0.0105538 -0.00934995 -0.0108798 -0.0071818 -0.0117836 0.00852486 0.00808727 0.00977248 0.00897678 0.00735459 -0.0124399 -0.0117392 -0.0130692 0.00891034 0.00816791 -0.0126964 0.00699276 0.00740454 0.00804329
internal_weight=670 299 49 250 128 74 54 122 371 277 94 71 149 100 75 42 128 77 50 126 86 50
internal_count=670 299 49 250 128 74 54 122 371 277 94 71 149 100 75 42 128 77 50 126 86 50
is_linear=0
shrinkage=0.03


Tree=41
num_leaves=21
num_cat=1
split_feature=5 56 54 4 47 12 47 44 56 4 40 21 4 39 33 47 2 40 19 26
split_gain=67.8184 0.673047 0.624406 0.307392 0.377883 0.482935 0.439318 0.185778 0.145827 0.114986 0.0990111 0.0712461 0.0432977 0.0391599 0.10224 0.0828951 0.0148373 0.00578295 0.0323966 0.00442105
threshold=0 0.19361203908920291 0.23731242120265963 118.78191561322691 15626.500000000002 395.00000000000006 15563.250000000002 8849.5000000000018 5.1003644466400155 124.49621006272866 972.52237197648003 563.36940727010051 144.1856927861638 3270.4236035045137 3158.9553384033766 15752.500000000002 2019.5000000000002 928.26608410503752 258.24334115289474 12972.500000000002
decision_type=1 2 2 2 2 2 2 2 2 2 2 2 2 2 2 2 2 2 2 2
left_child=1 2 -1 7 6 -6 -5 -3 9 16 11 -10 17 -9 -15 -16 -2 18 -11 -7
right_child=8 3 -4 4 5 19 -8 13 10 12 -12 -13 -14 14 15 -17 -18 -19 -20 -21
leaf_value=-0.011169086830287249 0.0077055537102175536 -0.0083641791342424724 -0.018665062282512437 -0.0091800311970836809 -0.0067264874758685769 -0.013391732161038929 -0.00332460148180548 -0.013938127937782332 0.010240899373575583 0.0057678911184747723 0.011689481470104934 0.0075590669411519928 0.0088942159131749892 -0.0096247351007519161 -0.014565401597045608 -0.010594631542950443 0.0092375053345922099 0.0058632937179891624 0.0078201777601513457 -0.010638589166916942
leaf_weight=29 52 22 20 33 24 29 21 25 29 27 23 42 23 33 21 21 76 42 57 21
leaf_count=29 52 22 20 33 24 29 21 25 29 27 23 42 23 33 21 21 76 42 57 21
internal_value=-0.000290671 -0.0109249 -0.0143216 -0.0102417 -0.0090733 -0.0105571 -0.00696873 -0.0114345 0.0082723 0.00784762 0.00948219 0.00870952 0.00713711 -0.012071 -0.0113909 -0.0126812 0.00864507 0.00678578 0.00720383 -0.0123188
internal_weight=670 299 49 250 128 74 54 122 371 277 94 71 149 100 75 42 128 126 84 50
internal_count=670 299 49 250 128 74 54 122 371 277 94 71 149 100 75 42 128 126 84 50
cat_boundaries=0 1
cat_threshold=1
is_linear=0
shrinkage=0.03


Tree=42
num_leaves=20
num_cat=1
split_feature=7 56 54 12 12 4 43 47 41 56 4 37 21 4 3 42 54 39 46
split_gain=63.8594 0.630828 0.585021 0.287555 0.413178 0.286177 0.24537 0.222974 0.157429 0.135767 0.106366 0.091503 0.0758291 0.0392744 0.035179 0.00767585 0.0066955 0.00568944 0.0061016
threshold=0 0.19361203908920291 0.23731242120265963 627.50000000000011 860.00000000000011 118.78191561322691 1120.1987670285359 15553.250000000002 9945.5000000000018 5.1003644466400155 124.49621006272866 956.25723454586421 563.36940727010051 144.1856927861638 4069636619068.7515 3284.2313088607139 1.0744773745536806 3208.9699652344989 655.1221232642514
decision_type=9 2 2 2 2 2 2 2 2 2 2 2 2 2 2 2 2 2 2
left_child=9 2 -2 5 8 -3 7 -7 -5 10 14 12 -11 16 -1 -16 -12 18 -18
right_child=1 3 -4 4 -6 6 -8 -9 -10 11 13 -13 -14 -15 15 -17 17 -19 -20
leaf_value=0.0093797571997412468 -0.010835164927519838 -0.010408760757690622 -0.018107896120471659 -0.010185515636772807 -0.008551242439040185 -0.0079006397005066675 -0.0097614994496586227 -0.0032692170904865901 -0.014407853865257612 0.0099347281486717696 0.0056350006753964317 0.011223590156115383 0.0072060214696530985 0.0086285443487879501 0.0070779076229422581 0.0090069228559058172 0.0062243922621901355 0.006028029864597188 0.0083909876783226818
leaf_weight=51 29 79 20 20 36 25 31 20 39 29 40 25 40 23 55 22 20 36 30
leaf_count=51 29 79 20 20 36 25 31 20 39 29 40 25 40 23 55 22 20 36 30
internal_value=-0.000282468 -0.0106017 -0.0138956 -0.00993886 -0.0113857 -0.009026 -0.00753745 -0.00592056 -0.013047 0.00802668 0.00761431 0.00920058 0.008409 0.00692538 0.00838682 0.00767893 0.0065841 0.00698363 0.00759838
internal_weight=670 299 49 250 95 155 76 45 59 371 277 94 69 149 128 77 126 86 50
internal_count=670 299 49 250 95 155 76 45 59 371 277 94 69 149 128 77 126 86 50
cat_boundaries=0 1
cat_threshold=1
is_linear=0
shrinkage=0.03


Tree=43
num_leaves=24
num_cat=1
split_feature=5 56 54 4 47 47 42 44 4 56 25 54 50 51 4 56 56 56 51 34 19 54 18
split_gain=60.1286 0.591696 0.548029 0.275802 0.345531 0.408612 0.192627 0.17442 0.12791 0.0652012 0.0514898 0.0375729 0.0473376 0.0337808 0.0307464 0.0319662 0.0263707 0.0341699 0.0212149 0.0142314 0.0807393 0.00952616 0.00210372
threshold=0 0.19361203908920291 0.23731242120265963 118.78191561322691 15626.500000000002 15563.250000000002 4309.5837863077249 8849.5000000000018 124.49621006272866 3.8012747764587407 1346.2859287199719 0.36717692017555242 7279.5000000000009 1489.5191554362209 117.52902357427357 4.8717398643493661 2.6681683063507085 1.8949350118637087 1118.7983749961652 792.46346894728174 268.02052772056419 1.0971153974533083 774.32555051794463
decision_type=1 2 2 2 2 2 2 2 2 2 2 2 2 2 2 2 2 2 2 2 2 2 2
left_child=1 2 -1 7 5 -5 10 -3 14 19 -6 12 -9 -13 -2 16 17 -16 -11 20 -10 -22 -20
right_child=8 3 -4 4 6 -7 -8 11 9 18 -12 13 -14 -15 15 -17 -18 -19 22 -21 21 -23 -24
leaf_value=-0.010511227029462143 0.0070775897331710608 -0.0078047512696710376 -0.017567361918514345 -0.0086460914116161473 -0.0094920997544954526 -0.0029995627969644639 -0.0075813515624860005 -0.013591285130410332 0.0053381449131873144 0.008982472288639038 -0.012806292140925943 -0.0084532152723644574 -0.010584517141109903 -0.011543804010226262 0.0077663049314703261 0.010226886502284108 0.0074831858919089909 0.010630273559650816 0.0059112660378500183 0.0057307278713368158 0.0067746472407084002 0.0091071182808705742 0.0080917205516971742
leaf_weight=29 34 22 20 33 22 21 28 31 26 39 24 21 27 21 23 34 54 23 21 51 23 23 20
leaf_count=29 34 22 20 33 22 21 28 31 26 39 24 21 27 21 23 34 54 23 21 51 23 23 20
internal_value=-0.000273612 -0.010287 -0.0134823 -0.00964363 -0.00853177 -0.00651528 -0.009952 -0.0107777 0.00778902 0.00716701 -0.0113103 -0.0113933 -0.0122638 -0.0100935 0.00851805 0.00885562 0.00834966 0.00928332 0.00804727 0.00656405 0.00710394 0.00802318 0.007065
internal_weight=670 299 49 250 128 54 74 122 371 203 46 100 58 42 168 134 100 46 80 123 72 46 41
internal_count=670 299 49 250 128 54 74 122 371 203 46 100 58 42 168 134 100 46 80 123 72 46 41
cat_boundaries=0 1
cat_threshold=1
is_linear=0
shrinkage=0.03


Tree=44
num_leaves=18
num_cat=1
split_feature=5 56 48 12 55 4 43 21 47 56 4 40 21 4 2 40 19
split_gain=56.6263 0.554418 0.461629 0.26851 0.388454 0.25594 0.223647 0.2211 0.203805 0.119328 0.0918812 0.0857462 0.074532 0.0352069 0.0112614 0.00460007 0.0183621
threshold=0 0.19361203908920291 2299.2970954383341 627.50000000000011 22.480000495910648 118.78191561322691 1120.1987670285359 997.94584374567705 15553.250000000002 5.1003644466400155 124.49621006272866 945.70992605503443 563.36940727010051 144.1856927861638 2019.5000000000002 994.95575159950283 258.24334115289474
decision_type=1 2 2 2 2 2 2 2 2 2 2 2 2 2 2 2 2
left_child=1 2 -1 5 7 -3 8 -5 -7 10 14 12 -11 15 -2 16 -12
right_child=9 3 -4 4 -6 6 -8 -9 -10 11 13 -13 -14 -15 -16 -17 -18
leaf_value=-0.0099628406786627464 0.0070145838873929226 -0.0097882975274096468 -0.016418413724266476 -0.010158423961898715 -0.0081253594312611522 -0.0074062155944803563 -0.0091878051827047787 -0.014653054170337011 -0.0029739829400248488 0.0093677956434254795 0.0052324987433559102 0.010573434463177604 0.0066815874786556838 0.0081493777036666867 0.0084489723460433042 0.0050942738710027004 0.006963157857961067
leaf_weight=26 52 79 23 29 38 25 31 28 20 29 28 26 39 23 76 30 68
leaf_count=26 52 79 23 29 38 25 31 28 20 29 28 26 39 23 76 30 68
internal_value=-0.000265396 -0.00998295 -0.0130814 -0.00935868 -0.0107564 -0.00847626 -0.00706194 -0.0124406 -0.00551382 0.00755877 0.00716795 0.00866971 0.0078833 0.00651786 0.0078956 0.00619002 0.00649557
internal_weight=670 299 49 250 95 155 76 57 45 371 277 94 68 149 128 126 96
internal_count=670 299 49 250 95 155 76 57 45 371 277 94 68 149 128 126 96
cat_boundaries=0 1
cat_threshold=1
is_linear=0
shrinkage=0.03


Tree=45
num_leaves=24
num_cat=1
split_feature=7 52 52 4 29 31 32 12 56 26 56 55 50 40 25 12 55 31 26 4 53 30 34
split_gain=48.3819 0.53728 0.350801 0.348944 0.384848 0.208854 0.380204 0.259751 0.179192 0.146855 0.101331 0.0666824 0.0651262 0.0584769 0.0796055 0.0574372 0.0521859 0.0263812 0.0589258 0.0244828 0.0108102 0.00705035 0.00176934
threshold=0 928.65778719187995 821.47498703114695 120.04313886449401 10116.500000000002 734.14237090994322 10225.500000000002 810.00000000000011 0.39353901147842413 11216.500000000002 5.1003644466400155 139.95999908447268 8334.2500000000018 993.47093199633002 259.6995138337515 35.250000000000007 24.029999732971195 355.99284962751636 8626.5000000000018 122.09567441928012 9658.5000000000018 1124.2013422603118 792.46346894728174
decision_type=9 2 2 2 2 2 2 2 2 2 2 2 2 2 2 2 2 2 2 2 2 2 2
left_child=10 2 3 5 -5 8 -7 9 -2 -8 12 -12 13 14 -1 -13 -10 -16 -19 21 -17 -14 -21
right_child=1 -3 -4 4 -6 6 7 -9 16 -11 11 15 19 -15 17 20 -18 18 -20 22 -22 -23 -24
leaf_value=0.0045865671554191113 -0.0057220621080015573 -0.0052102206123418333 -0.012637839002741706 -0.0044895716199529504 -0.0094779500686279061 -0.014477473305638771 -0.0060577380453998393 -0.012721640654084806 -0.011139281700007723 -0.010008372857988593 0.010554785667543445 0.0096020828830122376 0.007172111738231274 0.0046591713775201611 0.008887676902448953 0.0078354091266811636 -0.0078184072228509975 0.0053066586335483576 0.007635764530436559 0.0076439328400456181 0.0055841199158510159 0.0093370115446729744 0.0060140254810883689
leaf_weight=20 22 32 35 32 31 24 23 21 21 25 21 21 23 25 20 24 20 30 45 44 20 34 31
leaf_count=20 22 32 35 32 31 24 23 21 21 25 21 21 23 25 20 24 20 30 45 44 20 34 31
internal_value=8.17059e-05 -0.00911164 -0.00958911 -0.00908263 -0.00700284 -0.0098983 -0.0109289 -0.00963199 -0.00831452 -0.00819426 0.00743498 0.00854105 0.00707123 0.00645168 0.00681091 0.00782916 -0.0096153 0.00724233 0.00675238 0.00770024 0.00689511 0.00853009 0.00701909
internal_weight=644 286 254 219 63 156 93 69 63 48 358 86 272 140 115 65 41 95 75 132 44 57 75
internal_count=644 286 254 219 63 156 93 69 63 48 358 86 272 140 115 65 41 95 75 132 44 57 75
cat_boundaries=0 1
cat_threshold=1
is_linear=0
shrinkage=0.03


Tree=46
num_leaves=23
num_cat=1
split_feature=1 52 52 3 29 31 32 12 4 26 56 55 50 40 25 56 31 26 4 53 30 34
split_gain=45.5679 0.504753 0.327402 0.327275 0.360823 0.19461 0.3552 0.242356 0.173683 0.136619 0.0940742 0.0608391 0.0597883 0.0539853 0.0737412 0.0527949 0.0233751 0.0541271 0.0215989 0.00523748 0.00496426 0.000294652
threshold=0 928.65778719187995 821.47498703114695 315932696319.99445 10116.500000000002 734.14237090994322 10225.500000000002 810.00000000000011 117.74280706823112 11216.500000000002 5.1003644466400155 139.95999908447268 8334.2500000000018 993.47093199633002 259.6995138337515 13.934206485748293 355.99284962751636 8626.5000000000018 122.09567441928012 9658.5000000000018 1124.2013422603118 792.46346894728174
decision_type=1 2 2 2 2 2 2 2 2 2 2 2 2 2 2 2 2 2 2 2 2 2
left_child=1 2 3 5 -5 8 -7 9 -1 -8 12 -12 13 14 -2 19 -16 -18 20 -13 -14 -20
right_child=10 -3 -4 4 -6 6 7 -9 -10 -11 11 15 18 -15 16 -17 17 -19 21 -21 -22 -23
leaf_value=-0.010187395967264798 0.0044496563702488114 -0.0050544009244539471 -0.012259784023731183 -0.0043553036050958055 -0.0091945258052450671 -0.014044951269406964 -0.0058767926708081517 -0.012341800069356982 -0.0064762820805500778 -0.0097093178800852636 0.010239642692014786 0.0076589397210385882 0.0069578797176673814 0.0045199532109308996 0.0086223729032633908 0.009383070637930686 0.0051479878366779393 0.0074071994635323997 0.0074151350689583076 0.0055708422055004408 0.0090577227030156984 0.0058341848759214214
leaf_weight=26 20 32 35 32 31 24 23 21 37 25 21 23 23 25 20 20 30 45 44 22 34 31
leaf_count=26 20 32 35 32 31 24 23 21 37 25 21 23 23 25 20 20 30 45 44 22 34 31
internal_value=7.93714e-05 -0.00884248 -0.00930574 -0.00881456 -0.00679485 -0.00960611 -0.0106053 -0.00934689 -0.00806911 -0.00795131 0.00721574 0.00828912 0.00686242 0.00626137 0.00660962 0.00759811 0.00702764 0.00655152 0.00747196 0.00671923 0.00827663 0.00681026
internal_weight=644 286 254 219 63 156 93 69 63 48 358 86 272 140 115 65 95 75 132 45 57 75
internal_count=644 286 254 219 63 156 93 69 63 48 358 86 272 140 115 65 95 75 132 45 57 75
cat_boundaries=0 1
cat_threshold=2
is_linear=0
shrinkage=0.03


Tree=47
num_leaves=19
num_cat=1
split_feature=1 52 52 2 23 44 56 44 54 4 56 46 52 4 3 4 44 49
split_gain=42.9165 0.474055 0.30965 0.237299 0.440661 0.195369 0.384719 0.323635 0.141475 0.112612 0.0872826 0.0614049 0.0894632 0.0568893 0.0657461 0.041179 0.0312139 0.0148499
threshold=0 928.65778719187995 848.74848732417274 2020.5000000000002 10864.500000000002 10609.500000000002 0.23319286108016971 9814.0000000000018 0.26150459051132208 117.74280706823112 5.1003644466400155 1351.4656369856204 499.01495914694402 132.2357534358608 4069636619068.7515 138.68372960095027 8245.0000000000018 588.48411342202132
decision_type=1 2 2 2 2 2 2 2 2 2 2 2 2 2 2 2 2 2
left_child=1 2 3 5 -5 6 -1 9 -7 -8 13 12 -12 14 -2 17 -17 -15
right_child=10 -3 -4 4 -6 8 7 -9 -10 -11 11 -13 -14 15 -16 16 -18 -19
leaf_value=-0.014222334046403308 0.0082914615841056232 -0.0049032413371116199 -0.012514015615461355 -0.0043347046382266399 -0.0094310169468177722 -0.0055423396051605322 -0.0093409159766954242 -0.011928232428416658 -0.0092375124315988971 -0.0061180913907107433 0.0090050212306235118 0.010047615254992868 0.0061549339635902662 0.0057967257867029224 0.0065366571027376521 0.005180820648621515 0.0072828960834866998 0.0038340926561947083
leaf_weight=20 53 32 25 34 34 25 28 30 27 31 27 20 39 25 101 25 46 22
leaf_count=20 53 32 25 34 34 25 28 30 27 31 27 20 39 25 101 25 46 22
internal_value=7.72826e-05 -0.00858098 -0.00903039 -0.0086317 -0.00693702 -0.00932409 -0.0101435 -0.00917836 -0.00753262 -0.00771155 0.00700306 0.00804473 0.00737812 0.00665985 0.00716504 0.00596961 0.00659325 0.00495183
internal_weight=644 286 254 229 68 161 109 89 52 59 358 86 66 272 154 118 71 47
internal_count=644 286 254 229 68 161 109 89 52 59 358 86 66 272 154 118 71 47
cat_boundaries=0 1
cat_threshold=2
is_linear=0
shrinkage=0.03


Tree=48
num_leaves=21
num_cat=1
split_feature=5 52 52 2 23 53 27 46 2 50 56 40 52 50 40 31 49 26 4 46
split_gain=40.4137 0.445194 0.289427 0.289855 0.317781 0.196752 0.268368 0.24356 0.259445 0.246734 0.0809243 0.0584583 0.094328 0.0543291 0.0501323 0.0695012 0.0484167 0.0571146 0.0167476 0.00680379
threshold=0 928.65778719187995 821.47498703114695 2020.5000000000002 11432.500000000002 6902.2500000000009 961.83510706480672 1407.1358502784622 2019.5000000000002 7085.2500000000009 5.1003644466400155 945.70992605503443 499.01495914694402 8334.2500000000018 993.47093199633002 308.48210799905422 484.07962823265171 8626.5000000000018 122.09567441928012 871.56687554805831
decision_type=1 2 2 2 2 2 2 2 2 2 2 2 2 2 2 2 2 2 2 2
left_child=1 2 3 5 -5 7 -7 8 -1 -9 13 12 -12 14 15 -2 -17 -18 -15 -20
right_child=10 -3 -4 4 -6 6 -8 9 -10 -11 11 -13 -14 18 -16 16 17 -19 19 -21
leaf_value=-0.0087641445263336708 0.00412578975210147 -0.0047566023462443296 -0.011554244238341975 -0.0044809107042438397 -0.0091381732837493672 -0.013587144831726454 -0.0080759364278959259 -0.012323366623646411 -0.0045854246388638137 -0.0075024089639806049 0.0087358674594601501 0.0096455188547324277 0.0058280101936621807 0.0078054860438221824 0.0042036563676755975 0.0084402753535046497 0.0047288100661296642 0.0069684226500491301 0.0075793580498014169 0.005836870070268005
leaf_weight=34 20 32 35 38 25 22 20 25 30 25 27 22 37 57 25 20 31 44 23 52
leaf_count=34 20 32 35 38 25 22 20 25 30 25 27 22 37 57 25 20 31 44 23 52
internal_value=7.45662e-05 -0.0083273 -0.00876329 -0.00829849 -0.00638813 -0.00904617 -0.0110594 -0.00826911 -0.00686238 -0.00999255 0.0067955 0.00780635 0.00711328 0.00646211 0.00588482 0.00622025 0.00662485 0.00609019 0.00704676 0.00642056
internal_weight=644 286 254 219 63 156 42 114 64 50 358 86 64 272 140 115 95 75 132 75
internal_count=644 286 254 219 63 156 42 114 64 50 358 86 64 272 140 115 95 75 132 75
cat_boundaries=0 1
cat_threshold=1
is_linear=0
shrinkage=0.03


Tree=49
num_leaves=21
num_cat=1
split_feature=1 4 52 28 28 3 23 41 12 48 56 34 46 52 4 3 4 53 23 49
split_gain=38.0608 0.424003 0.433697 0.407219 0.464072 0.239989 0.48314 0.359205 0.199662 0.122636 0.0748133 0.0739441 0.0535237 0.0775937 0.0499925 0.0598681 0.0384194 0.0276119 0.0195756 0.0132722
threshold=0 117.74280706823112 928.65778719187995 822.72828872282639 571.13460799306483 295463185185.79865 10864.500000000002 10306.750000000002 627.50000000000011 2386.9110893288566 5.1003644466400155 739.96775824564133 1351.4656369856204 499.01495914694402 132.2357534358608 4069636619068.7515 138.68372960095027 8864.7500000000018 8763.2500000000018 588.48411342202132
decision_type=1 2 2 2 2 2 2 2 2 2 2 2 2 2 2 2 2 2 2 2
left_child=1 9 3 4 -3 7 -7 -5 -8 11 14 -1 13 -12 15 17 19 -2 -18 -16
right_child=10 2 -4 5 -6 6 8 -9 -10 -11 12 -13 -14 -15 16 -17 18 -19 -20 -21
leaf_value=-0.0093284202456238568 0.0067024026023579045 -0.0087248297912756439 -0.003630701806106243 -0.01354374229692307 -0.003143183372382305 -0.0039366899644840058 -0.0069829833299752718 -0.0076568656825624836 -0.011239677228455999 -0.0078917248724807657 0.0084747584182013006 -0.012739872798195172 0.0094768538092499348 0.0057817199395593169 0.0054370919794615993 0.0061471835070618531 0.0051349144467299386 0.0091408024863763298 0.0069638960344015509 0.003555436707670669
leaf_weight=24 30 26 28 24 33 24 25 22 29 25 27 26 20 39 25 101 31 23 40 22
leaf_count=24 30 26 28 24 33 24 25 22 29 25 27 26 20 39 25 101 31 23 40 22
internal_value=7.22786e-05 -0.0080812 -0.00733123 -0.00787876 -0.00566425 -0.00890284 -0.00772371 -0.0108161 -0.00934099 -0.0101386 0.00659476 -0.0111841 0.0075751 0.00693996 0.00627111 0.0067513 0.00561384 0.00783229 0.00621587 0.00462943
internal_weight=644 286 211 183 59 124 78 46 54 75 358 50 86 66 272 154 118 53 71 47
internal_count=644 286 211 183 59 124 78 46 54 75 358 50 86 66 272 154 118 53 71 47
cat_boundaries=0 1
cat_threshold=2
is_linear=0
shrinkage=0.03


Tree=50
num_leaves=20
num_cat=2
split_feature=1 13 53 47 42 56 50 50 36 20 4 48 4 42 33 47 49 27 35
split_gain=38.5492 0.478329 0.616542 0.30196 0.276718 0.361968 0.149146 0.382444 0.208309 0.189477 0.141178 0.0444263 0.0237123 0.0189468 0.0132912 0.00489741 0.0197501 0.00683506 0.000956127
threshold=0 1 7412.5000000000009 15572.000000000002 4422.391035218754 0.16079026460647586 6846.7500000000009 7212.7500000000009 3842.5367867027385 10122.000000000002 126.43715323239572 1328.7966109856284 117.52902357427357 2111.6495350771875 2920.4047137366028 10134.000000000002 702.95009985170248 790.07873741458138 10657.000000000002
decision_type=1 9 2 2 2 2 2 2 2 2 2 2 2 2 2 2 2 2 2
left_child=1 2 3 -1 5 -3 9 -8 18 -7 12 -12 -2 -13 -15 -14 17 -17 -9
right_child=10 4 -4 -5 -6 6 7 8 -10 -11 11 13 15 14 -16 16 -18 -19 -20
leaf_value=-0.0049880446137777002 0.0055870122824409245 -0.013366149638975876 -0.0015385571466042442 -0.010611360232694454 -0.0056513779001556678 -0.0086612506009345683 -0.00460659145661255 -0.011206844171441075 -0.0068576840035761821 -0.013073588631935973 0.0073615948328215252 0.0038464298619152 0.0081861090259936157 0.0058052778326231598 0.0043528518062979776 0.0067913712248962163 0.0080110449479701366 0.0051211547775240418 -0.0090881894867801682
leaf_weight=20 31 21 22 21 26 33 26 30 36 20 22 20 39 124 28 61 32 24 34
leaf_count=20 31 21 22 21 26 33 26 30 36 20 22 20 39 124 28 61 32 24 34
internal_value=1.63143e-05 -0.00823999 -0.00577118 -0.00796008 -0.00891208 -0.00931794 -0.00881906 -0.00812076 -0.00899896 -0.0104043 0.00628736 0.0056247 0.00695543 0.00538096 0.00556049 0.00720438 0.00684481 0.00636161 -0.010144
internal_weight=670 289 63 41 226 200 179 126 100 53 381 194 187 172 152 156 117 85 64
internal_count=670 289 63 41 226 200 179 126 100 53 381 194 187 172 152 156 117 85 64
cat_boundaries=0 1 2
cat_threshold=2 1
is_linear=0
shrinkage=0.03


Tree=51
num_leaves=22
num_cat=2
split_feature=3 13 44 39 56 4 38 50 56 50 20 57 4 14 44 39 33 52 47 49 27
split_gain=36.3037 0.448457 0.495577 0.229619 0.345781 0.131801 0.110512 0.293173 0.126415 0.083267 0.0352598 0.0334068 0.021102 0.00806475 0.0116123 0.0239493 0.0114751 0.0077686 0.00307612 0.0171841 0.00517456
threshold=2106311703621.6389 0 9933.0000000000018 4125.7766765617316 0.16079026460647586 126.43715323239572 8888.5000000000018 7005.2500000000009 0.30345714092254644 7581.0000000000009 11640.500000000002 1.5000000000000002 117.52902357427357 1 11134.500000000002 2694.1520337573161 2862.9455122890695 554.95435057675604 10134.000000000002 702.95009985170248 790.07873741458138
decision_type=2 9 2 2 2 2 2 2 2 2 2 2 2 1 2 2 2 2 2 2 2
left_child=1 2 -1 4 -3 12 -6 -8 -9 -10 -11 17 -2 -13 15 -15 -17 -7 -14 20 -20
right_child=5 3 -4 -5 6 11 7 8 9 10 -12 13 18 14 -16 16 -18 -19 19 -21 -22
leaf_value=-0.008839861032039183 0.0054199400363292337 -0.012967064297753628 -0.0032277008864496433 -0.0054913180348119418 -0.0065977168146871094 0.0074488614856374341 -0.011401844916631803 -0.0054642877884880058 -0.006778556389296659 -0.011081357351835304 -0.0083959425683572605 0.0062951927221306754 0.0079411538453091433 0.0034061451092288141 0.0058215238797700653 0.0054715263274605986 0.0037175744411938666 0.0052894652356852336 0.0065879634852519589 0.0077714623357648038 0.0049681575962292083
leaf_weight=26 31 21 37 24 35 23 39 21 28 21 37 24 39 30 33 44 20 20 61 32 24
leaf_count=26 31 21 37 24 35 23 39 21 28 21 37 24 39 30 33 44 20 20 61 32 24
internal_value=1.52671e-05 -0.00799684 -0.00560171 -0.00864846 -0.00900582 0.00610107 -0.00852276 -0.00895888 -0.00803063 -0.00861537 -0.00943728 0.00545768 0.00674923 0.00512872 0.0048799 0.00451161 0.00497687 0.0065287 0.00699052 0.00664151 0.00617223
internal_weight=670 289 63 226 202 381 181 146 107 86 58 194 187 151 127 94 64 43 156 117 85
internal_count=670 289 63 226 202 381 181 146 107 86 58 194 187 151 127 94 64 43 156 117 85
cat_boundaries=0 1 2
cat_threshold=1 1
is_linear=0
shrinkage=0.03


Tree=52
num_leaves=21
num_cat=1
split_feature=3 39 56 44 4 45 56 4 56 8 23 46 48 4 36 39 39 33 41 47
split_gain=34.192 0.394169 0.300565 0.487318 0.127033 0.1754 0.187226 0.122563 0.056646 0.182039 0.0848987 0.0526917 0.039997 0.0186815 0.016115 0.0289947 0.0167464 0.00969477 0.00552163 0.0551689
threshold=2106311703621.6389 4125.7766765617316 0.20772245526313785 10459.000000000002 117.74280706823112 3437.0836106280944 0.30665440857410436 126.43715323239572 1.1054395437240603 0 11468.750000000002 1560.2552991136861 1328.7966109856284 117.52902357427357 1915.8608577257949 2448.5065752975156 2694.1520337573161 2920.4047137366028 7524.5000000000009 10391.250000000002
decision_type=2 2 2 2 2 2 2 2 2 1 2 2 2 2 2 2 2 2 2 2
left_child=1 2 3 -1 11 -6 -7 13 9 -8 -11 -4 -9 -2 -14 -16 -17 -18 -15 -20
right_child=7 -3 4 -5 5 6 8 12 -10 10 -12 -13 14 18 15 16 17 -19 19 -21
leaf_value=-0.014080516694390028 0.0052578647958767561 -0.0041995753741525498 -0.010018556367749011 -0.0072591921708897332 -0.0040622377463741532 -0.0047198301924323014 -0.0065897469665747357 0.0069607867244910237 -0.006649938443983633 -0.0080032721295285568 -0.011662660290591449 -0.0072062983960587508 0.00367588108477111 0.0052846005132227243 0.006435225950641053 0.003512527498270945 0.0055379027956158301 0.0040848330481249662 0.0085287491115818778 0.006502352540059108
leaf_weight=21 31 29 37 23 20 24 31 22 38 20 24 22 22 20 32 21 69 28 30 106
leaf_count=21 31 29 37 23 20 24 31 22 38 20 24 22 22 20 32 21 69 28 30 106
internal_value=1.48982e-05 -0.00776057 -0.00814445 -0.0106074 -0.00762418 -0.00706963 -0.0074835 0.00592118 -0.00803925 -0.00869344 -0.0100892 -0.00903465 0.00529731 0.0065492 0.00506319 0.00524409 0.00489049 0.00515399 0.00678306 0.00697733
internal_weight=670 289 260 44 216 157 137 381 113 75 44 59 194 187 172 150 118 97 156 136
internal_count=670 289 260 44 216 157 137 381 113 75 44 59 194 187 172 150 118 97 156 136
cat_boundaries=0 1
cat_threshold=1
is_linear=0
shrinkage=0.03


Tree=53
num_leaves=24
num_cat=1
split_feature=3 13 53 53 38 56 56 12 20 4 12 51 21 48 4 53 4 12 18 55 41 31 44
split_gain=32.2031 0.420039 0.55748 0.223178 0.415051 0.523727 0.374835 0.259216 0.159925 0.113912 0.0637207 0.0382711 0.179378 0.036698 0.0353791 0.0272255 0.0057851 0.0350442 0.0302651 0.019994 0.0114461 0.00306186 0.0229699
threshold=2106311703621.6389 0 7412.5000000000009 11645.000000000002 11037.500000000002 0.18248293548822406 0.2908275723457337 262.50000000000006 10712.000000000002 126.43715323239572 890.00000000000011 1355.8442369512854 854.08601869777578 1381.4479843555753 118.78191561322691 6980.5000000000009 138.68372960095027 675.00000000000011 436.65698903424919 73.654998779296889 9806.2500000000018 1057.6076288938868 8823.7500000000018
decision_type=2 9 2 2 2 2 2 2 2 2 2 2 2 2 2 2 2 2 2 2 2 2 2
left_child=1 2 8 4 5 -3 -6 -7 -1 10 14 12 -9 -11 21 -8 17 20 -18 -20 -15 22 -2
right_child=9 3 -4 -5 6 7 15 11 -10 13 -12 -13 -14 16 -16 -17 18 -19 19 -21 -22 -23 -24
leaf_value=-0.0050913730343766237 0.0046827793338970912 -0.013272392344566239 -0.0011882236307672312 -0.011554609875180828 -0.0023075446860687764 -0.005229801663516268 -0.0083928160082949576 -0.0095470492866012117 -0.0094176475926121671 0.0064889540332075564 0.0083272629248071026 -0.010134251695430934 -0.0054913207590137503 0.0026830993300542162 0.0067602923309795174 -0.0058613590502414091 0.0039179641915952773 0.0057120830009545764 0.0045086912462232757 0.006432575862715369 0.0043051414160209835 0.0041841578479237676 0.0065279352642122774
leaf_weight=21 31 22 22 20 22 30 25 32 20 30 22 32 22 21 76 21 25 21 24 40 33 20 38
leaf_count=21 31 22 22 20 22 30 25 32 20 30 22 32 22 21 76 21 25 21 24 40 33 20 38
internal_value=1.40543e-05 -0.00753174 -0.00521367 -0.00816207 -0.00781269 -0.00880423 -0.00574642 -0.00792028 -0.00729252 0.00574611 0.00635458 -0.00881682 -0.00796337 0.00514118 0.0060685 -0.00731745 0.00487255 0.00433607 0.0052856 0.00576608 0.00373593 0.00543715 0.00575034
internal_weight=670 289 63 226 206 138 68 116 41 381 187 86 54 194 165 46 164 75 89 64 54 89 69
internal_count=670 289 63 226 206 138 68 116 41 381 187 86 54 194 165 46 164 75 89 64 54 89 69
cat_boundaries=0 1
cat_threshold=1
is_linear=0
shrinkage=0.03


Tree=54
num_leaves=22
num_cat=2
split_feature=5 13 53 47 42 12 47 51 54 54 48 4 12 48 4 42 39 33 48 31 44
split_gain=30.3349 0.393888 0.524089 0.282728 0.224531 0.331893 0.223268 0.183502 0.134626 0.191721 0.125393 0.10582 0.0586203 0.0338113 0.0318332 0.0155788 0.0215741 0.0101827 0.0112953 0.00187529 0.020497
threshold=0 1 7412.5000000000009 15572.000000000002 4422.391035218754 810.00000000000011 14896.500000000002 1355.8442369512854 0.18936375528573993 0.31353032588958746 2432.5531636236615 126.43715323239572 890.00000000000011 1328.7966109856284 118.78191561322691 2111.6495350771875 2460.0900451795574 2295.9026668960541 1858.2762685334244 1057.6076288938868 8823.7500000000018
decision_type=1 9 2 2 2 2 2 2 2 2 2 2 2 2 2 2 2 2 2 2 2
left_child=1 2 3 -1 5 6 -3 8 -8 -10 -9 12 14 -13 19 -15 -17 -18 -19 20 -2
right_child=11 4 -4 -5 -6 -7 7 10 9 -11 -12 13 -14 15 -16 16 17 18 -20 -21 -22
leaf_value=-0.0042149329389125773 0.0045427482475757222 -0.010377037837484924 -0.0011527382602443184 -0.0096276978943585223 -0.0049600107960360148 -0.011209422703013042 -0.0080850351453800474 -0.0097741476147491322 -0.0024423005838132548 -0.0065971577817581567 -0.0066919114576895148 0.0065591199807317011 0.0080785755442278409 0.0033446119703463648 0.0065577500431006595 0.0059526995329542334 0.0034291039645300858 0.005670154242434053 0.0042884105147431798 0.0040592576239480453 0.0063326112545410715
leaf_weight=20 31 28 22 21 26 34 20 35 22 25 36 22 22 20 76 36 24 35 57 20 38
leaf_count=20 31 28 22 21 26 34 20 35 22 25 36 22 22 20 76 36 24 35 57 20 38
internal_value=1.33955e-05 -0.00731012 -0.00506086 -0.007077 -0.00792134 -0.00828865 -0.00766597 -0.00708706 -0.0057835 -0.00472534 -0.00826513 0.00557684 0.00616635 0.00499025 0.00588848 0.00476846 0.00493376 0.00458684 0.00485223 0.00527658 0.00557962
internal_weight=670 289 63 41 226 200 166 138 67 47 71 381 187 194 165 172 152 116 92 89 69
internal_count=670 289 63 41 226 200 166 138 67 47 71 381 187 194 165 172 152 116 92 89 69
cat_boundaries=0 1 2
cat_threshold=1 1
is_linear=0
shrinkage=0.03


Tree=55
num_leaves=23
num_cat=1
split_feature=1 12 56 23 53 42 44 43 4 50 56 30 12 54 56 40 27 45 45 44 4 55
split_gain=29.0207 0.516859 0.525783 0.292069 0.174275 0.168774 0.143687 0.230758 0.269953 0.250729 0.126523 0.102803 0.0718991 0.0941917 0.0619771 0.052179 0.0436495 0.0370468 0.100102 0.0269667 0.022581 0.0208742
threshold=0 665.00000000000011 0.2908275723457337 11525.000000000002 6090.5000000000009 4384.4367104997464 9742.5000000000018 1276.5616372545387 117.86815741863882 7801.0000000000009 13.934206485748293 1445.7520136140581 105.00000000000001 1.2192833423614504 2.7874593734741215 917.13202676092305 687.91424115701068 3525.1404626738645 3247.3219570542587 9806.5000000000018 132.2357534358608 74.99499893188478
decision_type=1 2 2 2 2 2 2 2 2 2 2 2 2 2 2 2 2 2 2 2 2 2
left_child=1 5 -3 4 -4 6 11 8 -8 -10 12 16 19 14 15 21 -1 18 -15 -2 -19 -14
right_child=10 2 3 -5 -6 -7 7 -9 9 -11 -12 -13 13 17 -16 -17 -18 20 -20 -21 -22 -23
leaf_value=-0.0079157365513478975 0.0027449314840395016 -0.013512288992529483 -0.0081678648857991271 -0.010042411430184575 -0.0040312651562619496 -0.003767799491221181 -0.0068845599874905418 -0.0088260774870417003 -0.00066571533842171187 -0.0052981904195065046 0.0078671541021696264 -0.0095683265837102106 0.0052406768162705543 0.0058089933394733463 0.0034781196931090879 0.0040279603380651216 -0.0050834018016737217 0.0059735999649679992 0.0083220778528562533 0.0048680571127700575 0.0038773457406016134 0.0072118365075161204
leaf_weight=20 22 20 21 33 25 29 38 20 21 25 24 26 54 77 37 38 21 25 29 21 23 20
leaf_count=20 22 20 21 33 25 29 38 20 21 25 24 26 54 77 37 38 21 25 29 21 23 20
internal_value=-0.00014422 -0.00709798 -0.00894579 -0.00773616 -0.00599841 -0.00616432 -0.00655077 -0.00572274 -0.00493856 -0.00325447 0.00546747 -0.00778092 0.00529012 0.00548179 0.00482885 0.00524482 -0.00655392 0.00609052 0.00653201 0.0038603 0.00504166 0.00582292
internal_weight=669 299 99 79 46 200 171 104 84 46 370 67 346 303 149 112 41 154 106 43 48 74
internal_count=669 299 99 79 46 200 171 104 84 46 370 67 346 303 149 112 41 154 106 43 48 74
cat_boundaries=0 1
cat_threshold=2
is_linear=0
shrinkage=0.03


Tree=56
num_leaves=24
num_cat=2
split_feature=7 12 50 26 13 44 52 46 52 49 55 34 12 27 44 44 12 41 20 51 55 12 41
split_gain=27.3373 0.48488 0.403026 0.352845 0.281792 0.441839 0.143825 0.214357 0.171358 0.206543 0.115816 0.0720429 0.0669464 0.0350708 0.0447925 0.0322255 0.0237109 0.01593 0.0409995 0.0274624 0.00725177 0.00276305 0.000482732
threshold=0 665.00000000000011 7066.5000000000009 11109.750000000002 1 10030.000000000002 848.74848732417274 1087.589065390913 604.93151609847484 716.50674525526313 313.47999572753912 1074.214635074582 985.00000000000011 1051.6216207802188 7184.5000000000009 11556.000000000002 105.00000000000001 8128.2500000000009 9424.0000000000018 873.40851497191545 130.55500030517581 520.00000000000011 9735.5000000000018
decision_type=9 2 2 2 9 2 2 2 2 2 2 2 2 2 2 2 2 2 2 2 2 2 2
left_child=10 4 -3 -4 6 -6 7 -2 -9 -10 12 -11 13 14 -1 -15 20 -18 19 -19 -16 -21 -20
right_child=1 2 3 -5 5 -7 -8 8 9 11 -12 -13 -14 15 16 -17 17 18 22 21 -22 -23 -24
leaf_value=0.0034326281133652118 -0.0082948472748354853 -0.011369711962680737 -0.0045821241126470626 -0.0093881092457292221 -0.0071825693898014166 -0.0011387317481955917 -0.0088105428345578232 -0.0025722678304071671 -0.0082502650884890005 -0.0030087450561556137 0.0074337258765281725 -0.0059563364898918359 0.0069696085196567252 0.0025954284425129858 0.0033161240379321827 0.0046746818303184026 0.0065300384929447659 0.0055769250098388319 0.0068460349085462556 0.0043637990528967831 0.0050807248204240299 0.0027724751237946659 0.0053761256532309544
leaf_weight=23 34 36 31 32 20 27 29 21 26 22 28 21 25 20 22 33 38 22 23 20 21 20 75
leaf_count=23 34 36 31 32 20 27 29 21 26 22 28 21 25 20 22 33 38 22 23 20 21 20 75
internal_value=-0.000140003 -0.00688919 -0.00868122 -0.00708181 -0.00598325 -0.00378406 -0.00663631 -0.00609696 -0.00522507 -0.00598414 0.00530636 -0.00452835 0.00512129 0.00496392 0.00515395 0.00395292 0.00530429 0.00551426 0.00525034 0.00439113 0.0042573 0.00365185 0.00575831
internal_weight=669 299 99 63 200 47 153 124 90 69 370 43 342 317 264 53 241 198 160 62 43 40 98
internal_count=669 299 99 63 200 47 153 124 90 69 370 43 342 317 264 53 241 198 160 62 43 40 98
cat_boundaries=0 1 2
cat_threshold=1 4
is_linear=0
shrinkage=0.03


Tree=57
num_leaves=25
num_cat=2
split_feature=1 12 56 13 44 26 53 53 46 37 50 56 19 12 54 56 40 42 39 44 55 2 53 53
split_gain=25.7528 0.45438 0.485077 0.264221 0.41513 0.216403 0.198363 0.14929 0.185127 0.239193 0.141727 0.11645 0.105403 0.0635873 0.0864889 0.0591079 0.0468846 0.0348074 0.082279 0.0263893 0.0191222 0.0182433 0.00759006 0.000720509
threshold=0 665.00000000000011 0.2908275723457337 1 10030.000000000002 11109.750000000002 6090.5000000000009 9597.5000000000018 1075.0228423578912 849.28744315910194 7005.2500000000009 13.934206485748293 1714.1716488464001 105.00000000000001 1.2192833423614504 2.7874593734741215 917.13202676092305 3425.0737417074074 2937.4806776154592 9806.5000000000018 74.99499893188478 2021.5000000000002 8774.0000000000018 6785.7500000000009
decision_type=1 2 2 9 2 2 2 2 2 2 2 2 2 2 2 2 2 2 2 2 2 2 2 2
left_child=1 3 -3 7 -5 6 -4 8 -1 -10 -11 13 -12 19 15 16 20 18 22 -2 -15 -19 23 -16
right_child=11 2 5 4 -6 -7 -8 -9 9 10 12 -13 -14 14 17 -17 -18 21 -20 -21 -22 -23 -24 -25
leaf_value=-0.0081661621735422268 0.0025291138077028329 -0.012811765478673709 -0.0080315612116617849 -0.0069681637720274388 -0.0011046958272087617 -0.0093928537372847069 -0.003778696447268299 -0.008905358609755009 -0.0021335200061447812 -0.0084444550430374365 -0.0038447706761937108 0.0074576014980550125 -0.0069145182150993408 0.0049267495533342979 0.0049520979657401865 0.003218839966078261 0.0037730129395142256 0.0057738142056275883 0.0076190740241008437 0.0046052260504444061 0.0068283122110722669 0.0037880153834434888 0.0042505241744220257 0.006757357573354399
leaf_weight=31 22 20 22 20 27 31 26 24 21 20 35 24 22 54 25 37 38 21 35 21 20 27 23 23
leaf_count=31 22 20 22 20 27 31 26 24 21 20 35 24 22 54 25 37 38 21 35 21 20 27 23 23
internal_value=-0.000135424 -0.00668624 -0.00842337 -0.00580758 -0.00367298 -0.00725966 -0.00580294 -0.00644089 -0.0059526 -0.0052142 -0.00601162 0.00515061 -0.00509216 0.00497981 0.00516149 0.00453358 0.00493789 0.00574622 0.00617351 0.00362097 0.00548969 0.00472937 0.005409 0.00589174
internal_weight=669 299 99 200 47 79 48 153 129 98 77 370 57 346 303 149 112 154 106 43 74 48 71 48
internal_count=669 299 99 200 47 79 48 153 129 98 77 370 57 346 303 149 112 154 106 43 74 48 71 48
cat_boundaries=0 1 2
cat_threshold=2 4
is_linear=0
shrinkage=0.03


Tree=58
num_leaves=24
num_cat=1
split_feature=5 12 56 23 42 53 41 24 43 4 53 56 42 12 54 56 40 42 45 4 44 48 48
split_gain=24.2628 0.426164 0.454526 0.249544 0.156818 0.138859 0.127855 0.204482 0.183719 0.244277 0.246218 0.10825 0.0610756 0.0589145 0.0806266 0.0549049 0.0432761 0.0316885 0.0875344 0.0269322 0.0241384 0.00756292 0.00982235
threshold=0 665.00000000000011 0.2908275723457337 11525.000000000002 4384.4367104997464 6090.5000000000009 9019.0000000000018 994.14273482436181 1276.5616372545387 117.86815741863882 6509.0000000000009 13.934206485748293 3981.6632509598344 105.00000000000001 1.2192833423614504 2.7874593734741215 917.13202676092305 3425.0737417074074 3247.3219570542587 132.2357534358608 9806.5000000000018 1744.3471851659287 1504.7800613227892
decision_type=1 2 2 2 2 2 2 2 2 2 2 2 2 2 2 2 2 2 2 2 2 2 2
